{"learner":{"attributes":{},"feature_names":["day_of_week","hour_of_day"],"feature_types":[],"gradient_booster":{"model":{"cats":{"enc":[],"feature_segments":[],"sorted_idx":[]},"gbtree_model_param":{"num_parallel_tree":"1","num_trees":"50"},"iteration_indptr":[0,1,2,3,4,5,6,7,8,9,10,11,12,13,14,15,16,17,18,19,20,21,22,23,24,25,26,27,28,29,30,31,32,33,34,35,36,37,38,39,40,41,42,43,44,45,46,47,48,49,50],"tree_info":[0,0,0,0,0,0,0,0,0,0,0,0,0,0,0,0,0,0,0,0,0,0,0,0,0,0,0,0,0,0,0,0,0,0,0,0,0,0,0,0,0,0,0,0,0,0,0,0,0,0],"trees":[{"base_weights":[2.9735023E-7,-9.922663E0,1.0594162E0,-1.0382551E1,-5.754528E0,3.685681E0,-4.1057997E0,-1.1476746E0,-8.31288E0,-2.0639329E-1,-6.8804765E0,5.9932274E-1,4.750727E0,-1.8541528E0,-7.915302E0,-6.992639E-1,-9.193344E-1,-4.9275693E-1,-7.6649004E-1,1.9563213E-1,-5.520424E-1,5.0512683E-1,2.3613179E-1,-3.4998176E-1,-5.6103583E-2,-1.018379E0,-6.0439456E-1],"categories":[],"categories_nodes":[],"categories_segments":[],"categories_sizes":[],"default_left":[0,0,0,0,0,0,0,0,0,0,0,0,0,0,0,0,0,0,0,0,0,0,0,0,0,0,0],"id":0,"left_children":[1,3,5,7,9,11,13,-1,15,-1,17,19,21,23,25,-1,-1,-1,-1,-1,-1,-1,-1,-1,-1,-1,-1],"loss_changes":[9.404238E4,1.5945234E3,1.09662836E5,1.6619453E3,3.5147607E2,1.7612797E4,2.335943E4,0E0,2.5189453E2,0E0,6.486841E1,1.1437773E4,2.8490547E3,3.6454927E3,4.234547E3,0E0,0E0,0E0,0E0,0E0,0E0,0E0,0E0,0E0,0E0,0E0,0E0],"parents":[2147483647,0,0,1,1,2,2,3,3,4,4,5,5,6,6,8,8,10,10,11,11,12,12,13,13,14,14],"right_children":[2,4,6,8,10,12,14,-1,16,-1,18,20,22,24,26,-1,-1,-1,-1,-1,-1,-1,-1,-1,-1,-1,-1],"split_conditions":[4E0,3E0,1.9E1,6E0,2E0,9E0,2.2E1,-1.1476746E0,1E0,-2.0639329E-1,3E0,7E0,1.8E1,4E0,4E0,-6.992639E-1,-9.193344E-1,-4.9275693E-1,-7.6649004E-1,1.9563213E-1,-5.520424E-1,5.0512683E-1,2.3613179E-1,-3.4998176E-1,-5.6103583E-2,-1.018379E0,-6.0439456E-1],"split_indices":[1,1,1,0,0,1,1,0,1,0,0,0,1,0,0,0,0,0,0,0,0,0,0,0,0,0,0],"split_type":[0,0,0,0,0,0,0,0,0,0,0,0,0,0,0,0,0,0,0,0,0,0,0,0,0,0,0],"sum_hessian":[8.944E3,8.62E2,8.082E3,7.75E2,8.7E1,5.358E3,2.724E3,5.04E2,2.71E2,2.1E1,6.6E1,1.375E3,3.983E3,1.713E3,1.011E3,1.12E2,1.59E2,2.1E1,4.5E1,1.126E3,2.49E2,3.537E3,4.46E2,7.53E2,9.6E2,4.55E2,5.56E2],"tree_param":{"num_deleted":"0","num_feature":"2","num_nodes":"27","size_leaf_vector":"1"}},{"base_weights":[-6.567051E-4,-8.935301E0,9.532711E-1,-9.347861E0,-5.19573E0,3.3171847E0,-3.695964E0,-1.0331343E0,-7.4875426E0,-1.8669213E-1,-6.2112236E0,-4.6998277E-1,4.0482497E0,-1.6689746E0,-7.125375E0,-6.299563E-1,-8.279756E-1,-4.4572106E-1,-6.915073E-1,2.0368376E-1,-5.17494E-1,2.5393403E-1,4.4382983E-1,-3.1503007E-1,-5.049905E-2,-9.167644E-1,-5.4406357E-1],"categories":[],"categories_nodes":[],"categories_segments":[],"categories_sizes":[],"default_left":[0,0,0,0,0,0,0,0,0,0,0,0,0,0,0,0,0,0,0,0,0,0,0,0,0,0,0],"id":1,"left_children":[1,3,5,7,9,11,13,-1,15,-1,17,19,21,23,25,-1,-1,-1,-1,-1,-1,-1,-1,-1,-1,-1,-1],"loss_changes":[7.62468E4,1.282875E3,8.884758E4,1.3424062E3,2.8587793E2,1.48391875E4,1.8930621E4,0E0,2.038291E2,0E0,5.1893555E1,1.0248151E4,2.6324844E3,2.9537559E3,3.4320977E3,0E0,0E0,0E0,0E0,0E0,0E0,0E0,0E0,0E0,0E0,0E0,0E0],"parents":[2147483647,0,0,1,1,2,2,3,3,4,4,5,5,6,6,8,8,10,10,11,11,12,12,13,13,14,14],"right_children":[2,4,6,8,10,12,14,-1,16,-1,18,20,22,24,26,-1,-1,-1,-1,-1,-1,-1,-1,-1,-1,-1,-1],"split_conditions":[4E0,3E0,1.9E1,6E0,2E0,7E0,2.2E1,-1.0331343E0,1E0,-1.8669213E-1,3E0,6E0,1E1,4E0,4E0,-6.299563E-1,-8.279756E-1,-4.4572106E-1,-6.915073E-1,2.0368376E-1,-5.17494E-1,2.5393403E-1,4.4382983E-1,-3.1503007E-1,-5.049905E-2,-9.167644E-1,-5.4406357E-1],"split_indices":[1,1,1,0,0,1,1,0,1,0,0,0,1,0,0,0,0,0,0,0,0,0,0,0,0,0,0],"split_type":[0,0,0,0,0,0,0,0,0,0,0,0,0,0,0,0,0,0,0,0,0,0,0,0,0,0,0],"sum_hessian":[8.944E3,8.62E2,8.082E3,7.75E2,8.7E1,5.358E3,2.724E3,5.04E2,2.71E2,2.1E1,6.6E1,8.67E2,4.491E3,1.713E3,1.011E3,1.12E2,1.59E2,2.1E1,4.5E1,5.66E2,3.01E2,9.24E2,3.567E3,7.53E2,9.6E2,4.55E2,5.56E2],"tree_param":{"num_deleted":"0","num_feature":"2","num_nodes":"27","size_leaf_vector":"1"}},{"base_weights":[-1.1787171E-3,-8.046191E0,8.577656E-1,-8.4162855E0,-4.6912017E0,2.985538E0,-3.3270378E0,-9.300255E-1,-6.7441487E0,-1.688715E-1,-5.607075E0,-4.2334604E-1,3.6435802E0,-1.5022905E0,-6.414281E0,-5.675182E-1,-7.4569553E-1,-4.0317497E-1,-6.238598E-1,1.833513E-1,-4.6591598E-1,4.0198565E-1,2.1331604E-1,-2.8356883E-1,-4.5454413E-2,-8.2528895E-1,-4.897549E-1],"categories":[],"categories_nodes":[],"categories_segments":[],"categories_sizes":[],"default_left":[0,0,0,0,0,0,0,0,0,0,0,0,0,0,0,0,0,0,0,0,0,0,0,0,0,0,0],"id":2,"left_children":[1,3,5,7,9,11,13,-1,15,-1,17,19,21,23,25,-1,-1,-1,-1,-1,-1,-1,-1,-1,-1,-1,-1],"loss_changes":[6.18188E4,1.0320703E3,7.198346E4,1.0842969E3,2.3252246E2,1.2022797E4,1.534148E4,0E0,1.6493555E2,0E0,4.1502686E1,8.306305E3,2.5443867E3,2.393277E3,2.7817266E3,0E0,0E0,0E0,0E0,0E0,0E0,0E0,0E0,0E0,0E0,0E0,0E0],"parents":[2147483647,0,0,1,1,2,2,3,3,4,4,5,5,6,6,8,8,10,10,11,11,12,12,13,13,14,14],"right_children":[2,4,6,8,10,12,14,-1,16,-1,18,20,22,24,26,-1,-1,-1,-1,-1,-1,-1,-1,-1,-1,-1,-1],"split_conditions":[4E0,3E0,1.9E1,6E0,2E0,7E0,2.2E1,-9.300255E-1,1E0,-1.688715E-1,3E0,6E0,7E0,4E0,4E0,-5.675182E-1,-7.4569553E-1,-4.0317497E-1,-6.238598E-1,1.833513E-1,-4.6591598E-1,4.0198565E-1,2.1331604E-1,-2.8356883E-1,-4.5454413E-2,-8.2528895E-1,-4.897549E-1],"split_indices":[1,1,1,0,0,1,1,0,1,0,0,0,0,0,0,0,0,0,0,0,0,0,0,0,0,0,0],"split_type":[0,0,0,0,0,0,0,0,0,0,0,0,0,0,0,0,0,0,0,0,0,0,0,0,0,0,0],"sum_hessian":[8.944E3,8.62E2,8.082E3,7.75E2,8.7E1,5.358E3,2.724E3,5.04E2,2.71E2,2.1E1,6.6E1,8.67E2,4.491E3,1.713E3,1.011E3,1.12E2,1.59E2,2.1E1,4.5E1,5.66E2,3.01E2,3.594E3,8.97E2,7.53E2,9.6E2,4.55E2,5.56E2],"tree_param":{"num_deleted":"0","num_feature":"2","num_nodes":"27","size_leaf_vector":"1"}},{"base_weights":[-1.5919296E-3,-7.2455573E0,7.7182686E-1,-7.5775476E0,-4.2356715E0,2.4506214E0,-3.5256653E0,-8.3720714E-1,-6.074562E0,-1.5275191E-1,-5.0616965E0,-3.813372E-1,2.9471214E0,-1.7169391E0,-5.7741528E0,-5.1126856E-1,-6.715921E-1,-3.6469007E-1,-5.6283015E-1,9.475284E-2,-6.26749E-1,3.4953687E-1,4.8190977E-2,-4.9059153E-1,-1.21168576E-1,-7.035384E-1,-3.950284E-1],"categories":[],"categories_nodes":[],"categories_segments":[],"categories_sizes":[],"default_left":[0,0,0,0,0,0,0,0,0,0,0,0,0,0,0,0,0,0,0,0,0,0,0,0,0,0,0],"id":3,"left_children":[1,3,5,7,9,11,13,-1,15,-1,17,19,21,23,25,-1,-1,-1,-1,-1,-1,-1,-1,-1,-1,-1,-1],"loss_changes":[5.012102E4,8.302617E2,5.83243E4,8.758086E2,1.8912427E2,8.1745938E3,9.226012E3,0E0,1.3346191E2,0E0,3.3183228E1,6.795352E3,6.6830586E3,2.0242188E3,2.3001328E3,0E0,0E0,0E0,0E0,0E0,0E0,0E0,0E0,0E0,0E0,0E0,0E0],"parents":[2147483647,0,0,1,1,2,2,3,3,4,4,5,5,6,6,8,8,10,10,11,11,12,12,13,13,14,14],"right_children":[2,4,6,8,10,12,14,-1,16,-1,18,20,22,24,26,-1,-1,-1,-1,-1,-1,-1,-1,-1,-1,-1,-1],"split_conditions":[4E0,3E0,2E1,6E0,2E0,7E0,2.2E1,-8.3720714E-1,1E0,-1.5275191E-1,3E0,7E0,1.8E1,2E0,5E0,-5.1126856E-1,-6.715921E-1,-3.6469007E-1,-5.6283015E-1,9.475284E-2,-6.26749E-1,3.4953687E-1,4.8190977E-2,-4.9059153E-1,-1.21168576E-1,-7.035384E-1,-3.950284E-1],"split_indices":[1,1,1,0,0,1,1,0,1,0,0,0,1,0,0,0,0,0,0,0,0,0,0,0,0,0,0],"split_type":[0,0,0,0,0,0,0,0,0,0,0,0,0,0,0,0,0,0,0,0,0,0,0,0,0,0,0],"sum_hessian":[8.944E3,8.62E2,8.082E3,7.75E2,8.7E1,5.812E3,2.27E3,5.04E2,2.71E2,2.1E1,6.6E1,8.67E2,4.945E3,1.259E3,1.011E3,1.12E2,1.59E2,2.1E1,4.5E1,7.08E2,1.59E2,4.045E3,9E2,1.71E2,1.088E3,5.96E2,4.15E2],"tree_param":{"num_deleted":"0","num_feature":"2","num_nodes":"27","size_leaf_vector":"1"}},{"base_weights":[-1.9856729E-3,-6.524595E0,6.9441587E-1,-6.8223963E0,-3.8243804E0,2.4252808E0,-2.7097673E0,-7.536523E-1,-5.4714546E0,-1.3817106E-1,-4.5693707E0,2.598584E-1,3.1725688E0,-1.2391596E0,-5.1978226E0,-4.6059415E-1,-6.048527E-1,-3.2987878E-1,-5.077707E-1,1.2579487E-1,-4.2405722E-1,3.4122068E-1,1.2687412E-1,-2.1708591E-1,-9.679461E-3,-6.7274153E-1,-3.9362574E-1],"categories":[],"categories_nodes":[],"categories_segments":[],"categories_sizes":[],"default_left":[0,0,0,0,0,0,0,0,0,0,0,0,0,0,0,0,0,0,0,0,0,0,0,0,0,0,0],"id":4,"left_children":[1,3,5,7,9,11,13,-1,15,-1,17,19,21,23,25,-1,-1,-1,-1,-1,-1,-1,-1,-1,-1,-1,-1],"loss_changes":[4.0635895E4,6.678711E2,4.7633074E4,7.0740625E2,1.538258E2,8.67108E3,9.964205E3,0E0,1.0799512E2,0E0,2.6523926E1,6.1861006E3,1.8132891E3,1.8240703E3,1.9263574E3,0E0,0E0,0E0,0E0,0E0,0E0,0E0,0E0,0E0,0E0,0E0,0E0],"parents":[2147483647,0,0,1,1,2,2,3,3,4,4,5,5,6,6,8,8,10,10,11,11,12,12,13,13,14,14],"right_children":[2,4,6,8,10,12,14,-1,16,-1,18,20,22,24,26,-1,-1,-1,-1,-1,-1,-1,-1,-1,-1,-1,-1],"split_conditions":[4E0,3E0,1.9E1,6E0,2E0,9E0,2.2E1,-7.536523E-1,1E0,-1.3817106E-1,3E0,7E0,1.8E1,5E0,4E0,-4.6059415E-1,-6.048527E-1,-3.2987878E-1,-5.077707E-1,1.2579487E-1,-4.2405722E-1,3.4122068E-1,1.2687412E-1,-2.1708591E-1,-9.679461E-3,-6.7274153E-1,-3.9362574E-1],"split_indices":[1,1,1,0,0,1,1,0,1,0,0,0,1,0,0,0,0,0,0,0,0,0,0,0,0,0,0],"split_type":[0,0,0,0,0,0,0,0,0,0,0,0,0,0,0,0,0,0,0,0,0,0,0,0,0,0,0],"sum_hessian":[8.944E3,8.62E2,8.082E3,7.75E2,8.7E1,5.358E3,2.724E3,5.04E2,2.71E2,2.1E1,6.6E1,1.375E3,3.983E3,1.713E3,1.011E3,1.12E2,1.59E2,2.1E1,4.5E1,1.126E3,2.49E2,3.537E3,4.46E2,9.43E2,7.7E2,4.55E2,5.56E2],"tree_param":{"num_deleted":"0","num_feature":"2","num_nodes":"27","size_leaf_vector":"1"}},{"base_weights":[-2.2250614E-3,-5.8753734E0,6.248354E-1,-6.142501E0,-3.4530313E0,1.7362814E0,-3.7095094E0,-6.784362E-1,-4.9282265E0,-1.2498199E-1,-4.124936E0,2.1827843E0,-4.8913267E-1,-4.8563786E0,-2.0373735E0,-4.1494235E-1,-5.4474545E-1,-2.9839036E-1,-4.5809746E-1,5.404609E-2,3.0070168E-1,-2.2228292E-1,-1.1006868E-2,-3.4825176E-1,-5.727331E-1,-4.6935912E-2,-5.035612E-1],"categories":[],"categories_nodes":[],"categories_segments":[],"categories_sizes":[],"default_left":[0,0,0,0,0,0,0,0,0,0,0,0,0,0,0,0,0,0,0,0,0,0,0,0,0,0,0],"id":5,"left_children":[1,3,5,7,9,11,13,-1,15,-1,17,19,21,23,25,-1,-1,-1,-1,-1,-1,-1,-1,-1,-1,-1,-1],"loss_changes":[3.294649E4,5.3721484E2,3.8945406E4,5.71375E2,1.2511536E2,6.3942383E3,3.1543457E3,0E0,8.738721E1,0E0,2.1194458E1,7.252617E3,7.0688306E2,1.1502969E3,3.1615977E3,0E0,0E0,0E0,0E0,0E0,0E0,0E0,0E0,0E0,0E0,0E0,0E0],"parents":[2147483647,0,0,1,1,2,2,3,3,4,4,5,5,6,6,8,8,10,10,11,11,12,12,13,13,14,14],"right_children":[2,4,6,8,10,12,14,-1,16,-1,18,20,22,24,26,-1,-1,-1,-1,-1,-1,-1,-1,-1,-1,-1,-1],"split_conditions":[4E0,3E0,2.1E1,6E0,2E0,1.9E1,5E0,-6.784362E-1,1E0,-1.2498199E-1,3E0,1E1,2E0,2.2E1,7E0,-4.1494235E-1,-5.4474545E-1,-2.9839036E-1,-4.5809746E-1,5.404609E-2,3.0070168E-1,-2.2228292E-1,-1.1006868E-2,-3.4825176E-1,-5.727331E-1,-4.6935912E-2,-5.035612E-1],"split_indices":[1,1,1,0,0,1,0,0,1,0,0,1,0,1,0,0,0,0,0,0,0,0,0,0,0,0,0],"split_type":[0,0,0,0,0,0,0,0,0,0,0,0,0,0,0,0,0,0,0,0,0,0,0,0,0,0,0],"sum_hessian":[8.944E3,8.62E2,8.082E3,7.75E2,8.7E1,6.433E3,1.649E3,5.04E2,2.71E2,2.1E1,6.6E1,5.358E3,1.075E3,9.77E2,6.72E2,1.12E2,1.59E2,2.1E1,4.5E1,1.791E3,3.567E3,1.92E2,8.83E2,3.81E2,5.96E2,4.42E2,2.3E2],"tree_param":{"num_deleted":"0","num_feature":"2","num_nodes":"27","size_leaf_vector":"1"}},{"base_weights":[-2.4352516E-3,-5.2907557E0,5.621847E-1,-5.5303617E0,-3.117745E0,1.562672E0,-3.3394504E0,-6.10727E0,-4.4389315E0,-1.1305189E-1,-3.7237332E0,2.066296E0,-6.404766E-2,-4.3716826E0,-1.834454E0,-5.690337E-1,-6.2790173E-1,-3.9297372E-1,-5.1312655E-1,-2.6990762E-1,-4.132836E-1,4.864454E-2,2.9724544E-1,-1.8121107E-1,2.2801502E-2,-3.1351778E-1,-5.1555574E-1,-4.2252902E-2,-4.5342302E-1],"categories":[],"categories_nodes":[],"categories_segments":[],"categories_sizes":[],"default_left":[0,0,0,0,0,0,0,0,0,0,0,0,0,0,0,0,0,0,0,0,0,0,0,0,0,0,0,0,0],"id":6,"left_children":[1,3,5,7,9,11,13,15,17,-1,19,21,23,25,27,-1,-1,-1,-1,-1,-1,-1,-1,-1,-1,-1,-1,-1,-1],"loss_changes":[2.6711771E4,4.3208984E2,3.1557504E4,4.615039E2,1.01763E2,5.2712207E3,2.5552676E3,4.3164062E-1,7.572412E1,0E0,1.6930908E1,7.0319766E3,7.774611E2,9.317754E2,2.5634807E3,0E0,0E0,0E0,0E0,0E0,0E0,0E0,0E0,0E0,0E0,0E0,0E0,0E0,0E0],"parents":[2147483647,0,0,1,1,2,2,3,3,4,4,5,5,6,6,7,7,8,8,10,10,11,11,12,12,13,13,14,14],"right_children":[2,4,6,8,10,12,14,16,18,-1,20,22,24,26,28,-1,-1,-1,-1,-1,-1,-1,-1,-1,-1,-1,-1,-1,-1],"split_conditions":[4E0,3E0,2.1E1,6E0,2E0,1.8E1,5E0,2E0,2E0,-1.1305189E-1,3E0,1E1,2E0,2.2E1,7E0,-5.690337E-1,-6.2790173E-1,-3.9297372E-1,-5.1312655E-1,-2.6990762E-1,-4.132836E-1,4.864454E-2,2.9724544E-1,-1.8121107E-1,2.2801502E-2,-3.1351778E-1,-5.1555574E-1,-4.2252902E-2,-4.5342302E-1],"split_indices":[1,1,1,0,0,1,0,0,1,0,0,1,0,1,0,0,0,0,0,0,0,0,0,0,0,0,0,0,0],"split_type":[0,0,0,0,0,0,0,0,0,0,0,0,0,0,0,0,0,0,0,0,0,0,0,0,0,0,0,0,0],"sum_hessian":[8.944E3,8.62E2,8.082E3,7.75E2,8.7E1,6.433E3,1.649E3,5.04E2,2.71E2,2.1E1,6.6E1,4.912E3,1.521E3,9.77E2,6.72E2,1.57E2,3.47E2,1.6E2,1.11E2,2.1E1,4.5E1,1.791E3,3.121E3,2.17E2,1.304E3,3.81E2,5.96E2,4.42E2,2.3E2],"tree_param":{"num_deleted":"0","num_feature":"2","num_nodes":"29","size_leaf_vector":"1"}},{"base_weights":[-2.643101E-3,-4.76504E0,5.058254E-1,-4.980036E0,-2.8150184E0,1.6217937E0,-2.350903E0,-5.498913E0,-3.9983697E0,-1.0226053E-1,-3.3615568E0,-1.6149719E0,1.8845508E0,-1.1217344E0,-3.8789675E0,-5.1249045E-1,-5.6529206E-1,-3.3486566E-1,-4.43224E-1,-2.4414368E-1,-3.728537E-1,2.0396603E-2,-5.5160326E-1,2.251185E-1,3.927643E-2,-3.6555484E-1,-7.20506E-2,-4.970247E-1,-2.9786047E-1],"categories":[],"categories_nodes":[],"categories_segments":[],"categories_sizes":[],"default_left":[0,0,0,0,0,0,0,0,0,0,0,0,0,0,0,0,0,0,0,0,0,0,0,0,0,0,0,0,0],"id":7,"left_children":[1,3,5,7,9,11,13,15,17,-1,19,21,23,25,27,-1,-1,-1,-1,-1,-1,-1,-1,-1,-1,-1,-1,-1,-1],"loss_changes":[2.1662984E4,3.4779102E2,2.5772566E4,3.7328125E2,8.2769226E1,4.9469014E3,4.2611514E3,1.1621094E-1,6.183252E1,0E0,1.3520569E1,3.1019841E3,2.9400117E3,1.2783298E3,9.7953516E2,0E0,0E0,0E0,0E0,0E0,0E0,0E0,0E0,0E0,0E0,0E0,0E0,0E0,0E0],"parents":[2147483647,0,0,1,1,2,2,3,3,4,4,5,5,6,6,7,7,8,8,10,10,11,11,12,12,13,13,14,14],"right_children":[2,4,6,8,10,12,14,16,18,-1,20,22,24,26,28,-1,-1,-1,-1,-1,-1,-1,-1,-1,-1,-1,-1,-1,-1],"split_conditions":[4E0,3E0,2E1,6E0,2E0,5E0,2.2E1,2E0,1E0,-1.0226053E-1,3E0,6E0,7E0,2E0,4E0,-5.1249045E-1,-5.6529206E-1,-3.3486566E-1,-4.43224E-1,-2.4414368E-1,-3.728537E-1,2.0396603E-2,-5.5160326E-1,2.251185E-1,3.927643E-2,-3.6555484E-1,-7.20506E-2,-4.970247E-1,-2.9786047E-1],"split_indices":[1,1,1,0,0,1,1,0,1,0,0,0,0,0,0,0,0,0,0,0,0,0,0,0,0,0,0,0,0],"split_type":[0,0,0,0,0,0,0,0,0,0,0,0,0,0,0,0,0,0,0,0,0,0,0,0,0,0,0,0,0],"sum_hessian":[8.944E3,8.62E2,8.082E3,7.75E2,8.7E1,5.812E3,2.27E3,5.04E2,2.71E2,2.1E1,6.6E1,4.36E2,5.376E3,1.259E3,1.011E3,1.57E2,3.47E2,1.12E2,1.59E2,2.1E1,4.5E1,2.98E2,1.38E2,4.315E3,1.061E3,1.71E2,1.088E3,4.55E2,5.56E2],"tree_param":{"num_deleted":"0","num_feature":"2","num_nodes":"29","size_leaf_vector":"1"}},{"base_weights":[-2.834279E-3,-4.2915196E0,4.550574E-1,-4.4844236E0,-2.5416903E0,1.6141006E0,-1.8244902E0,-4.951156E-1,-3.6013935E0,-9.249929E-2,-3.0346105E0,-2.5624722E-1,2.081311E0,-8.3895975E-1,-3.4918566E0,-3.1741127E-1,-4.1834542E-1,-2.2083907E-1,-3.363789E-1,1.207206E-1,-3.3173734E-1,2.3773031E-1,9.240558E-2,-2.6346445E-1,-4.7293346E-2,-4.4743118E-1,-2.6812792E-1],"categories":[],"categories_nodes":[],"categories_segments":[],"categories_sizes":[],"default_left":[0,0,0,0,0,0,0,0,0,0,0,0,0,0,0,0,0,0,0,0,0,0,0,0,0,0,0],"id":8,"left_children":[1,3,5,7,9,11,13,-1,15,-1,17,19,21,23,25,-1,-1,-1,-1,-1,-1,-1,-1,-1,-1,-1,-1],"loss_changes":[1.7567727E4,2.7990723E2,2.1358992E4,3.0198926E2,6.7320496E1,4.6834746E3,4.4749004E3,0E0,5.436841E1,0E0,1.0793701E1,4.806366E3,1.4666094E3,1.1253112E3,7.9391406E2,0E0,0E0,0E0,0E0,0E0,0E0,0E0,0E0,0E0,0E0,0E0,0E0],"parents":[2147483647,0,0,1,1,2,2,3,3,4,4,5,5,6,6,8,8,10,10,11,11,12,12,13,13,14,14],"right_children":[2,4,6,8,10,12,14,-1,16,-1,18,20,22,24,26,-1,-1,-1,-1,-1,-1,-1,-1,-1,-1,-1,-1],"split_conditions":[4E0,3E0,1.9E1,6E0,2E0,8E0,2.2E1,-4.951156E-1,2E0,-9.249929E-2,3E0,6E0,7E0,2E0,4E0,-3.1741127E-1,-4.1834542E-1,-2.2083907E-1,-3.363789E-1,1.207206E-1,-3.3173734E-1,2.3773031E-1,9.240558E-2,-2.6346445E-1,-4.7293346E-2,-4.4743118E-1,-2.6812792E-1],"split_indices":[1,1,1,0,0,1,1,0,1,0,0,0,0,0,0,0,0,0,0,0,0,0,0,0,0,0,0],"split_type":[0,0,0,0,0,0,0,0,0,0,0,0,0,0,0,0,0,0,0,0,0,0,0,0,0,0,0],"sum_hessian":[8.944E3,8.62E2,8.082E3,7.75E2,8.7E1,5.358E3,2.724E3,5.04E2,2.71E2,2.1E1,6.6E1,1.071E3,4.287E3,1.713E3,1.011E3,1.6E2,1.11E2,2.1E1,4.5E1,7.25E2,3.46E2,3.413E3,8.74E2,2.89E2,1.424E3,4.55E2,5.56E2],"tree_param":{"num_deleted":"0","num_feature":"2","num_nodes":"27","size_leaf_vector":"1"}},{"base_weights":[-2.8623675E-3,-3.8645468E0,4.0943956E-1,-4.0375676E0,-2.294904E0,1.4527129E0,-1.6424178E0,-4.4570208E0,-3.243959E0,-8.366977E-2,-2.7394657E0,-1.432253E0,1.7085077E0,-7.5524485E-1,-3.143378E0,-4.1236758E-1,-4.5955595E-1,-2.858673E-1,-3.768844E-1,-2.3593949E-1,-3.4096387E-1,6.3320883E-3,-4.6390468E-1,2.0242135E-1,4.1652303E-2,-1.4429928E-1,8.780216E-3,-4.0278623E-1,-2.4136329E-1],"categories":[],"categories_nodes":[],"categories_segments":[],"categories_sizes":[],"default_left":[0,0,0,0,0,0,0,0,0,0,0,0,0,0,0,0,0,0,0,0,0,0,0,0,0,0,0,0,0],"id":9,"left_children":[1,3,5,7,9,11,13,15,17,-1,19,21,23,25,27,-1,-1,-1,-1,-1,-1,-1,-1,-1,-1,-1,-1,-1,-1],"loss_changes":[1.4243632E4,2.251084E2,1.7305244E4,2.4385742E2,5.4755005E1,3.957169E3,3.6262666E3,4.370117E0,4.4232666E1,0E0,9.021088E0,2.0961445E3,2.0071865E3,9.939105E2,6.434707E2,0E0,0E0,0E0,0E0,0E0,0E0,0E0,0E0,0E0,0E0,0E0,0E0,0E0,0E0],"parents":[2147483647,0,0,1,1,2,2,3,3,4,4,5,5,6,6,7,7,8,8,10,10,11,11,12,12,13,13,14,14],"right_children":[2,4,6,8,10,12,14,16,18,-1,20,22,24,26,28,-1,-1,-1,-1,-1,-1,-1,-1,-1,-1,-1,-1,-1,-1],"split_conditions":[4E0,3E0,1.9E1,6E0,2E0,5E0,2.2E1,2E0,2E0,-8.366977E-2,7E0,6E0,7E0,5E0,4E0,-4.1236758E-1,-4.5955595E-1,-2.858673E-1,-3.768844E-1,-2.3593949E-1,-3.4096387E-1,6.3320883E-3,-4.6390468E-1,2.0242135E-1,4.1652303E-2,-1.4429928E-1,8.780216E-3,-4.0278623E-1,-2.4136329E-1],"split_indices":[1,1,1,0,0,1,1,0,1,0,0,0,0,0,0,0,0,0,0,0,0,0,0,0,0,0,0,0,0],"split_type":[0,0,0,0,0,0,0,0,0,0,0,0,0,0,0,0,0,0,0,0,0,0,0,0,0,0,0,0,0],"sum_hessian":[8.944E3,8.62E2,8.082E3,7.75E2,8.7E1,5.358E3,2.724E3,5.04E2,2.71E2,2.1E1,6.6E1,4.36E2,4.922E3,1.713E3,1.011E3,1.57E2,3.47E2,1.6E2,1.11E2,4.5E1,2.1E1,2.98E2,1.38E2,3.955E3,9.67E2,9.43E2,7.7E2,4.55E2,5.56E2],"tree_param":{"num_deleted":"0","num_feature":"2","num_nodes":"29","size_leaf_vector":"1"}},{"base_weights":[-2.9325397E-3,-3.480636E0,3.6837277E-1,-3.6357882E0,-2.0729203E0,1.0409981E0,-2.2546816E0,-4.0130453E0,-2.9219995E0,-7.5683124E-2,-2.47413E0,1.3811215E0,-3.8053167E-1,-3.0389223E0,-1.1116774E0,-3.7139183E-1,-4.1373238E-1,-2.418814E-1,-3.259112E-1,-1.772375E-1,-2.7559665E-1,1.7758028E-1,1.3896254E-2,-4.2792544E-1,2.9227395E-2,-2.7424175E-1,-3.985878E-1,1.5776679E-2,-3.5413402E-1],"categories":[],"categories_nodes":[],"categories_segments":[],"categories_sizes":[],"default_left":[0,0,0,0,0,0,0,0,0,0,0,0,0,0,0,0,0,0,0,0,0,0,0,0,0,0,0,0,0],"id":10,"left_children":[1,3,5,7,9,11,13,15,17,-1,19,21,23,25,27,-1,-1,-1,-1,-1,-1,-1,-1,-1,-1,-1,-1,-1,-1],"loss_changes":[1.1551867E4,1.8095215E2,1.426345E4,1.9723633E2,4.4593964E1,3.1113354E3,1.475665E3,3.4077148E0,3.8256348E1,0E0,8.366669E0,2.545167E3,3.2617424E3,2.6366895E2,2.076307E3,0E0,0E0,0E0,0E0,0E0,0E0,0E0,0E0,0E0,0E0,0E0,0E0,0E0,0E0],"parents":[2147483647,0,0,1,1,2,2,3,3,4,4,5,5,6,6,7,7,8,8,10,10,11,11,12,12,13,13,14,14],"right_children":[2,4,6,8,10,12,14,16,18,-1,20,22,24,26,28,-1,-1,-1,-1,-1,-1,-1,-1,-1,-1,-1,-1,-1,-1],"split_conditions":[4E0,3E0,2.1E1,6E0,2E0,7E0,5E0,2E0,1E0,-7.5683124E-2,3E0,1.8E1,8E0,2.3E1,7E0,-3.7139183E-1,-4.1373238E-1,-2.418814E-1,-3.259112E-1,-1.772375E-1,-2.7559665E-1,1.7758028E-1,1.3896254E-2,-4.2792544E-1,2.9227395E-2,-2.7424175E-1,-3.985878E-1,1.5776679E-2,-3.5413402E-1],"split_indices":[1,1,1,0,0,0,0,0,1,0,0,1,1,1,0,0,0,0,0,0,0,0,0,0,0,0,0,0,0],"split_type":[0,0,0,0,0,0,0,0,0,0,0,0,0,0,0,0,0,0,0,0,0,0,0,0,0,0,0,0,0],"sum_hessian":[8.944E3,8.62E2,8.082E3,7.75E2,8.7E1,6.433E3,1.649E3,5.04E2,2.71E2,2.1E1,6.6E1,5.191E3,1.242E3,9.77E2,6.72E2,1.57E2,3.47E2,1.12E2,1.59E2,2.1E1,4.5E1,3.939E3,1.252E3,1.82E2,1.06E3,7.47E2,2.3E2,4.42E2,2.3E2],"tree_param":{"num_deleted":"0","num_feature":"2","num_nodes":"29","size_leaf_vector":"1"}},{"base_weights":[-2.985674E-3,-2.5347104E0,4.2708015E-1,-3.273953E0,-1.4351172E0,1.4100081E0,-1.3488395E0,-3.683167E0,-2.735576E0,-2.5279778E-1,-3.618464E0,4.982747E-1,1.7561125E0,-6.128077E-1,-2.594106E0,-3.344877E-1,-3.8602728E-1,-2.3541443E-1,-2.9764542E-1,1.2356638E-1,-6.349283E-2,-2.5294706E-1,-4.311861E-1,9.529354E-2,-2.0738916E-1,1.9723894E-1,2.4163188E-2,-2.1457577E-1,-3.0040884E-2,-2.3046444E-1,-4.3229124E-1],"categories":[],"categories_nodes":[],"categories_segments":[],"categories_sizes":[],"default_left":[0,0,0,0,0,0,0,0,0,0,0,0,0,0,0,0,0,0,0,0,0,0,0,0,0,0,0,0,0,0,0],"id":11,"left_children":[1,3,5,7,9,11,13,15,17,19,21,23,25,27,29,-1,-1,-1,-1,-1,-1,-1,-1,-1,-1,-1,-1,-1,-1,-1,-1],"loss_changes":[9.740472E3,1.0512148E3,1.3350514E4,1.6088574E2,1.3517458E3,1.5526016E3,2.4960244E3,1.3330078E1,2.4139648E1,1.9474078E2,1.2803271E2,1.5877678E3,1.1682119E3,8.201761E2,4.9646582E2,0E0,0E0,0E0,0E0,0E0,0E0,0E0,0E0,0E0,0E0,0E0,0E0,0E0,0E0,0E0,0E0],"parents":[2147483647,0,0,1,1,2,2,3,3,4,4,5,5,6,6,7,7,8,8,9,9,10,10,11,11,12,12,13,13,14,14],"right_children":[2,4,6,8,10,12,14,16,18,20,22,24,26,28,30,-1,-1,-1,-1,-1,-1,-1,-1,-1,-1,-1,-1,-1,-1,-1,-1],"split_conditions":[5E0,3E0,1.9E1,5E0,6E0,1E1,2.2E1,2E0,1E0,2E0,7E0,7E0,1.8E1,2E0,7E0,-3.344877E-1,-3.8602728E-1,-2.3541443E-1,-2.9764542E-1,1.2356638E-1,-6.349283E-2,-2.5294706E-1,-4.311861E-1,9.529354E-2,-2.0738916E-1,1.9723894E-1,2.4163188E-2,-2.1457577E-1,-3.0040884E-2,-2.3046444E-1,-4.3229124E-1],"split_indices":[1,1,1,0,0,1,1,0,1,0,0,0,1,0,0,0,0,0,0,0,0,0,0,0,0,0,0,0,0,0,0],"split_type":[0,0,0,0,0,0,0,0,0,0,0,0,0,0,0,0,0,0,0,0,0,0,0,0,0,0,0,0,0,0,0],"sum_hessian":[8.944E3,1.298E3,7.646E3,7.75E2,5.23E2,4.922E3,2.724E3,4.37E2,3.38E2,3.4E2,1.83E2,1.355E3,3.567E3,1.713E3,1.011E3,1.57E2,2.8E2,1.35E2,2.03E2,6.9E1,2.71E2,7.3E1,1.1E2,1.152E3,2.03E2,3.121E3,4.46E2,2.89E2,1.424E3,8.68E2,1.43E2],"tree_param":{"num_deleted":"0","num_feature":"2","num_nodes":"31","size_leaf_vector":"1"}},{"base_weights":[-2.9863047E-3,-2.2826848E0,3.8426772E-1,-2.9481728E0,-1.2927967E0,1.2690294E0,-1.2142887E0,-3.2586157E0,-2.3609605E0,-2.2734202E-1,-3.2603362E0,1.8352964E0,7.3833704E-1,-5.516698E-1,-2.3353505E0,-3.316495E-1,-2.837883E-1,-2.056644E-1,-2.7773353E-1,1.1138623E-1,-5.7166904E-2,-2.2799419E-1,-3.88456E-1,1.11960314E-1,2.4679373E-1,-4.6331573E-1,9.034485E-2,-1.25648E-1,1.897942E-4,-3.071367E-1,-1.728602E-1],"categories":[],"categories_nodes":[],"categories_segments":[],"categories_sizes":[],"default_left":[0,0,0,0,0,0,0,0,0,0,0,0,0,0,0,0,0,0,0,0,0,0,0,0,0,0,0,0,0,0,0],"id":12,"left_children":[1,3,5,7,9,11,13,15,17,19,21,23,25,27,29,-1,-1,-1,-1,-1,-1,-1,-1,-1,-1,-1,-1,-1,-1,-1,-1],"loss_changes":[7.8977236E3,8.51916E2,1.0817011E4,1.3376904E2,1.0977327E3,1.4780732E3,2.0229419E3,2.885254E0,2.8753052E1,1.5811497E2,1.0374878E2,1.0752979E3,2.259561E3,6.687368E2,4.4662646E2,0E0,0E0,0E0,0E0,0E0,0E0,0E0,0E0,0E0,0E0,0E0,0E0,0E0,0E0,0E0,0E0],"parents":[2147483647,0,0,1,1,2,2,3,3,4,4,5,5,6,6,7,7,8,8,9,9,10,10,11,11,12,12,13,13,14,14],"right_children":[2,4,6,8,10,12,14,16,18,20,22,24,26,28,30,-1,-1,-1,-1,-1,-1,-1,-1,-1,-1,-1,-1,-1,-1,-1,-1],"split_conditions":[5E0,3E0,1.9E1,6E0,6E0,5E0,2.2E1,5E0,2E0,2E0,7E0,1.2E1,6E0,4E0,4E0,-3.316495E-1,-2.837883E-1,-2.056644E-1,-2.7773353E-1,1.1138623E-1,-5.7166904E-2,-2.2799419E-1,-3.88456E-1,1.11960314E-1,2.4679373E-1,-4.6331573E-1,9.034485E-2,-1.25648E-1,1.897942E-4,-3.071367E-1,-1.728602E-1],"split_indices":[1,1,1,0,0,0,1,0,1,0,0,1,1,0,0,0,0,0,0,0,0,0,0,0,0,0,0,0,0,0,0],"split_type":[0,0,0,0,0,0,0,0,0,0,0,0,0,0,0,0,0,0,0,0,0,0,0,0,0,0,0,0,0,0,0],"sum_hessian":[8.944E3,1.298E3,7.646E3,7.75E2,5.23E2,4.922E3,2.724E3,5.04E2,2.71E2,3.4E2,1.83E2,2.38E3,2.542E3,1.713E3,1.011E3,4.37E2,6.7E1,1.6E2,1.11E2,6.9E1,2.71E2,7.3E1,1.1E2,1.118E3,1.262E3,7.5E1,2.467E3,7.53E2,9.6E2,4.55E2,5.56E2],"tree_param":{"num_deleted":"0","num_feature":"2","num_nodes":"31","size_leaf_vector":"1"}},{"base_weights":[-2.9427204E-3,-2.055695E0,3.457598E-1,-2.6547718E0,-1.1645899E0,1.250802E0,-9.3213993E-1,-2.933973E0,-2.1266415E0,-2.0444871E-1,-2.9376526E0,3.7721604E-1,1.6298321E0,-3.8347146E-1,-2.10229E0,-2.682956E-1,-3.03951E-1,-1.8522568E-1,-2.5020817E-1,1.0040672E-1,-5.1471222E-2,-2.055029E-1,-3.499603E-1,7.78431E-2,-1.8922845E-1,2.0832704E-1,1.2398932E-1,-1.7520016E-1,-1.4973881E-2,-1.8314783E-1,-3.7219638E-1],"categories":[],"categories_nodes":[],"categories_segments":[],"categories_sizes":[],"default_left":[0,0,0,0,0,0,0,0,0,0,0,0,0,0,0,0,0,0,0,0,0,0,0,0,0,0,0,0,0,0,0],"id":13,"left_children":[1,3,5,7,9,11,13,15,17,19,21,23,25,27,29,-1,-1,-1,-1,-1,-1,-1,-1,-1,-1,-1,-1,-1,-1,-1,-1],"loss_changes":[6.4035415E3,6.903667E2,8.845328E3,1.0818555E2,8.91452E2,1.4817891E3,2.0350535E3,5.2231445E0,2.338562E1,1.2837761E2,8.407056E1,1.2361891E3,5.4942676E2,6.906572E2,4.3707324E2,0E0,0E0,0E0,0E0,0E0,0E0,0E0,0E0,0E0,0E0,0E0,0E0,0E0,0E0,0E0,0E0],"parents":[2147483647,0,0,1,1,2,2,3,3,4,4,5,5,6,6,7,7,8,8,9,9,10,10,11,11,12,12,13,13,14,14],"right_children":[2,4,6,8,10,12,14,16,18,20,22,24,26,28,30,-1,-1,-1,-1,-1,-1,-1,-1,-1,-1,-1,-1,-1,-1,-1,-1],"split_conditions":[5E0,3E0,1.8E1,6E0,6E0,1E1,2.2E1,2E0,2E0,2E0,7E0,7E0,5E0,2E0,7E0,-2.682956E-1,-3.03951E-1,-1.8522568E-1,-2.5020817E-1,1.0040672E-1,-5.1471222E-2,-2.055029E-1,-3.499603E-1,7.78431E-2,-1.8922845E-1,2.0832704E-1,1.2398932E-1,-1.7520016E-1,-1.4973881E-2,-1.8314783E-1,-3.7219638E-1],"split_indices":[1,1,1,0,0,1,1,0,1,0,0,0,0,0,0,0,0,0,0,0,0,0,0,0,0,0,0,0,0,0,0],"split_type":[0,0,0,0,0,0,0,0,0,0,0,0,0,0,0,0,0,0,0,0,0,0,0,0,0,0,0,0,0,0,0],"sum_hessian":[8.944E3,1.298E3,7.646E3,7.75E2,5.23E2,4.476E3,3.17E3,5.04E2,2.71E2,3.4E2,1.83E2,1.355E3,3.121E3,2.159E3,1.011E3,1.57E2,3.47E2,1.6E2,1.11E2,6.9E1,2.71E2,7.3E1,1.1E2,1.152E3,2.03E2,1.441E3,1.68E3,3.14E2,1.845E3,8.68E2,1.43E2],"tree_param":{"num_deleted":"0","num_feature":"2","num_nodes":"31","size_leaf_vector":"1"}},{"base_weights":[-2.8762193E-3,-1.8512914E0,3.1111544E-1,-2.3905933E0,-1.0490978E0,9.415033E-1,-1.1815778E0,-2.6951268E0,-1.9900732E0,-1.8386061E-1,-2.6469064E0,1.1517497E0,8.616891E-2,-8.5569E-1,-2.6543167E0,-2.416358E-1,-2.842281E-1,-2.2356497E-1,-1.7685127E-1,2.1713547E-2,-1.0509831E-1,-1.8523033E-1,-3.1527957E-1,1.3580187E-1,1.265066E-2,-1.703984E-1,5.112038E-2,-1.515903E-1,5.9221433E-3,-3.544129E-1,-2.288153E-1],"categories":[],"categories_nodes":[],"categories_segments":[],"categories_sizes":[],"default_left":[0,0,0,0,0,0,0,0,0,0,0,0,0,0,0,0,0,0,0,0,0,0,0,0,0,0,0,0,0,0,0],"id":14,"left_children":[1,3,5,7,9,11,13,15,17,19,21,23,25,27,29,-1,-1,-1,-1,-1,-1,-1,-1,-1,-1,-1,-1,-1,-1,-1,-1],"loss_changes":[5.192137E3,5.594712E2,7.1967534E3,8.928662E1,7.2393463E2,9.6685156E2,1.0876904E3,1.10998535E1,1.4491211E1,1.1879824E2,6.812451E1,9.125576E2,8.0892303E2,1.1242014E3,1.2580127E2,0E0,0E0,0E0,0E0,0E0,0E0,0E0,0E0,0E0,0E0,0E0,0E0,0E0,0E0,0E0,0E0],"parents":[2147483647,0,0,1,1,2,2,3,3,4,4,5,5,6,6,7,7,8,8,9,9,10,10,11,11,12,12,13,13,14,14],"right_children":[2,4,6,8,10,12,14,16,18,20,22,24,26,28,30,-1,-1,-1,-1,-1,-1,-1,-1,-1,-1,-1,-1,-1,-1,-1,-1],"split_conditions":[5E0,3E0,2E1,5E0,6E0,7E0,2.3E1,2E0,7E0,4E0,7E0,1.8E1,1E1,5E0,3E0,-2.416358E-1,-2.842281E-1,-2.2356497E-1,-1.7685127E-1,2.1713547E-2,-1.0509831E-1,-1.8523033E-1,-3.1527957E-1,1.3580187E-1,1.265066E-2,-1.703984E-1,5.112038E-2,-1.515903E-1,5.9221433E-3,-3.544129E-1,-2.288153E-1],"split_indices":[1,1,1,0,0,0,1,0,0,0,0,1,1,0,0,0,0,0,0,0,0,0,0,0,0,0,0,0,0,0,0],"split_type":[0,0,0,0,0,0,0,0,0,0,0,0,0,0,0,0,0,0,0,0,0,0,0,0,0,0,0,0,0,0,0],"sum_hessian":[8.944E3,1.298E3,7.646E3,7.75E2,5.23E2,5.376E3,2.27E3,4.37E2,3.38E2,3.4E2,1.83E2,4.315E3,1.061E3,1.86E3,4.1E2,1.57E2,2.8E2,1.56E2,1.82E2,2.33E2,1.07E2,7.3E1,1.1E2,3.592E3,7.23E2,2.03E2,8.58E2,1.08E3,7.8E2,1.17E2,2.93E2],"tree_param":{"num_deleted":"0","num_feature":"2","num_nodes":"31","size_leaf_vector":"1"}},{"base_weights":[-2.8355005E-3,-1.6673247E0,2.7991253E-1,-2.1527274E0,-9.4530207E-1,7.435868E-1,-1.4057833E0,-2.4268146E0,-1.7922469E0,-1.6571875E-1,-2.3849359E0,1.0167654E0,-6.046323E-2,-2.0398107E0,-4.8232928E-1,-2.1762517E-1,-2.5590643E-1,-1.5019639E-1,-1.9769834E-1,8.836918E-2,-4.351784E-2,-1.3536938E-1,-2.7090526E-1,2.4955079E-2,1.3496694E-1,2.3350272E-2,-1.424459E-1,-2.6498535E-1,-1.8034244E-1,5.838833E-2,-2.5249693E-1],"categories":[],"categories_nodes":[],"categories_segments":[],"categories_sizes":[],"default_left":[0,0,0,0,0,0,0,0,0,0,0,0,0,0,0,0,0,0,0,0,0,0,0,0,0,0,0,0,0,0,0],"id":15,"left_children":[1,3,5,7,9,11,13,15,17,19,21,23,25,27,29,-1,-1,-1,-1,-1,-1,-1,-1,-1,-1,-1,-1,-1,-1,-1,-1],"loss_changes":[4.2102617E3,4.5322778E2,5.978046E3,7.232178E1,5.876976E2,1.3175173E3,9.65083E2,8.944824E0,1.5209961E1,9.681043E1,5.7833374E1,1.1431284E3,6.106064E2,1.362544E2,1.4671934E3,0E0,0E0,0E0,0E0,0E0,0E0,0E0,0E0,0E0,0E0,0E0,0E0,0E0,0E0,0E0,0E0],"parents":[2147483647,0,0,1,1,2,2,3,3,4,4,5,5,6,6,7,7,8,8,9,9,10,10,11,11,12,12,13,13,14,14],"right_children":[2,4,6,8,10,12,14,16,18,20,22,24,26,28,30,-1,-1,-1,-1,-1,-1,-1,-1,-1,-1,-1,-1,-1,-1,-1,-1],"split_conditions":[5E0,3E0,2.1E1,5E0,6E0,1.8E1,5E0,2E0,1E0,2E0,4E0,1E1,7E0,2E0,7E0,-2.1762517E-1,-2.5590643E-1,-1.5019639E-1,-1.9769834E-1,8.836918E-2,-4.351784E-2,-1.3536938E-1,-2.7090526E-1,2.4955079E-2,1.3496694E-1,2.3350272E-2,-1.424459E-1,-2.6498535E-1,-1.8034244E-1,5.838833E-2,-2.5249693E-1],"split_indices":[1,1,1,0,0,1,0,0,1,0,1,1,0,0,0,0,0,0,0,0,0,0,0,0,0,0,0,0,0,0,0],"split_type":[0,0,0,0,0,0,0,0,0,0,0,0,0,0,0,0,0,0,0,0,0,0,0,0,0,0,0,0,0,0,0],"sum_hessian":[8.944E3,1.298E3,7.646E3,7.75E2,5.23E2,5.997E3,1.649E3,4.37E2,3.38E2,3.4E2,1.83E2,4.476E3,1.521E3,9.77E2,6.72E2,1.57E2,2.8E2,1.35E2,2.03E2,6.9E1,2.71E2,4.5E1,1.38E2,1.355E3,3.121E3,1.252E3,2.69E2,2.7E2,7.07E2,4.42E2,2.3E2],"tree_param":{"num_deleted":"0","num_feature":"2","num_nodes":"31","size_leaf_vector":"1"}},{"base_weights":[-2.7515094E-3,-1.5015028E0,2.5184253E-1,-1.9385132E0,-8.514615E-1,6.6923434E-1,-1.2655926E0,-2.0966268E0,-1.4146992E0,-1.4901519E-1,-2.1486504E0,8.8685983E-1,-2.450334E-1,-1.8362848E0,-4.3438518E-1,-2.185214E-1,-1.8361306E-1,-9.482374E-2,-1.9185165E-1,1.9995725E-2,-9.037424E-2,-1.4462893E-1,-2.597534E-1,1.1225974E-1,2.1017078E-2,9.863162E-4,-3.153153E-1,-2.385846E-1,-1.6233365E-1,5.256263E-2,-2.2735658E-1],"categories":[],"categories_nodes":[],"categories_segments":[],"categories_sizes":[],"default_left":[0,0,0,0,0,0,0,0,0,0,0,0,0,0,0,0,0,0,0,0,0,0,0,0,0,0,0,0,0,0,0],"id":16,"left_children":[1,3,5,7,9,11,13,15,17,19,21,23,25,27,29,-1,-1,-1,-1,-1,-1,-1,-1,-1,-1,-1,-1,-1,-1,-1,-1],"loss_changes":[3.4135498E3,3.6736255E2,4.844189E3,6.1303955E1,4.771516E2,1.1936274E3,7.8190234E2,9.695068E0,4.1187866E1,8.999295E1,5.4254456E1,7.7264307E2,8.554563E2,1.1058057E2,1.1894672E3,0E0,0E0,0E0,0E0,0E0,0E0,0E0,0E0,0E0,0E0,0E0,0E0,0E0,0E0,0E0,0E0],"parents":[2147483647,0,0,1,1,2,2,3,3,4,4,5,5,6,6,7,7,8,8,9,9,10,10,11,11,12,12,13,13,14,14],"right_children":[2,4,6,8,10,12,14,16,18,20,22,24,26,28,30,-1,-1,-1,-1,-1,-1,-1,-1,-1,-1,-1,-1,-1,-1,-1,-1],"split_conditions":[5E0,3E0,2.1E1,7E0,6E0,7E0,5E0,5E0,2E0,4E0,7E0,1.8E1,2E1,2E0,7E0,-2.185214E-1,-1.8361306E-1,-9.482374E-2,-1.9185165E-1,1.9995725E-2,-9.037424E-2,-1.4462893E-1,-2.597534E-1,1.1225974E-1,2.1017078E-2,9.863162E-4,-3.153153E-1,-2.385846E-1,-1.6233365E-1,5.256263E-2,-2.2735658E-1],"split_indices":[1,1,1,0,0,0,0,0,1,0,0,1,1,0,0,0,0,0,0,0,0,0,0,0,0,0,0,0,0,0,0],"split_type":[0,0,0,0,0,0,0,0,0,0,0,0,0,0,0,0,0,0,0,0,0,0,0,0,0,0,0,0,0,0,0],"sum_hessian":[8.944E3,1.298E3,7.646E3,7.75E2,5.23E2,5.997E3,1.649E3,5.93E2,1.82E2,3.4E2,1.83E2,4.844E3,1.153E3,9.77E2,6.72E2,4.37E2,1.56E2,9.6E1,8.6E1,2.33E2,1.07E2,7.3E1,1.1E2,3.592E3,1.252E3,1.061E3,9.2E1,2.7E2,7.07E2,4.42E2,2.3E2],"tree_param":{"num_deleted":"0","num_feature":"2","num_nodes":"31","size_leaf_vector":"1"}},{"base_weights":[-2.6907611E-3,-1.3522482E0,2.2655964E-1,-1.7455494E0,-7.6722157E-1,6.0228115E-1,-1.1393822E0,-1.887641E0,-1.2747958E0,-1.3432017E-1,-1.9359833E0,7.9820186E-1,-2.2080225E-1,-1.6530663E0,-3.9120638E-1,-1.9671915E-1,-1.6536869E-1,-7.177649E-2,-1.6296469E-1,1.8004693E-2,-8.142052E-2,-1.0272256E-1,-2.2227953E-1,1.0103696E-1,1.8917037E-2,4.29303E-2,-1.2767215E-1,-1.477965E-1,-2.2129051E-1,4.7318228E-2,-2.0471933E-1],"categories":[],"categories_nodes":[],"categories_segments":[],"categories_sizes":[],"default_left":[0,0,0,0,0,0,0,0,0,0,0,0,0,0,0,0,0,0,0,0,0,0,0,0,0,0,0,0,0,0,0],"id":17,"left_children":[1,3,5,7,9,11,13,15,17,19,21,23,25,27,29,-1,-1,-1,-1,-1,-1,-1,-1,-1,-1,-1,-1,-1,-1,-1,-1],"loss_changes":[2.7677695E3,2.9755005E2,3.9252317E3,4.9500244E1,3.8734848E2,9.6740845E2,6.334912E2,7.802002E0,3.5002625E1,7.302971E1,4.5674927E1,6.2586426E2,7.927214E2,9.260156E1,9.643119E2,0E0,0E0,0E0,0E0,0E0,0E0,0E0,0E0,0E0,0E0,0E0,0E0,0E0,0E0,0E0,0E0],"parents":[2147483647,0,0,1,1,2,2,3,3,4,4,5,5,6,6,7,7,8,8,9,9,10,10,11,11,12,12,13,13,14,14],"right_children":[2,4,6,8,10,12,14,16,18,20,22,24,26,28,30,-1,-1,-1,-1,-1,-1,-1,-1,-1,-1,-1,-1,-1,-1,-1,-1],"split_conditions":[5E0,3E0,2.1E1,7E0,6E0,7E0,5E0,5E0,1E0,4E0,4E0,1.8E1,1.6E1,2.3E1,7E0,-1.9671915E-1,-1.6536869E-1,-7.177649E-2,-1.6296469E-1,1.8004693E-2,-8.142052E-2,-1.0272256E-1,-2.2227953E-1,1.0103696E-1,1.8917037E-2,4.29303E-2,-1.2767215E-1,-1.477965E-1,-2.2129051E-1,4.7318228E-2,-2.0471933E-1],"split_indices":[1,1,1,0,0,0,0,0,1,0,1,1,1,1,0,0,0,0,0,0,0,0,0,0,0,0,0,0,0,0,0],"split_type":[0,0,0,0,0,0,0,0,0,0,0,0,0,0,0,0,0,0,0,0,0,0,0,0,0,0,0,0,0,0,0],"sum_hessian":[8.944E3,1.298E3,7.646E3,7.75E2,5.23E2,5.997E3,1.649E3,5.93E2,1.82E2,3.4E2,1.83E2,4.844E3,1.153E3,9.77E2,6.72E2,4.37E2,1.56E2,7.2E1,1.1E2,2.33E2,1.07E2,4.5E1,1.38E2,3.592E3,1.252E3,7.14E2,4.39E2,7.47E2,2.3E2,4.42E2,2.3E2],"tree_param":{"num_deleted":"0","num_feature":"2","num_nodes":"31","size_leaf_vector":"1"}},{"base_weights":[-2.58645E-3,-1.2177818E0,2.0383978E-1,-1.5290003E0,-6.0039204E-1,5.4205936E-1,-1.0257632E0,-1.7110715E0,-1.2100036E0,4.9554566E-1,-1.4533174E0,7.1840703E-1,-1.9879563E-1,-6.95707E-1,-2.019057E0,-1.5067098E-1,-1.8055692E-1,-9.879357E-2,-1.3265094E-1,1.5990236E-1,1.1661539E-2,-8.925461E-2,-2.4154042E-1,9.093615E-2,1.702684E-2,3.864325E-2,-1.14933945E-1,-1.330366E-1,2.6863486E-2,-2.533996E-1,-1.8055134E-1],"categories":[],"categories_nodes":[],"categories_segments":[],"categories_sizes":[],"default_left":[0,0,0,0,0,0,0,0,0,0,0,0,0,0,0,0,0,0,0,0,0,0,0,0,0,0,0,0,0,0,0],"id":18,"left_children":[1,3,5,7,9,11,13,15,17,19,21,23,25,27,29,-1,-1,-1,-1,-1,-1,-1,-1,-1,-1,-1,-1,-1,-1,-1,-1],"loss_changes":[2.2440852E3,2.4867603E2,3.1807578E3,4.8052856E1,4.0920728E2,7.837698E2,5.395359E2,7.8430176E0,6.8909607E0,8.009664E1,1.3056372E2,5.06969E2,6.4239703E2,7.592723E2,4.061914E1,0E0,0E0,0E0,0E0,0E0,0E0,0E0,0E0,0E0,0E0,0E0,0E0,0E0,0E0,0E0,0E0],"parents":[2147483647,0,0,1,1,2,2,3,3,4,4,5,5,6,6,7,7,8,8,9,9,10,10,11,11,12,12,13,13,14,14],"right_children":[2,4,6,8,10,12,14,16,18,20,22,24,26,28,30,-1,-1,-1,-1,-1,-1,-1,-1,-1,-1,-1,-1,-1,-1,-1,-1],"split_conditions":[5E0,4E0,2.1E1,6E0,4E0,7E0,2.3E1,2E0,1E0,2E0,7E0,1.8E1,1.6E1,5E0,3E0,-1.5067098E-1,-1.8055692E-1,-9.879357E-2,-1.3265094E-1,1.5990236E-1,1.1661539E-2,-8.925461E-2,-2.4154042E-1,9.093615E-2,1.702684E-2,3.864325E-2,-1.14933945E-1,-1.330366E-1,2.6863486E-2,-2.533996E-1,-1.8055134E-1],"split_indices":[1,1,1,0,0,0,1,0,1,0,0,1,1,0,0,0,0,0,0,0,0,0,0,0,0,0,0,0,0,0,0],"split_type":[0,0,0,0,0,0,0,0,0,0,0,0,0,0,0,0,0,0,0,0,0,0,0,0,0,0,0,0,0,0,0],"sum_hessian":[8.944E3,1.298E3,7.646E3,8.62E2,4.36E2,5.997E3,1.649E3,5.46E2,3.16E2,1.91E2,2.45E2,4.844E3,1.153E3,1.239E3,4.1E2,1.78E2,3.68E2,1.12E2,2.04E2,4.8E1,1.43E2,1.56E2,8.9E1,3.592E3,1.252E3,7.14E2,4.39E2,7.47E2,4.92E2,1.17E2,2.93E2],"tree_param":{"num_deleted":"0","num_feature":"2","num_nodes":"31","size_leaf_vector":"1"}},{"base_weights":[-2.4654889E-3,-1.0965594E0,1.8338916E-1,-1.3767523E0,-5.407173E-1,4.8785844E-1,-9.23514E-1,-1.5405698E0,-1.0897335E0,4.4688466E-1,-1.3093306E0,6.4658827E-1,-1.7898208E-1,-6.2622184E-1,-1.818207E0,-1.3568805E-1,-1.6255015E-1,-8.9001656E-2,-1.1945056E-1,1.4423846E-1,1.0503484E-2,-2.8682193E-1,-9.9271044E-2,8.184502E-2,1.5325508E-2,3.3304275E-3,-2.6012307E-1,-1.19750716E-1,2.4182614E-2,-2.2827439E-1,-1.6255759E-1],"categories":[],"categories_nodes":[],"categories_segments":[],"categories_sizes":[],"default_left":[0,0,0,0,0,0,0,0,0,0,0,0,0,0,0,0,0,0,0,0,0,0,0,0,0,0,0,0,0,0,0],"id":19,"left_children":[1,3,5,7,9,11,13,15,17,19,21,23,25,27,29,-1,-1,-1,-1,-1,-1,-1,-1,-1,-1,-1,-1,-1,-1,-1,-1],"loss_changes":[1.8190991E3,2.0156567E2,2.5776274E3,3.8898315E1,3.323048E2,6.349889E2,4.3773706E2,6.328247E0,5.5700073E0,6.518829E1,1.18572266E2,4.106588E2,5.934853E2,6.152095E2,3.306726E1,0E0,0E0,0E0,0E0,0E0,0E0,0E0,0E0,0E0,0E0,0E0,0E0,0E0,0E0,0E0,0E0],"parents":[2147483647,0,0,1,1,2,2,3,3,4,4,5,5,6,6,7,7,8,8,9,9,10,10,11,11,12,12,13,13,14,14],"right_children":[2,4,6,8,10,12,14,16,18,20,22,24,26,28,30,-1,-1,-1,-1,-1,-1,-1,-1,-1,-1,-1,-1,-1,-1,-1,-1],"split_conditions":[5E0,4E0,2.1E1,6E0,4E0,7E0,2.3E1,2E0,1E0,2E0,5E0,1.8E1,2E1,5E0,3E0,-1.3568805E-1,-1.6255015E-1,-8.9001656E-2,-1.1945056E-1,1.4423846E-1,1.0503484E-2,-2.8682193E-1,-9.9271044E-2,8.184502E-2,1.5325508E-2,3.3304275E-3,-2.6012307E-1,-1.19750716E-1,2.4182614E-2,-2.2827439E-1,-1.6255759E-1],"split_indices":[1,1,1,0,0,0,1,0,1,0,0,1,1,0,0,0,0,0,0,0,0,0,0,0,0,0,0,0,0,0,0],"split_type":[0,0,0,0,0,0,0,0,0,0,0,0,0,0,0,0,0,0,0,0,0,0,0,0,0,0,0,0,0,0,0],"sum_hessian":[8.944E3,1.298E3,7.646E3,8.62E2,4.36E2,5.997E3,1.649E3,5.46E2,3.16E2,1.91E2,2.45E2,4.844E3,1.153E3,1.239E3,4.1E2,1.78E2,3.68E2,1.12E2,2.04E2,4.8E1,1.43E2,4E1,2.05E2,3.592E3,1.252E3,1.061E3,9.2E1,7.47E2,4.92E2,1.17E2,2.93E2],"tree_param":{"num_deleted":"0","num_feature":"2","num_nodes":"31","size_leaf_vector":"1"}},{"base_weights":[-2.3733936E-3,-9.8747164E-1,1.6496608E-1,-1.2816428E0,-5.499444E-1,4.3904638E-1,-8.314573E-1,-1.3899219E0,-9.231759E-1,-5.3259626E-2,-1.4674419E0,-1.1623854E-1,6.0112417E-1,-5.636766E-1,-1.6373372E0,-1.4489388E-1,-1.21642284E-1,-5.5902254E-2,-1.3185747E-1,-2.6546622E-2,8.025913E-2,-6.8011515E-2,-1.7174391E-1,5.223253E-2,-8.421076E-2,1.02504455E-1,5.638387E-3,-1.07791655E-1,2.1769285E-2,-2.0564042E-1,-1.463571E-1],"categories":[],"categories_nodes":[],"categories_segments":[],"categories_sizes":[],"default_left":[0,0,0,0,0,0,0,0,0,0,0,0,0,0,0,0,0,0,0,0,0,0,0,0,0,0,0,0,0,0,0],"id":20,"left_children":[1,3,5,7,9,11,13,15,17,19,21,23,25,27,29,-1,-1,-1,-1,-1,-1,-1,-1,-1,-1,-1,-1,-1,-1,-1,-1],"loss_changes":[1.4747087E3,1.664867E2,2.0887607E3,2.8836914E1,2.3871234E2,5.39886E2,3.5514563E2,4.319702E0,2.561229E1,6.2144524E1,3.5048553E1,6.289644E2,1.0721339E3,4.984807E2,2.691919E1,0E0,0E0,0E0,0E0,0E0,0E0,0E0,0E0,0E0,0E0,0E0,0E0,0E0,0E0,0E0,0E0],"parents":[2147483647,0,0,1,1,2,2,3,3,4,4,5,5,6,6,7,7,8,8,9,9,10,10,11,11,12,12,13,13,14,14],"right_children":[2,4,6,8,10,12,14,16,18,20,22,24,26,28,30,-1,-1,-1,-1,-1,-1,-1,-1,-1,-1,-1,-1,-1,-1,-1,-1],"split_conditions":[5E0,3E0,2.1E1,7E0,6E0,1E1,2.3E1,5E0,2E0,5E0,4E0,5E0,1.7E1,5E0,3E0,-1.4489388E-1,-1.21642284E-1,-5.5902254E-2,-1.3185747E-1,-2.6546622E-2,8.025913E-2,-6.8011515E-2,-1.7174391E-1,5.223253E-2,-8.421076E-2,1.02504455E-1,5.638387E-3,-1.07791655E-1,2.1769285E-2,-2.0564042E-1,-1.463571E-1],"split_indices":[1,1,1,0,0,1,1,0,1,0,1,0,1,0,0,0,0,0,0,0,0,0,0,0,0,0,0,0,0,0,0],"split_type":[0,0,0,0,0,0,0,0,0,0,0,0,0,0,0,0,0,0,0,0,0,0,0,0,0,0,0,0,0,0,0],"sum_hessian":[8.944E3,1.298E3,7.646E3,7.75E2,5.23E2,5.997E3,1.649E3,5.93E2,1.82E2,3.4E2,1.83E2,1.355E3,4.642E3,1.239E3,4.1E2,4.37E2,1.56E2,9.6E1,8.6E1,2.73E2,6.7E1,4.5E1,1.38E2,7.21E2,6.34E2,2.61E3,2.032E3,7.47E2,4.92E2,1.17E2,2.93E2],"tree_param":{"num_deleted":"0","num_feature":"2","num_nodes":"31","size_leaf_vector":"1"}},{"base_weights":[-2.248144E-3,-8.8921744E-1,1.484221E-1,-1.1201084E0,-4.3121272E-1,4.984301E-1,-4.8395875E-1,-1.279566E0,-9.1786927E-1,8.8907644E-2,-1.5469306E0,-1.04638346E-1,7.2748345E-1,-2.7805465E-1,-1.6229242E0,-1.0917504E-1,-1.3866504E-1,-9.564514E-2,-6.1358243E-2,1.3270943E-1,-1.5316429E-2,-8.6508796E-2,-1.908544E-1,4.701649E-2,-7.5802945E-2,9.225791E-2,1.94997E-2,-7.909195E-2,7.480361E-2,-4.433802E-2,-1.9648243E-1],"categories":[],"categories_nodes":[],"categories_segments":[],"categories_sizes":[],"default_left":[0,0,0,0,0,0,0,0,0,0,0,0,0,0,0,0,0,0,0,0,0,0,0,0,0,0,0,0,0,0,0],"id":21,"left_children":[1,3,5,7,9,11,13,15,17,19,21,23,25,27,29,-1,-1,-1,-1,-1,-1,-1,-1,-1,-1,-1,-1,-1,-1,-1,-1],"loss_changes":[1.1955408E3,1.3688513E2,1.6928157E3,2.6655884E1,2.5373195E2,6.801139E2,6.3860925E2,8.139954E0,3.9212952E0,8.98226E1,3.2621246E1,5.0963104E2,3.704845E2,1.2156935E3,1.672992E2,0E0,0E0,0E0,0E0,0E0,0E0,0E0,0E0,0E0,0E0,0E0,0E0,0E0,0E0,0E0,0E0],"parents":[2147483647,0,0,1,1,2,2,3,3,4,4,5,5,6,6,7,7,8,8,9,9,10,10,11,11,12,12,13,13,14,14],"right_children":[2,4,6,8,10,12,14,16,18,20,22,24,26,28,30,-1,-1,-1,-1,-1,-1,-1,-1,-1,-1,-1,-1,-1,-1,-1,-1],"split_conditions":[5E0,4E0,1.9E1,5E0,6E0,1E1,7E0,2E0,3E0,2E0,7E0,5E0,1.7E1,5E0,2E1,-1.0917504E-1,-1.3866504E-1,-9.564514E-2,-6.1358243E-2,1.3270943E-1,-1.5316429E-2,-8.6508796E-2,-1.908544E-1,4.701649E-2,-7.5802945E-2,9.225791E-2,1.94997E-2,-7.909195E-2,7.480361E-2,-4.433802E-2,-1.9648243E-1],"split_indices":[1,1,1,0,0,1,0,0,1,0,0,0,1,0,1,0,0,0,0,0,0,0,0,0,0,0,0,0,0,0,0],"split_type":[0,0,0,0,0,0,0,0,0,0,0,0,0,0,0,0,0,0,0,0,0,0,0,0,0,0,0,0,0,0,0],"sum_hessian":[8.944E3,1.298E3,7.646E3,8.62E2,4.36E2,4.922E3,2.724E3,4.79E2,3.83E2,2.98E2,1.38E2,1.355E3,3.567E3,2.308E3,4.16E2,1.78E2,3.01E2,3.38E2,4.5E1,4.8E1,2.5E2,4.9E1,8.9E1,7.21E2,6.34E2,2.61E3,9.57E2,1.539E3,7.69E2,9.4E1,3.22E2],"tree_param":{"num_deleted":"0","num_feature":"2","num_nodes":"31","size_leaf_vector":"1"}},{"base_weights":[-2.1045916E-3,1.1953775E-1,-9.557688E-1,-6.1710346E-1,3.5692227E-1,-7.3267055E-1,-2.295468E0,-6.317312E-2,-1.0405802E0,6.1203814E-1,-9.701842E-2,-1.1162202E0,1.08764835E-1,-2.4795401E-1,-1.8756668E-1,-1.14573956E-1,8.355654E-2,-6.851307E-2,-1.271688E-1,2.9148793E-2,8.9921854E-2,-1.1879446E-1,8.918894E-3,-1.2441027E-1,-6.976946E-2,1.5844224E-1,-1.4337789E-1],"categories":[],"categories_nodes":[],"categories_segments":[],"categories_sizes":[],"default_left":[0,0,0,0,0,0,0,0,0,0,0,0,0,0,0,0,0,0,0,0,0,0,0,0,0,0,0],"id":22,"left_children":[1,3,5,7,9,11,13,15,17,19,21,23,25,-1,-1,-1,-1,-1,-1,-1,-1,-1,-1,-1,-1,-1,-1],"loss_changes":[1.0377875E3,1.387617E3,3.0078943E2,4.5360535E2,6.950199E2,2.8057574E2,6.4765625E0,8.1725745E2,8.916199E1,3.5341626E2,4.3888513E2,3.1084717E1,6.236923E2,0E0,0E0,0E0,0E0,0E0,0E0,0E0,0E0,0E0,0E0,0E0,0E0,0E0,0E0],"parents":[2147483647,0,0,1,1,2,2,3,3,4,4,5,5,6,6,7,7,8,8,9,9,10,10,11,11,12,12],"right_children":[2,4,6,8,10,12,14,16,18,20,22,24,26,-1,-1,-1,-1,-1,-1,-1,-1,-1,-1,-1,-1,-1,-1],"split_conditions":[2.2E1,8E0,7E0,4E0,1.8E1,5E0,2.3E1,4E0,6E0,1.3E1,2E0,4E0,2.3E1,-2.4795401E-1,-1.8756668E-1,-1.14573956E-1,8.355654E-2,-6.851307E-2,-1.271688E-1,2.9148793E-2,8.9921854E-2,-1.1879446E-1,8.918894E-3,-1.2441027E-1,-6.976946E-2,1.5844224E-1,-1.4337789E-1],"split_indices":[1,1,0,0,1,0,1,1,0,1,0,0,1,0,0,0,0,0,0,0,0,0,0,0,0,0,0],"split_type":[0,0,0,0,0,0,0,0,0,0,0,0,0,0,0,0,0,0,0,0,0,0,0,0,0,0,0],"sum_hessian":[8.944E3,7.933E3,1.011E3,1.933E3,6E3,8.68E2,1.43E2,8.38E2,1.095E3,3.841E3,2.159E3,5.96E2,2.72E2,9.6E1,4.7E1,3.8E2,4.58E2,4.33E2,6.62E2,1.816E3,2.025E3,3.14E2,1.845E3,4.55E2,1.41E2,1.39E2,1.33E2],"tree_param":{"num_deleted":"0","num_feature":"2","num_nodes":"27","size_leaf_vector":"1"}},{"base_weights":[-1.9870542E-3,1.0755669E-1,-8.607994E-1,-5.555104E-1,3.2123178E-1,-6.596097E-1,-2.0689456E0,-5.689287E-2,-9.367007E-1,6.0179657E-1,-2.8780427E-2,-1.0049236E0,9.7943544E-2,-2.2341423E-1,-1.6920078E-1,-1.0314663E-1,7.5219065E-2,-6.1677534E-2,-1.14471115E-1,3.4368318E-2,1.3754144E-1,-1.0607421E-1,1.6915545E-2,-1.1199655E-1,-6.284165E-2,1.4271116E-1,-1.2914705E-1],"categories":[],"categories_nodes":[],"categories_segments":[],"categories_sizes":[],"default_left":[0,0,0,0,0,0,0,0,0,0,0,0,0,0,0,0,0,0,0,0,0,0,0,0,0,0,0],"id":23,"left_children":[1,3,5,7,9,11,13,15,17,19,21,23,25,-1,-1,-1,-1,-1,-1,-1,-1,-1,-1,-1,-1,-1,-1],"loss_changes":[8.4161597E2,1.1242748E3,2.4461865E2,3.6753857E2,5.8932214E2,2.2742331E2,5.1865845E0,6.623368E2,7.223041E1,6.646653E2,5.4576385E2,2.5154785E1,5.0600986E2,0E0,0E0,0E0,0E0,0E0,0E0,0E0,0E0,0E0,0E0,0E0,0E0,0E0,0E0],"parents":[2147483647,0,0,1,1,2,2,3,3,4,4,5,5,6,6,7,7,8,8,9,9,10,10,11,11,12,12],"right_children":[2,4,6,8,10,12,14,16,18,20,22,24,26,-1,-1,-1,-1,-1,-1,-1,-1,-1,-1,-1,-1,-1,-1],"split_conditions":[2.2E1,8E0,7E0,4E0,1.7E1,5E0,2.3E1,4E0,6E0,1.5E1,2E0,4E0,2.3E1,-2.2341423E-1,-1.6920078E-1,-1.0314663E-1,7.5219065E-2,-6.1677534E-2,-1.14471115E-1,3.4368318E-2,1.3754144E-1,-1.0607421E-1,1.6915545E-2,-1.1199655E-1,-6.284165E-2,1.4271116E-1,-1.2914705E-1],"split_indices":[1,1,0,0,1,0,1,1,0,1,0,0,1,0,0,0,0,0,0,0,0,0,0,0,0,0,0],"split_type":[0,0,0,0,0,0,0,0,0,0,0,0,0,0,0,0,0,0,0,0,0,0,0,0,0,0,0],"sum_hessian":[8.944E3,7.933E3,1.011E3,1.933E3,6E3,8.68E2,1.43E2,8.38E2,1.095E3,3.33E3,2.67E3,5.96E2,2.72E2,9.6E1,4.7E1,3.8E2,4.58E2,4.33E2,6.62E2,2.498E3,8.32E2,4.29E2,2.241E3,4.55E2,1.41E2,1.39E2,1.33E2],"tree_param":{"num_deleted":"0","num_feature":"2","num_nodes":"27","size_leaf_vector":"1"}},{"base_weights":[-1.8638066E-3,9.6785754E-2,-7.752667E-1,-5.0006473E-1,2.8912237E-1,-5.938342E-1,-1.8647774E0,-5.1236622E-2,-8.4319127E-1,5.4166853E-1,-2.5935847E-2,-9.0472406E-1,8.819894E-2,-2.0130311E-1,-1.5263319E-1,-9.285904E-2,6.7713596E-2,-2.6062721E-2,-9.432257E-2,3.0932842E-2,1.2380387E-1,1.7229233E-2,-9.866568E-2,-1.00821435E-1,-5.6601763E-2,1.2854205E-1,-1.1632877E-1],"categories":[],"categories_nodes":[],"categories_segments":[],"categories_sizes":[],"default_left":[0,0,0,0,0,0,0,0,0,0,0,0,0,0,0,0,0,0,0,0,0,0,0,0,0,0,0],"id":24,"left_children":[1,3,5,7,9,11,13,15,17,19,21,23,25,-1,-1,-1,-1,-1,-1,-1,-1,-1,-1,-1,-1,-1,-1],"loss_changes":[6.8254144E2,9.1093756E2,1.9893732E2,2.978021E2,4.7749408E2,1.8434009E2,4.1528015E0,5.367837E2,6.3625183E1,5.385553E2,5.0884042E2,2.0355896E1,4.1053305E2,0E0,0E0,0E0,0E0,0E0,0E0,0E0,0E0,0E0,0E0,0E0,0E0,0E0,0E0],"parents":[2147483647,0,0,1,1,2,2,3,3,4,4,5,5,6,6,7,7,8,8,9,9,10,10,11,11,12,12],"right_children":[2,4,6,8,10,12,14,16,18,20,22,24,26,-1,-1,-1,-1,-1,-1,-1,-1,-1,-1,-1,-1,-1,-1],"split_conditions":[2.2E1,8E0,7E0,4E0,1.7E1,5E0,2.3E1,4E0,1E0,1.5E1,7E0,4E0,2.3E1,-2.0130311E-1,-1.5263319E-1,-9.285904E-2,6.7713596E-2,-2.6062721E-2,-9.432257E-2,3.0932842E-2,1.2380387E-1,1.7229233E-2,-9.866568E-2,-1.00821435E-1,-5.6601763E-2,1.2854205E-1,-1.1632877E-1],"split_indices":[1,1,0,0,1,0,1,1,1,1,0,0,1,0,0,0,0,0,0,0,0,0,0,0,0,0,0],"split_type":[0,0,0,0,0,0,0,0,0,0,0,0,0,0,0,0,0,0,0,0,0,0,0,0,0,0,0],"sum_hessian":[8.944E3,7.933E3,1.011E3,1.933E3,6E3,8.68E2,1.43E2,8.38E2,1.095E3,3.33E3,2.67E3,5.96E2,2.72E2,9.6E1,4.7E1,3.8E2,4.58E2,1.61E2,9.34E2,2.498E3,8.32E2,2.214E3,4.56E2,4.55E2,1.41E2,1.39E2,1.33E2],"tree_param":{"num_deleted":"0","num_feature":"2","num_nodes":"27","size_leaf_vector":"1"}},{"base_weights":[-1.7414484E-3,1.1823209E-1,-5.322415E-1,-3.4399477E-1,3.8242158E-1,-8.951333E-1,-2.1830873E-1,-1.954314E-1,-9.899713E-1,6.3823265E-1,5.369307E-2,-1.1654314E0,-7.453436E-1,1.2602024E-1,-1.1951983E0,-8.12078E-2,7.602339E-3,-4.1155845E-2,-1.38931E-1,4.1492086E-2,1.1143833E-1,2.8906677E-2,-1.0049975E-1,-1.5935957E-1,-9.1758355E-2,-5.3405493E-2,-1.00918666E-1,5.0066005E-2,-8.906642E-2,-3.8706493E-2,-1.6807577E-1],"categories":[],"categories_nodes":[],"categories_segments":[],"categories_sizes":[],"default_left":[0,0,0,0,0,0,0,0,0,0,0,0,0,0,0,0,0,0,0,0,0,0,0,0,0,0,0,0,0,0,0],"id":25,"left_children":[1,3,5,7,9,11,13,15,17,19,21,23,25,27,29,-1,-1,-1,-1,-1,-1,-1,-1,-1,-1,-1,-1,-1,-1,-1,-1],"loss_changes":[5.6937616E2,8.910861E2,1.8777856E2,2.5450684E2,3.9040668E2,3.0104553E1,2.981757E2,3.6146033E2,1.13995575E2,2.7716528E2,5.068896E2,2.7296143E1,2.7055847E1,2.5031009E2,8.999304E1,0E0,0E0,0E0,0E0,0E0,0E0,0E0,0E0,0E0,0E0,0E0,0E0,0E0,0E0,0E0,0E0],"parents":[2147483647,0,0,1,1,2,2,3,3,4,4,5,5,6,6,7,7,8,8,9,9,10,10,11,11,12,12,13,13,14,14],"right_children":[2,4,6,8,10,12,14,16,18,20,22,24,26,28,30,-1,-1,-1,-1,-1,-1,-1,-1,-1,-1,-1,-1,-1,-1,-1,-1],"split_conditions":[2.1E1,1E1,4E0,7E0,1.7E1,2E0,7E0,4E0,4E0,1.5E1,7E0,2.2E1,3E0,2.3E1,2.2E1,-8.12078E-2,7.602339E-3,-4.1155845E-2,-1.38931E-1,4.1492086E-2,1.1143833E-1,2.8906677E-2,-1.0049975E-1,-1.5935957E-1,-9.1758355E-2,-5.3405493E-2,-1.00918666E-1,5.0066005E-2,-8.906642E-2,-3.8706493E-2,-1.6807577E-1],"split_indices":[1,1,0,0,1,0,0,1,1,1,0,1,0,1,1,0,0,0,0,0,0,0,0,0,0,0,0,0,0,0,0],"split_type":[0,0,0,0,0,0,0,0,0,0,0,0,0,0,0,0,0,0,0,0,0,0,0,0,0,0,0,0,0,0,0],"sum_hessian":[8.944E3,7.295E3,1.649E3,2.653E3,4.642E3,7.64E2,8.85E2,2.158E3,4.95E2,2.61E3,2.032E3,2.7E2,4.94E2,6.55E2,2.3E2,6.59E2,1.499E3,2.03E2,2.92E2,1.778E3,8.32E2,1.663E3,3.69E2,9.7E1,1.73E2,2.76E2,2.18E2,4.79E2,1.76E2,8.7E1,1.43E2],"tree_param":{"num_deleted":"0","num_feature":"2","num_nodes":"31","size_leaf_vector":"1"}},{"base_weights":[-1.6594594E-3,1.06385134E-1,-4.79412E-1,-3.0969107E-1,3.4419686E-1,-7.3786E-1,-1.0312433E-1,-1.7592259E-1,-8.9133716E-1,5.7446754E-1,4.8288845E-2,-1.0498148E0,-6.1741143E-1,4.0470845E-1,-1.0765737E0,-7.309932E-2,6.8425774E-3,-3.706044E-2,-1.2508531E-1,3.734517E-2,1.0030782E-1,2.6017774E-2,-9.04769E-2,-1.435862E-1,-8.263526E-2,-4.6086606E-2,-7.211804E-2,9.9306054E-2,-9.5942475E-2,-3.48798E-2,-1.5138493E-1],"categories":[],"categories_nodes":[],"categories_segments":[],"categories_sizes":[],"default_left":[0,0,0,0,0,0,0,0,0,0,0,0,0,0,0,0,0,0,0,0,0,0,0,0,0,0,0,0,0,0,0],"id":26,"left_children":[1,3,5,7,9,11,13,15,17,19,21,23,25,27,29,-1,-1,-1,-1,-1,-1,-1,-1,-1,-1,-1,-1,-1,-1,-1,-1],"loss_changes":[4.6177917E2,7.220297E2,1.6038773E2,2.063401E2,3.163415E2,3.6099792E1,3.331329E2,2.928765E2,9.239343E1,2.2458264E2,4.1078427E2,2.2191772E1,1.1168793E1,3.565004E2,7.298511E1,0E0,0E0,0E0,0E0,0E0,0E0,0E0,0E0,0E0,0E0,0E0,0E0,0E0,0E0,0E0,0E0],"parents":[2147483647,0,0,1,1,2,2,3,3,4,4,5,5,6,6,7,7,8,8,9,9,10,10,11,11,12,12,13,13,14,14],"right_children":[2,4,6,8,10,12,14,16,18,20,22,24,26,28,30,-1,-1,-1,-1,-1,-1,-1,-1,-1,-1,-1,-1,-1,-1,-1,-1],"split_conditions":[2.1E1,1E1,5E0,7E0,1.7E1,2E0,7E0,4E0,4E0,1.5E1,7E0,2.2E1,2.2E1,2.3E1,2.2E1,-7.309932E-2,6.8425774E-3,-3.706044E-2,-1.2508531E-1,3.734517E-2,1.0030782E-1,2.6017774E-2,-9.04769E-2,-1.435862E-1,-8.263526E-2,-4.6086606E-2,-7.211804E-2,9.9306054E-2,-9.5942475E-2,-3.48798E-2,-1.5138493E-1],"split_indices":[1,1,0,0,1,0,0,1,1,1,0,1,1,1,1,0,0,0,0,0,0,0,0,0,0,0,0,0,0,0,0],"split_type":[0,0,0,0,0,0,0,0,0,0,0,0,0,0,0,0,0,0,0,0,0,0,0,0,0,0,0,0,0,0,0],"sum_hessian":[8.944E3,7.295E3,1.649E3,2.653E3,4.642E3,9.77E2,6.72E2,2.158E3,4.95E2,2.61E3,2.032E3,2.7E2,7.07E2,4.42E2,2.3E2,6.59E2,1.499E3,2.03E2,2.92E2,1.778E3,8.32E2,1.663E3,3.69E2,9.7E1,1.73E2,2.84E2,4.23E2,3.09E2,1.33E2,8.7E1,1.43E2],"tree_param":{"num_deleted":"0","num_feature":"2","num_nodes":"31","size_leaf_vector":"1"}},{"base_weights":[-1.5699371E-3,9.572523E-2,-4.3179053E-1,-2.7880776E-1,3.097926E-1,-6.644264E-1,-9.308376E-2,-1.5836065E-1,-8.025306E-1,5.5736816E-1,7.334008E-2,-9.456681E-1,-5.5583745E-1,3.642451E-1,-9.6972275E-1,-6.984121E-2,4.65876E-3,-3.3372577E-2,-1.126195E-1,3.361268E-2,1.3594723E-1,2.8597726E-2,-8.629134E-2,-1.2937409E-1,-7.441922E-2,-4.1494142E-2,-6.4923264E-2,8.940747E-2,-8.641983E-2,-3.1431463E-2,-1.3635157E-1],"categories":[],"categories_nodes":[],"categories_segments":[],"categories_sizes":[],"default_left":[0,0,0,0,0,0,0,0,0,0,0,0,0,0,0,0,0,0,0,0,0,0,0,0,0,0,0,0,0,0,0],"id":27,"left_children":[1,3,5,7,9,11,13,15,17,19,21,23,25,27,29,-1,-1,-1,-1,-1,-1,-1,-1,-1,-1,-1,-1,-1,-1,-1,-1],"loss_changes":[3.744646E2,5.850453E2,1.2995044E2,1.6728963E2,2.7175977E2,2.9342224E1,2.701672E2,2.3899629E2,7.488492E1,4.020191E2,4.7326633E2,1.8041962E1,9.047165E0,2.8910614E2,5.9191406E1,0E0,0E0,0E0,0E0,0E0,0E0,0E0,0E0,0E0,0E0,0E0,0E0,0E0,0E0,0E0,0E0],"parents":[2147483647,0,0,1,1,2,2,3,3,4,4,5,5,6,6,7,7,8,8,9,9,10,10,11,11,12,12,13,13,14,14],"right_children":[2,4,6,8,10,12,14,16,18,20,22,24,26,28,30,-1,-1,-1,-1,-1,-1,-1,-1,-1,-1,-1,-1,-1,-1,-1,-1],"split_conditions":[2.1E1,1E1,5E0,7E0,1.6E1,2E0,7E0,3E0,4E0,1.5E1,7E0,2.2E1,2.2E1,2.3E1,2.2E1,-6.984121E-2,4.65876E-3,-3.3372577E-2,-1.126195E-1,3.361268E-2,1.3594723E-1,2.8597726E-2,-8.629134E-2,-1.2937409E-1,-7.441922E-2,-4.1494142E-2,-6.4923264E-2,8.940747E-2,-8.641983E-2,-3.1431463E-2,-1.3635157E-1],"split_indices":[1,1,0,0,1,0,0,1,1,1,0,1,1,1,1,0,0,0,0,0,0,0,0,0,0,0,0,0,0,0,0],"split_type":[0,0,0,0,0,0,0,0,0,0,0,0,0,0,0,0,0,0,0,0,0,0,0,0,0,0,0,0,0,0,0],"sum_hessian":[8.944E3,7.295E3,1.649E3,2.653E3,4.642E3,9.77E2,6.72E2,2.158E3,4.95E2,2.267E3,2.375E3,2.7E2,7.07E2,4.42E2,2.3E2,5.93E2,1.565E3,2.03E2,2.92E2,1.778E3,4.89E2,1.936E3,4.39E2,9.7E1,1.73E2,2.84E2,4.23E2,3.09E2,1.33E2,8.7E1,1.43E2],"tree_param":{"num_deleted":"0","num_feature":"2","num_nodes":"31","size_leaf_vector":"1"}},{"base_weights":[-1.4772343E-3,8.6139E-2,-3.8889942E-1,-2.5100687E-1,2.7883747E-1,-6.612345E-1,-1.5331785E-1,-1.4255513E-1,-7.22572E-1,5.017058E-1,6.598218E-2,-5.7286084E-1,-9.2941934E-1,1.0050847E-1,-8.734769E-1,-5.957193E-2,5.693212E-3,-3.0051697E-2,-1.0139599E-1,3.0253252E-2,1.22380294E-1,2.573947E-2,-7.768179E-2,-4.4117305E-2,-9.490548E-2,-1.2147739E-1,-4.4207778E-2,3.7033007E-2,-6.31779E-2,-2.8324066E-2,-1.2281112E-1],"categories":[],"categories_nodes":[],"categories_segments":[],"categories_sizes":[],"default_left":[0,0,0,0,0,0,0,0,0,0,0,0,0,0,0,0,0,0,0,0,0,0,0,0,0,0,0,0,0,0,0],"id":28,"left_children":[1,3,5,7,9,11,13,15,17,19,21,23,25,27,29,-1,-1,-1,-1,-1,-1,-1,-1,-1,-1,-1,-1,-1,-1,-1,-1],"loss_changes":[3.036668E2,4.7407288E2,1.0575786E2,1.35628E2,2.2022476E2,1.759842E1,1.6204445E2,1.9520853E2,6.0694244E1,3.258191E2,3.8350214E2,2.82155E1,2.5607224E1,1.2985101E2,4.800461E1,0E0,0E0,0E0,0E0,0E0,0E0,0E0,0E0,0E0,0E0,0E0,0E0,0E0,0E0,0E0,0E0],"parents":[2147483647,0,0,1,1,2,2,3,3,4,4,5,5,6,6,7,7,8,8,9,9,10,10,11,11,12,12,13,13,14,14],"right_children":[2,4,6,8,10,12,14,16,18,20,22,24,26,28,30,-1,-1,-1,-1,-1,-1,-1,-1,-1,-1,-1,-1,-1,-1,-1,-1],"split_conditions":[2.1E1,1E1,4E0,7E0,1.6E1,2.3E1,7E0,4E0,4E0,1.5E1,7E0,3E0,3E0,2.3E1,2.2E1,-5.957193E-2,5.693212E-3,-3.0051697E-2,-1.0139599E-1,3.0253252E-2,1.22380294E-1,2.573947E-2,-7.768179E-2,-4.4117305E-2,-9.490548E-2,-1.2147739E-1,-4.4207778E-2,3.7033007E-2,-6.31779E-2,-2.8324066E-2,-1.2281112E-1],"split_indices":[1,1,0,0,1,1,0,1,1,1,0,0,0,1,1,0,0,0,0,0,0,0,0,0,0,0,0,0,0,0,0],"split_type":[0,0,0,0,0,0,0,0,0,0,0,0,0,0,0,0,0,0,0,0,0,0,0,0,0,0,0,0,0,0,0],"sum_hessian":[8.944E3,7.295E3,1.649E3,2.653E3,4.642E3,7.64E2,8.85E2,2.158E3,4.95E2,2.267E3,2.375E3,5.77E2,1.87E2,6.55E2,2.3E2,6.59E2,1.499E3,2.03E2,2.92E2,1.778E3,4.89E2,1.936E3,4.39E2,4.29E2,1.48E2,1.17E2,7E1,4.79E2,1.76E2,8.7E1,1.43E2],"tree_param":{"num_deleted":"0","num_feature":"2","num_nodes":"31","size_leaf_vector":"1"}},{"base_weights":[-1.3928228E-3,7.751354E-2,-3.5030156E-1,-3.075459E-1,2.1635886E-1,-5.5054957E-1,-5.8781702E-2,6.509385E-2,-5.925251E-1,-1.3830084E-1,3.5182497E-1,-7.870601E-1,-4.592432E-1,3.2096356E-1,-7.8678334E-1,-5.61212E-2,5.8482684E-2,-1.5903449E-3,-6.91798E-2,-1.6563408E-1,5.1200338E-2,9.136151E-2,1.2787265E-2,-1.1220198E-1,-5.9388127E-2,-3.1269055E-2,-5.521503E-2,7.680415E-2,-7.1571656E-2,-2.552384E-2,-1.1061525E-1],"categories":[],"categories_nodes":[],"categories_segments":[],"categories_sizes":[],"default_left":[0,0,0,0,0,0,0,0,0,0,0,0,0,0,0,0,0,0,0,0,0,0,0,0,0,0,0,0,0,0,0],"id":29,"left_children":[1,3,5,7,9,11,13,15,17,19,21,23,25,27,29,-1,-1,-1,-1,-1,-1,-1,-1,-1,-1,-1,-1,-1,-1,-1,-1],"loss_changes":[2.4629301E2,3.901377E2,9.628848E1,2.054189E2,2.5771057E2,2.0758362E1,1.8630685E2,2.7343262E2,6.2727234E1,1.4648474E3,4.8816806E2,1.6869278E1,9.467316E0,2.0586993E2,3.8932022E1,0E0,0E0,0E0,0E0,0E0,0E0,0E0,0E0,0E0,0E0,0E0,0E0,0E0,0E0,0E0,0E0],"parents":[2147483647,0,0,1,1,2,2,3,3,4,4,5,5,6,6,7,7,8,8,9,9,10,10,11,11,12,12,13,13,14,14],"right_children":[2,4,6,8,10,12,14,16,18,20,22,24,26,28,30,-1,-1,-1,-1,-1,-1,-1,-1,-1,-1,-1,-1,-1,-1,-1,-1],"split_conditions":[2.1E1,8E0,5E0,4E0,3E0,2E0,7E0,4E0,1E0,1.2E1,5E0,2.2E1,3E0,2.3E1,2.2E1,-5.61212E-2,5.8482684E-2,-1.5903449E-3,-6.91798E-2,-1.6563408E-1,5.1200338E-2,9.136151E-2,1.2787265E-2,-1.1220198E-1,-5.9388127E-2,-3.1269055E-2,-5.521503E-2,7.680415E-2,-7.1571656E-2,-2.552384E-2,-1.1061525E-1],"split_indices":[1,1,0,0,0,0,0,1,1,1,0,1,0,1,1,0,0,0,0,0,0,0,0,0,0,0,0,0,0,0,0],"split_type":[0,0,0,0,0,0,0,0,0,0,0,0,0,0,0,0,0,0,0,0,0,0,0,0,0,0,0,0,0,0,0],"sum_hessian":[8.944E3,7.295E3,1.649E3,1.933E3,5.362E3,9.77E2,6.72E2,8.38E2,1.095E3,1.482E3,3.88E3,2.7E2,7.07E2,4.42E2,2.3E2,3.8E2,4.58E2,1.61E2,9.34E2,4.44E2,1.038E3,1.105E3,2.775E3,9.7E1,1.73E2,2.76E2,4.31E2,3.09E2,1.33E2,8.7E1,1.43E2],"tree_param":{"num_deleted":"0","num_feature":"2","num_nodes":"31","size_leaf_vector":"1"}},{"base_weights":[-1.3057926E-3,8.8558346E-2,-2.6543692E-1,-1.9998148E-1,2.789353E-1,-1.4204872E-1,-1.0091465E0,-1.0580103E-1,-6.095291E-1,4.923525E-1,8.988939E-2,-4.8044857E-1,5.524494E-1,-1.7445801E-1,-7.086943E-1,-5.177113E-2,5.0508357E-3,-2.256269E-2,-8.74739E-2,-4.6356395E-2,7.47019E-2,9.368373E-2,-1.4534322E-2,-7.6819204E-2,-3.7729252E-2,8.683838E-2,-6.446793E-2,-2.300043E-2,-9.963056E-2],"categories":[],"categories_nodes":[],"categories_segments":[],"categories_sizes":[],"default_left":[0,0,0,0,0,0,0,0,0,0,0,0,0,0,0,0,0,0,0,0,0,0,0,0,0,0,0,0,0],"id":30,"left_children":[1,3,5,7,9,11,13,15,17,19,21,23,25,-1,27,-1,-1,-1,-1,-1,-1,-1,-1,-1,-1,-1,-1,-1,-1],"loss_changes":[2.1234128E2,3.667224E2,2.0825496E2,1.0230395E2,1.6222595E2,4.583156E2,7.013458E1,1.390343E2,5.030272E1,4.6020422E2,4.2529242E2,3.862393E1,2.4223866E2,0E0,3.1574135E1,0E0,0E0,0E0,0E0,0E0,0E0,0E0,0E0,0E0,0E0,0E0,0E0,0E0,0E0],"parents":[2147483647,0,0,1,1,2,2,3,3,4,4,5,5,6,6,7,7,8,8,9,9,10,10,11,11,12,12,14,14],"right_children":[2,4,6,8,10,12,14,16,18,20,22,24,26,-1,28,-1,-1,-1,-1,-1,-1,-1,-1,-1,-1,-1,-1,-1,-1],"split_conditions":[2E1,1E1,7E0,7E0,5E0,5E0,2.1E1,3E0,4E0,1.2E1,1.2E1,2E0,2.3E1,-1.7445801E-1,2.2E1,-5.177113E-2,5.0508357E-3,-2.256269E-2,-8.74739E-2,-4.6356395E-2,7.47019E-2,9.368373E-2,-1.4534322E-2,-7.6819204E-2,-3.7729252E-2,8.683838E-2,-6.446793E-2,-2.300043E-2,-9.963056E-2],"split_indices":[1,1,0,0,0,0,1,1,1,1,1,0,1,0,1,0,0,0,0,0,0,0,0,0,0,0,0,0,0],"split_type":[0,0,0,0,0,0,0,0,0,0,0,0,0,0,0,0,0,0,0,0,0,0,0,0,0,0,0,0,0],"sum_hessian":[8.944E3,6.674E3,2.27E3,2.653E3,4.021E3,1.948E3,3.22E2,2.158E3,4.95E2,1.888E3,2.133E3,1.31E3,6.38E2,9.2E1,2.3E2,5.93E2,1.565E3,2.03E2,2.92E2,3.97E2,1.491E3,4.63E2,1.67E3,3.44E2,9.66E2,5.05E2,1.33E2,8.7E1,1.43E2],"tree_param":{"num_deleted":"0","num_feature":"2","num_nodes":"29","size_leaf_vector":"1"}},{"base_weights":[-1.2242001E-3,1.0256324E-1,-1.9024068E-1,-1.800423E-1,3.4277225E-1,-5.596235E-1,-2.5740799E-2,-9.5242426E-2,-5.4879814E-1,6.1531866E-1,1.0877183E-1,-1.2815505E-1,-4.7584438E-1,1.0049685E-1,-4.5388743E-1,-4.660273E-2,4.5460924E-3,5.360085E-3,-6.935079E-2,-1.2163297E-2,1.2935548E-1,8.433559E-2,-1.7115902E-2,-7.2670564E-2,-1.948213E-2,1.8678978E-2,-4.0648796E-2,3.7478827E-2,-9.091517E-2],"categories":[],"categories_nodes":[],"categories_segments":[],"categories_sizes":[],"default_left":[0,0,0,0,0,0,0,0,0,0,0,0,0,0,0,0,0,0,0,0,0,0,0,0,0,0,0,0,0],"id":31,"left_children":[1,3,5,7,9,11,13,15,17,19,21,-1,23,25,27,-1,-1,-1,-1,-1,-1,-1,-1,-1,-1,-1,-1,-1,-1],"loss_changes":[1.7549837E2,3.9209415E2,1.9266638E2,8.293949E1,1.9904166E2,5.8481476E1,1.18681465E2,1.1265767E2,4.3274994E1,7.2090796E2,3.45813E2,0E0,6.1684982E1,7.427457E1,1.88974E2,0E0,0E0,0E0,0E0,0E0,0E0,0E0,0E0,0E0,0E0,0E0,0E0,0E0,0E0],"parents":[2147483647,0,0,1,1,2,2,3,3,4,4,5,5,6,6,7,7,8,8,9,9,10,10,12,12,13,13,14,14],"right_children":[2,4,6,8,10,12,14,16,18,20,22,-1,24,26,28,-1,-1,-1,-1,-1,-1,-1,-1,-1,-1,-1,-1,-1,-1],"split_conditions":[1.8E1,1E1,3E0,7E0,5E0,1.9E1,7E0,3E0,2E0,1.4E1,1.2E1,-1.2815505E-1,2E0,2.3E1,2E1,-4.660273E-2,4.5460924E-3,5.360085E-3,-6.935079E-2,-1.2163297E-2,1.2935548E-1,8.433559E-2,-1.7115902E-2,-7.2670564E-2,-1.948213E-2,1.8678978E-2,-4.0648796E-2,3.7478827E-2,-9.091517E-2],"split_indices":[1,1,0,0,0,1,0,1,1,1,1,0,0,1,1,0,0,0,0,0,0,0,0,0,0,0,0,0,0],"split_type":[0,0,0,0,0,0,0,0,0,0,0,0,0,0,0,0,0,0,0,0,0,0,0,0,0,0,0,0,0],"sum_hessian":[8.944E3,5.774E3,3.17E3,2.653E3,3.121E3,9.76E2,2.194E3,2.158E3,4.95E2,1.441E3,1.68E3,1E2,8.76E2,1.695E3,4.99E2,5.93E2,1.565E3,9.6E1,3.99E2,6.91E2,7.5E2,4.63E2,1.217E3,4.62E2,4.14E2,1.449E3,2.46E2,1.77E2,3.22E2],"tree_param":{"num_deleted":"0","num_feature":"2","num_nodes":"29","size_leaf_vector":"1"}},{"base_weights":[-1.1259338E-3,9.2320666E-2,-1.7130978E-1,-1.6207768E-1,3.0855414E-1,-4.3350473E-1,2.5575673E-2,2.1444929E-1,-2.3436841E-1,5.538675E-1,9.793516E-2,-6.706271E-1,-3.0045864E-1,1.9089559E-1,-4.0860558E-1,6.305258E-2,-5.077625E-2,-4.6898175E-2,3.7264985E-3,-1.0948739E-2,1.16437055E-1,7.592023E-2,-1.5405654E-2,-8.256082E-2,-3.862038E-2,-1.9509781E-2,-5.1942613E-2,2.8329587E-2,-4.037373E-2,3.3752035E-2,-8.185183E-2],"categories":[],"categories_nodes":[],"categories_segments":[],"categories_sizes":[],"default_left":[0,0,0,0,0,0,0,0,0,0,0,0,0,0,0,0,0,0,0,0,0,0,0,0,0,0,0,0,0,0,0],"id":32,"left_children":[1,3,5,7,9,11,13,15,17,19,21,23,25,27,29,-1,-1,-1,-1,-1,-1,-1,-1,-1,-1,-1,-1,-1,-1,-1,-1],"loss_changes":[1.4226906E2,3.177295E2,1.6370561E2,7.229058E1,1.6125217E2,4.2704086E1,1.3014119E2,1.2893214E2,1.4194153E2,5.841088E2,2.8022842E2,2.1192291E1,2.0039291E1,7.2256165E1,1.5319952E2,0E0,0E0,0E0,0E0,0E0,0E0,0E0,0E0,0E0,0E0,0E0,0E0,0E0,0E0,0E0,0E0],"parents":[2147483647,0,0,1,1,2,2,3,3,4,4,5,5,6,6,7,7,8,8,9,9,10,10,11,11,12,12,13,13,14,14],"right_children":[2,4,6,8,10,12,14,16,18,20,22,24,26,28,30,-1,-1,-1,-1,-1,-1,-1,-1,-1,-1,-1,-1,-1,-1,-1,-1],"split_conditions":[1.8E1,1E1,4E0,2E0,5E0,2E0,7E0,6E0,6E0,1.4E1,1.2E1,2.2E1,2.2E1,2.3E1,2E1,6.305258E-2,-5.077625E-2,-4.6898175E-2,3.7264985E-3,-1.0948739E-2,1.16437055E-1,7.592023E-2,-1.5405654E-2,-8.256082E-2,-3.862038E-2,-1.9509781E-2,-5.1942613E-2,2.8329587E-2,-4.037373E-2,3.3752035E-2,-8.185183E-2],"split_indices":[1,1,0,0,0,0,0,1,1,1,1,1,1,1,1,0,0,0,0,0,0,0,0,0,0,0,0,0,0,0,0],"split_type":[0,0,0,0,0,0,0,0,0,0,0,0,0,0,0,0,0,0,0,0,0,0,0,0,0,0,0,0,0,0,0],"sum_hessian":[8.944E3,5.774E3,3.17E3,2.653E3,3.121E3,1.359E3,1.811E3,4.27E2,2.226E3,1.441E3,1.68E3,4.87E2,8.72E2,1.312E3,4.99E2,2.71E2,1.56E2,1.194E3,1.032E3,6.91E2,7.5E2,4.63E2,1.217E3,3.14E2,1.73E2,5.9E2,2.82E2,1.136E3,1.76E2,1.77E2,3.22E2],"tree_param":{"num_deleted":"0","num_feature":"2","num_nodes":"31","size_leaf_vector":"1"}},{"base_weights":[-1.0267335E-3,8.31117E-2,-1.5425867E-1,-1.4588182E-1,2.777516E-1,-3.9029598E-1,2.2984724E-2,-7.238337E-2,-4.655134E-1,4.9855322E-1,8.817769E-2,-6.0381275E-1,-2.7049476E-1,1.7179662E-1,-3.6784127E-1,-3.7919413E-2,6.2661613E-3,-1.2265383E-2,-7.0263915E-2,-9.855502E-3,1.0480876E-1,3.09362E-2,-5.3636577E-2,-7.4330956E-2,-3.4780532E-2,-1.7562129E-2,-4.6766695E-2,2.549909E-2,-3.635916E-2,3.0395756E-2,-7.369198E-2],"categories":[],"categories_nodes":[],"categories_segments":[],"categories_sizes":[],"default_left":[0,0,0,0,0,0,0,0,0,0,0,0,0,0,0,0,0,0,0,0,0,0,0,0,0,0,0,0,0,0,0],"id":33,"left_children":[1,3,5,7,9,11,13,15,17,19,21,23,25,27,29,-1,-1,-1,-1,-1,-1,-1,-1,-1,-1,-1,-1,-1,-1,-1,-1],"loss_changes":[1.1533798E2,2.574396E2,1.3267111E2,6.2315212E1,1.3063739E2,3.462491E1,1.0544831E2,8.947815E1,4.023902E1,4.7326898E2,2.3237794E2,1.7169022E1,1.6248562E1,5.8575363E1,1.2419724E2,0E0,0E0,0E0,0E0,0E0,0E0,0E0,0E0,0E0,0E0,0E0,0E0,0E0,0E0,0E0,0E0],"parents":[2147483647,0,0,1,1,2,2,3,3,4,4,5,5,6,6,7,7,8,8,9,9,10,10,11,11,12,12,13,13,14,14],"right_children":[2,4,6,8,10,12,14,16,18,20,22,24,26,28,30,-1,-1,-1,-1,-1,-1,-1,-1,-1,-1,-1,-1,-1,-1,-1,-1],"split_conditions":[1.8E1,1E1,4E0,7E0,5E0,2E0,7E0,4E0,4E0,1.4E1,1.6E1,2.2E1,2.2E1,2.3E1,2E1,-3.7919413E-2,6.2661613E-3,-1.2265383E-2,-7.0263915E-2,-9.855502E-3,1.0480876E-1,3.09362E-2,-5.3636577E-2,-7.4330956E-2,-3.4780532E-2,-1.7562129E-2,-4.6766695E-2,2.549909E-2,-3.635916E-2,3.0395756E-2,-7.369198E-2],"split_indices":[1,1,0,0,0,0,0,1,1,1,1,1,1,1,1,0,0,0,0,0,0,0,0,0,0,0,0,0,0,0,0],"split_type":[0,0,0,0,0,0,0,0,0,0,0,0,0,0,0,0,0,0,0,0,0,0,0,0,0,0,0,0,0,0,0],"sum_hessian":[8.944E3,5.774E3,3.17E3,2.653E3,3.121E3,1.359E3,1.811E3,2.158E3,4.95E2,1.441E3,1.68E3,4.87E2,8.72E2,1.312E3,4.99E2,6.59E2,1.499E3,2.03E2,2.92E2,6.91E2,7.5E2,1.241E3,4.39E2,3.14E2,1.73E2,5.9E2,2.82E2,1.136E3,1.76E2,1.77E2,3.22E2],"tree_param":{"num_deleted":"0","num_feature":"2","num_nodes":"31","size_leaf_vector":"1"}},{"base_weights":[-9.5406175E-4,8.50961E-2,-1.2397609E-1,-1.3133654E-1,3.0506054E-1,-7.324503E-1,-4.809226E-3,2.0515771E-1,-1.9594733E-1,1.9208732E-1,5.45966E-1,-1.5203784E-1,-5.43655E-1,1.1615262E-1,-5.049784E-1,5.9037745E-2,-4.635361E-2,-6.606957E-2,-8.914199E-3,-5.070678E-2,4.3202963E-2,1.914717E-1,1.0762165E-2,-6.692144E-2,-3.132247E-2,1.00257814E-1,-4.3894994E-4,-1.3605474E-1,-3.3114355E-2],"categories":[],"categories_nodes":[],"categories_segments":[],"categories_sizes":[],"default_left":[0,0,0,0,0,0,0,0,0,0,0,0,0,0,0,0,0,0,0,0,0,0,0,0,0,0,0,0,0],"id":34,"left_children":[1,3,5,7,9,11,13,15,17,19,21,-1,23,25,27,-1,-1,-1,-1,-1,-1,-1,-1,-1,-1,-1,-1,-1,-1],"loss_changes":[9.47029E1,2.5064587E2,2.6697818E2,5.774123E1,7.095575E1,8.887399E1,1.8640294E2,1.1052391E2,1.10484055E2,2.9865857E2,4.9958087E2,0E0,1.3909531E1,2.6510327E2,8.87861E1,0E0,0E0,0E0,0E0,0E0,0E0,0E0,0E0,0E0,0E0,0E0,0E0,0E0,0E0],"parents":[2147483647,0,0,1,1,2,2,3,3,4,4,5,5,6,6,7,7,8,8,9,9,10,10,12,12,13,13,14,14],"right_children":[2,4,6,8,10,12,14,16,18,20,22,-1,24,26,28,-1,-1,-1,-1,-1,-1,-1,-1,-1,-1,-1,-1,-1,-1],"split_conditions":[1.7E1,1E1,2E0,2E0,1.5E1,1.8E1,7E0,6E0,3E0,3E0,3E0,-1.5203784E-1,2.2E1,1.8E1,1.8E1,5.9037745E-2,-4.635361E-2,-6.606957E-2,-8.914199E-3,-5.070678E-2,4.3202963E-2,1.914717E-1,1.0762165E-2,-6.692144E-2,-3.132247E-2,1.00257814E-1,-4.3894994E-4,-1.3605474E-1,-3.3114355E-2],"split_indices":[1,1,0,0,1,1,0,1,0,0,0,0,1,1,1,0,0,0,0,0,0,0,0,0,0,0,0,0,0],"split_type":[0,0,0,0,0,0,0,0,0,0,0,0,0,0,0,0,0,0,0,0,0,0,0,0,0,0,0,0,0],"sum_hessian":[8.944E3,5.263E3,3.681E3,2.653E3,2.61E3,6.02E2,3.079E3,4.27E2,2.226E3,1.778E3,8.32E2,1.15E2,4.87E2,2.48E3,5.99E2,2.71E2,1.56E2,4.15E2,1.811E3,4.54E2,1.324E3,2.01E2,6.31E2,3.14E2,1.73E2,2.96E2,2.184E3,1E2,4.99E2],"tree_param":{"num_deleted":"0","num_feature":"2","num_nodes":"29","size_leaf_vector":"1"}},{"base_weights":[-8.7958993E-4,-2.4084523E-1,3.9883617E-2,-3.680314E-1,-8.690597E-2,1.8057033E-1,-1.11665376E-1,-2.1980971E-1,-9.709942E-1,3.9861923E-1,-2.307719E-1,3.8493794E-1,-8.4078097E-4,-6.596203E-1,-4.350934E-3,-3.9155204E-2,1.2213629E-2,1.3813059E-1,-1.5196005E-1,-7.882005E-2,1.0414457E-1,-1.1223297E-2,-4.9944866E-2,3.0777058E-1,2.4347583E-2,-3.7450472E-1,1.3954428E-2,-1.3696507E-1,-4.8949096E-2,1.0457742E-2,-4.5476247E-2],"categories":[],"categories_nodes":[],"categories_segments":[],"categories_sizes":[],"default_left":[0,0,0,0,0,0,0,0,0,0,0,0,0,0,0,0,0,0,0,0,0,0,0,0,0,0,0,0,0,0,0],"id":35,"left_children":[1,3,5,7,9,11,13,15,17,19,21,23,25,27,29,-1,-1,-1,-1,-1,-1,-1,-1,-1,-1,-1,-1,-1,-1,-1,-1],"loss_changes":[8.750754E1,2.540107E1,1.6306133E2,6.3330177E1,4.1233955E1,1.4703802E2,2.1651154E2,3.3639442E1,1.8276715E2,1.0381495E2,1.4435083E1,7.0967505E2,1.1053982E3,7.2170166E1,1.5116032E2,0E0,0E0,0E0,0E0,0E0,0E0,0E0,0E0,0E0,0E0,0E0,0E0,0E0,0E0,0E0,0E0],"parents":[2147483647,0,0,1,1,2,2,3,3,4,4,5,5,6,6,7,7,8,8,9,9,10,10,11,11,12,12,13,13,14,14],"right_children":[2,4,6,8,10,12,14,16,18,20,22,24,26,28,30,-1,-1,-1,-1,-1,-1,-1,-1,-1,-1,-1,-1,-1,-1,-1,-1],"split_conditions":[5E0,5E0,1.7E1,4E0,6E0,5E0,2E0,4E0,1E0,2E0,4E0,6E0,6E0,1.8E1,7E0,-3.9155204E-2,1.2213629E-2,1.3813059E-1,-1.5196005E-1,-7.882005E-2,1.0414457E-1,-1.1223297E-2,-4.9944866E-2,3.0777058E-1,2.4347583E-2,-3.7450472E-1,1.3954428E-2,-1.3696507E-1,-4.8949096E-2,1.0457742E-2,-4.5476247E-2],"split_indices":[1,0,1,0,0,0,0,1,1,1,1,1,1,1,0,0,0,0,0,0,0,0,0,0,0,0,0,0,0,0,0],"split_type":[0,0,0,0,0,0,0,0,0,0,0,0,0,0,0,0,0,0,0,0,0,0,0,0,0,0,0,0,0,0,0],"sum_hessian":[8.944E3,1.298E3,7.646E3,7.1E2,5.88E2,3.965E3,3.681E3,5.71E2,1.39E2,1.34E2,4.54E2,1.864E3,2.101E3,6.02E2,3.079E3,3.8E2,1.91E2,2.6E1,1.13E2,4.7E1,8.7E1,3.16E2,1.38E2,9.2E1,1.772E3,7.5E1,2.026E3,1.15E2,4.87E2,2.48E3,5.99E2],"tree_param":{"num_deleted":"0","num_feature":"2","num_nodes":"31","size_leaf_vector":"1"}},{"base_weights":[-8.280116E-4,2.034578E-2,-4.4052988E-1,-1.6992268E-1,7.608023E-2,-8.039726E-1,-2.931599E-1,1.13129996E-1,-3.8644755E-1,-1.7995441E-1,1.8042092E-1,-6.8638496E-2,-9.794729E-2,-7.824039E-2,-4.269039E-1,-1.9787582E-2,7.764964E-2,-2.3140632E-2,-6.912811E-2,-1.4151303E-1,1.9459136E-2,6.801125E-2,2.0553223E-3,-1.7933981E-2,8.667552E-3,-5.863402E-2,-2.6629338E-2],"categories":[],"categories_nodes":[],"categories_segments":[],"categories_sizes":[],"default_left":[0,0,0,0,0,0,0,0,0,0,0,0,0,0,0,0,0,0,0,0,0,0,0,0,0,0,0],"id":36,"left_children":[1,3,5,7,9,11,13,15,17,19,21,-1,-1,23,25,-1,-1,-1,-1,-1,-1,-1,-1,-1,-1,-1,-1],"loss_changes":[8.32883E1,9.0522415E1,2.1777687E1,1.185746E2,1.7640378E2,1.762825E0,8.417395E0,1.732484E2,5.163893E1,8.8482367E2,3.7472437E2,0E0,0E0,1.9162555E0,4.478752E0,0E0,0E0,0E0,0E0,0E0,0E0,0E0,0E0,0E0,0E0,0E0,0E0],"parents":[2147483647,0,0,1,1,2,2,3,3,4,4,5,5,6,6,7,7,8,8,9,9,10,10,13,13,14,14],"right_children":[2,4,6,8,10,12,14,16,18,20,22,-1,-1,24,26,-1,-1,-1,-1,-1,-1,-1,-1,-1,-1,-1,-1],"split_conditions":[2.3E1,8E0,3E0,4E0,3E0,2E0,5E0,5E0,5E0,1.2E1,1.2E1,-6.8638496E-2,-9.794729E-2,4E0,6E0,-1.9787582E-2,7.764964E-2,-2.3140632E-2,-6.912811E-2,-1.4151303E-1,1.9459136E-2,6.801125E-2,2.0553223E-3,-1.7933981E-2,8.667552E-3,-5.863402E-2,-2.6629338E-2],"split_indices":[1,1,0,0,0,0,0,1,1,1,1,0,0,0,0,0,0,0,0,0,0,0,0,0,0,0,0],"split_type":[0,0,0,0,0,0,0,0,0,0,0,0,0,0,0,0,0,0,0,0,0,0,0,0,0,0,0],"sum_hessian":[8.944E3,8.534E3,4.1E2,1.933E3,6.601E3,1.17E2,2.93E2,8.38E2,1.095E3,1.911E3,4.69E3,7.3E1,4.4E1,1.13E2,1.8E2,5.71E2,2.67E2,7.27E2,3.68E2,4.44E2,1.467E3,1.136E3,3.554E3,7E1,4.3E1,8.9E1,9.1E1],"tree_param":{"num_deleted":"0","num_feature":"2","num_nodes":"27","size_leaf_vector":"1"}},{"base_weights":[-7.840245E-4,3.081887E-2,-2.4854745E-1,-1.5294829E-1,9.003814E-2,-1.9544946E-1,-5.6725305E-1,1.605893E-1,-3.143851E-1,-1.7873208E-1,1.9780126E-1,-3.382785E-1,1.1760694E-1,-7.134024E-2,-2.6009178E-2,-4.0654615E-2,6.1416883E-2,1.0983066E-2,-3.849943E-2,-1.2739344E-1,2.0395532E-2,6.1216183E-2,4.8078992E-3,-2.1580134E-2,-3.8774256E-2,6.375014E-2,-4.2644408E-2],"categories":[],"categories_nodes":[],"categories_segments":[],"categories_sizes":[],"default_left":[0,0,0,0,0,0,0,0,0,0,0,0,0,0,0,0,0,0,0,0,0,0,0,0,0,0,0],"id":37,"left_children":[1,3,5,7,9,11,13,15,17,19,21,23,25,-1,-1,-1,-1,-1,-1,-1,-1,-1,-1,-1,-1,-1,-1],"loss_changes":[7.004738E1,8.635599E1,1.7014824E1,9.794282E1,1.7384543E2,3.889585E1,6.27882E0,1.6951427E2,3.8292953E1,7.203082E2,2.6574567E2,3.5330887E0,7.748967E1,0E0,0E0,0E0,0E0,0E0,0E0,0E0,0E0,0E0,0E0,0E0,0E0,0E0,0E0],"parents":[2147483647,0,0,1,1,2,2,3,3,4,4,5,5,6,6,7,7,8,8,9,9,10,10,11,11,12,12],"right_children":[2,4,6,8,10,12,14,16,18,20,22,24,26,-1,-1,-1,-1,-1,-1,-1,-1,-1,-1,-1,-1,-1,-1],"split_conditions":[2.2E1,8E0,7E0,3E0,3E0,5E0,2.3E1,4E0,1E0,1.2E1,1.2E1,2E0,2.3E1,-7.134024E-2,-2.6009178E-2,-4.0654615E-2,6.1416883E-2,1.0983066E-2,-3.849943E-2,-1.2739344E-1,2.0395532E-2,6.1216183E-2,4.8078992E-3,-2.1580134E-2,-3.8774256E-2,6.375014E-2,-4.2644408E-2],"split_indices":[1,1,0,0,0,0,1,1,1,1,1,0,1,0,0,0,0,0,0,0,0,0,0,0,0,0,0],"split_type":[0,0,0,0,0,0,0,0,0,0,0,0,0,0,0,0,0,0,0,0,0,0,0,0,0,0,0],"sum_hessian":[8.944E3,7.933E3,1.011E3,1.933E3,6E3,8.68E2,1.43E2,6.57E2,1.276E3,1.717E3,4.283E3,5.96E2,2.72E2,9.6E1,4.7E1,2.92E2,3.65E2,1.82E2,1.094E3,4.44E2,1.273E3,1.136E3,3.147E3,1.73E2,4.23E2,1.39E2,1.33E2],"tree_param":{"num_deleted":"0","num_feature":"2","num_nodes":"27","size_leaf_vector":"1"}},{"base_weights":[-7.2622596E-4,6.3181296E-2,-1.1711387E-1,-9.9054866E-2,2.0107739E-1,-3.258743E-1,3.9636284E-2,-3.8379095E-2,-3.6296606E-1,4.341964E-1,9.82979E-4,-4.523556E-1,-2.5479898E-1,1.4584447E-1,-2.393457E-1,-2.7330881E-2,5.075669E-3,-4.6536825E-3,-5.8203977E-2,-3.8231213E-3,8.6893104E-2,1.7476955E-2,-4.8957136E-2,-5.934396E-2,-1.9434517E-2,-4.1605937E-3,-3.1444453E-2,2.0919723E-2,-2.6194049E-2,7.358143E-2,-4.3520685E-2],"categories":[],"categories_nodes":[],"categories_segments":[],"categories_sizes":[],"default_left":[0,0,0,0,0,0,0,0,0,0,0,0,0,0,0,0,0,0,0,0,0,0,0,0,0,0,0,0,0,0,0],"id":38,"left_children":[1,3,5,7,9,11,13,15,17,19,21,23,25,27,29,-1,-1,-1,-1,-1,-1,-1,-1,-1,-1,-1,-1,-1,-1,-1,-1],"loss_changes":[6.6540726E1,1.2921669E2,1.0377826E2,4.248461E1,1.456278E2,1.2110733E1,5.372478E1,4.5224724E1,3.4356285E1,2.9619217E2,1.4339377E2,1.7648422E1,1.1087997E1,3.3975235E1,9.581819E1,0E0,0E0,0E0,0E0,0E0,0E0,0E0,0E0,0E0,0E0,0E0,0E0,0E0,0E0,0E0,0E0],"parents":[2147483647,0,0,1,1,2,2,3,3,4,4,5,5,6,6,7,7,8,8,9,9,10,10,11,11,12,12,13,13,14,14],"right_children":[2,4,6,8,10,12,14,16,18,20,22,24,26,28,30,-1,-1,-1,-1,-1,-1,-1,-1,-1,-1,-1,-1,-1,-1,-1,-1],"split_conditions":[1.8E1,1E1,4E0,7E0,5E0,2E0,7E0,3E0,4E0,1.4E1,1.6E1,2.2E1,2E1,2.3E1,1.9E1,-2.7330881E-2,5.075669E-3,-4.6536825E-3,-5.8203977E-2,-3.8231213E-3,8.6893104E-2,1.7476955E-2,-4.8957136E-2,-5.934396E-2,-1.9434517E-2,-4.1605937E-3,-3.1444453E-2,2.0919723E-2,-2.6194049E-2,7.358143E-2,-4.3520685E-2],"split_indices":[1,1,0,0,0,0,0,1,1,1,1,1,1,1,1,0,0,0,0,0,0,0,0,0,0,0,0,0,0,0,0],"split_type":[0,0,0,0,0,0,0,0,0,0,0,0,0,0,0,0,0,0,0,0,0,0,0,0,0,0,0,0,0,0,0],"sum_hessian":[8.944E3,5.774E3,3.17E3,2.653E3,3.121E3,1.359E3,1.811E3,2.158E3,4.95E2,1.441E3,1.68E3,4.87E2,8.72E2,1.312E3,4.99E2,5.93E2,1.565E3,2.03E2,2.92E2,6.91E2,7.5E2,1.241E3,4.39E2,3.14E2,1.73E2,1.91E2,6.81E2,1.136E3,1.76E2,8.3E1,4.16E2],"tree_param":{"num_deleted":"0","num_feature":"2","num_nodes":"31","size_leaf_vector":"1"}},{"base_weights":[-6.6738884E-4,6.6815294E-2,-9.714435E-2,-3.774767E-2,3.255904E-1,-5.911405E-1,-3.9862533E-4,-3.339136E-1,9.1414176E-2,1.0813286E0,8.995777E-2,-1.359521E-1,-4.0728137E-1,8.927874E-2,-3.7121388E-1,1.4485653E-2,-1.1569669E-1,-2.6876992E-2,4.356235E-2,-7.3666304E-2,1.6546278E-1,-9.117628E-3,5.107839E-2,-5.342839E-2,-1.7502239E-2,8.397062E-2,-1.276529E-3,-1.13913715E-1,-2.1535097E-2],"categories":[],"categories_nodes":[],"categories_segments":[],"categories_sizes":[],"default_left":[0,0,0,0,0,0,0,0,0,0,0,0,0,0,0,0,0,0,0,0,0,0,0,0,0,0,0,0,0],"id":39,"left_children":[1,3,5,7,9,11,13,15,17,19,21,-1,23,25,27,-1,-1,-1,-1,-1,-1,-1,-1,-1,-1,-1,-1,-1,-1],"loss_changes":[5.8243134E1,1.4244716E2,1.7596997E2,1.4348055E2,2.6968878E2,8.46344E1,1.0245465E2,4.4899442E2,3.2394952E2,3.764299E2,8.8163765E1,0E0,1.4301254E1,1.8999736E2,7.1569145E1,0E0,0E0,0E0,0E0,0E0,0E0,0E0,0E0,0E0,0E0,0E0,0E0,0E0,0E0],"parents":[2147483647,0,0,1,1,2,2,3,3,4,4,5,5,6,6,7,7,8,8,9,9,10,10,12,12,13,13,14,14],"right_children":[2,4,6,8,10,12,14,16,18,20,22,-1,24,26,28,-1,-1,-1,-1,-1,-1,-1,-1,-1,-1,-1,-1,-1,-1],"split_conditions":[1.7E1,1.3E1,2E0,3E0,3E0,1.8E1,7E0,9E0,8E0,1.4E1,7E0,-1.359521E-1,2.2E1,1.8E1,1.8E1,1.4485653E-2,-1.1569669E-1,-2.6876992E-2,4.356235E-2,-7.3666304E-2,1.6546278E-1,-9.117628E-3,5.107839E-2,-5.342839E-2,-1.7502239E-2,8.397062E-2,-1.276529E-3,-1.13913715E-1,-2.1535097E-2],"split_indices":[1,1,0,0,0,1,0,1,1,1,0,0,1,1,1,0,0,0,0,0,0,0,0,0,0,0,0,0,0],"split_type":[0,0,0,0,0,0,0,0,0,0,0,0,0,0,0,0,0,0,0,0,0,0,0,0,0,0,0,0,0],"sum_hessian":[8.944E3,5.263E3,3.681E3,3.749E3,1.514E3,6.02E2,3.079E3,1.138E3,2.611E3,3.59E2,1.155E3,1.15E2,4.87E2,2.48E3,5.99E2,7.2E2,4.18E2,1.276E3,1.335E3,8.6E1,2.73E2,8.08E2,3.47E2,3.14E2,1.73E2,2.96E2,2.184E3,1E2,4.99E2],"tree_param":{"num_deleted":"0","num_feature":"2","num_nodes":"29","size_leaf_vector":"1"}},{"base_weights":[-6.2419806E-4,3.5870966E-2,-1.5892921E-1,-8.79545E-2,1.0840299E-1,-2.7244345E-3,-3.9346546E-1,-3.2665387E-1,1.12110265E-1,-2.8488216E-1,1.7601672E-1,-3.0931884E-1,8.0237144E-1,-9.7480886E-2,-1.938591E-1,1.303907E-2,-9.7853996E-2,1.489769E-1,-2.0545965E-2,-1.2539438E-2,-1.2083226E-1,6.494661E-2,5.6664787E-5,1.8225988E-2,-3.8404096E-2,1.0198647E-1,6.875242E-2,3.55144E-2,-4.9580555E-2],"categories":[],"categories_nodes":[],"categories_segments":[],"categories_sizes":[],"default_left":[0,0,0,0,0,0,0,0,0,0,0,0,0,0,0,0,0,0,0,0,0,0,0,0,0,0,0,0,0],"id":40,"left_children":[1,3,5,7,9,11,13,15,17,19,21,23,25,-1,27,-1,-1,-1,-1,-1,-1,-1,-1,-1,-1,-1,-1,-1,-1],"loss_changes":[5.168425E1,6.530367E1,6.1400337E1,1.2830743E2,1.2197206E2,2.4881393E2,7.755772E1,3.6510535E2,6.399355E2,9.896622E1,3.2503967E2,2.6884216E1,6.2428436E0,0E0,8.306085E1,0E0,0E0,0E0,0E0,0E0,0E0,0E0,0E0,0E0,0E0,0E0,0E0,0E0,0E0],"parents":[2147483647,0,0,1,1,2,2,3,3,4,4,5,5,6,6,7,7,8,8,9,9,10,10,11,11,12,12,14,14],"right_children":[2,4,6,8,10,12,14,16,18,20,22,24,26,-1,28,-1,-1,-1,-1,-1,-1,-1,-1,-1,-1,-1,-1,-1,-1],"split_conditions":[7E0,3E0,1.6E1,1.4E1,6E0,1.3E1,1.8E1,9E0,1.7E1,5E0,1.2E1,2E0,1.4E1,-9.7480886E-2,2E1,1.303907E-2,-9.7853996E-2,1.489769E-1,-2.0545965E-2,-1.2539438E-2,-1.2083226E-1,6.494661E-2,5.6664787E-5,1.8225988E-2,-3.8404096E-2,1.0198647E-1,6.875242E-2,3.55144E-2,-4.9580555E-2],"split_indices":[0,0,1,1,1,1,1,1,1,1,1,1,1,0,1,0,0,0,0,0,0,0,0,0,0,0,0,0,0],"split_type":[0,0,0,0,0,0,0,0,0,0,0,0,0,0,0,0,0,0,0,0,0,0,0,0,0,0,0,0,0],"sum_hessian":[8.944E3,7.269E3,1.675E3,2.685E3,4.584E3,1.006E3,6.69E2,1.224E3,1.461E3,6.72E2,3.912E3,7.29E2,2.77E2,1.7E2,4.99E2,7.2E2,5.04E2,2.73E2,1.188E3,5.74E2,9.8E1,1.057E3,2.855E3,9.6E1,6.33E2,9.3E1,1.84E2,1.77E2,3.22E2],"tree_param":{"num_deleted":"0","num_feature":"2","num_nodes":"29","size_leaf_vector":"1"}},{"base_weights":[-5.602076E-4,1.459938E-2,-3.1536925E-1,5.1892478E-2,-1.4353323E-1,-6.4175475E-1,-1.8329832E-1,-2.3484781E-1,7.885983E-2,-2.3022953E-3,-3.7158462E-1,-5.4067947E-2,-7.9370625E-2,-1.6659979E-3,-2.9668388E-1,-3.944009E-2,-1.1774701E-2,1.3935941E-2,-2.6138108E-3,-2.7841447E-2,7.227487E-2,-8.778981E-2,-1.796394E-2,-9.122595E-3,1.4288907E-2,-4.5907747E-2,-1.3459575E-2],"categories":[],"categories_nodes":[],"categories_segments":[],"categories_sizes":[],"default_left":[0,0,0,0,0,0,0,0,0,0,0,0,0,0,0,0,0,0,0,0,0,0,0,0,0,0,0],"id":41,"left_children":[1,3,5,7,9,11,13,15,17,19,21,-1,-1,23,25,-1,-1,-1,-1,-1,-1,-1,-1,-1,-1,-1,-1],"loss_changes":[4.2693504E1,5.0340515E1,1.759895E1,5.3427773E1,5.246584E1,1.3831673E0,6.054283E0,1.1051735E1,4.0112267E1,2.0179797E2,6.0388214E1,0E0,0E0,1.4889185E0,4.702504E0,0E0,0E0,0E0,0E0,0E0,0E0,0E0,0E0,0E0,0E0,0E0,0E0],"parents":[2147483647,0,0,1,1,2,2,3,3,4,4,5,5,6,6,7,7,8,8,9,9,10,10,13,13,14,14],"right_children":[2,4,6,8,10,12,14,16,18,20,22,-1,-1,24,26,-1,-1,-1,-1,-1,-1,-1,-1,-1,-1,-1,-1],"split_conditions":[2.3E1,7E0,3E0,3E0,1.6E1,2E0,5E0,3E0,1.8E1,1.3E1,1.8E1,-5.4067947E-2,-7.9370625E-2,4E0,6E0,-3.944009E-2,-1.1774701E-2,1.3935941E-2,-2.6138108E-3,-2.7841447E-2,7.227487E-2,-8.778981E-2,-1.796394E-2,-9.122595E-3,1.4288907E-2,-4.5907747E-2,-1.3459575E-2],"split_indices":[1,0,0,1,1,0,0,0,1,1,1,0,0,0,0,0,0,0,0,0,0,0,0,0,0,0,0],"split_type":[0,0,0,0,0,0,0,0,0,0,0,0,0,0,0,0,0,0,0,0,0,0,0,0,0,0,0],"sum_hessian":[8.944E3,8.534E3,4.1E2,6.906E3,1.628E3,1.17E2,2.93E2,5.93E2,6.313E3,1.006E3,6.22E2,7.3E1,4.4E1,1.13E2,1.8E2,2.5E2,3.43E2,4.005E3,2.308E3,7.29E2,2.77E2,1.7E2,4.52E2,7E1,4.3E1,8.9E1,9.1E1],"tree_param":{"num_deleted":"0","num_feature":"2","num_nodes":"27","size_leaf_vector":"1"}},{"base_weights":[-5.361212E-4,1.31279575E-2,-2.8428885E-1,4.66979E-2,-1.2921749E-1,-5.7871014E-1,-1.6515279E-1,-5.6471832E-2,1.0777104E-1,-2.0279326E-3,-3.3459577E-1,-4.873423E-2,-7.160994E-2,-1.4540585E-3,-2.673434E-1,-2.9708821E-2,1.6271891E-2,-2.574036E-2,1.7476171E-2,-2.5061104E-2,6.5073356E-2,-7.90622E-2,-1.6171481E-2,-8.2231825E-3,1.2892494E-2,-4.136796E-2,-1.2128257E-2],"categories":[],"categories_nodes":[],"categories_segments":[],"categories_sizes":[],"default_left":[0,0,0,0,0,0,0,0,0,0,0,0,0,0,0,0,0,0,0,0,0,0,0,0,0,0,0],"id":42,"left_children":[1,3,5,7,9,11,13,15,17,19,21,-1,-1,23,25,-1,-1,-1,-1,-1,-1,-1,-1,-1,-1,-1,-1],"loss_changes":[3.4685463E1,4.0790775E1,1.432074E1,4.3526398E1,4.255202E1,1.132267E0,4.917783E0,1.3553967E2,1.0619121E2,1.635644E2,4.8988365E1,0E0,0E0,1.2112182E0,3.8185167E0,0E0,0E0,0E0,0E0,0E0,0E0,0E0,0E0,0E0,0E0,0E0,0E0],"parents":[2147483647,0,0,1,1,2,2,3,3,4,4,5,5,6,6,7,7,8,8,9,9,10,10,13,13,14,14],"right_children":[2,4,6,8,10,12,14,16,18,20,22,-1,-1,24,26,-1,-1,-1,-1,-1,-1,-1,-1,-1,-1,-1,-1],"split_conditions":[2.3E1,7E0,3E0,3E0,1.6E1,2E0,5E0,1.4E1,6E0,1.3E1,1.8E1,-4.873423E-2,-7.160994E-2,4E0,6E0,-2.9708821E-2,1.6271891E-2,-2.574036E-2,1.7476171E-2,-2.5061104E-2,6.5073356E-2,-7.90622E-2,-1.6171481E-2,-8.2231825E-3,1.2892494E-2,-4.136796E-2,-1.2128257E-2],"split_indices":[1,0,0,0,1,0,0,1,1,1,1,0,0,0,0,0,0,0,0,0,0,0,0,0,0,0,0],"split_type":[0,0,0,0,0,0,0,0,0,0,0,0,0,0,0,0,0,0,0,0,0,0,0,0,0,0,0],"sum_hessian":[8.944E3,8.534E3,4.1E2,6.906E3,1.628E3,1.17E2,2.93E2,2.568E3,4.338E3,1.006E3,6.22E2,7.3E1,4.4E1,1.13E2,1.8E2,1.224E3,1.344E3,6.72E2,3.666E3,7.29E2,2.77E2,1.7E2,4.52E2,7E1,4.3E1,8.9E1,9.1E1],"tree_param":{"num_deleted":"0","num_feature":"2","num_nodes":"27","size_leaf_vector":"1"}},{"base_weights":[-5.1021256E-4,4.5079082E-2,-8.353691E-2,1.8620469E-1,-9.4603635E-2,-2.6401296E-1,5.196584E-2,-2.447626E-2,5.5476856E-1,-3.185499E-1,-1.8672286E-2,-3.4240317E-1,-2.1989106E-1,1.2549953E-1,-1.4123754E-1,-2.8869558E-2,3.7551574E-2,-1.9023862E-3,8.219749E-2,4.863453E-2,-4.9881995E-2,-3.7600126E-2,1.2362667E-2,-4.741586E-2,-1.0191265E-2,-3.7523818E-3,-2.7090956E-2,-2.0006143E-2,1.8836873E-2,6.830244E-2,-3.0693723E-2],"categories":[],"categories_nodes":[],"categories_segments":[],"categories_sizes":[],"default_left":[0,0,0,0,0,0,0,0,0,0,0,0,0,0,0,0,0,0,0,0,0,0,0,0,0,0,0,0,0,0,0],"id":43,"left_children":[1,3,5,7,9,11,13,15,17,19,21,23,25,27,29,-1,-1,-1,-1,-1,-1,-1,-1,-1,-1,-1,-1,-1,-1,-1,-1],"loss_changes":[3.386174E1,1.13859085E2,7.756053E1,2.2310025E2,4.9358246E1,4.628578E0,2.5760733E1,1.9340738E2,1.6023602E2,1.0689E2,1.1033481E2,1.5414413E1,8.11232E0,2.6911844E1,6.849961E1,0E0,0E0,0E0,0E0,0E0,0E0,0E0,0E0,0E0,0E0,0E0,0E0,0E0,0E0,0E0,0E0],"parents":[2147483647,0,0,1,1,2,2,3,3,4,4,5,5,6,6,7,7,8,8,9,9,10,10,11,11,12,12,13,13,14,14],"right_children":[2,4,6,8,10,12,14,16,18,20,22,24,26,28,30,-1,-1,-1,-1,-1,-1,-1,-1,-1,-1,-1,-1,-1,-1,-1,-1],"split_conditions":[1.8E1,5E0,4E0,1.2E1,6E0,2E0,7E0,3E0,2E0,5E0,7E0,2.2E1,2E1,1.9E1,1.9E1,-2.8869558E-2,3.7551574E-2,-1.9023862E-3,8.219749E-2,4.863453E-2,-4.9881995E-2,-3.7600126E-2,1.2362667E-2,-4.741586E-2,-1.0191265E-2,-3.7523818E-3,-2.7090956E-2,-2.0006143E-2,1.8836873E-2,6.830244E-2,-3.0693723E-2],"split_indices":[1,0,0,1,0,0,0,0,0,1,1,1,1,1,1,0,0,0,0,0,0,0,0,0,0,0,0,0,0,0,0],"split_type":[0,0,0,0,0,0,0,0,0,0,0,0,0,0,0,0,0,0,0,0,0,0,0,0,0,0,0,0,0,0,0],"sum_hessian":[8.944E3,5.774E3,3.17E3,2.872E3,2.902E3,1.359E3,1.811E3,1.828E3,1.044E3,7.34E2,2.168E3,4.87E2,8.72E2,1.312E3,4.99E2,1.101E3,7.27E2,3.32E2,7.12E2,1.34E2,6E2,6.17E2,1.551E3,3.14E2,1.73E2,1.91E2,6.81E2,2.12E2,1.1E3,8.3E1,4.16E2],"tree_param":{"num_deleted":"0","num_feature":"2","num_nodes":"31","size_leaf_vector":"1"}},{"base_weights":[-4.5809345E-4,4.7616974E-2,-6.918886E-2,1.0983488E-3,2.9506347E-1,-4.8657277E-1,1.2548696E-2,-1.4817084E-1,6.2833376E-2,1.1949131E0,6.986404E-3,-1.23243324E-1,-3.08281E-1,7.2806805E-2,-2.3663948E-1,-2.4559043E-2,1.4886399E-1,6.379451E-2,-2.2929735E-3,1.4983019E-1,5.7502516E-2,2.2640277E-2,-1.7854635E-2,-4.268934E-2,-9.1780005E-3,6.906781E-2,-1.1211776E-3,-7.7687606E-2,-1.2703843E-2],"categories":[],"categories_nodes":[],"categories_segments":[],"categories_sizes":[],"default_left":[0,0,0,0,0,0,0,0,0,0,0,0,0,0,0,0,0,0,0,0,0,0,0,0,0,0,0,0,0],"id":44,"left_children":[1,3,5,7,9,11,13,15,17,19,21,-1,23,25,27,-1,-1,-1,-1,-1,-1,-1,-1,-1,-1,-1,-1,-1,-1],"loss_changes":[2.955969E1,6.0592896E1,1.25621E2,4.0850796E1,2.1592697E2,7.9807465E1,4.62653E1,2.071819E2,1.546927E2,3.712799E1,2.5768457E1,0E0,1.2492508E1,1.2880307E2,3.54276E1,0E0,0E0,0E0,0E0,0E0,0E0,0E0,0E0,0E0,0E0,0E0,0E0,0E0,0E0],"parents":[2147483647,0,0,1,1,2,2,3,3,4,4,5,5,6,6,7,7,8,8,9,9,10,10,12,12,13,13,14,14],"right_children":[2,4,6,8,10,12,14,16,18,20,22,-1,24,26,28,-1,-1,-1,-1,-1,-1,-1,-1,-1,-1,-1,-1,-1,-1],"split_conditions":[1.7E1,1.5E1,2E0,3E0,3E0,1.8E1,7E0,1.4E1,4E0,1.6E1,6E0,-1.23243324E-1,2.2E1,1.8E1,1.8E1,-2.4559043E-2,1.4886399E-1,6.379451E-2,-2.2929735E-3,1.4983019E-1,5.7502516E-2,2.2640277E-2,-1.7854635E-2,-4.268934E-2,-9.1780005E-3,6.906781E-2,-1.1211776E-3,-7.7687606E-2,-1.2703843E-2],"split_indices":[1,1,0,0,0,1,0,1,0,1,0,0,1,1,1,0,0,0,0,0,0,0,0,0,0,0,0,0,0],"split_type":[0,0,0,0,0,0,0,0,0,0,0,0,0,0,0,0,0,0,0,0,0,0,0,0,0,0,0,0,0],"sum_hessian":[8.944E3,5.263E3,3.681E3,4.431E3,8.32E2,6.02E2,3.079E3,1.296E3,3.135E3,2.01E2,6.31E2,1.15E2,4.87E2,2.48E3,5.99E2,1.224E3,7.2E1,4.06E2,2.729E3,1.34E2,6.7E1,2.89E2,3.42E2,3.14E2,1.73E2,2.96E2,2.184E3,1E2,4.99E2],"tree_param":{"num_deleted":"0","num_feature":"2","num_nodes":"29","size_leaf_vector":"1"}},{"base_weights":[-3.8988862E-4,1.940857E-2,-1.5560786E-1,-5.561222E-2,5.710707E-2,-2.3915274E-1,-3.533886E-2,2.7239692E-1,-1.18626274E-1,-2.364383E-1,1.0688534E-1,-1.3830711E-1,-3.4832996E-1,1.16608E-1,-3.2315937E-1,5.9928875E-2,-2.9567305E-2,-4.4720095E-2,-4.3126447E-3,2.0398958E-2,-5.8106102E-2,2.3287369E-2,2.0407753E-3,8.088334E-3,-4.9935654E-2,-5.820285E-2,9.373336E-4,5.223034E-2,-3.0812306E-2,-4.526101E-2,-5.4828576E-3],"categories":[],"categories_nodes":[],"categories_segments":[],"categories_sizes":[],"default_left":[0,0,0,0,0,0,0,0,0,0,0,0,0,0,0,0,0,0,0,0,0,0,0,0,0,0,0,0,0,0,0],"id":45,"left_children":[1,3,5,7,9,11,13,15,17,19,21,23,25,27,29,-1,-1,-1,-1,-1,-1,-1,-1,-1,-1,-1,-1,-1,-1,-1,-1],"loss_changes":[2.7491692E1,2.2441885E1,1.0159985E1,5.4888336E1,7.71922E1,6.5248184E0,1.8230787E1,7.96557E1,5.5226646E1,1.1638311E2,4.919782E1,2.4731628E1,2.3913551E1,4.7201954E1,4.977112E0,0E0,0E0,0E0,0E0,0E0,0E0,0E0,0E0,0E0,0E0,0E0,0E0,0E0,0E0,0E0,0E0],"parents":[2147483647,0,0,1,1,2,2,3,3,4,4,5,5,6,6,7,7,8,8,9,9,10,10,11,11,12,12,13,13,14,14],"right_children":[2,4,6,8,10,12,14,16,18,20,22,24,26,28,30,-1,-1,-1,-1,-1,-1,-1,-1,-1,-1,-1,-1,-1,-1,-1,-1],"split_conditions":[2.2E1,1E1,5E0,2E0,2E0,3E0,7E0,6E0,3E0,1.7E1,5E0,2.3E1,2.3E1,2.3E1,2.3E1,5.9928875E-2,-2.9567305E-2,-4.4720095E-2,-4.3126447E-3,2.0398958E-2,-5.8106102E-2,2.3287369E-2,2.0407753E-3,8.088334E-3,-4.9935654E-2,-5.820285E-2,9.373336E-4,5.223034E-2,-3.0812306E-2,-4.526101E-2,-5.4828576E-3],"split_indices":[1,1,0,0,0,0,0,1,0,1,0,1,1,1,1,0,0,0,0,0,0,0,0,0,0,0,0,0,0,0,0],"split_type":[0,0,0,0,0,0,0,0,0,0,0,0,0,0,0,0,0,0,0,0,0,0,0,0,0,0,0,0,0,0,0],"sum_hessian":[8.944E3,7.933E3,1.011E3,2.653E3,5.28E3,5.96E2,4.15E2,4.27E2,2.226E3,7.65E2,4.515E3,3.11E2,2.85E2,2.72E2,1.43E2,2.71E2,1.56E2,4.15E2,1.811E3,3.36E2,4.29E2,1.837E3,2.678E3,1.94E2,1.17E2,1.72E2,1.13E2,1.39E2,1.33E2,9.6E1,4.7E1],"tree_param":{"num_deleted":"0","num_feature":"2","num_nodes":"31","size_leaf_vector":"1"}},{"base_weights":[-3.6875156E-4,1.7463773E-2,-1.4017397E-1,-1.2913162E-1,3.3351544E-2,-2.154035E-1,-3.1875428E-2,-2.195417E-1,3.9200068E-2,9.9541046E-2,-3.3478927E-2,-6.6353306E-2,-2.7606228E-1,1.0502583E-1,-2.9119602E-1,7.2543E-4,-3.0741392E-2,1.1918233E-2,-7.612443E-3,2.1600692E-2,-2.280013E-2,-5.4985523E-2,1.8519886E-3,1.5743576E-2,-3.708985E-2,-3.4598477E-2,-1.5615493E-2,4.704465E-2,-2.7754074E-2,-4.0781587E-2,-4.9460162E-3],"categories":[],"categories_nodes":[],"categories_segments":[],"categories_sizes":[],"default_left":[0,0,0,0,0,0,0,0,0,0,0,0,0,0,0,0,0,0,0,0,0,0,0,0,0,0,0,0,0,0,0],"id":46,"left_children":[1,3,5,7,9,11,13,15,17,19,21,23,25,27,29,-1,-1,-1,-1,-1,-1,-1,-1,-1,-1,-1,-1,-1,-1,-1,-1],"loss_changes":[2.2303051E1,1.8483181E1,8.23815E0,1.1818458E1,3.1670994E1,5.37928E0,1.479913E1,1.006641E1,2.5179775E0,1.3726582E2,9.568014E1,1.191717E1,3.5008812E0,3.829535E1,4.039362E0,0E0,0E0,0E0,0E0,0E0,0E0,0E0,0E0,0E0,0E0,0E0,0E0,0E0,0E0,0E0,0E0],"parents":[2147483647,0,0,1,1,2,2,3,3,4,4,5,5,6,6,7,7,8,8,9,9,10,10,11,11,12,12,13,13,14,14],"right_children":[2,4,6,8,10,12,14,16,18,20,22,24,26,28,30,-1,-1,-1,-1,-1,-1,-1,-1,-1,-1,-1,-1,-1,-1,-1,-1],"split_conditions":[2.2E1,3E0,5E0,6E0,5E0,2E0,7E0,1E0,2E0,1.9E1,6E0,2.3E1,2.3E1,2.3E1,2.3E1,7.2543E-4,-3.0741392E-2,1.1918233E-2,-7.612443E-3,2.1600692E-2,-2.280013E-2,-5.4985523E-2,1.8519886E-3,1.5743576E-2,-3.708985E-2,-3.4598477E-2,-1.5615493E-2,4.704465E-2,-2.7754074E-2,-4.0781587E-2,-4.9460162E-3],"split_indices":[1,1,0,0,0,0,0,1,1,1,1,1,1,1,1,0,0,0,0,0,0,0,0,0,0,0,0,0,0,0,0],"split_type":[0,0,0,0,0,0,0,0,0,0,0,0,0,0,0,0,0,0,0,0,0,0,0,0,0,0,0,0,0,0,0],"sum_hessian":[8.944E3,7.933E3,1.011E3,7.75E2,7.158E3,5.96E2,4.15E2,5.04E2,2.71E2,3.596E3,3.562E3,1.73E2,4.23E2,2.72E2,1.43E2,1.41E2,3.63E2,1.6E2,1.11E2,2.653E3,9.43E2,3.25E2,3.237E3,1E2,7.3E1,2.66E2,1.57E2,1.39E2,1.33E2,9.6E1,4.7E1],"tree_param":{"num_deleted":"0","num_feature":"2","num_nodes":"31","size_leaf_vector":"1"}},{"base_weights":[-3.5177427E-4,1.5707316E-2,-1.2625343E-1,-4.8038997E-2,4.7740456E-2,-1.9398303E-1,-2.8751438E-2,2.4287832E-1,-1.03927895E-1,-2.1766448E-1,9.274764E-2,-1.08352385E-1,-2.8672004E-1,9.459387E-2,-2.6239392E-1,5.4827105E-2,-2.8775677E-2,-4.1780647E-2,-3.1810112E-3,1.6211439E-2,-5.1479895E-2,2.4531893E-2,3.408471E-3,8.144117E-3,-4.2107604E-2,-4.8976373E-2,2.3922746E-3,4.237378E-2,-2.4999378E-2,-3.6745474E-2,-4.4616996E-3],"categories":[],"categories_nodes":[],"categories_segments":[],"categories_sizes":[],"default_left":[0,0,0,0,0,0,0,0,0,0,0,0,0,0,0,0,0,0,0,0,0,0,0,0,0,0,0,0,0,0,0],"id":47,"left_children":[1,3,5,7,9,11,13,15,17,19,21,23,25,27,29,-1,-1,-1,-1,-1,-1,-1,-1,-1,-1,-1,-1,-1,-1,-1,-1],"loss_changes":[1.8087578E1,1.6203478E1,6.677437E0,4.317675E1,6.3102413E1,4.7097893E0,1.2013402E1,6.951607E1,5.039759E1,8.6523026E1,4.0411106E1,1.8552408E1,1.8050896E1,3.10693E1,3.2782984E0,0E0,0E0,0E0,0E0,0E0,0E0,0E0,0E0,0E0,0E0,0E0,0E0,0E0,0E0,0E0,0E0],"parents":[2147483647,0,0,1,1,2,2,3,3,4,4,5,5,6,6,7,7,8,8,9,9,10,10,11,11,12,12,13,13,14,14],"right_children":[2,4,6,8,10,12,14,16,18,20,22,24,26,28,30,-1,-1,-1,-1,-1,-1,-1,-1,-1,-1,-1,-1,-1,-1,-1,-1],"split_conditions":[2.2E1,1E1,5E0,2E0,2E0,3E0,7E0,6E0,3E0,1.7E1,4E0,2.3E1,2.3E1,2.3E1,2.3E1,5.4827105E-2,-2.8775677E-2,-4.1780647E-2,-3.1810112E-3,1.6211439E-2,-5.1479895E-2,2.4531893E-2,3.408471E-3,8.144117E-3,-4.2107604E-2,-4.8976373E-2,2.3922746E-3,4.237378E-2,-2.4999378E-2,-3.6745474E-2,-4.4616996E-3],"split_indices":[1,1,0,0,0,0,0,1,0,1,0,1,1,1,1,0,0,0,0,0,0,0,0,0,0,0,0,0,0,0,0],"split_type":[0,0,0,0,0,0,0,0,0,0,0,0,0,0,0,0,0,0,0,0,0,0,0,0,0,0,0,0,0,0,0],"sum_hessian":[8.944E3,7.933E3,1.011E3,2.653E3,5.28E3,5.96E2,4.15E2,4.27E2,2.226E3,7.65E2,4.515E3,3.11E2,2.85E2,2.72E2,1.43E2,2.71E2,1.56E2,4.15E2,1.811E3,3.36E2,4.29E2,1.253E3,3.262E3,1.94E2,1.17E2,1.72E2,1.13E2,1.39E2,1.33E2,9.6E1,4.7E1],"tree_param":{"num_deleted":"0","num_feature":"2","num_nodes":"31","size_leaf_vector":"1"}},{"base_weights":[-3.3115214E-4,3.833545E-2,-4.7605194E-2,-3.798785E-3,4.1935706E-1,-8.414483E-3,-2.4383865E-1,-1.5054347E-1,5.6893706E-2,1.2862395E0,8.944558E-2,-2.0701714E-1,3.8913343E-2,-6.788315E-2,-9.4583444E-2,2.049805E-2,-5.945335E-2,-1.8977026E-2,2.2621252E-2,3.0167637E-2,2.2518873E-1,-1.591238E-2,7.6431185E-2,1.6749641E-1,-3.4399915E-2,2.521812E-2,-1.2542529E-3,3.4350533E-2,-3.3571415E-2],"categories":[],"categories_nodes":[],"categories_segments":[],"categories_sizes":[],"default_left":[0,0,0,0,0,0,0,0,0,0,0,0,0,0,0,0,0,0,0,0,0,0,0,0,0,0,0,0,0],"id":48,"left_children":[1,3,5,7,9,11,13,15,17,19,21,23,25,-1,27,-1,-1,-1,-1,-1,-1,-1,-1,-1,-1,-1,-1,-1,-1],"loss_changes":[1.6352629E1,7.900359E1,3.0952328E1,3.948129E1,1.4002225E2,3.155255E1,4.3435505E1,2.0485214E2,1.310175E2,1.2767076E2,5.9841007E1,1.6711342E2,2.9753363E1,0E0,5.293364E1,0E0,0E0,0E0,0E0,0E0,0E0,0E0,0E0,0E0,0E0,0E0,0E0,0E0,0E0],"parents":[2147483647,0,0,1,1,2,2,3,3,4,4,5,5,6,6,7,7,8,8,9,9,10,10,11,11,12,12,14,14],"right_children":[2,4,6,8,10,12,14,16,18,20,22,24,26,-1,28,-1,-1,-1,-1,-1,-1,-1,-1,-1,-1,-1,-1,-1,-1],"split_conditions":[1.6E1,1.5E1,7E0,3E0,3E0,2E0,1.8E1,9E0,8E0,2E0,7E0,1.7E1,1.8E1,-6.788315E-2,2E1,2.049805E-2,-5.945335E-2,-1.8977026E-2,2.2621252E-2,3.0167637E-2,2.2518873E-1,-1.591238E-2,7.6431185E-2,1.6749641E-1,-3.4399915E-2,2.521812E-2,-1.2542529E-3,3.4350533E-2,-3.3571415E-2],"split_indices":[1,1,0,0,0,0,1,1,1,0,0,1,1,0,1,0,0,0,0,0,0,0,0,0,0,0,0,0,0],"split_type":[0,0,0,0,0,0,0,0,0,0,0,0,0,0,0,0,0,0,0,0,0,0,0,0,0,0,0,0,0],"sum_hessian":[8.944E3,4.92E3,4.024E3,4.431E3,4.89E2,3.355E3,6.69E2,1.296E3,3.135E3,1.34E2,3.55E2,6.45E2,2.71E3,1.7E2,4.99E2,7.2E2,5.76E2,1.276E3,1.859E3,6.7E1,6.7E1,2.6E2,9.5E1,4.3E1,6.02E2,5.26E2,2.184E3,1.77E2,3.22E2],"tree_param":{"num_deleted":"0","num_feature":"2","num_nodes":"29","size_leaf_vector":"1"}},{"base_weights":[-2.5661703E-4,1.960085E-2,-8.639237E-2,-1.7421524E-1,3.6840204E-2,-2.2378525E-1,8.333823E-3,-3.1073976E-1,-7.4093536E-2,6.824327E-2,-7.9465546E-2,-9.632847E-2,-1.0130032E-1,4.7955966E-1,-2.1955499E-1,-2.3324115E-2,-4.3769762E-2,1.3354614E-2,-1.7227264E-2,1.3182461E-2,-3.1877065E-3,-2.0230066E-2,1.9189384E-2,-1.7862597E-2,3.3436514E-2,3.898007E-2,6.8867676E-2,-6.1134525E-2,-8.512361E-3],"categories":[],"categories_nodes":[],"categories_segments":[],"categories_sizes":[],"default_left":[0,0,0,0,0,0,0,0,0,0,0,0,0,0,0,0,0,0,0,0,0,0,0,0,0,0,0,0,0],"id":49,"left_children":[1,3,5,7,9,11,13,15,17,19,21,23,-1,25,27,-1,-1,-1,-1,-1,-1,-1,-1,-1,-1,-1,-1,-1,-1],"loss_changes":[1.5301561E1,2.4297407E1,2.1814508E1,8.096401E0,2.4392212E1,6.870679E1,1.0674067E2,2.3675137E0,7.035748E0,3.34755E1,4.737091E1,2.0972282E1,0E0,5.81308E0,3.523613E1,0E0,0E0,0E0,0E0,0E0,0E0,0E0,0E0,0E0,0E0,0E0,0E0,0E0,0E0],"parents":[2147483647,0,0,1,1,2,2,3,3,4,4,5,5,6,6,7,7,8,8,9,9,10,10,11,11,13,13,14,14],"right_children":[2,4,6,8,10,12,14,16,18,20,22,24,-1,26,28,-1,-1,-1,-1,-1,-1,-1,-1,-1,-1,-1,-1,-1,-1],"split_conditions":[7E0,3E0,1.2E1,3E0,2.1E1,1.1E1,1.6E1,2E0,1E0,5E0,5E0,1E1,-1.0130032E-1,1.5E1,1.8E1,-2.3324115E-2,-4.3769762E-2,1.3354614E-2,-1.7227264E-2,1.3182461E-2,-3.1877065E-3,-2.0230066E-2,1.9189384E-2,-1.7862597E-2,3.3436514E-2,3.898007E-2,6.8867676E-2,-6.1134525E-2,-8.512361E-3],"split_indices":[0,1,1,0,1,1,1,0,1,0,0,1,0,1,1,0,0,0,0,0,0,0,0,0,0,0,0,0,0],"split_type":[0,0,0,0,0,0,0,0,0,0,0,0,0,0,0,0,0,0,0,0,0,0,0,0,0,0,0,0,0],"sum_hessian":[8.944E3,7.269E3,1.675E3,5.93E2,6.676E3,6.83E2,9.92E2,2.5E2,3.43E2,5.257E3,1.419E3,5.89E2,9.4E1,3.23E2,6.69E2,1.57E2,9.3E1,1.1E2,2.33E2,3.215E3,2.042E3,9.77E2,4.42E2,4.95E2,9.4E1,2.28E2,9.5E1,1.7E2,4.99E2],"tree_param":{"num_deleted":"0","num_feature":"2","num_nodes":"29","size_leaf_vector":"1"}}]},"name":"gbtree"},"learner_model_param":{"base_score":"[1.3590787E1]","boost_from_average":"1","num_class":"0","num_feature":"2","num_target":"1"},"objective":{"name":"reg:squarederror","reg_loss_param":{"scale_pos_weight":"1"}}},"version":[3,2,0]}