{"learner":{"attributes":{},"feature_names":["day_of_week","hour_of_day"],"feature_types":[],"gradient_booster":{"model":{"cats":{"enc":[],"feature_segments":[],"sorted_idx":[]},"gbtree_model_param":{"num_parallel_tree":"1","num_trees":"50"},"iteration_indptr":[0,1,2,3,4,5,6,7,8,9,10,11,12,13,14,15,16,17,18,19,20,21,22,23,24,25,26,27,28,29,30,31,32,33,34,35,36,37,38,39,40,41,42,43,44,45,46,47,48,49,50],"tree_info":[0,0,0,0,0,0,0,0,0,0,0,0,0,0,0,0,0,0,0,0,0,0,0,0,0,0,0,0,0,0,0,0,0,0,0,0,0,0,0,0,0,0,0,0,0,0,0,0,0,0],"trees":[{"base_weights":[-3.173668E-7,-1.0379835E1,1.17852E0,-1.1279452E1,-8.622472E0,3.6260104E0,-5.092091E0,-1.1709878E0,-4.0913157E0,-7.303327E-1,-9.375888E0,-1.8099328E0,3.979005E0,-2.6386766E0,-7.825562E0,-4.525445E-1,-2.8665462E-1,-9.6108025E-1,-8.1843436E-1,1.5012391E-1,-7.0244354E-1,4.67697E-1,8.7774634E-2,-4.2219886E-1,-1.4127396E-1,-9.931397E-1,-5.436623E-1],"categories":[],"categories_nodes":[],"categories_segments":[],"categories_sizes":[],"default_left":[0,0,0,0,0,0,0,0,0,0,0,0,0,0,0,0,0,0,0,0,0,0,0,0,0,0,0],"id":0,"left_children":[1,3,5,7,9,11,13,-1,15,-1,17,19,21,23,25,-1,-1,-1,-1,-1,-1,-1,-1,-1,-1,-1,-1],"loss_changes":[2.0755469E5,2.6377969E3,2.3386469E5,3.4822969E3,5.1790234E2,2.1037875E4,2.866907E4,0E0,2.2120361E1,0E0,2.5470703E1,1.1561575E4,2.2273656E4,4.3730215E3,1.0123133E4,0E0,0E0,0E0,0E0,0E0,0E0,0E0,0E0,0E0,0E0,0E0,0E0],"parents":[2147483647,0,0,1,1,2,2,3,3,4,4,5,5,6,6,8,8,10,10,11,11,12,12,13,13,14,14],"right_children":[2,4,6,8,10,12,14,-1,16,-1,18,20,22,24,26,-1,-1,-1,-1,-1,-1,-1,-1,-1,-1,-1,-1],"split_conditions":[4E0,6E0,2E1,3E0,1E0,5E0,2.2E1,-1.1709878E0,2E0,-7.303327E-1,3E0,6E0,1.8E1,4E0,5E0,-4.525445E-1,-2.8665462E-1,-9.6108025E-1,-8.1843436E-1,1.5012391E-1,-7.0244354E-1,4.67697E-1,8.7774634E-2,-4.2219886E-1,-1.4127396E-1,-9.931397E-1,-5.436623E-1],"split_indices":[1,0,1,1,1,1,1,0,0,0,1,0,1,0,0,0,0,0,0,0,0,0,0,0,0,0,0],"split_type":[0,0,0,0,0,0,0,0,0,0,0,0,0,0,0,0,0,0,0,0,0,0,0,0,0,0,0],"sum_hessian":[1.6965E4,1.729E3,1.5236E4,1.14E3,5.89E2,1.0959E4,4.277E3,1.075E3,6.5E1,2.18E2,3.71E2,6.68E2,1.0291E4,2.255E3,2.022E3,4.6E1,1.9E1,3.04E2,6.7E1,4.09E2,2.59E2,8.4E3,1.891E3,9.83E2,1.272E3,1.073E3,9.49E2],"tree_param":{"num_deleted":"0","num_feature":"2","num_nodes":"27","size_leaf_vector":"1"}},{"base_weights":[-3.844887E-4,-9.344406E0,1.0605302E0,-1.0153181E1,-7.7644787E0,3.5858953E0,-3.8922572E0,-1.0539979E0,-3.6933844E0,-6.576329E-1,-8.443082E0,2.9530925E-1,4.1934543E0,-1.8501977E0,-7.043766E0,-4.0825295E-1,-2.5942245E-1,-8.652873E-1,-7.3779446E-1,3.5550657E-1,-5.883191E-1,4.69151E-1,2.313221E-1,-9.9203676E-2,-3.2478473E-1,-8.939182E-1,-4.8935333E-1],"categories":[],"categories_nodes":[],"categories_segments":[],"categories_sizes":[],"default_left":[0,0,0,0,0,0,0,0,0,0,0,0,0,0,0,0,0,0,0,0,0,0,0,0,0,0,0],"id":1,"left_children":[1,3,5,7,9,11,13,-1,15,-1,17,19,21,23,25,-1,-1,-1,-1,-1,-1,-1,-1,-1,-1,-1,-1],"loss_changes":[1.6819742E5,2.1317812E3,1.905922E5,2.8120078E3,4.201836E2,2.0174953E4,3.3104406E4,0E0,1.7639465E1,0E0,1.928711E1,3.1721912E4,7.9668438E3,3.7437295E3,8.201164E3,0E0,0E0,0E0,0E0,0E0,0E0,0E0,0E0,0E0,0E0,0E0,0E0],"parents":[2147483647,0,0,1,1,2,2,3,3,4,4,5,5,6,6,8,8,10,10,11,11,12,12,13,13,14,14],"right_children":[2,4,6,8,10,12,14,-1,16,-1,18,20,22,24,26,-1,-1,-1,-1,-1,-1,-1,-1,-1,-1,-1,-1],"split_conditions":[4E0,6E0,1.9E1,3E0,1E0,7E0,2.2E1,-1.0539979E0,2E0,-6.576329E-1,3E0,6E0,7E0,2.1E1,5E0,-4.0825295E-1,-2.5942245E-1,-8.652873E-1,-7.3779446E-1,3.5550657E-1,-5.883191E-1,4.69151E-1,2.313221E-1,-9.9203676E-2,-3.2478473E-1,-8.939182E-1,-4.8935333E-1],"split_indices":[1,0,1,1,1,1,1,0,0,0,1,0,0,1,0,0,0,0,0,0,0,0,0,0,0,0,0],"split_type":[0,0,0,0,0,0,0,0,0,0,0,0,0,0,0,0,0,0,0,0,0,0,0,0,0,0,0],"sum_hessian":[1.6965E4,1.729E3,1.5236E4,1.14E3,5.89E2,1.0091E4,5.145E3,1.075E3,6.5E1,2.18E2,3.71E2,1.573E3,8.518E3,3.123E3,2.022E3,4.6E1,1.9E1,3.04E2,6.7E1,1.03E3,5.43E2,6.733E3,1.785E3,1.936E3,1.187E3,1.073E3,9.49E2],"tree_param":{"num_deleted":"0","num_feature":"2","num_nodes":"27","size_leaf_vector":"1"}},{"base_weights":[-6.596093E-4,-8.412267E0,9.543894E-1,-9.139372E0,-6.9918623E0,3.2273521E0,-3.5033827E0,-9.4869596E-1,-3.3341625E0,-5.9216994E-1,-7.6030827E0,-1.6193432E0,3.5710716E0,-1.6653135E0,-6.340073E0,-3.682963E-1,-2.3477733E-1,-7.7904224E-1,-6.651E-1,9.968419E-2,-5.7386374E-1,4.1281423E-1,1.3945515E-1,-2.8813618E-1,-7.80911E-2,-8.542908E-1,-4.8159653E-1],"categories":[],"categories_nodes":[],"categories_segments":[],"categories_sizes":[],"default_left":[0,0,0,0,0,0,0,0,0,0,0,0,0,0,0,0,0,0,0,0,0,0,0,0,0,0,0],"id":2,"left_children":[1,3,5,7,9,11,13,-1,15,-1,17,19,21,23,25,-1,-1,-1,-1,-1,-1,-1,-1,-1,-1,-1,-1],"loss_changes":[1.3630436E5,1.7228125E3,1.5439792E5,2.2706953E3,3.4089844E2,1.6818078E4,2.682086E4,0E0,1.406073E1,0E0,1.4537109E1,7.2154233E3,1.1420609E4,3.357537E3,6.750789E3,0E0,0E0,0E0,0E0,0E0,0E0,0E0,0E0,0E0,0E0,0E0,0E0],"parents":[2147483647,0,0,1,1,2,2,3,3,4,4,5,5,6,6,8,8,10,10,11,11,12,12,13,13,14,14],"right_children":[2,4,6,8,10,12,14,-1,16,-1,18,20,22,24,26,-1,-1,-1,-1,-1,-1,-1,-1,-1,-1,-1,-1],"split_conditions":[4E0,6E0,1.9E1,3E0,1E0,5E0,2.2E1,-9.4869596E-1,2E0,-5.9216994E-1,3E0,6E0,7E0,4E0,4E0,-3.682963E-1,-2.3477733E-1,-7.7904224E-1,-6.651E-1,9.968419E-2,-5.7386374E-1,4.1281423E-1,1.3945515E-1,-2.8813618E-1,-7.80911E-2,-8.542908E-1,-4.8159653E-1],"split_indices":[1,0,1,1,1,1,1,0,0,0,1,0,0,0,0,0,0,0,0,0,0,0,0,0,0,0,0],"split_type":[0,0,0,0,0,0,0,0,0,0,0,0,0,0,0,0,0,0,0,0,0,0,0,0,0,0,0],"sum_hessian":[1.6965E4,1.729E3,1.5236E4,1.14E3,5.89E2,1.0091E4,5.145E3,1.075E3,6.5E1,2.18E2,3.71E2,6.68E2,9.423E3,3.123E3,2.022E3,4.6E1,1.9E1,3.04E2,6.7E1,4.09E2,2.59E2,7.502E3,1.921E3,1.314E3,1.809E3,8.25E2,1.197E3],"tree_param":{"num_deleted":"0","num_feature":"2","num_nodes":"27","size_leaf_vector":"1"}},{"base_weights":[-9.006863E-4,-7.5731144E0,8.5884404E-1,-8.226794E0,-6.296128E0,2.656479E0,-3.7467978E0,-8.5391456E-1,-3.0098834E0,-5.3322333E-1,-6.8466563E0,-1.4581174E0,2.9236774E0,-1.9876304E0,-5.706726E0,-3.3225024E-1,-2.1247347E-1,-7.013934E-1,-5.9956807E-1,8.974012E-2,-5.1669806E-1,3.4725484E-1,4.849938E-2,-3.0860698E-1,-7.563371E-2,-7.278661E-1,-3.9236054E-1],"categories":[],"categories_nodes":[],"categories_segments":[],"categories_sizes":[],"default_left":[0,0,0,0,0,0,0,0,0,0,0,0,0,0,0,0,0,0,0,0,0,0,0,0,0,0,0],"id":3,"left_children":[1,3,5,7,9,11,13,-1,15,-1,17,19,21,23,25,-1,-1,-1,-1,-1,-1,-1,-1,-1,-1,-1,-1],"loss_changes":[1.10458055E5,1.3923047E3,1.26161055E5,1.8335703E3,2.7657617E2,1.2053844E4,1.4738523E4,0E0,1.1203674E1,0E0,1.0900391E1,5.8492197E3,1.3774391E4,3.0489082E3,5.6418047E3,0E0,0E0,0E0,0E0,0E0,0E0,0E0,0E0,0E0,0E0,0E0,0E0],"parents":[2147483647,0,0,1,1,2,2,3,3,4,4,5,5,6,6,8,8,10,10,11,11,12,12,13,13,14,14],"right_children":[2,4,6,8,10,12,14,-1,16,-1,18,20,22,24,26,-1,-1,-1,-1,-1,-1,-1,-1,-1,-1,-1,-1],"split_conditions":[4E0,6E0,2E1,3E0,1E0,5E0,2.2E1,-8.5391456E-1,2E0,-5.3322333E-1,3E0,6E0,1.8E1,5E0,5E0,-3.3225024E-1,-2.1247347E-1,-7.013934E-1,-5.9956807E-1,8.974012E-2,-5.1669806E-1,3.4725484E-1,4.849938E-2,-3.0860698E-1,-7.563371E-2,-7.278661E-1,-3.9236054E-1],"split_indices":[1,0,1,1,1,1,1,0,0,0,1,0,1,0,0,0,0,0,0,0,0,0,0,0,0,0,0],"split_type":[0,0,0,0,0,0,0,0,0,0,0,0,0,0,0,0,0,0,0,0,0,0,0,0,0,0,0],"sum_hessian":[1.6965E4,1.729E3,1.5236E4,1.14E3,5.89E2,1.0959E4,4.277E3,1.075E3,6.5E1,2.18E2,3.71E2,6.68E2,1.0291E4,2.255E3,2.022E3,4.6E1,1.9E1,3.04E2,6.7E1,4.09E2,2.59E2,8.4E3,1.891E3,1.191E3,1.064E3,1.073E3,9.49E2],"tree_param":{"num_deleted":"0","num_feature":"2","num_nodes":"27","size_leaf_vector":"1"}},{"base_weights":[-1.0916268E-3,-6.817672E0,7.728589E-1,-7.405341E0,-5.669624E0,2.3908281E0,-3.3724694E0,-7.686025E-1,-2.717148E0,-4.801445E-1,-6.1654882E0,2.9097166E0,3.570345E-1,-1.7890375E0,-5.1366067E0,-2.9973212E-1,-1.9228846E-1,-6.314841E-1,-5.4049295E-1,3.4119278E-1,5.3784844E-2,-5.773248E-1,1.8637203E-1,-2.9832473E-1,-8.645352E-2,-6.962666E-1,-3.8732836E-1],"categories":[],"categories_nodes":[],"categories_segments":[],"categories_sizes":[],"default_left":[0,0,0,0,0,0,0,0,0,0,0,0,0,0,0,0,0,0,0,0,0,0,0,0,0,0,0],"id":4,"left_children":[1,3,5,7,9,11,13,-1,15,-1,17,19,21,23,25,-1,-1,-1,-1,-1,-1,-1,-1,-1,-1,-1,-1],"loss_changes":[8.951273E4,1.1251953E3,1.0220282E5,1.4805508E3,2.2439258E2,1.1565191E4,1.19409375E4,0E0,8.923553E0,0E0,8.124023E0,1.0399539E4,2.0598715E4,2.4881572E3,4.6398945E3,0E0,0E0,0E0,0E0,0E0,0E0,0E0,0E0,0E0,0E0,0E0,0E0],"parents":[2147483647,0,0,1,1,2,2,3,3,4,4,5,5,6,6,8,8,10,10,11,11,12,12,13,13,14,14],"right_children":[2,4,6,8,10,12,14,-1,16,-1,18,20,22,24,26,-1,-1,-1,-1,-1,-1,-1,-1,-1,-1,-1,-1],"split_conditions":[4E0,6E0,2E1,3E0,1E0,7E0,2.2E1,-7.686025E-1,2E0,-4.801445E-1,3E0,1.8E1,9E0,4E0,4E0,-2.9973212E-1,-1.9228846E-1,-6.314841E-1,-5.4049295E-1,3.4119278E-1,5.3784844E-2,-5.773248E-1,1.8637203E-1,-2.9832473E-1,-8.645352E-2,-6.962666E-1,-3.8732836E-1],"split_indices":[1,0,1,1,1,0,1,0,0,0,1,1,1,0,0,0,0,0,0,0,0,0,0,0,0,0,0],"split_type":[0,0,0,0,0,0,0,0,0,0,0,0,0,0,0,0,0,0,0,0,0,0,0,0,0,0,0],"sum_hessian":[1.6965E4,1.729E3,1.5236E4,1.14E3,5.89E2,1.0959E4,4.277E3,1.075E3,6.5E1,2.18E2,3.71E2,8.731E3,2.228E3,2.255E3,2.022E3,4.6E1,1.9E1,3.04E2,6.7E1,7.205E3,1.526E3,4.39E2,1.789E3,9.83E2,1.272E3,8.25E2,1.197E3],"tree_param":{"num_deleted":"0","num_feature":"2","num_nodes":"27","size_leaf_vector":"1"}},{"base_weights":[-1.240694E-3,-6.1375885E0,6.9547665E-1,-6.6659117E0,-5.1054616E0,2.3674583E0,-2.5836399E0,-6.9181365E-1,-2.452888E0,-4.3234926E-1,-5.55209E0,-1.9686782E-1,2.840974E0,-1.2618778E0,-4.623482E0,-2.7039662E-1,-1.7402105E-1,-5.685427E-1,-4.8723847E-1,2.3260859E-1,-4.9780592E-1,3.097279E-1,9.619681E-2,-5.8540948E-2,-2.3637779E-1,-5.927192E-1,-3.1447372E-1],"categories":[],"categories_nodes":[],"categories_segments":[],"categories_sizes":[],"default_left":[0,0,0,0,0,0,0,0,0,0,0,0,0,0,0,0,0,0,0,0,0,0,0,0,0,0,0],"id":5,"left_children":[1,3,5,7,9,11,13,-1,15,-1,17,19,21,23,25,-1,-1,-1,-1,-1,-1,-1,-1,-1,-1,-1,-1],"loss_changes":[7.253901E4,9.0933203E2,8.354483E4,1.1954883E3,1.8205176E2,1.2254762E4,1.3868742E4,0E0,7.104431E0,0E0,6.0126953E0,1.8998307E4,4.099758E3,2.327248E3,3.8814062E3,0E0,0E0,0E0,0E0,0E0,0E0,0E0,0E0,0E0,0E0,0E0,0E0],"parents":[2147483647,0,0,1,1,2,2,3,3,4,4,5,5,6,6,8,8,10,10,11,11,12,12,13,13,14,14],"right_children":[2,4,6,8,10,12,14,-1,16,-1,18,20,22,24,26,-1,-1,-1,-1,-1,-1,-1,-1,-1,-1,-1,-1],"split_conditions":[4E0,6E0,1.9E1,3E0,1E0,7E0,2.2E1,-6.9181365E-1,2E0,-4.3234926E-1,3E0,6E0,1.8E1,2.1E1,5E0,-2.7039662E-1,-1.7402105E-1,-5.685427E-1,-4.8723847E-1,2.3260859E-1,-4.9780592E-1,3.097279E-1,9.619681E-2,-5.8540948E-2,-2.3637779E-1,-5.927192E-1,-3.1447372E-1],"split_indices":[1,0,1,1,1,1,1,0,0,0,1,0,1,1,0,0,0,0,0,0,0,0,0,0,0,0,0],"split_type":[0,0,0,0,0,0,0,0,0,0,0,0,0,0,0,0,0,0,0,0,0,0,0,0,0,0,0],"sum_hessian":[1.6965E4,1.729E3,1.5236E4,1.14E3,5.89E2,1.0091E4,5.145E3,1.075E3,6.5E1,2.18E2,3.71E2,1.573E3,8.518E3,3.123E3,2.022E3,4.6E1,1.9E1,3.04E2,6.7E1,1.03E3,5.43E2,7.495E3,1.023E3,1.936E3,1.187E3,1.073E3,9.49E2],"tree_param":{"num_deleted":"0","num_feature":"2","num_nodes":"27","size_leaf_vector":"1"}},{"base_weights":[-1.3337263E-3,-5.5253468E0,6.258595E-1,-6.0003166E0,-4.597438E0,2.1307266E0,-2.3255093E0,-6.226966E-1,-2.2143333E0,-3.8931176E-1,-4.999719E0,7.0328385E-1,2.8201168E0,-1.1357843E0,-4.161582E0,-2.4393229E-1,-1.5748909E-1,-5.1187485E-1,-4.3923113E-1,1.6873156E-1,-4.1877913E-1,3.3602786E-1,1.4001499E-1,-5.2689847E-2,-2.127599E-1,-5.6752414E-1,-3.1144676E-1],"categories":[],"categories_nodes":[],"categories_segments":[],"categories_sizes":[],"default_left":[0,0,0,0,0,0,0,0,0,0,0,0,0,0,0,0,0,0,0,0,0,0,0,0,0,0,0],"id":6,"left_children":[1,3,5,7,9,11,13,-1,15,-1,17,19,21,23,25,-1,-1,-1,-1,-1,-1,-1,-1,-1,-1,-1,-1],"loss_changes":[5.878426E4,7.34875E2,6.7678836E4,9.6529297E2,1.4770312E2,9.929203E3,1.1236305E4,0E0,5.6536255E0,0E0,4.411133E0,1.5832123E4,5.2148125E3,1.885469E3,3.1887266E3,0E0,0E0,0E0,0E0,0E0,0E0,0E0,0E0,0E0,0E0,0E0,0E0],"parents":[2147483647,0,0,1,1,2,2,3,3,4,4,5,5,6,6,8,8,10,10,11,11,12,12,13,13,14,14],"right_children":[2,4,6,8,10,12,14,-1,16,-1,18,20,22,24,26,-1,-1,-1,-1,-1,-1,-1,-1,-1,-1,-1,-1],"split_conditions":[4E0,6E0,1.9E1,3E0,1E0,1E1,2.2E1,-6.226966E-1,2E0,-3.8931176E-1,3E0,7E0,1.7E1,2.1E1,4E0,-2.4393229E-1,-1.5748909E-1,-5.1187485E-1,-4.3923113E-1,1.6873156E-1,-4.1877913E-1,3.3602786E-1,1.4001499E-1,-5.2689847E-2,-2.127599E-1,-5.6752414E-1,-3.1144676E-1],"split_indices":[1,0,1,1,1,1,1,0,0,0,1,0,1,1,0,0,0,0,0,0,0,0,0,0,0,0,0],"split_type":[0,0,0,0,0,0,0,0,0,0,0,0,0,0,0,0,0,0,0,0,0,0,0,0,0,0,0],"sum_hessian":[1.6965E4,1.729E3,1.5236E4,1.14E3,5.89E2,1.0091E4,5.145E3,1.075E3,6.5E1,2.18E2,3.71E2,3.287E3,6.804E3,3.123E3,2.022E3,4.6E1,1.9E1,3.04E2,6.7E1,2.737E3,5.5E2,4.928E3,1.876E3,1.936E3,1.187E3,8.25E2,1.197E3],"tree_param":{"num_deleted":"0","num_feature":"2","num_nodes":"27","size_leaf_vector":"1"}},{"base_weights":[-1.3936523E-3,-4.974179E0,5.632135E-1,-5.4011827E0,-4.139966E0,1.9176767E0,-2.0931807E0,-5.604848E-1,-1.9989818E0,-3.5055837E-1,-4.5023036E0,-2.4258085E-1,2.3165882E0,-1.022291E0,-3.7458582E0,-2.2005804E-1,-1.4252764E-1,-4.6085522E-1,-3.9595395E-1,1.9251353E-1,-4.3504354E-1,2.6518223E-1,1.0513135E-1,-1.9178978E-1,-3.7105054E-2,-4.8271605E-1,-2.519475E-1],"categories":[],"categories_nodes":[],"categories_segments":[],"categories_sizes":[],"default_left":[0,0,0,0,0,0,0,0,0,0,0,0,0,0,0,0,0,0,0,0,0,0,0,0,0,0,0],"id":7,"left_children":[1,3,5,7,9,11,13,-1,15,-1,17,19,21,23,25,-1,-1,-1,-1,-1,-1,-1,-1,-1,-1,-1,-1],"loss_changes":[4.763774E4,5.938867E2,5.4826562E4,7.7940234E2,1.19833984E2,8.697355E3,9.103742E3,0E0,4.4970093E0,0E0,3.2045898E0,1.4024312E4,3.6106562E3,1.8213779E3,2.6705215E3,0E0,0E0,0E0,0E0,0E0,0E0,0E0,0E0,0E0,0E0,0E0,0E0],"parents":[2147483647,0,0,1,1,2,2,3,3,4,4,5,5,6,6,8,8,10,10,11,11,12,12,13,13,14,14],"right_children":[2,4,6,8,10,12,14,-1,16,-1,18,20,22,24,26,-1,-1,-1,-1,-1,-1,-1,-1,-1,-1,-1,-1],"split_conditions":[4E0,6E0,1.9E1,3E0,1E0,7E0,2.2E1,-5.604848E-1,2E0,-3.5055837E-1,3E0,6E0,7E0,4E0,5E0,-2.2005804E-1,-1.4252764E-1,-4.6085522E-1,-3.9595395E-1,1.9251353E-1,-4.3504354E-1,2.6518223E-1,1.0513135E-1,-1.9178978E-1,-3.7105054E-2,-4.8271605E-1,-2.519475E-1],"split_indices":[1,0,1,1,1,1,1,0,0,0,1,0,0,0,0,0,0,0,0,0,0,0,0,0,0,0,0],"split_type":[0,0,0,0,0,0,0,0,0,0,0,0,0,0,0,0,0,0,0,0,0,0,0,0,0,0,0],"sum_hessian":[1.6965E4,1.729E3,1.5236E4,1.14E3,5.89E2,1.0091E4,5.145E3,1.075E3,6.5E1,2.18E2,3.71E2,1.573E3,8.518E3,3.123E3,2.022E3,4.6E1,1.9E1,3.04E2,6.7E1,1.03E3,5.43E2,6.733E3,1.785E3,1.314E3,1.809E3,1.073E3,9.49E2],"tree_param":{"num_deleted":"0","num_feature":"2","num_nodes":"27","size_leaf_vector":"1"}},{"base_weights":[-1.4293018E-3,-4.477992E0,5.068371E-1,-4.861873E0,-3.7280154E0,1.5774357E0,-2.236096E0,-5.044884E-1,-1.8045771E0,-3.156626E-1,-4.0543766E0,1.9679399E0,4.6946764E-2,-1.2168437E0,-3.3716357E0,-1.985204E-1,-1.289875E-1,-4.1492078E-1,-3.5694084E-1,2.3178807E-1,3.152607E-2,-4.3448806E-1,1.12647586E-1,-7.628519E-2,-3.2409212E-1,-2.9091263E-1,-5.851547E-1],"categories":[],"categories_nodes":[],"categories_segments":[],"categories_sizes":[],"default_left":[0,0,0,0,0,0,0,0,0,0,0,0,0,0,0,0,0,0,0,0,0,0,0,0,0,0,0],"id":8,"left_children":[1,3,5,7,9,11,13,-1,15,-1,17,19,21,23,25,-1,-1,-1,-1,-1,-1,-1,-1,-1,-1,-1,-1],"loss_changes":[3.860478E4,4.7994922E2,4.4748195E4,6.293086E2,9.722461E1,6.550289E3,4.9472617E3,0E0,3.5752869E0,0E0,2.2978516E0,5.049332E3,1.0572817E4,2.070599E3,2.3033203E3,0E0,0E0,0E0,0E0,0E0,0E0,0E0,0E0,0E0,0E0,0E0,0E0],"parents":[2147483647,0,0,1,1,2,2,3,3,4,4,5,5,6,6,8,8,10,10,11,11,12,12,13,13,14,14],"right_children":[2,4,6,8,10,12,14,-1,16,-1,18,20,22,24,26,-1,-1,-1,-1,-1,-1,-1,-1,-1,-1,-1,-1],"split_conditions":[4E0,6E0,2E1,3E0,1E0,7E0,2.2E1,-5.044884E-1,2E0,-3.156626E-1,3E0,1.8E1,9E0,7E0,7E0,-1.985204E-1,-1.289875E-1,-4.1492078E-1,-3.5694084E-1,2.3178807E-1,3.152607E-2,-4.3448806E-1,1.12647586E-1,-7.628519E-2,-3.2409212E-1,-2.9091263E-1,-5.851547E-1],"split_indices":[1,0,1,1,1,0,1,0,0,0,1,1,1,0,0,0,0,0,0,0,0,0,0,0,0,0,0],"split_type":[0,0,0,0,0,0,0,0,0,0,0,0,0,0,0,0,0,0,0,0,0,0,0,0,0,0,0],"sum_hessian":[1.6965E4,1.729E3,1.5236E4,1.14E3,5.89E2,1.0959E4,4.277E3,1.075E3,6.5E1,2.18E2,3.71E2,8.731E3,2.228E3,2.255E3,2.022E3,4.6E1,1.9E1,3.04E2,6.7E1,7.205E3,1.526E3,4.39E2,1.789E3,1.843E3,4.12E2,1.706E3,3.16E2],"tree_param":{"num_deleted":"0","num_feature":"2","num_nodes":"27","size_leaf_vector":"1"}},{"base_weights":[-1.4783876E-3,-4.0313025E0,4.5606557E-1,-4.3764153E0,-3.357057E0,1.2544078E0,-2.535497E0,-4.5408645E-1,-1.6290815E0,-2.842405E-1,-3.6510136E0,1.6842334E0,-6.293802E-2,-3.5382345E0,-1.3446839E0,-1.7909072E-1,-1.1673372E-1,-3.3924666E-1,-3.8364238E-1,3.807329E-2,2.4251926E-1,-1.6247644E-1,1.6287798E-2,-3.1336412E-1,-4.617083E-1,3.838916E-2,-4.1920748E-1],"categories":[],"categories_nodes":[],"categories_segments":[],"categories_sizes":[],"default_left":[0,0,0,0,0,0,0,0,0,0,0,0,0,0,0,0,0,0,0,0,0,0,0,0,0,0,0],"id":9,"left_children":[1,3,5,7,9,11,13,-1,15,-1,17,19,21,23,25,-1,-1,-1,-1,-1,-1,-1,-1,-1,-1,-1,-1],"loss_changes":[3.1284117E4,3.8786328E2,3.6393566E4,5.0810352E2,7.888037E1,6.810709E3,3.8282188E3,0E0,2.8410645E0,0E0,4.817383E0,8.758283E3,1.0442134E3,7.459043E2,7.231923E3,0E0,0E0,0E0,0E0,0E0,0E0,0E0,0E0,0E0,0E0,0E0,0E0],"parents":[2147483647,0,0,1,1,2,2,3,3,4,4,5,5,6,6,8,8,10,10,11,11,12,12,13,13,14,14],"right_children":[2,4,6,8,10,12,14,-1,16,-1,18,20,22,24,26,-1,-1,-1,-1,-1,-1,-1,-1,-1,-1,-1,-1],"split_conditions":[4E0,6E0,2.1E1,3E0,1E0,1.8E1,5E0,-4.5408645E-1,2E0,-2.842405E-1,7E0,1E1,2E0,2.3E1,7E0,-1.7909072E-1,-1.1673372E-1,-3.3924666E-1,-3.8364238E-1,3.807329E-2,2.4251926E-1,-1.6247644E-1,1.6287798E-2,-3.1336412E-1,-4.617083E-1,3.838916E-2,-4.1920748E-1],"split_indices":[1,0,1,1,1,1,0,0,0,0,0,1,0,1,0,0,0,0,0,0,0,0,0,0,0,0,0],"split_type":[0,0,0,0,0,0,0,0,0,0,0,0,0,0,0,0,0,0,0,0,0,0,0,0,0,0,0],"sum_hessian":[1.6965E4,1.729E3,1.5236E4,1.14E3,5.89E2,1.2027E4,3.209E3,1.075E3,6.5E1,2.18E2,3.71E2,9.068E3,2.959E3,1.741E3,1.468E3,4.6E1,1.9E1,1.63E2,2.08E2,3.287E3,5.781E3,3.73E2,2.586E3,1.269E3,4.72E2,9.14E2,5.54E2],"tree_param":{"num_deleted":"0","num_feature":"2","num_nodes":"27","size_leaf_vector":"1"}},{"base_weights":[-1.4942738E-3,-3.0457563E0,4.9957937E-1,-3.7468634E0,-1.6432409E0,1.615849E0,-1.5447705E0,-4.0872E0,-3.0395033E0,-5.4450494E-1,-3.2342389E0,1.9685985E0,2.3796357E-1,-7.4398303E-1,-2.7806158E0,-3.8639614E-1,-4.157918E-1,-2.5594625E-1,-3.3742234E-1,2.6766917E-2,-7.3767036E-2,-2.1598248E-1,-3.9975807E-1,2.2195351E-1,9.293255E-2,-3.8495463E-1,9.90382E-2,-2.3714805E-1,-4.5631725E-2,-3.9501715E-1,-1.9719069E-1],"categories":[],"categories_nodes":[],"categories_segments":[],"categories_sizes":[],"default_left":[0,0,0,0,0,0,0,0,0,0,0,0,0,0,0,0,0,0,0,0,0,0,0,0,0,0,0,0,0,0,0],"id":10,"left_children":[1,3,5,7,9,11,13,15,17,19,21,23,25,27,29,-1,-1,-1,-1,-1,-1,-1,-1,-1,-1,-1,-1,-1,-1,-1,-1],"loss_changes":[2.5881451E4,2.35183E3,3.3249617E4,3.722793E2,1.3984565E3,4.580051E3,5.090667E3,9.199219E-1,7.5399414E1,7.4717316E1,2.5955322E2,1.9546582E3,5.9149565E3,1.4614974E3,1.905624E3,0E0,0E0,0E0,0E0,0E0,0E0,0E0,0E0,0E0,0E0,0E0,0E0,0E0,0E0,0E0,0E0],"parents":[2147483647,0,0,1,1,2,2,3,3,4,4,5,5,6,6,7,7,8,8,9,9,10,10,11,11,12,12,13,13,14,14],"right_children":[2,4,6,8,10,12,14,16,18,20,22,24,26,28,30,-1,-1,-1,-1,-1,-1,-1,-1,-1,-1,-1,-1,-1,-1,-1,-1],"split_conditions":[5E0,3E0,1.9E1,6E0,6E0,7E0,2.2E1,2E0,1E0,2E0,7E0,1.7E1,9E0,2E0,4E0,-3.8639614E-1,-4.157918E-1,-2.5594625E-1,-3.3742234E-1,2.6766917E-2,-7.3767036E-2,-2.1598248E-1,-3.9975807E-1,2.2195351E-1,9.293255E-2,-3.8495463E-1,9.90382E-2,-2.3714805E-1,-4.5631725E-2,-3.9501715E-1,-1.9719069E-1],"split_indices":[1,1,1,0,0,0,1,0,1,0,0,1,1,0,0,0,0,0,0,0,0,0,0,0,0,0,0,0,0,0,0],"split_type":[0,0,0,0,0,0,0,0,0,0,0,0,0,0,0,0,0,0,0,0,0,0,0,0,0,0,0,0,0,0,0],"sum_hessian":[1.6965E4,2.397E3,1.4568E4,1.597E3,8E2,9.423E3,5.145E3,1.075E3,5.22E2,4.74E2,3.26E2,7.502E3,1.921E3,3.123E3,2.022E3,2.72E2,8.03E2,2.18E2,3.04E2,9.1E1,3.83E2,1.37E2,1.89E2,6.042E3,1.46E3,2.98E2,1.623E3,4.68E2,2.655E3,8.25E2,1.197E3],"tree_param":{"num_deleted":"0","num_feature":"2","num_nodes":"31","size_leaf_vector":"1"}},{"base_weights":[-1.5164423E-3,-2.7420392E0,4.495629E-1,-3.3730505E0,-1.4797444E0,1.4542665E0,-1.3904637E0,-3.6792257E0,-2.7366877E0,-4.901538E-1,-2.912698E0,1.77178E0,2.1401785E-1,-6.6967547E-1,-2.5028472E0,-3.478981E-1,-3.7426433E-1,-2.304685E-1,-3.0379072E-1,-1.4680755E-1,-3.3153675E-2,-1.9454075E-1,-3.5999265E-1,1.9976175E-1,8.364568E-2,-4.7412586E-1,7.287659E-2,-3.488959E-2,-2.0790625E-1,-2.1019392E-1,-4.653785E-1],"categories":[],"categories_nodes":[],"categories_segments":[],"categories_sizes":[],"default_left":[0,0,0,0,0,0,0,0,0,0,0,0,0,0,0,0,0,0,0,0,0,0,0,0,0,0,0,0,0,0,0],"id":11,"left_children":[1,3,5,7,9,11,13,15,17,19,21,23,25,27,29,-1,-1,-1,-1,-1,-1,-1,-1,-1,-1,-1,-1,-1,-1,-1,-1],"loss_changes":[2.0974486E4,1.9050684E3,2.693546E4,3.012832E2,1.1344202E3,3.710754E3,4.1243506E3,6.435547E-1,6.105542E1,7.3192924E1,2.1036963E2,1.5831934E3,4.905936E3,1.411643E3,1.734708E3,0E0,0E0,0E0,0E0,0E0,0E0,0E0,0E0,0E0,0E0,0E0,0E0,0E0,0E0,0E0,0E0],"parents":[2147483647,0,0,1,1,2,2,3,3,4,4,5,5,6,6,7,7,8,8,9,9,10,10,11,11,12,12,13,13,14,14],"right_children":[2,4,6,8,10,12,14,16,18,20,22,24,26,28,30,-1,-1,-1,-1,-1,-1,-1,-1,-1,-1,-1,-1,-1,-1,-1,-1],"split_conditions":[5E0,3E0,1.9E1,6E0,6E0,7E0,2.2E1,2E0,1E0,4E0,7E0,1.7E1,8E0,7E0,7E0,-3.478981E-1,-3.7426433E-1,-2.304685E-1,-3.0379072E-1,-1.4680755E-1,-3.3153675E-2,-1.9454075E-1,-3.5999265E-1,1.9976175E-1,8.364568E-2,-4.7412586E-1,7.287659E-2,-3.488959E-2,-2.0790625E-1,-2.1019392E-1,-4.653785E-1],"split_indices":[1,1,1,0,0,0,1,0,1,1,0,1,1,0,0,0,0,0,0,0,0,0,0,0,0,0,0,0,0,0,0],"split_type":[0,0,0,0,0,0,0,0,0,0,0,0,0,0,0,0,0,0,0,0,0,0,0,0,0,0,0,0,0,0,0],"sum_hessian":[1.6965E4,2.397E3,1.4568E4,1.597E3,8E2,9.423E3,5.145E3,1.075E3,5.22E2,4.74E2,3.26E2,7.502E3,1.921E3,3.123E3,2.022E3,2.72E2,8.03E2,2.18E2,3.04E2,6.5E1,4.09E2,1.37E2,1.89E2,6.042E3,1.46E3,1.8E2,1.741E3,2.545E3,5.78E2,1.706E3,3.16E2],"tree_param":{"num_deleted":"0","num_feature":"2","num_nodes":"31","size_leaf_vector":"1"}},{"base_weights":[-1.5434194E-3,-2.4686654E0,4.0453526E-1,-3.0365317E0,-1.3326869E0,1.1960934E0,-1.4998878E0,-3.3119743E0,-2.4640403E0,-4.4151738E-1,-2.6231236E0,1.4650109E0,1.3878344E-1,-2.3519125E0,-5.409327E-1,-3.3624944E-1,-3.0618593E-1,-2.0752685E-1,-2.7351126E-1,3.308135E-2,-6.254052E-2,-1.7522763E-1,-3.2418284E-1,1.7402361E-1,2.6023418E-2,-3.209213E-1,6.979523E-2,-8.950274E-2,-2.7887985E-1,9.66043E-2,-3.1985867E-1],"categories":[],"categories_nodes":[],"categories_segments":[],"categories_sizes":[],"default_left":[0,0,0,0,0,0,0,0,0,0,0,0,0,0,0,0,0,0,0,0,0,0,0,0,0,0,0,0,0,0,0],"id":12,"left_children":[1,3,5,7,9,11,13,15,17,19,21,23,25,27,29,-1,-1,-1,-1,-1,-1,-1,-1,-1,-1,-1,-1,-1,-1,-1,-1],"loss_changes":[1.699831E4,1.5428643E3,2.1964004E4,2.4382617E2,9.1999036E2,2.9261113E3,3.494082E3,3.3007812E0,4.943994E1,6.766746E1,1.7050635E2,2.7202012E3,3.9111746E3,1.4391611E3,8.0692007E3,0E0,0E0,0E0,0E0,0E0,0E0,0E0,0E0,0E0,0E0,0E0,0E0,0E0,0E0,0E0,0E0],"parents":[2147483647,0,0,1,1,2,2,3,3,4,4,5,5,6,6,7,7,8,8,9,9,10,10,11,11,12,12,13,13,14,14],"right_children":[2,4,6,8,10,12,14,16,18,20,22,24,26,28,30,-1,-1,-1,-1,-1,-1,-1,-1,-1,-1,-1,-1,-1,-1,-1,-1],"split_conditions":[5E0,3E0,2E1,6E0,6E0,7E0,5E0,5E0,1E0,2E0,7E0,1.8E1,9E0,2.1E1,7E0,-3.3624944E-1,-3.0618593E-1,-2.0752685E-1,-2.7351126E-1,3.308135E-2,-6.254052E-2,-1.7522763E-1,-3.2418284E-1,1.7402361E-1,2.6023418E-2,-3.209213E-1,6.979523E-2,-8.950274E-2,-2.7887985E-1,9.66043E-2,-3.1985867E-1],"split_indices":[1,1,1,0,0,0,0,0,1,0,0,1,1,1,0,0,0,0,0,0,0,0,0,0,0,0,0,0,0,0,0],"split_type":[0,0,0,0,0,0,0,0,0,0,0,0,0,0,0,0,0,0,0,0,0,0,0,0,0,0,0,0,0,0,0],"sum_hessian":[1.6965E4,2.397E3,1.4568E4,1.597E3,8E2,1.0291E4,4.277E3,1.075E3,5.22E2,4.74E2,3.26E2,8.204E3,2.087E3,2.264E3,2.013E3,8.84E2,1.91E2,2.18E2,3.04E2,9.1E1,3.83E2,1.37E2,1.89E2,6.678E3,1.526E3,2.98E2,1.789E3,5.23E2,1.741E3,1.285E3,7.28E2],"tree_param":{"num_deleted":"0","num_feature":"2","num_nodes":"31","size_leaf_vector":"1"}},{"base_weights":[-1.5241147E-3,-2.222488E0,3.640379E-1,-2.7335815E0,-1.2000786E0,9.5205045E-1,-1.7170172E0,-2.981374E0,-2.218556E0,-3.9742783E-1,-2.3623388E0,1.2966137E0,-2.620201E-2,-2.7377722E0,-9.6896887E-1,-2.79734E-1,-3.0401552E-1,-1.8686889E-1,-2.462498E-1,-1.3285448E-1,-2.4657138E-2,-1.5783188E-1,-2.9193515E-1,4.181729E-2,1.6944377E-1,2.2523675E-2,-1.1534373E-1,-2.4368076E-1,-3.4392083E-1,-1.1463338E-2,-2.9683694E-1],"categories":[],"categories_nodes":[],"categories_segments":[],"categories_sizes":[],"default_left":[0,0,0,0,0,0,0,0,0,0,0,0,0,0,0,0,0,0,0,0,0,0,0,0,0,0,0,0,0,0,0],"id":13,"left_children":[1,3,5,7,9,11,13,15,17,19,21,23,25,27,29,-1,-1,-1,-1,-1,-1,-1,-1,-1,-1,-1,-1,-1,-1,-1,-1],"loss_changes":[1.3775506E4,1.2497861E3,1.7829525E4,1.9732227E2,7.463052E2,3.8291465E3,2.44842E3,3.1347656E0,4.0035156E1,6.639329E1,1.3819617E2,2.9351455E3,8.392145E2,2.780918E2,3.166586E3,0E0,0E0,0E0,0E0,0E0,0E0,0E0,0E0,0E0,0E0,0E0,0E0,0E0,0E0,0E0,0E0],"parents":[2147483647,0,0,1,1,2,2,3,3,4,4,5,5,6,6,7,7,8,8,9,9,10,10,11,11,12,12,13,13,14,14],"right_children":[2,4,6,8,10,12,14,16,18,20,22,24,26,28,30,-1,-1,-1,-1,-1,-1,-1,-1,-1,-1,-1,-1,-1,-1,-1,-1],"split_conditions":[5E0,3E0,2.1E1,6E0,6E0,1.8E1,4E0,2E0,1E0,4E0,7E0,1E1,7E0,2.3E1,7E0,-2.79734E-1,-3.0401552E-1,-1.8686889E-1,-2.462498E-1,-1.3285448E-1,-2.4657138E-2,-1.5783188E-1,-2.9193515E-1,4.181729E-2,1.6944377E-1,2.2523675E-2,-1.1534373E-1,-2.4368076E-1,-3.4392083E-1,-1.1463338E-2,-2.9683694E-1],"split_indices":[1,1,1,0,0,1,0,0,1,1,0,1,0,1,0,0,0,0,0,0,0,0,0,0,0,0,0,0,0,0,0],"split_type":[0,0,0,0,0,0,0,0,0,0,0,0,0,0,0,0,0,0,0,0,0,0,0,0,0,0,0,0,0,0,0],"sum_hessian":[1.6965E4,2.397E3,1.4568E4,1.597E3,8E2,1.1359E4,3.209E3,1.075E3,5.22E2,4.74E2,3.26E2,8.4E3,2.959E3,1.356E3,1.853E3,2.72E2,8.03E2,2.18E2,3.04E2,6.5E1,4.09E2,1.37E2,1.89E2,2.619E3,5.781E3,2.42E3,5.39E2,9.52E2,4.04E2,1.299E3,5.54E2],"tree_param":{"num_deleted":"0","num_feature":"2","num_nodes":"31","size_leaf_vector":"1"}},{"base_weights":[-1.5130151E-3,-2.0009165E0,3.2758102E-1,-2.4608598E0,-1.0808289E0,1.066267E0,-1.025257E0,-2.683779E0,-1.9975286E0,-3.5801664E-1,-2.1274803E0,1.3212003E0,7.05176E-2,-6.592951E-1,-2.657788E0,-2.7304158E-1,-2.4548362E-1,-1.6826735E-1,-2.2170556E-1,3.7657995E-2,-5.330814E-2,-1.4216302E-1,-2.6289532E-1,1.5011537E-1,5.7597082E-2,-3.992191E-1,4.92607E-2,-1.3848153E-1,1.5126774E-2,-2.3735355E-1,-4.5137978E-1],"categories":[],"categories_nodes":[],"categories_segments":[],"categories_sizes":[],"default_left":[0,0,0,0,0,0,0,0,0,0,0,0,0,0,0,0,0,0,0,0,0,0,0,0,0,0,0,0,0,0,0],"id":14,"left_children":[1,3,5,7,9,11,13,15,17,19,21,23,25,27,29,-1,-1,-1,-1,-1,-1,-1,-1,-1,-1,-1,-1,-1,-1,-1,-1],"loss_changes":[1.1164144E4,1.01214453E3,1.4560222E4,1.5968945E2,6.052208E2,2.3921855E3,3.0726953E3,4.7856445E0,3.24187E1,6.1286686E1,1.1200903E2,1.0053379E3,3.2978623E3,2.4730842E3,4.862627E2,0E0,0E0,0E0,0E0,0E0,0E0,0E0,0E0,0E0,0E0,0E0,0E0,0E0,0E0,0E0,0E0],"parents":[2147483647,0,0,1,1,2,2,3,3,4,4,5,5,6,6,7,7,8,8,9,9,10,10,11,11,12,12,13,13,14,14],"right_children":[2,4,6,8,10,12,14,16,18,20,22,24,26,28,30,-1,-1,-1,-1,-1,-1,-1,-1,-1,-1,-1,-1,-1,-1,-1,-1],"split_conditions":[5E0,3E0,1.9E1,6E0,6E0,7E0,2.3E1,5E0,1E0,2E0,7E0,1.7E1,8E0,5E0,7E0,-2.7304158E-1,-2.4548362E-1,-1.6826735E-1,-2.2170556E-1,3.7657995E-2,-5.330814E-2,-1.4216302E-1,-2.6289532E-1,1.5011537E-1,5.7597082E-2,-3.992191E-1,4.92607E-2,-1.3848153E-1,1.5126774E-2,-2.3735355E-1,-4.5137978E-1],"split_indices":[1,1,1,0,0,0,1,0,1,0,0,1,1,0,0,0,0,0,0,0,0,0,0,0,0,0,0,0,0,0,0],"split_type":[0,0,0,0,0,0,0,0,0,0,0,0,0,0,0,0,0,0,0,0,0,0,0,0,0,0,0,0,0,0,0],"sum_hessian":[1.6965E4,2.397E3,1.4568E4,1.597E3,8E2,9.423E3,5.145E3,1.075E3,5.22E2,4.74E2,3.26E2,7.502E3,1.921E3,4.204E3,9.41E2,8.84E2,1.91E2,2.18E2,3.04E2,9.1E1,3.83E2,1.37E2,1.89E2,6.042E3,1.46E3,1.8E2,1.741E3,2.218E3,1.986E3,8.18E2,1.23E2],"tree_param":{"num_deleted":"0","num_feature":"2","num_nodes":"31","size_leaf_vector":"1"}},{"base_weights":[-1.4965892E-3,-1.8013791E0,2.9475707E-1,-2.2153423E0,-9.732711E-1,7.7864254E-1,-1.4177767E0,-2.415883E0,-1.7985215E0,-3.222476E-1,-1.9159709E0,1.0147E0,-1.7125423E-1,-2.1294215E0,-5.729142E-1,-2.2465885E-1,-2.4703625E-1,-1.5151747E-1,-1.9960772E-1,-1.20860316E-1,-1.7878E-2,-1.2804972E-1,-2.3674415E-1,1.3510627E-1,3.4945525E-2,-4.2264986E-1,9.014735E-3,-1.8890484E-1,-2.770319E-1,6.4741686E-2,-2.583779E-1],"categories":[],"categories_nodes":[],"categories_segments":[],"categories_sizes":[],"default_left":[0,0,0,0,0,0,0,0,0,0,0,0,0,0,0,0,0,0,0,0,0,0,0,0,0,0,0,0,0,0,0],"id":15,"left_children":[1,3,5,7,9,11,13,15,17,19,21,23,25,27,29,-1,-1,-1,-1,-1,-1,-1,-1,-1,-1,-1,-1,-1,-1,-1,-1],"loss_changes":[9.047172E3,8.1989355E2,1.2073999E4,1.2923047E2,4.909721E2,2.5474302E3,1.9287671E3,4.3740234E0,2.6251465E1,6.0186497E1,9.078406E1,2.0355508E3,2.398208E3,2.6312988E2,3.6064824E3,0E0,0E0,0E0,0E0,0E0,0E0,0E0,0E0,0E0,0E0,0E0,0E0,0E0,0E0,0E0,0E0],"parents":[2147483647,0,0,1,1,2,2,3,3,4,4,5,5,6,6,7,7,8,8,9,9,10,10,11,11,12,12,13,13,14,14],"right_children":[2,4,6,8,10,12,14,16,18,20,22,24,26,28,30,-1,-1,-1,-1,-1,-1,-1,-1,-1,-1,-1,-1,-1,-1,-1,-1],"split_conditions":[5E0,3E0,2.1E1,6E0,6E0,7E0,5E0,2E0,1E0,4E0,7E0,1.7E1,7E0,2.3E1,7E0,-2.2465885E-1,-2.4703625E-1,-1.5151747E-1,-1.9960772E-1,-1.20860316E-1,-1.7878E-2,-1.2804972E-1,-2.3674415E-1,1.3510627E-1,3.4945525E-2,-4.2264986E-1,9.014735E-3,-1.8890484E-1,-2.770319E-1,6.4741686E-2,-2.583779E-1],"split_indices":[1,1,1,0,0,0,0,0,1,1,0,1,1,1,0,0,0,0,0,0,0,0,0,0,0,0,0,0,0,0,0],"split_type":[0,0,0,0,0,0,0,0,0,0,0,0,0,0,0,0,0,0,0,0,0,0,0,0,0,0,0,0,0,0,0],"sum_hessian":[1.6965E4,2.397E3,1.4568E4,1.597E3,8E2,1.1359E4,3.209E3,1.075E3,5.22E2,4.74E2,3.26E2,9.098E3,2.261E3,1.741E3,1.468E3,2.72E2,8.03E2,2.18E2,3.04E2,6.5E1,4.09E2,1.37E2,1.89E2,6.042E3,3.056E3,1.36E2,2.125E3,1.269E3,4.72E2,9.14E2,5.54E2],"tree_param":{"num_deleted":"0","num_feature":"2","num_nodes":"31","size_leaf_vector":"1"}},{"base_weights":[-1.4786387E-3,-1.6217942E0,2.6521903E-1,-1.9943228E0,-8.7657285E-1,7.960671E-1,-1.0119557E0,-2.174733E0,-1.6193407E0,-2.903153E-1,-1.7254895E0,1.1187618E0,2.9170367E-1,-1.6418493E0,-3.0305773E-1,-2.2503221E-1,-2.0408376E-1,-1.364349E-1,-1.7971237E-1,4.0850595E-2,-4.569852E-2,-1.1533754E-1,-2.1319437E-1,1.3279298E-1,5.329715E-2,-3.855215E-1,6.0822662E-2,-1.1361358E-1,-2.2015965E-1,8.6788215E-2,-2.3682506E-1],"categories":[],"categories_nodes":[],"categories_segments":[],"categories_sizes":[],"default_left":[0,0,0,0,0,0,0,0,0,0,0,0,0,0,0,0,0,0,0,0,0,0,0,0,0,0,0,0,0,0,0],"id":16,"left_children":[1,3,5,7,9,11,13,15,17,19,21,23,25,27,29,-1,-1,-1,-1,-1,-1,-1,-1,-1,-1,-1,-1,-1,-1,-1,-1],"loss_changes":[7.332022E3,6.639751E2,9.878382E3,1.0458447E2,3.981438E2,1.6747524E3,1.9097583E3,6.2978516E0,2.1257324E1,5.5511097E1,7.358099E1,7.6828174E2,5.275038E3,6.3865625E2,4.8723438E3,0E0,0E0,0E0,0E0,0E0,0E0,0E0,0E0,0E0,0E0,0E0,0E0,0E0,0E0,0E0,0E0],"parents":[2147483647,0,0,1,1,2,2,3,3,4,4,5,5,6,6,7,7,8,8,9,9,10,10,11,11,12,12,13,13,14,14],"right_children":[2,4,6,8,10,12,14,16,18,20,22,24,26,28,30,-1,-1,-1,-1,-1,-1,-1,-1,-1,-1,-1,-1,-1,-1,-1,-1],"split_conditions":[5E0,3E0,2E1,6E0,6E0,6E0,5E0,4E0,1E0,2E0,7E0,1.7E1,7E0,2.2E1,7E0,-2.2503221E-1,-2.0408376E-1,-1.364349E-1,-1.7971237E-1,4.0850595E-2,-4.569852E-2,-1.1533754E-1,-2.1319437E-1,1.3279298E-1,5.329715E-2,-3.855215E-1,6.0822662E-2,-1.1361358E-1,-2.2015965E-1,8.6788215E-2,-2.3682506E-1],"split_indices":[1,1,1,0,0,0,0,0,1,0,0,1,1,1,0,0,0,0,0,0,0,0,0,0,0,0,0,0,0,0,0],"split_type":[0,0,0,0,0,0,0,0,0,0,0,0,0,0,0,0,0,0,0,0,0,0,0,0,0,0,0,0,0,0,0],"sum_hessian":[1.6965E4,2.397E3,1.4568E4,1.597E3,8E2,1.0291E4,4.277E3,1.075E3,5.22E2,4.74E2,3.26E2,6.275E3,4.016E3,2.264E3,2.013E3,6.77E2,3.98E2,2.18E2,3.04E2,9.1E1,3.83E2,1.37E2,1.89E2,4.623E3,1.652E3,2.84E2,3.732E3,1.191E3,1.073E3,1.285E3,7.28E2],"tree_param":{"num_deleted":"0","num_feature":"2","num_nodes":"31","size_leaf_vector":"1"}},{"base_weights":[-1.4313103E-3,-1.4600646E0,2.3865409E-1,-1.7953568E0,-7.89332E-1,7.902186E-1,-7.7148634E-1,-1.9576583E0,-1.458011E0,-2.6129428E-1,-1.5539453E0,1.1925046E-1,1.0484326E0,-4.659362E-1,-2.1346145E0,-1.7985444E-1,-2.009251E-1,-1.228537E-1,-1.6180007E-1,-1.1048905E-1,-1.2485856E-2,-1.0388738E-1,-1.9198714E-1,8.1667304E-2,-1.2991415E-1,1.3233785E-1,3.2586645E-2,-1.04293466E-1,1.7866647E-2,-1.9139507E-1,-3.574849E-1],"categories":[],"categories_nodes":[],"categories_segments":[],"categories_sizes":[],"default_left":[0,0,0,0,0,0,0,0,0,0,0,0,0,0,0,0,0,0,0,0,0,0,0,0,0,0,0,0,0,0,0],"id":17,"left_children":[1,3,5,7,9,11,13,15,17,19,21,23,25,27,29,-1,-1,-1,-1,-1,-1,-1,-1,-1,-1,-1,-1,-1,-1,-1,-1],"loss_changes":[5.9417837E3,5.378721E2,8.1178394E3,8.463916E1,3.229935E2,1.6326143E3,2.1423347E3,5.2192383E0,1.7213257E1,5.4532948E1,5.9637817E1,2.5928137E3,1.3514951E3,1.564172E3,2.925327E2,0E0,0E0,0E0,0E0,0E0,0E0,0E0,0E0,0E0,0E0,0E0,0E0,0E0,0E0,0E0,0E0],"parents":[2147483647,0,0,1,1,2,2,3,3,4,4,5,5,6,6,7,7,8,8,9,9,10,10,11,11,12,12,13,13,14,14],"right_children":[2,4,6,8,10,12,14,16,18,20,22,24,26,28,30,-1,-1,-1,-1,-1,-1,-1,-1,-1,-1,-1,-1,-1,-1,-1,-1],"split_conditions":[5E0,3E0,1.9E1,6E0,6E0,1E1,2.3E1,2E0,1E0,4E0,7E0,6E0,1.7E1,5E0,7E0,-1.7985444E-1,-2.009251E-1,-1.228537E-1,-1.6180007E-1,-1.1048905E-1,-1.2485856E-2,-1.0388738E-1,-1.9198714E-1,8.1667304E-2,-1.2991415E-1,1.3233785E-1,3.2586645E-2,-1.04293466E-1,1.7866647E-2,-1.9139507E-1,-3.574849E-1],"split_indices":[1,1,1,0,0,1,1,0,1,1,0,0,1,0,0,0,0,0,0,0,0,0,0,0,0,0,0,0,0,0,0],"split_type":[0,0,0,0,0,0,0,0,0,0,0,0,0,0,0,0,0,0,0,0,0,0,0,0,0,0,0,0,0,0,0],"sum_hessian":[1.6965E4,2.397E3,1.4568E4,1.597E3,8E2,9.423E3,5.145E3,1.075E3,5.22E2,4.74E2,3.26E2,2.619E3,6.804E3,4.204E3,9.41E2,2.72E2,8.03E2,2.18E2,3.04E2,6.5E1,4.09E2,1.37E2,1.89E2,1.756E3,8.63E2,4.928E3,1.876E3,2.218E3,1.986E3,8.18E2,1.23E2],"tree_param":{"num_deleted":"0","num_feature":"2","num_nodes":"31","size_leaf_vector":"1"}},{"base_weights":[-1.3826124E-3,-1.3145105E0,2.1475315E-1,-1.6162375E0,-7.109218E-1,5.762608E-1,-1.0646679E0,-1.7622464E0,-1.3127543E0,-2.3542406E-1,-1.3994555E0,7.7282566E-1,-2.1468525E-1,-1.7731571E0,-5.4552865E-1,-1.8334462E-1,-1.6368435E-1,-1.10624425E-1,-1.4567313E-1,4.2945094E-2,-3.9410394E-2,-9.357389E-2,-1.7288947E-1,9.8033994E-2,2.0002076E-2,-1.9356467E-1,1.6621538E-2,-2.2465062E-1,-1.5206264E-1,8.613448E-3,-2.024117E-1],"categories":[],"categories_nodes":[],"categories_segments":[],"categories_sizes":[],"default_left":[0,0,0,0,0,0,0,0,0,0,0,0,0,0,0,0,0,0,0,0,0,0,0,0,0,0,0,0,0,0,0],"id":18,"left_children":[1,3,5,7,9,11,13,15,17,19,21,23,25,27,29,-1,-1,-1,-1,-1,-1,-1,-1,-1,-1,-1,-1,-1,-1,-1,-1],"loss_changes":[4.8154683E3,4.3557275E2,6.7390757E3,6.849609E1,2.61915E2,1.7663298E3,1.1796858E3,6.605957E0,1.3938721E1,5.0282837E1,4.8336792E1,1.0813589E3,1.4830972E3,1.5879346E2,1.7317539E3,0E0,0E0,0E0,0E0,0E0,0E0,0E0,0E0,0E0,0E0,0E0,0E0,0E0,0E0,0E0,0E0],"parents":[2147483647,0,0,1,1,2,2,3,3,4,4,5,5,6,6,7,7,8,8,9,9,10,10,11,11,12,12,13,13,14,14],"right_children":[2,4,6,8,10,12,14,16,18,20,22,24,26,28,30,-1,-1,-1,-1,-1,-1,-1,-1,-1,-1,-1,-1,-1,-1,-1,-1],"split_conditions":[5E0,3E0,2.1E1,6E0,6E0,7E0,4E0,4E0,1E0,2E0,7E0,1.8E1,1E1,2E0,7E0,-1.8334462E-1,-1.6368435E-1,-1.10624425E-1,-1.4567313E-1,4.2945094E-2,-3.9410394E-2,-9.357389E-2,-1.7288947E-1,9.8033994E-2,2.0002076E-2,-1.9356467E-1,1.6621538E-2,-2.2465062E-1,-1.5206264E-1,8.613448E-3,-2.024117E-1],"split_indices":[1,1,1,0,0,0,0,0,1,0,0,1,1,0,0,0,0,0,0,0,0,0,0,0,0,0,0,0,0,0,0],"split_type":[0,0,0,0,0,0,0,0,0,0,0,0,0,0,0,0,0,0,0,0,0,0,0,0,0,0,0,0,0,0,0],"sum_hessian":[1.6965E4,2.397E3,1.4568E4,1.597E3,8E2,1.1359E4,3.209E3,1.075E3,5.22E2,4.74E2,3.26E2,9.098E3,2.261E3,1.356E3,1.853E3,6.77E2,3.98E2,2.18E2,3.04E2,9.1E1,3.83E2,1.37E2,1.89E2,6.678E3,2.42E3,4.09E2,1.852E3,4.69E2,8.87E2,1.299E3,5.54E2],"tree_param":{"num_deleted":"0","num_feature":"2","num_nodes":"31","size_leaf_vector":"1"}},{"base_weights":[-1.3324948E-3,-1.1834207E0,1.9323464E-1,-1.4549913E0,-6.4015794E-1,7.18818E-1,-5.2254087E-1,-1.6251634E0,-1.242026E0,-2.118741E-1,-1.2603252E0,2.3804666E-1,1.149928E0,-2.8818694E-1,-1.8226256E0,-1.4193116E-1,-1.7288314E-1,-1.39915E-1,-1.1819688E-1,-1.01466134E-1,-8.212816E-3,-8.428434E-2,-1.5569155E-1,4.9723033E-2,-8.949777E-2,1.657246E-1,9.039566E-2,-1.5244007E-1,-9.799956E-3,-1.6391934E-1,-3.0194676E-1],"categories":[],"categories_nodes":[],"categories_segments":[],"categories_sizes":[],"default_left":[0,0,0,0,0,0,0,0,0,0,0,0,0,0,0,0,0,0,0,0,0,0,0,0,0,0,0,0,0,0,0],"id":19,"left_children":[1,3,5,7,9,11,13,15,17,19,21,23,25,27,29,-1,-1,-1,-1,-1,-1,-1,-1,-1,-1,-1,-1,-1,-1,-1,-1],"loss_changes":[3.9023325E3,3.5285547E2,5.4812295E3,5.5894287E1,2.1248471E2,1.7409614E3,1.8790455E3,1.6432373E1,5.08374E0,4.93919E1,3.9177185E1,1.1671617E3,5.5117773E2,1.2290175E3,2.0185669E2,0E0,0E0,0E0,0E0,0E0,0E0,0E0,0E0,0E0,0E0,0E0,0E0,0E0,0E0,0E0,0E0],"parents":[2147483647,0,0,1,1,2,2,3,3,4,4,5,5,6,6,7,7,8,8,9,9,10,10,11,11,12,12,13,13,14,14],"right_children":[2,4,6,8,10,12,14,16,18,20,22,24,26,28,30,-1,-1,-1,-1,-1,-1,-1,-1,-1,-1,-1,-1,-1,-1,-1,-1],"split_conditions":[5E0,3E0,1.8E1,5E0,6E0,1.2E1,2.3E1,1E0,6E0,4E0,7E0,7E0,4E0,2E0,7E0,-1.4193116E-1,-1.7288314E-1,-1.39915E-1,-1.1819688E-1,-1.01466134E-1,-8.212816E-3,-8.428434E-2,-1.5569155E-1,4.9723033E-2,-8.949777E-2,1.657246E-1,9.039566E-2,-1.5244007E-1,-9.799956E-3,-1.6391934E-1,-3.0194676E-1],"split_indices":[1,1,1,0,0,1,1,1,0,1,0,0,0,0,0,0,0,0,0,0,0,0,0,0,0,0,0,0,0,0,0],"split_type":[0,0,0,0,0,0,0,0,0,0,0,0,0,0,0,0,0,0,0,0,0,0,0,0,0,0,0,0,0,0,0],"sum_hessian":[1.6965E4,2.397E3,1.4568E4,1.597E3,8E2,8.4E3,6.168E3,8.84E2,7.13E2,4.74E2,3.26E2,3.972E3,4.428E3,5.227E3,9.41E2,3.01E2,5.83E2,1.91E2,5.22E2,6.5E1,4.09E2,1.37E2,1.89E2,3.233E3,7.39E2,1.444E3,2.984E3,6.96E2,4.531E3,8.18E2,1.23E2],"tree_param":{"num_deleted":"0","num_feature":"2","num_nodes":"31","size_leaf_vector":"1"}},{"base_weights":[-1.2776125E-3,-1.0654632E0,1.7388324E-1,-1.3098507E0,-5.765785E-1,4.7272685E-1,-8.837608E-1,-1.4630029E0,-1.1181848E0,-1.909174E-1,-1.1350263E0,6.4016336E-1,-2.0100318E-1,-1.395728E0,-2.7604774E-1,-1.2778504E-1,-1.5562443E-1,-1.2599638E-1,-1.0639979E-1,4.417231E-2,-3.4199033E-2,-7.591695E-2,-1.4020433E-1,8.328859E-2,2.58985E-2,-3.014265E-1,-1.962132E-3,-1.8666522E-1,-1.22076325E-1,6.1679948E-2,-1.7475417E-1],"categories":[],"categories_nodes":[],"categories_segments":[],"categories_sizes":[],"default_left":[0,0,0,0,0,0,0,0,0,0,0,0,0,0,0,0,0,0,0,0,0,0,0,0,0,0,0,0,0,0,0],"id":20,"left_children":[1,3,5,7,9,11,13,15,17,19,21,23,25,27,29,-1,-1,-1,-1,-1,-1,-1,-1,-1,-1,-1,-1,-1,-1,-1,-1],"loss_changes":[3.1627097E3,2.857517E2,4.605244E3,4.527173E1,1.7229593E2,1.2816162E3,9.9833936E2,1.3289917E1,4.1447144E0,4.554912E1,3.1753418E1,6.682117E2,1.1541821E3,1.4125342E2,1.9310782E3,0E0,0E0,0E0,0E0,0E0,0E0,0E0,0E0,0E0,0E0,0E0,0E0,0E0,0E0,0E0,0E0],"parents":[2147483647,0,0,1,1,2,2,3,3,4,4,5,5,6,6,7,7,8,8,9,9,10,10,11,11,12,12,13,13,14,14],"right_children":[2,4,6,8,10,12,14,16,18,20,22,24,26,28,30,-1,-1,-1,-1,-1,-1,-1,-1,-1,-1,-1,-1,-1,-1,-1,-1],"split_conditions":[5E0,3E0,2.1E1,5E0,6E0,7E0,5E0,1E0,6E0,2E0,7E0,1.7E1,7E0,2E0,7E0,-1.2778504E-1,-1.5562443E-1,-1.2599638E-1,-1.0639979E-1,4.417231E-2,-3.4199033E-2,-7.591695E-2,-1.4020433E-1,8.328859E-2,2.58985E-2,-3.014265E-1,-1.962132E-3,-1.8666522E-1,-1.22076325E-1,6.1679948E-2,-1.7475417E-1],"split_indices":[1,1,1,0,0,0,0,1,0,0,0,1,1,0,0,0,0,0,0,0,0,0,0,0,0,0,0,0,0,0,0],"split_type":[0,0,0,0,0,0,0,0,0,0,0,0,0,0,0,0,0,0,0,0,0,0,0,0,0,0,0,0,0,0,0],"sum_hessian":[1.6965E4,2.397E3,1.4568E4,1.597E3,8E2,1.1359E4,3.209E3,8.84E2,7.13E2,4.74E2,3.26E2,9.098E3,2.261E3,1.741E3,1.468E3,3.01E2,5.83E2,1.91E2,5.22E2,9.1E1,3.83E2,1.37E2,1.89E2,6.042E3,3.056E3,1.36E2,2.125E3,4.69E2,1.272E3,9.14E2,5.54E2],"tree_param":{"num_deleted":"0","num_feature":"2","num_nodes":"31","size_leaf_vector":"1"}},{"base_weights":[-1.2285837E-3,1.4466746E-1,-1.0789692E0,-9.5921797E-1,3.5563204E-1,-8.5369796E-1,-2.2886193E0,-1.1791884E0,-5.1917803E-1,5.9035116E-1,-1.1994817E-1,-1.2410845E0,8.823445E-1,-2.1119204E-1,-2.546611E-1,-1.3170229E-1,-1.0066917E-1,-1.7180488E-2,-1.0221845E-1,-2.754281E-3,8.702356E-2,-1.24068536E-1,5.536644E-3,-7.769717E-2,-1.7619404E-1,1.869341E-1,-3.1347552E-3],"categories":[],"categories_nodes":[],"categories_segments":[],"categories_sizes":[],"default_left":[0,0,0,0,0,0,0,0,0,0,0,0,0,0,0,0,0,0,0,0,0,0,0,0,0,0,0],"id":21,"left_children":[1,3,5,7,9,11,13,15,17,19,21,23,25,-1,-1,-1,-1,-1,-1,-1,-1,-1,-1,-1,-1,-1,-1],"loss_changes":[2.6678574E3,3.4805107E3,5.4931274E2,2.3150415E2,1.4006648E3,1.1490854E3,9.072876E0,3.6668213E1,1.3978386E2,1.4528843E3,8.1487787E2,3.3609424E2,2.814235E2,0E0,0E0,0E0,0E0,0E0,0E0,0E0,0E0,0E0,0E0,0E0,0E0,0E0,0E0],"parents":[2147483647,0,0,1,1,2,2,3,3,4,4,5,5,6,6,7,7,8,8,9,9,10,10,11,11,12,12],"right_children":[2,4,6,8,10,12,14,16,18,20,22,24,26,-1,-1,-1,-1,-1,-1,-1,-1,-1,-1,-1,-1,-1,-1],"split_conditions":[2.2E1,5E0,7E0,3E0,1.8E1,6E0,2.3E1,5E0,6E0,1E1,2E0,2.3E1,2.3E1,-2.1119204E-1,-2.546611E-1,-1.3170229E-1,-1.0066917E-1,-1.7180488E-2,-1.0221845E-1,-2.754281E-3,8.702356E-2,-1.24068536E-1,5.536644E-3,-7.769717E-2,-1.7619404E-1,1.869341E-1,-3.1347552E-3],"split_indices":[1,1,0,1,1,0,1,0,0,1,0,1,1,0,0,0,0,0,0,0,0,0,0,0,0,0,0],"split_type":[0,0,0,0,0,0,0,0,0,0,0,0,0,0,0,0,0,0,0,0,0,0,0,0,0,0,0],"sum_hessian":[1.6965E4,1.4943E4,2.022E3,2.397E3,1.2546E4,1.706E3,3.16E2,1.597E3,8E2,8.4E3,4.146E3,1.395E3,3.11E2,1.93E2,1.23E2,8.84E2,7.13E2,4.74E2,3.26E2,2.619E3,5.781E3,5.6E2,3.586E3,7.39E2,6.56E2,1.49E2,1.62E2],"tree_param":{"num_deleted":"0","num_feature":"2","num_nodes":"27","size_leaf_vector":"1"}},{"base_weights":[-1.1598851E-3,1.3017508E-1,-9.713372E-1,-8.6344284E-1,3.2006633E-1,-7.6836914E-1,-2.061227E0,-1.061415E0,-4.6740922E-1,5.313266E-1,-1.0798228E-1,-1.3498685E0,2.1790642E-1,-1.901817E-1,-2.2940038E-1,-1.1596286E-1,-8.5732445E-2,-2.5134727E-2,-1.16089605E-1,1.7564822E-2,9.503121E-2,-1.1168382E-1,4.9830987E-3,-1.636772E-1,-1.245647E-1,1.7307186E-1,-1.0383121E-1],"categories":[],"categories_nodes":[],"categories_segments":[],"categories_sizes":[],"default_left":[0,0,0,0,0,0,0,0,0,0,0,0,0,0,0,0,0,0,0,0,0,0,0,0,0,0,0],"id":22,"left_children":[1,3,5,7,9,11,13,15,17,19,21,23,25,-1,-1,-1,-1,-1,-1,-1,-1,-1,-1,-1,-1,-1,-1],"loss_changes":[2.1619038E3,2.8199006E3,4.459298E2,1.8751575E2,1.1346786E3,9.792905E2,7.4001465E0,3.1036865E1,1.19726944E2,1.2517842E3,6.603031E2,3.007544E1,1.2066652E3,0E0,0E0,0E0,0E0,0E0,0E0,0E0,0E0,0E0,0E0,0E0,0E0,0E0,0E0],"parents":[2147483647,0,0,1,1,2,2,3,3,4,4,5,5,6,6,7,7,8,8,9,9,10,10,11,11,12,12],"right_children":[2,4,6,8,10,12,14,16,18,20,22,24,26,-1,-1,-1,-1,-1,-1,-1,-1,-1,-1,-1,-1,-1,-1],"split_conditions":[2.2E1,5E0,7E0,3E0,1.8E1,5E0,2.3E1,6E0,7E0,1.3E1,2E0,2E0,2.3E1,-1.901817E-1,-2.2940038E-1,-1.1596286E-1,-8.5732445E-2,-2.5134727E-2,-1.16089605E-1,1.7564822E-2,9.503121E-2,-1.1168382E-1,4.9830987E-3,-1.636772E-1,-1.245647E-1,1.7307186E-1,-1.0383121E-1],"split_indices":[1,1,0,1,1,0,1,0,0,1,0,0,1,0,0,0,0,0,0,0,0,0,0,0,0,0,0],"split_type":[0,0,0,0,0,0,0,0,0,0,0,0,0,0,0,0,0,0,0,0,0,0,0,0,0,0,0],"sum_hessian":[1.6965E4,1.4943E4,2.022E3,2.397E3,1.2546E4,1.706E3,3.16E2,1.597E3,8E2,8.4E3,4.146E3,1.073E3,6.33E2,1.93E2,1.23E2,1.075E3,5.22E2,6.11E2,1.89E2,4.544E3,3.856E3,5.6E2,3.586E3,2.82E2,7.91E2,2.87E2,3.46E2],"tree_param":{"num_deleted":"0","num_feature":"2","num_nodes":"27","size_leaf_vector":"1"}},{"base_weights":[-1.1014668E-3,1.1713495E-1,-8.7451917E-1,-7.7724147E-1,2.8806007E-1,-6.916605E-1,-1.856428E0,-9.553997E-1,-4.2084435E-1,4.3706635E-1,-3.1094116E-1,-1.0169367E0,7.659585E-1,-1.7126155E-1,-2.0664537E-1,-1.0696377E-1,-8.124641E-2,-1.2957841E-2,-8.426501E-2,6.479664E-2,1.1881726E-2,-2.7297407E-1,-1.7063387E-2,-6.2330015E-2,-1.4587542E-1,1.5117349E-1,7.496213E-3],"categories":[],"categories_nodes":[],"categories_segments":[],"categories_sizes":[],"default_left":[0,0,0,0,0,0,0,0,0,0,0,0,0,0,0,0,0,0,0,0,0,0,0,0,0,0,0],"id":23,"left_children":[1,3,5,7,9,11,13,15,17,19,21,23,25,-1,-1,-1,-1,-1,-1,-1,-1,-1,-1,-1,-1,-1,-1],"loss_changes":[1.7521775E3,2.2847341E3,3.6194653E2,1.5185913E2,1.1200178E3,8.101165E2,6.0357666E0,2.5224121E1,9.829979E1,6.7433215E2,8.4797217E2,2.4187683E2,1.6066924E2,0E0,0E0,0E0,0E0,0E0,0E0,0E0,0E0,0E0,0E0,0E0,0E0,0E0,0E0],"parents":[2147483647,0,0,1,1,2,2,3,3,4,4,5,5,6,6,7,7,8,8,9,9,10,10,11,11,12,12],"right_children":[2,4,6,8,10,12,14,16,18,20,22,24,26,-1,-1,-1,-1,-1,-1,-1,-1,-1,-1,-1,-1,-1,-1],"split_conditions":[2.2E1,5E0,7E0,3E0,7E0,6E0,2.3E1,5E0,6E0,1.7E1,7E0,2.3E1,2.3E1,-1.7126155E-1,-2.0664537E-1,-1.0696377E-1,-8.124641E-2,-1.2957841E-2,-8.426501E-2,6.479664E-2,1.1881726E-2,-2.7297407E-1,-1.7063387E-2,-6.2330015E-2,-1.4587542E-1,1.5117349E-1,7.496213E-3],"split_indices":[1,1,0,1,0,0,1,0,0,1,1,1,1,0,0,0,0,0,0,0,0,0,0,0,0,0,0],"split_type":[0,0,0,0,0,0,0,0,0,0,0,0,0,0,0,0,0,0,0,0,0,0,0,0,0,0,0],"sum_hessian":[1.6965E4,1.4943E4,2.022E3,2.397E3,1.2546E4,1.706E3,3.16E2,1.597E3,8E2,1.0047E4,2.499E3,1.395E3,3.11E2,1.93E2,1.23E2,8.84E2,7.13E2,4.74E2,3.26E2,6.042E3,4.005E3,1.36E2,2.363E3,7.39E2,6.56E2,1.49E2,1.62E2],"tree_param":{"num_deleted":"0","num_feature":"2","num_nodes":"27","size_leaf_vector":"1"}},{"base_weights":[-1.0458592E-3,1.3952325E-1,-6.034783E-1,-3.7673837E-1,4.3582174E-1,-1.0198516E0,-1.0931514E-1,-9.753516E-2,-9.156806E-1,7.6190174E-1,1.4189411E-2,-1.2147704E0,-7.8667575E-1,5.633389E-1,-1.2180884E0,-9.388151E-2,3.4567717E-2,-1.2630546E-1,8.834519E-3,3.840067E-2,1.0039337E-1,2.0506209E-2,-7.566322E-2,-1.1145588E-1,-1.465817E-1,-3.084514E-2,-9.987565E-2,1.4309263E-1,-8.609281E-2,-6.1097153E-2,-1.6719775E-1],"categories":[],"categories_nodes":[],"categories_segments":[],"categories_sizes":[],"default_left":[0,0,0,0,0,0,0,0,0,0,0,0,0,0,0,0,0,0,0,0,0,0,0,0,0,0,0,0,0,0,0],"id":24,"left_children":[1,3,5,7,9,11,13,15,17,19,21,23,25,27,29,-1,-1,-1,-1,-1,-1,-1,-1,-1,-1,-1,-1,-1,-1,-1,-1],"loss_changes":[1.4368228E3,2.1045386E3,6.6036646E2,7.5484076E2,1.2017535E3,7.821887E1,1.0962969E3,1.2330184E3,5.9720996E2,4.5043408E2,5.611572E2,2.2190796E1,8.042392E1,1.1318756E3,1.5191632E2,0E0,0E0,0E0,0E0,0E0,0E0,0E0,0E0,0E0,0E0,0E0,0E0,0E0,0E0,0E0,0E0],"parents":[2147483647,0,0,1,1,2,2,3,3,4,4,5,5,6,6,7,7,8,8,9,9,10,10,11,11,12,12,13,13,14,14],"right_children":[2,4,6,8,10,12,14,16,18,20,22,24,26,28,30,-1,-1,-1,-1,-1,-1,-1,-1,-1,-1,-1,-1,-1,-1,-1,-1],"split_conditions":[2.1E1,1E1,5E0,6E0,1.7E1,3E0,7E0,4E0,8E0,1.3E1,7E0,2.3E1,2.2E1,2.3E1,2.2E1,-9.388151E-2,3.4567717E-2,-1.2630546E-1,8.834519E-3,3.840067E-2,1.0039337E-1,2.0506209E-2,-7.566322E-2,-1.1145588E-1,-1.465817E-1,-3.084514E-2,-9.987565E-2,1.4309263E-1,-8.609281E-2,-6.1097153E-2,-1.6719775E-1],"split_indices":[1,1,0,0,1,0,0,1,1,1,0,1,1,1,1,0,0,0,0,0,0,0,0,0,0,0,0,0,0,0,0],"split_type":[0,0,0,0,0,0,0,0,0,0,0,0,0,0,0,0,0,0,0,0,0,0,0,0,0,0,0,0,0,0,0],"sum_hessian":[1.6965E4,1.3756E4,3.209E3,5.016E3,8.74E3,1.741E3,1.468E3,3.305E3,1.711E3,4.928E3,3.812E3,9.46E2,7.95E2,9.14E2,5.54E2,1.14E3,2.165E3,1.271E3,4.4E2,1.925E3,3.003E3,3.056E3,7.56E2,6.8E2,2.66E2,2.45E2,5.5E2,5.68E2,3.46E2,2.38E2,3.16E2],"tree_param":{"num_deleted":"0","num_feature":"2","num_nodes":"31","size_leaf_vector":"1"}},{"base_weights":[-9.796441E-4,1.2556434E-1,-5.433051E-1,-3.390995E-1,3.9224926E-1,-9.1808975E-1,-9.850031E-2,-8.779913E-2,-8.241812E-1,6.8573976E-1,1.2756229E-2,-1.093566E0,-7.081726E-1,5.070672E-1,-1.0966909E0,-8.450158E-2,3.1112606E-2,-1.038331E-1,5.532828E-2,4.8738282E-2,1.0666442E-1,-8.998137E-2,1.603535E-2,-1.0032666E-1,-1.3197844E-1,-2.7773207E-2,-8.990623E-2,1.288085E-1,-7.750832E-2,-5.5013E-2,-1.5053073E-1],"categories":[],"categories_nodes":[],"categories_segments":[],"categories_sizes":[],"default_left":[0,0,0,0,0,0,0,0,0,0,0,0,0,0,0,0,0,0,0,0,0,0,0,0,0,0,0,0,0,0,0],"id":25,"left_children":[1,3,5,7,9,11,13,15,17,19,21,23,25,27,29,-1,-1,-1,-1,-1,-1,-1,-1,-1,-1,-1,-1,-1,-1,-1,-1],"loss_changes":[1.1644113E3,1.7048845E3,5.350358E2,6.1150604E2,9.7354285E2,6.3392944E1,8.8852515E2,9.9891547E2,5.0558643E2,3.7189087E2,5.13728E2,1.8020752E1,6.515494E1,9.172632E2,1.2312207E2,0E0,0E0,0E0,0E0,0E0,0E0,0E0,0E0,0E0,0E0,0E0,0E0,0E0,0E0,0E0,0E0],"parents":[2147483647,0,0,1,1,2,2,3,3,4,4,5,5,6,6,7,7,8,8,9,9,10,10,11,11,12,12,13,13,14,14],"right_children":[2,4,6,8,10,12,14,16,18,20,22,24,26,28,30,-1,-1,-1,-1,-1,-1,-1,-1,-1,-1,-1,-1,-1,-1,-1,-1],"split_conditions":[2.1E1,1E1,5E0,6E0,1.7E1,3E0,7E0,4E0,9E0,1.5E1,2E0,2.3E1,2.2E1,2.3E1,2.2E1,-8.450158E-2,3.1112606E-2,-1.038331E-1,5.532828E-2,4.8738282E-2,1.0666442E-1,-8.998137E-2,1.603535E-2,-1.0032666E-1,-1.3197844E-1,-2.7773207E-2,-8.990623E-2,1.288085E-1,-7.750832E-2,-5.5013E-2,-1.5053073E-1],"split_indices":[1,1,0,0,1,0,0,1,1,1,0,1,1,1,1,0,0,0,0,0,0,0,0,0,0,0,0,0,0,0,0],"split_type":[0,0,0,0,0,0,0,0,0,0,0,0,0,0,0,0,0,0,0,0,0,0,0,0,0,0,0,0,0,0,0],"sum_hessian":[1.6965E4,1.3756E4,3.209E3,5.016E3,8.74E3,1.741E3,1.468E3,3.305E3,1.711E3,4.928E3,3.812E3,9.46E2,7.95E2,9.14E2,5.54E2,1.14E3,2.165E3,1.481E3,2.3E2,3.242E3,1.686E3,5.3E2,3.282E3,6.8E2,2.66E2,2.45E2,5.5E2,5.68E2,3.46E2,2.38E2,3.16E2],"tree_param":{"num_deleted":"0","num_feature":"2","num_nodes":"31","size_leaf_vector":"1"}},{"base_weights":[-9.1266516E-4,1.1300639E-1,-4.8913184E-1,-3.052099E-1,3.5303363E-1,-8.2648176E-1,-8.875558E-2,3.0571995E-3,-6.421573E-1,6.171971E-1,1.146144E-2,-1.1204647E0,-7.172921E-1,4.564161E-1,-9.873922E-1,-7.799468E-2,4.4794403E-2,-7.7328965E-2,1.7866625E-2,2.9691279E-2,8.223404E-2,1.8691337E-2,-6.970828E-2,-1.07549846E-1,-1.2119516E-1,-5.49923E-2,-8.182449E-2,1.1595024E-1,-6.9779865E-2,-4.9534757E-2,-1.3552512E-1],"categories":[],"categories_nodes":[],"categories_segments":[],"categories_sizes":[],"default_left":[0,0,0,0,0,0,0,0,0,0,0,0,0,0,0,0,0,0,0,0,0,0,0,0,0,0,0,0,0,0,0],"id":26,"left_children":[1,3,5,7,9,11,13,15,17,19,21,23,25,27,29,-1,-1,-1,-1,-1,-1,-1,-1,-1,-1,-1,-1,-1,-1,-1,-1],"loss_changes":[9.4366113E2,1.3810809E3,4.3349146E2,5.211167E2,7.887012E2,5.5114258E1,7.2013025E2,9.1336993E2,2.5814282E2,3.236117E2,4.7414502E2,6.300049E-1,2.1059082E1,7.43343E2,9.97854E1,0E0,0E0,0E0,0E0,0E0,0E0,0E0,0E0,0E0,0E0,0E0,0E0,0E0,0E0,0E0,0E0],"parents":[2147483647,0,0,1,1,2,2,3,3,4,4,5,5,6,6,7,7,8,8,9,9,10,10,11,11,12,12,13,13,14,14],"right_children":[2,4,6,8,10,12,14,16,18,20,22,24,26,28,30,-1,-1,-1,-1,-1,-1,-1,-1,-1,-1,-1,-1,-1,-1,-1,-1],"split_conditions":[2.1E1,1E1,5E0,5E0,1.7E1,2E0,7E0,4E0,9E0,1.3E1,7E0,2.3E1,2.2E1,2.3E1,2.2E1,-7.799468E-2,4.4794403E-2,-7.7328965E-2,1.7866625E-2,2.9691279E-2,8.223404E-2,1.8691337E-2,-6.970828E-2,-1.07549846E-1,-1.2119516E-1,-5.49923E-2,-8.182449E-2,1.1595024E-1,-6.9779865E-2,-4.9534757E-2,-1.3552512E-1],"split_indices":[1,1,0,0,1,0,0,1,1,1,0,1,1,1,1,0,0,0,0,0,0,0,0,0,0,0,0,0,0,0,0],"split_type":[0,0,0,0,0,0,0,0,0,0,0,0,0,0,0,0,0,0,0,0,0,0,0,0,0,0,0,0,0,0,0],"sum_hessian":[1.6965E4,1.3756E4,3.209E3,5.016E3,8.74E3,1.741E3,1.468E3,2.62E3,2.396E3,4.928E3,3.812E3,4.69E2,1.272E3,9.14E2,5.54E2,9.49E2,1.671E3,2.066E3,3.3E2,1.925E3,3.003E3,3.056E3,7.56E2,3.23E2,1.46E2,4.81E2,7.91E2,5.68E2,3.46E2,2.38E2,3.16E2],"tree_param":{"num_deleted":"0","num_feature":"2","num_nodes":"31","size_leaf_vector":"1"}},{"base_weights":[-8.529186E-4,1.0170356E-1,-4.4037586E-1,-2.7470723E-1,3.1773734E-1,-7.440434E-1,-7.9974756E-2,2.7389766E-3,-5.779662E-1,5.555003E-1,1.0301883E-2,-8.9455926E-1,-5.6404024E-1,4.108246E-1,-8.8898635E-1,-7.020344E-2,4.0317673E-2,-8.023822E-2,-1.5797127E-2,3.8763937E-2,8.778581E-2,-8.286582E-2,1.4599408E-2,-8.1848E-2,-1.0852536E-1,-1.9530294E-2,-7.2764345E-2,1.0437556E-1,-6.282203E-2,-4.4602E-2,-1.2201535E-1],"categories":[],"categories_nodes":[],"categories_segments":[],"categories_sizes":[],"default_left":[0,0,0,0,0,0,0,0,0,0,0,0,0,0,0,0,0,0,0,0,0,0,0,0,0,0,0,0,0,0,0],"id":27,"left_children":[1,3,5,7,9,11,13,15,17,19,21,23,25,27,29,-1,-1,-1,-1,-1,-1,-1,-1,-1,-1,-1,-1,-1,-1,-1,-1],"loss_changes":[7.6480304E2,1.1187715E3,3.512497E2,4.221222E2,6.389331E2,4.6692017E1,5.836498E2,7.3997595E2,2.2579913E2,2.6637415E2,4.3419418E2,1.2850647E1,4.7877884E1,6.0239966E2,8.087204E1,0E0,0E0,0E0,0E0,0E0,0E0,0E0,0E0,0E0,0E0,0E0,0E0,0E0,0E0,0E0,0E0],"parents":[2147483647,0,0,1,1,2,2,3,3,4,4,5,5,6,6,7,7,8,8,9,9,10,10,11,11,12,12,13,13,14,14],"right_children":[2,4,6,8,10,12,14,16,18,20,22,24,26,28,30,-1,-1,-1,-1,-1,-1,-1,-1,-1,-1,-1,-1,-1,-1,-1,-1],"split_conditions":[2.1E1,1E1,5E0,5E0,1.7E1,3E0,7E0,4E0,7E0,1.5E1,2E0,2.3E1,2.2E1,2.3E1,2.2E1,-7.020344E-2,4.0317673E-2,-8.023822E-2,-1.5797127E-2,3.8763937E-2,8.778581E-2,-8.286582E-2,1.4599408E-2,-8.1848E-2,-1.0852536E-1,-1.9530294E-2,-7.2764345E-2,1.0437556E-1,-6.282203E-2,-4.4602E-2,-1.2201535E-1],"split_indices":[1,1,0,0,1,0,0,1,1,1,0,1,1,1,1,0,0,0,0,0,0,0,0,0,0,0,0,0,0,0,0],"split_type":[0,0,0,0,0,0,0,0,0,0,0,0,0,0,0,0,0,0,0,0,0,0,0,0,0,0,0,0,0,0,0],"sum_hessian":[1.6965E4,1.3756E4,3.209E3,5.016E3,8.74E3,1.741E3,1.468E3,2.62E3,2.396E3,4.928E3,3.812E3,9.46E2,7.95E2,9.14E2,5.54E2,9.49E2,1.671E3,1.561E3,8.35E2,3.242E3,1.686E3,5.3E2,3.282E3,6.8E2,2.66E2,2.45E2,5.5E2,5.68E2,3.46E2,2.38E2,3.16E2],"tree_param":{"num_deleted":"0","num_feature":"2","num_nodes":"31","size_leaf_vector":"1"}},{"base_weights":[-7.9547986E-4,9.4535135E-2,-3.9769667E-1,-5.3890985E-1,1.6679E-1,-1.8974708E-1,-1.1268288E0,-6.109517E-1,-2.2190343E-1,2.988558E-1,-3.1191203E-1,-8.0751044E-1,1.3414899E-1,-2.1556745E-1,-8.003877E-1,-6.556803E-2,-4.8280064E-2,5.325348E-3,-7.3651806E-2,8.221715E-3,3.8491447E-2,-5.707986E-2,8.6588934E-2,-4.0726006E-2,-1.2653407E-1,4.7361653E-2,-2.9310344E-2,-4.0160418E-2,-1.0985229E-1],"categories":[],"categories_nodes":[],"categories_segments":[],"categories_sizes":[],"default_left":[0,0,0,0,0,0,0,0,0,0,0,0,0,0,0,0,0,0,0,0,0,0,0,0,0,0,0,0,0],"id":28,"left_children":[1,3,5,7,9,11,13,15,17,19,21,23,25,-1,27,-1,-1,-1,-1,-1,-1,-1,-1,-1,-1,-1,-1,-1,-1],"loss_changes":[6.419773E2,6.262621E2,4.980185E2,3.1860077E1,7.7650024E2,5.1194144E2,2.431148E2,6.223633E0,3.6996758E1,1.7943188E2,8.103535E2,1.6074182E2,2.4365819E2,0E0,6.554358E1,0E0,0E0,0E0,0E0,0E0,0E0,0E0,0E0,0E0,0E0,0E0,0E0,0E0,0E0],"parents":[2147483647,0,0,1,1,2,2,3,3,4,4,5,5,6,6,7,7,8,8,9,9,10,10,11,11,12,12,14,14],"right_children":[2,4,6,8,10,12,14,16,18,20,22,24,26,-1,28,-1,-1,-1,-1,-1,-1,-1,-1,-1,-1,-1,-1,-1,-1],"split_conditions":[7E0,4E0,2E1,6E0,2.1E1,1E1,2.1E1,2E0,2E0,1E1,6E0,5E0,1.6E1,-2.1556745E-1,2.2E1,-6.556803E-2,-4.8280064E-2,5.325348E-3,-7.3651806E-2,8.221715E-3,3.8491447E-2,-5.707986E-2,8.6588934E-2,-4.0726006E-2,-1.2653407E-1,4.7361653E-2,-2.9310344E-2,-4.0160418E-2,-1.0985229E-1],"split_indices":[0,1,1,0,1,1,1,1,1,1,0,1,1,0,1,0,0,0,0,0,0,0,0,0,0,0,0,0,0],"split_type":[0,0,0,0,0,0,0,0,0,0,0,0,0,0,0,0,0,0,0,0,0,0,0,0,0,0,0,0,0],"sum_hessian":[1.6965E4,1.368E4,3.285E3,1.4E3,1.228E4,2.557E3,7.28E2,1.14E3,2.6E2,9.625E3,2.655E3,8.79E2,1.678E3,1.74E2,5.54E2,8.42E2,2.98E2,1.7E2,9E1,2.737E3,6.888E3,2.177E3,4.78E2,4.7E2,4.09E2,9.35E2,7.43E2,2.38E2,3.16E2],"tree_param":{"num_deleted":"0","num_feature":"2","num_nodes":"29","size_leaf_vector":"1"}},{"base_weights":[-7.5275684E-4,8.507355E-2,-3.5808355E-1,-5.055601E-1,1.4797525E-1,-1.7083056E-1,-1.0146475E0,-5.747415E-1,-3.6299416E-1,2.652192E-1,-2.8070953E-1,-5.651755E-1,2.4033092E-1,-1.9413386E-1,-7.206193E-1,-3.745629E-2,-6.6295356E-2,-3.1002278E-2,-5.0177354E-2,-4.4541345E-3,3.2231066E-2,-5.1374473E-2,7.7948116E-2,-7.269493E-2,-2.3045398E-2,9.753453E-2,-2.6383257E-2,-3.6161207E-2,-9.890171E-2],"categories":[],"categories_nodes":[],"categories_segments":[],"categories_sizes":[],"default_left":[0,0,0,0,0,0,0,0,0,0,0,0,0,0,0,0,0,0,0,0,0,0,0,0,0,0,0,0,0],"id":29,"left_children":[1,3,5,7,9,11,13,15,17,19,21,23,25,-1,27,-1,-1,-1,-1,-1,-1,-1,-1,-1,-1,-1,-1,-1,-1],"loss_changes":[5.203502E2,5.0834943E2,4.0381915E2,1.2780823E1,6.2154803E2,4.148885E2,1.9723413E2,1.537915E1,3.0275688E0,1.7173254E2,6.5659644E2,7.055127E1,4.645783E2,0E0,5.312033E1,0E0,0E0,0E0,0E0,0E0,0E0,0E0,0E0,0E0,0E0,0E0,0E0,0E0,0E0],"parents":[2147483647,0,0,1,1,2,2,3,3,4,4,5,5,6,6,7,7,8,8,9,9,10,10,11,11,12,12,14,14],"right_children":[2,4,6,8,10,12,14,16,18,20,22,24,26,-1,28,-1,-1,-1,-1,-1,-1,-1,-1,-1,-1,-1,-1,-1,-1],"split_conditions":[7E0,3E0,2E1,5E0,2.1E1,1.3E1,2.1E1,2E0,2E0,2E0,6E0,1E1,1.6E1,-1.9413386E-1,2.2E1,-3.745629E-2,-6.6295356E-2,-3.1002278E-2,-5.0177354E-2,-4.4541345E-3,3.2231066E-2,-5.1374473E-2,7.7948116E-2,-7.269493E-2,-2.3045398E-2,9.753453E-2,-2.6383257E-2,-3.6161207E-2,-9.890171E-2],"split_indices":[0,1,1,0,1,1,1,0,1,0,0,1,1,0,1,0,0,0,0,0,0,0,0,0,0,0,0,0,0],"split_type":[0,0,0,0,0,0,0,0,0,0,0,0,0,0,0,0,0,0,0,0,0,0,0,0,0,0,0,0,0],"sum_hessian":[1.6965E4,1.368E4,3.285E3,1.316E3,1.2364E4,2.557E3,7.28E2,8.84E2,4.32E2,9.709E3,2.655E3,1.305E3,1.252E3,1.74E2,5.54E2,2.72E2,6.12E2,3.15E2,1.17E2,1.511E3,8.198E3,2.177E3,4.78E2,8.79E2,4.26E2,5.09E2,7.43E2,2.38E2,3.16E2],"tree_param":{"num_deleted":"0","num_feature":"2","num_nodes":"29","size_leaf_vector":"1"}},{"base_weights":[-7.0594257E-4,3.9046373E-2,-6.769588E-1,-2.1139225E-1,1.5317222E-1,-8.152838E-1,-3.568312E-1,2.3747632E-2,-4.684178E-1,4.3362623E-1,-7.417705E-2,-6.3499343E-1,-1.2718354E-1,1.9836977E-2,-1.0837742E-1,-4.1482534E-2,4.3194532E-2,-5.7789464E-2,2.1664878E-2,7.484278E-2,2.8069494E-2,-7.803206E-2,4.1186525E-3,-8.690867E-2,-3.2997943E-2],"categories":[],"categories_nodes":[],"categories_segments":[],"categories_sizes":[],"default_left":[0,0,0,0,0,0,0,0,0,0,0,0,0,0,0,0,0,0,0,0,0,0,0,0,0],"id":30,"left_children":[1,3,5,7,9,11,13,15,17,19,21,23,-1,-1,-1,-1,-1,-1,-1,-1,-1,-1,-1,-1,-1],"loss_changes":[4.5611694E2,4.580513E2,4.1422424E1,3.0322327E2,7.019772E2,5.32713E1,1.1564444E2,4.694023E2,1.7989764E2,2.3708685E2,4.9541013E2,3.3486237E1,0E0,0E0,0E0,0E0,0E0,0E0,0E0,0E0,0E0,0E0,0E0,0E0,0E0],"parents":[2147483647,0,0,1,1,2,2,3,3,4,4,5,5,6,6,7,7,8,8,9,9,10,10,11,11],"right_children":[2,4,6,8,10,12,14,16,18,20,22,24,-1,-1,-1,-1,-1,-1,-1,-1,-1,-1,-1,-1,-1],"split_conditions":[2.3E1,1E1,6E0,5E0,1.7E1,5E0,7E0,5E0,9E0,4E0,2E0,3E0,-1.2718354E-1,1.9836977E-2,-1.0837742E-1,-4.1482534E-2,4.3194532E-2,-5.7789464E-2,2.1664878E-2,7.484278E-2,2.8069494E-2,-7.803206E-2,4.1186525E-3,-8.690867E-2,-3.2997943E-2],"split_indices":[1,1,0,0,1,0,0,1,1,0,0,0,0,0,0,0,0,0,0,0,0,0,0,0,0],"split_type":[0,0,0,0,0,0,0,0,0,0,0,0,0,0,0,0,0,0,0,0,0,0,0,0,0],"sum_hessian":[1.6965E4,1.6024E4,9.41E2,5.016E3,1.1008E4,6.56E2,2.85E2,2.62E3,2.396E3,4.928E3,6.08E3,4.72E2,1.84E2,1.62E2,1.23E2,1.263E3,1.357E3,2.066E3,3.3E2,1.61E3,3.318E3,8.53E2,5.227E3,2.66E2,2.06E2],"tree_param":{"num_deleted":"0","num_feature":"2","num_nodes":"25","size_leaf_vector":"1"}},{"base_weights":[-6.5520883E-4,7.518299E-2,-3.164013E-1,1.1519725E-1,-5.5336237E-1,-1.5031037E-1,-8.987665E-1,-3.1632143E-1,1.912628E-1,-7.3413146E-1,1.7865403E-2,-4.857452E-1,1.994328E-1,-1.7524098E-1,-6.2798035E-1,-4.083446E-2,-1.1777429E-2,-2.026285E-2,2.6596693E-2,-5.717477E-2,-1.145339E-1,-1.0239328E-2,-6.1473228E-2,8.499888E-2,-2.467809E-2,-3.2970365E-2,-8.5088305E-2],"categories":[],"categories_nodes":[],"categories_segments":[],"categories_sizes":[],"default_left":[0,0,0,0,0,0,0,0,0,0,0,0,0,0,0,0,0,0,0,0,0,0,0,0,0,0,0],"id":31,"left_children":[1,3,5,7,9,11,13,15,17,19,-1,21,23,-1,25,-1,-1,-1,-1,-1,-1,-1,-1,-1,-1,-1,-1],"loss_changes":[4.062851E2,3.4415155E2,3.177051E2,4.2227182E2,1.0850612E2,3.001913E2,1.6741144E2,3.517827E1,3.2184912E2,4.3215332E1,0E0,6.451541E1,3.639394E2,0E0,3.6619553E1,0E0,0E0,0E0,0E0,0E0,0E0,0E0,0E0,0E0,0E0,0E0,0E0],"parents":[2147483647,0,0,1,1,2,2,3,3,4,4,5,5,6,6,7,7,8,8,9,9,11,11,12,12,14,14],"right_children":[2,4,6,8,10,12,14,16,18,20,-1,22,24,-1,26,-1,-1,-1,-1,-1,-1,-1,-1,-1,-1,-1,-1],"split_conditions":[7E0,2.3E1,2E1,5E0,6E0,1.3E1,2.1E1,3E0,2E0,5E0,1.7865403E-2,4E0,1.6E1,-1.7524098E-1,2.2E1,-4.083446E-2,-1.1777429E-2,-2.026285E-2,2.6596693E-2,-5.717477E-2,-1.145339E-1,-1.0239328E-2,-6.1473228E-2,8.499888E-2,-2.467809E-2,-3.2970365E-2,-8.5088305E-2],"split_indices":[0,1,1,1,0,1,1,1,0,0,0,1,1,0,1,0,0,0,0,0,0,0,0,0,0,0,0],"split_type":[0,0,0,0,0,0,0,0,0,0,0,0,0,0,0,0,0,0,0,0,0,0,0,0,0,0,0],"sum_hessian":[1.6965E4,1.368E4,3.285E3,1.2862E4,8.18E2,2.557E3,7.28E2,1.927E3,1.0935E4,6.56E2,1.62E2,1.305E3,1.252E3,1.74E2,5.54E2,1.316E3,6.11E2,1.743E3,9.192E3,4.72E2,1.84E2,3.29E2,9.76E2,5.09E2,7.43E2,2.38E2,3.16E2],"tree_param":{"num_deleted":"0","num_feature":"2","num_nodes":"27","size_leaf_vector":"1"}},{"base_weights":[-6.192433E-4,6.7650326E-2,-2.84854E-1,1.036742E-1,-4.9821386E-1,-1.3528386E-1,-8.0929226E-1,-2.8471646E-1,1.721374E-1,-6.609796E-1,1.6089851E-2,-5.6438667E-1,8.969871E-2,-1.5781705E-1,-5.65395E-1,-3.6754116E-2,-1.0601568E-2,-1.8237686E-2,2.3937343E-2,-5.1469386E-2,-1.0314238E-1,-2.1085827E-2,-9.691366E-2,1.2516402E-1,1.9998944E-3,-2.968712E-2,-7.660632E-2],"categories":[],"categories_nodes":[],"categories_segments":[],"categories_sizes":[],"default_left":[0,0,0,0,0,0,0,0,0,0,0,0,0,0,0,0,0,0,0,0,0,0,0,0,0,0,0],"id":32,"left_children":[1,3,5,7,9,11,13,15,17,19,-1,21,23,-1,25,-1,-1,-1,-1,-1,-1,-1,-1,-1,-1,-1,-1],"loss_changes":[3.2923743E2,2.7893365E2,2.5764536E2,3.4208215E2,8.796942E1,2.470016E2,1.3581516E2,2.8497055E1,2.6071555E2,3.507242E1,0E0,1.2571536E2,1.3595221E2,0E0,2.9678284E1,0E0,0E0,0E0,0E0,0E0,0E0,0E0,0E0,0E0,0E0,0E0,0E0],"parents":[2147483647,0,0,1,1,2,2,3,3,4,4,5,5,6,6,7,7,8,8,9,9,11,11,12,12,14,14],"right_children":[2,4,6,8,10,12,14,16,18,20,-1,22,24,-1,26,-1,-1,-1,-1,-1,-1,-1,-1,-1,-1,-1,-1],"split_conditions":[7E0,2.3E1,2E1,5E0,6E0,1E1,2.1E1,3E0,2E0,5E0,1.6089851E-2,5E0,1.1E1,-1.5781705E-1,2.2E1,-3.6754116E-2,-1.0601568E-2,-1.8237686E-2,2.3937343E-2,-5.1469386E-2,-1.0314238E-1,-2.1085827E-2,-9.691366E-2,1.2516402E-1,1.9998944E-3,-2.968712E-2,-7.660632E-2],"split_indices":[0,1,1,1,0,1,1,1,0,0,0,1,1,0,1,0,0,0,0,0,0,0,0,0,0,0,0],"split_type":[0,0,0,0,0,0,0,0,0,0,0,0,0,0,0,0,0,0,0,0,0,0,0,0,0,0,0],"sum_hessian":[1.6965E4,1.368E4,3.285E3,1.2862E4,8.18E2,2.557E3,7.28E2,1.927E3,1.0935E4,6.56E2,1.62E2,8.79E2,1.678E3,1.74E2,5.54E2,1.316E3,6.11E2,1.743E3,9.192E3,4.72E2,1.84E2,4.7E2,4.09E2,9.4E1,1.584E3,2.38E2,3.16E2],"tree_param":{"num_deleted":"0","num_feature":"2","num_nodes":"27","size_leaf_vector":"1"}},{"base_weights":[-5.8292574E-4,7.550489E-2,-2.262673E-1,-1.6560704E-1,2.3314637E-1,-5.374619E-1,1.23823054E-1,3.715052E-2,-3.8724324E-1,3.5495755E-1,1.4333833E-2,-5.937663E-1,-3.1340897E-1,6.0701436E-1,-7.2872543E-1,1.7921334E-2,-8.9434825E-2,-4.83453E-2,2.1472901E-2,2.0406492E-2,6.448152E-2,2.7797148E-2,-3.8439203E-2,-5.249973E-2,-7.378463E-2,-2.0351183E-2,-4.0439334E-2,9.8812304E-2,-4.271331E-2,-1.4212555E-1,-5.090471E-2],"categories":[],"categories_nodes":[],"categories_segments":[],"categories_sizes":[],"default_left":[0,0,0,0,0,0,0,0,0,0,0,0,0,0,0,0,0,0,0,0,0,0,0,0,0,0,0,0,0,0,0],"id":33,"left_children":[1,3,5,7,9,11,13,15,17,19,21,23,25,27,29,-1,-1,-1,-1,-1,-1,-1,-1,-1,-1,-1,-1,-1,-1,-1,-1],"loss_changes":[2.9135437E2,4.823379E2,4.6613846E2,2.254704E2,2.0450964E2,2.838733E1,8.300976E2,3.4700073E2,1.3892755E2,2.1544995E2,2.8865887E2,1.7536621E1,4.4872093E0,5.0726367E2,1.1018207E2,0E0,0E0,0E0,0E0,0E0,0E0,0E0,0E0,0E0,0E0,0E0,0E0,0E0,0E0,0E0,0E0],"parents":[2147483647,0,0,1,1,2,2,3,3,4,4,5,5,6,6,7,7,8,8,9,9,10,10,11,11,12,12,13,13,14,14],"right_children":[2,4,6,8,10,12,14,16,18,20,22,24,26,28,30,-1,-1,-1,-1,-1,-1,-1,-1,-1,-1,-1,-1,-1,-1,-1,-1],"split_conditions":[2E1,1E1,5E0,5E0,1.7E1,4E0,7E0,9E0,9E0,1.5E1,6E0,3E0,2.2E1,2.3E1,2.1E1,1.7921334E-2,-8.9434825E-2,-4.83453E-2,2.1472901E-2,2.0406492E-2,6.448152E-2,2.7797148E-2,-3.8439203E-2,-5.249973E-2,-7.378463E-2,-2.0351183E-2,-4.0439334E-2,9.8812304E-2,-4.271331E-2,-1.4212555E-1,-5.090471E-2],"split_indices":[1,1,0,0,1,0,0,1,1,1,0,0,1,1,1,0,0,0,0,0,0,0,0,0,0,0,0,0,0,0,0],"split_type":[0,0,0,0,0,0,0,0,0,0,0,0,0,0,0,0,0,0,0,0,0,0,0,0,0,0,0,0,0,0,0],"sum_hessian":[1.6965E4,1.2688E4,4.277E3,5.016E3,7.672E3,2.264E3,2.013E3,2.62E3,2.396E3,4.928E3,2.744E3,1.808E3,4.56E2,1.285E3,7.28E2,2.274E3,3.46E2,2.066E3,3.3E2,3.242E3,1.686E3,1.652E3,1.092E3,1.227E3,5.81E2,2.08E2,2.48E2,9.39E2,3.46E2,1.74E2,5.54E2],"tree_param":{"num_deleted":"0","num_feature":"2","num_nodes":"31","size_leaf_vector":"1"}},{"base_weights":[-5.45245E-4,6.7952365E-2,-2.0371628E-1,-1.4906593E-1,2.0984118E-1,-4.837982E-1,1.11372754E-1,3.3408187E-2,-3.4853008E-1,3.194788E-1,1.2896306E-2,-5.344594E-1,-2.822011E-1,5.463567E-1,-6.561179E-1,-3.3030953E-2,3.7192497E-2,-5.137068E-2,-3.949351E-3,6.161269E-2,1.7539335E-2,2.5019094E-2,-3.459884E-2,-4.725403E-2,-6.641883E-2,-1.8325778E-2,-3.641166E-2,8.8941604E-2,-3.84543E-2,-1.2799424E-1,-4.582343E-2],"categories":[],"categories_nodes":[],"categories_segments":[],"categories_sizes":[],"default_left":[0,0,0,0,0,0,0,0,0,0,0,0,0,0,0,0,0,0,0,0,0,0,0,0,0,0,0,0,0,0,0],"id":34,"left_children":[1,3,5,7,9,11,13,15,17,19,21,23,25,27,29,-1,-1,-1,-1,-1,-1,-1,-1,-1,-1,-1,-1,-1,-1,-1,-1],"loss_changes":[2.3612508E2,3.907569E2,3.775906E2,1.826156E2,1.6567569E2,2.2981934E1,6.727245E2,3.228323E2,1.2233615E2,2.1057056E2,2.3385464E2,1.4217285E1,3.6372566E0,4.110311E2,8.940463E1,0E0,0E0,0E0,0E0,0E0,0E0,0E0,0E0,0E0,0E0,0E0,0E0,0E0,0E0,0E0,0E0],"parents":[2147483647,0,0,1,1,2,2,3,3,4,4,5,5,6,6,7,7,8,8,9,9,10,10,11,11,12,12,13,13,14,14],"right_children":[2,4,6,8,10,12,14,16,18,20,22,24,26,28,30,-1,-1,-1,-1,-1,-1,-1,-1,-1,-1,-1,-1,-1,-1,-1,-1],"split_conditions":[2E1,1E1,5E0,5E0,1.7E1,4E0,7E0,5E0,7E0,4E0,6E0,3E0,2.2E1,2.3E1,2.1E1,-3.3030953E-2,3.7192497E-2,-5.137068E-2,-3.949351E-3,6.161269E-2,1.7539335E-2,2.5019094E-2,-3.459884E-2,-4.725403E-2,-6.641883E-2,-1.8325778E-2,-3.641166E-2,8.8941604E-2,-3.84543E-2,-1.2799424E-1,-4.582343E-2],"split_indices":[1,1,0,0,1,0,0,1,1,0,0,0,1,1,1,0,0,0,0,0,0,0,0,0,0,0,0,0,0,0,0],"split_type":[0,0,0,0,0,0,0,0,0,0,0,0,0,0,0,0,0,0,0,0,0,0,0,0,0,0,0,0,0,0,0],"sum_hessian":[1.6965E4,1.2688E4,4.277E3,5.016E3,7.672E3,2.264E3,2.013E3,2.62E3,2.396E3,4.928E3,2.744E3,1.808E3,4.56E2,1.285E3,7.28E2,1.263E3,1.357E3,1.561E3,8.35E2,1.61E3,3.318E3,1.652E3,1.092E3,1.227E3,5.81E2,2.08E2,2.48E2,9.39E2,3.46E2,1.74E2,5.54E2],"tree_param":{"num_deleted":"0","num_feature":"2","num_nodes":"31","size_leaf_vector":"1"}},{"base_weights":[-5.0699775E-4,8.039968E-2,-1.421231E-1,-8.195868E-2,3.7259862E-1,-4.6694583E-1,-1.5933603E-2,-1.5229369E-2,-3.699152E-1,8.3023936E-1,2.2525457E-1,-9.0918285E-1,-3.9560065E-1,1.3134363E-1,-4.6703973E-1,-2.879645E-2,6.790125E-3,2.8250206E-3,-5.0402433E-2,-3.5407133E-3,1.616783E-1,6.7317955E-2,1.3350705E-2,-7.828125E-2,-9.8294646E-2,-5.845968E-2,-2.0273924E-2,-9.8594725E-3,3.2090556E-2,-2.1936802E-2,-5.9074458E-2],"categories":[],"categories_nodes":[],"categories_segments":[],"categories_sizes":[],"default_left":[0,0,0,0,0,0,0,0,0,0,0,0,0,0,0,0,0,0,0,0,0,0,0,0,0,0,0,0,0,0,0],"id":35,"left_children":[1,3,5,7,9,11,13,15,17,19,21,23,25,27,29,-1,-1,-1,-1,-1,-1,-1,-1,-1,-1,-1,-1,-1,-1,-1,-1],"loss_changes":[1.9440256E2,5.122978E2,2.5285501E2,1.3338585E2,2.5989294E2,5.4098175E1,2.9531033E2,1.2782522E2,6.975154E1,6.3939294E2,1.19869385E2,1.458374E0,5.41192E1,1.4609355E2,3.338858E1,0E0,0E0,0E0,0E0,0E0,0E0,0E0,0E0,0E0,0E0,0E0,0E0,0E0,0E0,0E0,0E0],"parents":[2147483647,0,0,1,1,2,2,3,3,4,4,5,5,6,6,7,7,8,8,9,9,10,10,11,11,12,12,13,13,14,14],"right_children":[2,4,6,8,10,12,14,16,18,20,22,24,26,28,30,-1,-1,-1,-1,-1,-1,-1,-1,-1,-1,-1,-1,-1,-1,-1,-1],"split_conditions":[1.8E1,1.3E1,3E0,7E0,3E0,1.9E1,7E0,3E0,4E0,2E0,1.4E1,2E0,2E0,5E0,2E1,-2.879645E-2,6.790125E-3,2.8250206E-3,-5.0402433E-2,-3.5407133E-3,1.616783E-1,6.7317955E-2,1.3350705E-2,-7.828125E-2,-9.8294646E-2,-5.845968E-2,-2.0273924E-2,-9.8594725E-3,3.2090556E-2,-2.1936802E-2,-5.9074458E-2],"split_indices":[1,1,0,0,0,1,0,1,1,0,1,0,0,0,1,0,0,0,0,0,0,0,0,0,0,0,0,0,0,0,0],"split_type":[0,0,0,0,0,0,0,0,0,0,0,0,0,0,0,0,0,0,0,0,0,0,0,0,0,0,0,0,0,0,0],"sum_hessian":[1.6965E4,1.0797E4,6.168E3,6.941E3,3.856E3,1.725E3,4.443E3,5.636E3,1.305E3,9.38E2,2.918E3,2.38E2,1.487E3,3.35E3,1.093E3,1.316E3,4.32E3,3.29E2,9.76E2,4.47E2,4.91E2,4.95E2,2.423E3,9.2E1,1.46E2,7.5E2,7.37E2,1.514E3,1.836E3,3.65E2,7.28E2],"tree_param":{"num_deleted":"0","num_feature":"2","num_nodes":"31","size_leaf_vector":"1"}},{"base_weights":[-4.649824E-4,4.762845E-2,-2.0657742E-1,-1.2509394E-1,1.4675905E-1,-3.959278E-1,1.8102564E-2,3.528343E-2,-3.004064E-1,2.4370515E-1,-4.2662937E-2,-4.8408026E-1,-2.9055548E-1,2.398326E-1,-4.5370197E-1,1.7014958E-2,-8.490271E-2,-5.1537133E-3,-5.2381594E-2,4.7494795E-2,1.2490325E-2,5.6769745E-3,-4.883738E-2,-5.4709192E-2,-4.3216996E-2,-2.9357702E-3,-4.0664278E-2,6.2220365E-2,-2.643548E-2,-8.800268E-2,-1.7634602E-2],"categories":[],"categories_nodes":[],"categories_segments":[],"categories_sizes":[],"default_left":[0,0,0,0,0,0,0,0,0,0,0,0,0,0,0,0,0,0,0,0,0,0,0,0,0,0,0,0,0,0,0],"id":36,"left_children":[1,3,5,7,9,11,13,15,17,19,21,23,25,27,29,-1,-1,-1,-1,-1,-1,-1,-1,-1,-1,-1,-1,-1,-1,-1,-1],"loss_changes":[1.6818796E2,2.3556671E2,1.3657095E2,1.4106934E2,1.605277E2,1.6040466E1,1.5378564E2,3.1273422E2,1.3324564E2,1.5878427E2,1.3120967E2,2.8611603E0,2.4124168E1,1.9295114E2,5.5419373E1,0E0,0E0,0E0,0E0,0E0,0E0,0E0,0E0,0E0,0E0,0E0,0E0,0E0,0E0,0E0,0E0],"parents":[2147483647,0,0,1,1,2,2,3,3,4,4,5,5,6,6,7,7,8,8,9,9,10,10,11,11,12,12,13,13,14,14],"right_children":[2,4,6,8,10,12,14,16,18,20,22,24,26,28,30,-1,-1,-1,-1,-1,-1,-1,-1,-1,-1,-1,-1,-1,-1,-1,-1],"split_conditions":[2.1E1,1E1,5E0,5E0,1.8E1,3E0,2.3E1,9E0,5E0,4E0,7E0,2.2E1,2.2E1,7E0,6E0,1.7014958E-2,-8.490271E-2,-5.1537133E-3,-5.2381594E-2,4.7494795E-2,1.2490325E-2,5.6769745E-3,-4.883738E-2,-5.4709192E-2,-4.3216996E-2,-2.9357702E-3,-4.0664278E-2,6.2220365E-2,-2.643548E-2,-8.800268E-2,-1.7634602E-2],"split_indices":[1,1,0,0,1,0,1,1,1,0,0,1,1,0,0,0,0,0,0,0,0,0,0,0,0,0,0,0,0,0,0],"split_type":[0,0,0,0,0,0,0,0,0,0,0,0,0,0,0,0,0,0,0,0,0,0,0,0,0,0,0,0,0,0,0],"sum_hessian":[1.6965E4,1.3756E4,3.209E3,5.016E3,8.74E3,1.741E3,1.468E3,2.62E3,2.396E3,5.781E3,2.959E3,9.46E2,7.95E2,9.99E2,4.69E2,2.274E3,3.46E2,1.134E3,1.262E3,1.961E3,3.82E3,2.42E3,5.39E2,4.23E2,5.23E2,2.45E2,5.5E2,5.68E2,4.31E2,1.84E2,2.85E2],"tree_param":{"num_deleted":"0","num_feature":"2","num_nodes":"31","size_leaf_vector":"1"}},{"base_weights":[-4.3761224E-4,4.2857386E-2,-1.8598554E-1,-8.6314805E-2,1.54225E-1,-3.5641626E-1,1.6244756E-2,-4.1304447E-2,-2.782257E-1,3.2867926E-1,-9.426345E-3,-4.3577555E-1,-2.6155487E-1,2.1588509E-1,-4.085565E-1,-2.6892021E-2,3.666988E-3,3.057202E-3,-3.935776E-2,8.908554E-2,1.7230136E-2,-6.557673E-2,9.51172E-3,-4.925115E-2,-3.8903546E-2,-2.6434225E-3,-3.6605235E-2,5.6009244E-2,-2.3798034E-2,-7.924994E-2,-1.587733E-2],"categories":[],"categories_nodes":[],"categories_segments":[],"categories_sizes":[],"default_left":[0,0,0,0,0,0,0,0,0,0,0,0,0,0,0,0,0,0,0,0,0,0,0,0,0,0,0,0,0,0,0],"id":37,"left_children":[1,3,5,7,9,11,13,15,17,19,21,23,25,27,29,-1,-1,-1,-1,-1,-1,-1,-1,-1,-1,-1,-1,-1,-1,-1,-1],"loss_changes":[1.3630087E2,1.9791602E2,1.10642494E2,5.5012432E1,2.1092807E2,1.3E1,1.2467036E2,9.160825E1,4.3112724E1,3.1421957E2,2.5770975E2,2.3197021E0,1.954766E1,1.563571E2,4.4948334E1,0E0,0E0,0E0,0E0,0E0,0E0,0E0,0E0,0E0,0E0,0E0,0E0,0E0,0E0,0E0,0E0],"parents":[2147483647,0,0,1,1,2,2,3,3,4,4,5,5,6,6,7,7,8,8,9,9,10,10,11,11,12,12,13,13,14,14],"right_children":[2,4,6,8,10,12,14,16,18,20,22,24,26,28,30,-1,-1,-1,-1,-1,-1,-1,-1,-1,-1,-1,-1,-1,-1,-1,-1],"split_conditions":[2.1E1,1.2E1,5E0,7E0,1.7E1,3E0,2.3E1,3E0,4E0,3E0,2E0,2.2E1,2.2E1,7E0,6E0,-2.6892021E-2,3.666988E-3,3.057202E-3,-3.935776E-2,8.908554E-2,1.7230136E-2,-6.557673E-2,9.51172E-3,-4.925115E-2,-3.8903546E-2,-2.6434225E-3,-3.6605235E-2,5.6009244E-2,-2.3798034E-2,-7.924994E-2,-1.587733E-2],"split_indices":[1,1,0,0,1,0,1,1,1,0,0,1,1,0,0,0,0,0,0,0,0,0,0,0,0,0,0,0,0,0,0],"split_type":[0,0,0,0,0,0,0,0,0,0,0,0,0,0,0,0,0,0,0,0,0,0,0,0,0,0,0,0,0,0,0],"sum_hessian":[1.6965E4,1.3756E4,3.209E3,6.369E3,7.387E3,1.741E3,1.468E3,5.16E3,1.209E3,3.575E3,3.812E3,9.46E2,7.95E2,9.99E2,4.69E2,1.316E3,3.844E3,3.29E2,8.8E2,7.77E2,2.798E3,5.3E2,3.282E3,4.23E2,5.23E2,2.45E2,5.5E2,5.68E2,4.31E2,1.84E2,2.85E2],"tree_param":{"num_deleted":"0","num_feature":"2","num_nodes":"31","size_leaf_vector":"1"}},{"base_weights":[-4.0587847E-4,5.3003885E-2,-1.2309465E-1,-6.5998346E-2,2.2227858E-1,-2.8773335E-1,5.734747E-2,-1.309467E-2,-2.9429242E-1,4.1951284E-1,5.6282844E-2,5.4378033E-2,-3.5210148E-1,3.4024832E-1,-4.3644968E-1,-2.3340788E-2,5.975685E-3,2.7524314E-3,-4.026908E-2,-2.0581145E-2,6.1895438E-2,4.7877807E-2,-1.0742954E-3,-3.895743E-2,3.3823114E-2,-3.8956907E-2,-2.0301847E-2,5.152128E-2,-2.738643E-2,-6.457139E-2,-3.0708838E-2],"categories":[],"categories_nodes":[],"categories_segments":[],"categories_sizes":[],"default_left":[0,0,0,0,0,0,0,0,0,0,0,0,0,0,0,0,0,0,0,0,0,0,0,0,0,0,0,0,0,0,0],"id":38,"left_children":[1,3,5,7,9,11,13,15,17,19,21,23,25,27,29,-1,-1,-1,-1,-1,-1,-1,-1,-1,-1,-1,-1,-1,-1,-1,-1],"loss_changes":[1.1118097E2,2.381377E2,1.5289261E2,8.383882E1,1.5974782E2,5.9277863E1,3.43241E2,9.048865E1,4.5570107E1,2.7824326E2,7.507637E1,5.3941128E1,1.2572693E1,1.6797472E2,2.4029984E1,0E0,0E0,0E0,0E0,0E0,0E0,0E0,0E0,0E0,0E0,0E0,0E0,0E0,0E0,0E0,0E0],"parents":[2147483647,0,0,1,1,2,2,3,3,4,4,5,5,6,6,7,7,8,8,9,9,10,10,11,11,12,12,13,13,14,14],"right_children":[2,4,6,8,10,12,14,16,18,20,22,24,26,28,30,-1,-1,-1,-1,-1,-1,-1,-1,-1,-1,-1,-1,-1,-1,-1,-1],"split_conditions":[1.9E1,1.3E1,5E0,7E0,5E0,2E1,7E0,4E0,4E0,2E0,1.4E1,2E0,4E0,2.3E1,2.1E1,-2.3340788E-2,5.975685E-3,2.7524314E-3,-4.026908E-2,-2.0581145E-2,6.1895438E-2,4.7877807E-2,-1.0742954E-3,-3.895743E-2,3.3823114E-2,-3.8956907E-2,-2.0301847E-2,5.152128E-2,-2.738643E-2,-6.457139E-2,-3.0708838E-2],"split_indices":[1,1,0,0,0,1,0,1,1,0,1,0,0,1,1,0,0,0,0,0,0,0,0,0,0,0,0,0,0,0,0],"split_type":[0,0,0,0,0,0,0,0,0,0,0,0,0,0,0,0,0,0,0,0,0,0,0,0,0,0,0,0,0,0,0],"sum_hessian":[1.6965E4,1.182E4,5.145E3,6.941E3,4.879E3,2.69E3,2.455E3,5.636E3,1.305E3,2.229E3,2.65E3,4.26E2,2.264E3,1.561E3,8.94E2,1.4E3,4.236E3,3.29E2,9.76E2,5.39E2,1.69E3,3.62E2,2.288E3,1.66E2,2.6E2,1.808E3,4.56E2,1.215E3,3.46E2,3.4E2,5.54E2],"tree_param":{"num_deleted":"0","num_feature":"2","num_nodes":"31","size_leaf_vector":"1"}},{"base_weights":[-3.714019E-4,5.6279946E-2,-9.953186E-2,-5.940642E-2,2.6448283E-1,-2.7963433E-1,2.2604385E-2,-1.178833E-2,-2.6489168E-1,6.225455E-1,1.4920862E-1,-9.17253E-2,-3.506338E-1,1.768169E-1,-3.416623E-1,-1.713878E-2,7.1154945E-3,2.4780377E-3,-3.6246274E-2,-9.341481E-3,1.2732115E-1,5.20278E-2,7.321869E-3,-4.860392E-2,9.6097186E-2,-2.7364088E-2,-5.124838E-2,2.514997E-2,-2.1411909E-2,-1.2840286E-2,-4.4826217E-2],"categories":[],"categories_nodes":[],"categories_segments":[],"categories_sizes":[],"default_left":[0,0,0,0,0,0,0,0,0,0,0,0,0,0,0,0,0,0,0,0,0,0,0,0,0,0,0,0,0,0,0],"id":39,"left_children":[1,3,5,7,9,11,13,15,17,19,21,23,25,27,29,-1,-1,-1,-1,-1,-1,-1,-1,-1,-1,-1,-1,-1,-1,-1,-1],"loss_changes":[9.531335E1,2.6009885E2,1.3570607E2,6.7923065E1,1.591063E2,3.3228043E1,2.0661397E2,7.4633125E1,3.692124E1,4.375531E2,8.227053E1,2.8480585E2,2.2402267E1,7.54968E1,2.4812805E1,0E0,0E0,0E0,0E0,0E0,0E0,0E0,0E0,0E0,0E0,0E0,0E0,0E0,0E0,0E0,0E0],"parents":[2147483647,0,0,1,1,2,2,3,3,4,4,5,5,6,6,7,7,8,8,9,9,10,10,11,11,12,12,13,13,14,14],"right_children":[2,4,6,8,10,12,14,16,18,20,22,24,26,28,30,-1,-1,-1,-1,-1,-1,-1,-1,-1,-1,-1,-1,-1,-1,-1,-1],"split_conditions":[1.8E1,1.3E1,4E0,7E0,3E0,2E1,7E0,5E0,4E0,2E0,1.4E1,3E0,3E0,2.3E1,2E1,-1.713878E-2,7.1154945E-3,2.4780377E-3,-3.6246274E-2,-9.341481E-3,1.2732115E-1,5.20278E-2,7.321869E-3,-4.860392E-2,9.6097186E-2,-2.7364088E-2,-5.124838E-2,2.514997E-2,-2.1411909E-2,-1.2840286E-2,-4.4826217E-2],"split_indices":[1,1,0,0,0,1,0,1,1,0,1,0,0,1,1,0,0,0,0,0,0,0,0,0,0,0,0,0,0,0,0],"split_type":[0,0,0,0,0,0,0,0,0,0,0,0,0,0,0,0,0,0,0,0,0,0,0,0,0,0,0,0,0,0,0],"sum_hessian":[1.6965E4,1.0797E4,6.168E3,6.941E3,3.856E3,2.492E3,3.676E3,5.636E3,1.305E3,9.38E2,2.918E3,6.84E2,1.808E3,2.583E3,1.093E3,1.927E3,3.709E3,3.29E2,9.76E2,4.47E2,4.91E2,4.95E2,2.423E3,4.98E2,1.86E2,1.227E3,5.81E2,2.169E3,4.14E2,3.65E2,7.28E2],"tree_param":{"num_deleted":"0","num_feature":"2","num_nodes":"31","size_leaf_vector":"1"}},{"base_weights":[-3.3173166E-4,5.0663877E-2,-8.959259E-2,-5.347259E-2,2.3808017E-1,-2.5168347E-1,2.0329129E-2,-1.0611821E-2,-2.384287E-1,5.604168E-1,1.3430758E-1,-3.9883107E-1,-1.7639752E-1,1.5913641E-1,-3.075487E-1,-2.0159993E-2,4.7602006E-3,2.5190402E-2,-2.88709E-2,-8.40935E-3,1.14614904E-1,4.6835423E-2,6.5899394E-3,-5.7767637E-2,-3.7615273E-2,1.118179E-2,-2.7671719E-2,2.26361E-2,-1.927588E-2,-1.1559767E-2,-4.0349733E-2],"categories":[],"categories_nodes":[],"categories_segments":[],"categories_sizes":[],"default_left":[0,0,0,0,0,0,0,0,0,0,0,0,0,0,0,0,0,0,0,0,0,0,0,0,0,0,0,0,0,0,0],"id":40,"left_children":[1,3,5,7,9,11,13,15,17,19,21,23,25,27,29,-1,-1,-1,-1,-1,-1,-1,-1,-1,-1,-1,-1,-1,-1,-1,-1],"loss_changes":[7.723227E1,2.107559E2,1.0992009E2,5.502921E1,1.2894025E2,2.754747E1,1.6739595E2,6.268259E1,3.227095E1,3.5457867E2,6.6672745E1,3.2018433E0,4.7767418E1,6.1170784E1,2.0102036E1,0E0,0E0,0E0,0E0,0E0,0E0,0E0,0E0,0E0,0E0,0E0,0E0,0E0,0E0,0E0,0E0],"parents":[2147483647,0,0,1,1,2,2,3,3,4,4,5,5,6,6,7,7,8,8,9,9,10,10,11,11,12,12,13,13,14,14],"right_children":[2,4,6,8,10,12,14,16,18,20,22,24,26,28,30,-1,-1,-1,-1,-1,-1,-1,-1,-1,-1,-1,-1,-1,-1,-1,-1],"split_conditions":[1.8E1,1.3E1,4E0,7E0,3E0,2E0,7E0,3E0,1E0,2E0,1.4E1,1.9E1,2E1,2.3E1,2E1,-2.0159993E-2,4.7602006E-3,2.5190402E-2,-2.88709E-2,-8.40935E-3,1.14614904E-1,4.6835423E-2,6.5899394E-3,-5.7767637E-2,-3.7615273E-2,1.118179E-2,-2.7671719E-2,2.26361E-2,-1.927588E-2,-1.1559767E-2,-4.0349733E-2],"split_indices":[1,1,0,0,0,0,0,1,1,0,1,1,1,1,1,0,0,0,0,0,0,0,0,0,0,0,0,0,0,0,0],"split_type":[0,0,0,0,0,0,0,0,0,0,0,0,0,0,0,0,0,0,0,0,0,0,0,0,0,0,0,0,0,0,0],"sum_hessian":[1.6965E4,1.0797E4,6.168E3,6.941E3,3.856E3,2.492E3,3.676E3,5.636E3,1.305E3,9.38E2,2.918E3,8.42E2,1.65E3,2.583E3,1.093E3,1.316E3,4.32E3,1.21E2,1.184E3,4.47E2,4.91E2,4.95E2,2.423E3,9.2E1,7.5E2,4.26E2,1.224E3,2.169E3,4.14E2,3.65E2,7.28E2],"tree_param":{"num_deleted":"0","num_feature":"2","num_nodes":"31","size_leaf_vector":"1"}},{"base_weights":[-2.9979472E-4,4.561044E-2,-8.06594E-2,-2.6644614E-2,2.805352E-1,-2.7355087E-1,-5.724352E-3,-8.2391374E-2,5.9605192E-2,5.1853544E-1,6.835748E-2,-7.713059E-1,-1.9341847E-1,8.278882E-2,-2.7684128E-1,5.123172E-3,-2.284672E-2,5.1908907E-2,-3.3873698E-4,-1.21185435E-2,7.683234E-2,3.9526355E-2,-8.325334E-3,-5.2052952E-2,-9.2471346E-2,-3.3858765E-2,-4.543002E-3,-6.485391E-3,2.0450681E-2,-1.0406986E-2,-3.6320273E-2],"categories":[],"categories_nodes":[],"categories_segments":[],"categories_sizes":[],"default_left":[0,0,0,0,0,0,0,0,0,0,0,0,0,0,0,0,0,0,0,0,0,0,0,0,0,0,0,0,0,0,0],"id":41,"left_children":[1,3,5,7,9,11,13,15,17,19,21,23,25,27,29,-1,-1,-1,-1,-1,-1,-1,-1,-1,-1,-1,-1,-1,-1,-1,-1],"loss_changes":[6.2596817E1,1.8329813E2,8.916719E1,3.97154E1,1.2823038E2,6.869458E1,1.0666746E2,9.793904E1,9.3867355E1,1.9136716E2,6.6644905E1,8.713242E0,3.1951859E1,6.023333E1,1.6285538E1,0E0,0E0,0E0,0E0,0E0,0E0,0E0,0E0,0E0,0E0,0E0,0E0,0E0,0E0,0E0,0E0],"parents":[2147483647,0,0,1,1,2,2,3,3,4,4,5,5,6,6,7,7,8,8,9,9,10,10,11,11,12,12,13,13,14,14],"right_children":[2,4,6,8,10,12,14,16,18,20,22,24,26,28,30,-1,-1,-1,-1,-1,-1,-1,-1,-1,-1,-1,-1,-1,-1,-1,-1],"split_conditions":[1.8E1,1.5E1,3E0,1E1,5E0,1.9E1,7E0,5E0,1.1E1,2E0,1.6E1,2E0,2E0,5E0,2E1,5.123172E-3,-2.284672E-2,5.1908907E-2,-3.3873698E-4,-1.21185435E-2,7.683234E-2,3.9526355E-2,-8.325334E-3,-5.2052952E-2,-9.2471346E-2,-3.3858765E-2,-4.543002E-3,-6.485391E-3,2.0450681E-2,-1.0406986E-2,-3.6320273E-2],"split_indices":[1,1,0,1,0,1,0,0,1,0,1,0,0,0,1,0,0,0,0,0,0,0,0,0,0,0,0,0,0,0,0],"split_type":[0,0,0,0,0,0,0,0,0,0,0,0,0,0,0,0,0,0,0,0,0,0,0,0,0,0,0,0,0,0,0],"sum_hessian":[1.6965E4,1.0797E4,6.168E3,8.258E3,2.539E3,1.725E3,4.443E3,5.016E3,3.242E3,1.196E3,1.343E3,2.38E2,1.487E3,3.35E3,1.093E3,2.62E3,2.396E3,3.9E2,2.852E3,3.36E2,8.6E2,4.25E2,9.18E2,9.2E1,1.46E2,7.5E2,7.37E2,1.514E3,1.836E3,3.65E2,7.28E2],"tree_param":{"num_deleted":"0","num_feature":"2","num_nodes":"31","size_leaf_vector":"1"}},{"base_weights":[-2.7468015E-4,2.0645646E-2,-1.5481402E-1,-7.415576E-2,6.855036E-2,-2.459018E-1,-5.1673926E-2,1.7599866E-2,-2.5129944E-1,1.5980998E-1,-2.142707E-2,-3.3306244E-1,-1.344502E-1,1.8425189E-1,-2.9301146E-1,2.064424E-2,-5.3614955E-2,-5.0477426E-2,4.803816E-2,5.3661303E-3,3.6376987E-2,-4.2249724E-2,4.5813136E-3,-1.2466061E-2,-4.8794538E-2,-3.3236053E-2,1.2147494E-2,7.693027E-2,-5.3375834E-3,-6.663112E-2,-5.0516846E-3],"categories":[],"categories_nodes":[],"categories_segments":[],"categories_sizes":[],"default_left":[0,0,0,0,0,0,0,0,0,0,0,0,0,0,0,0,0,0,0,0,0,0,0,0,0,0,0,0,0,0,0],"id":42,"left_children":[1,3,5,7,9,11,13,15,17,19,21,23,25,27,29,-1,-1,-1,-1,-1,-1,-1,-1,-1,-1,-1,-1,-1,-1,-1,-1],"loss_changes":[5.48545E1,6.787228E1,1.8992977E1,8.155038E1,8.152527E1,1.03882675E1,5.4144848E1,3.458239E2,3.1775467E2,1.0669369E2,1.3485956E2,1.937046E1,2.399793E1,6.691174E1,4.2512234E1,0E0,0E0,0E0,0E0,0E0,0E0,0E0,0E0,0E0,0E0,0E0,0E0,0E0,0E0,0E0,0E0],"parents":[2147483647,0,0,1,1,2,2,3,3,4,4,5,5,6,6,7,7,8,8,9,9,10,10,11,11,12,12,13,13,14,14],"right_children":[2,4,6,8,10,12,14,16,18,20,22,24,26,28,30,-1,-1,-1,-1,-1,-1,-1,-1,-1,-1,-1,-1,-1,-1,-1,-1],"split_conditions":[2.2E1,1E1,5E0,6E0,1.7E1,2.3E1,2.3E1,8E0,8E0,1.5E1,2E0,3E0,3E0,6E0,6E0,2.064424E-2,-5.3614955E-2,-5.0477426E-2,4.803816E-2,5.3661303E-3,3.6376987E-2,-4.2249724E-2,4.5813136E-3,-1.2466061E-2,-4.8794538E-2,-3.3236053E-2,1.2147494E-2,7.693027E-2,-5.3375834E-3,-6.663112E-2,-5.0516846E-3],"split_indices":[1,1,0,0,1,1,1,1,1,1,0,0,0,0,0,0,0,0,0,0,0,0,0,0,0,0,0,0,0,0,0],"split_type":[0,0,0,0,0,0,0,0,0,0,0,0,0,0,0,0,0,0,0,0,0,0,0,0,0,0,0,0,0,0,0],"sum_hessian":[1.6965E4,1.4943E4,2.022E3,5.016E3,9.927E3,1.073E3,9.49E2,3.305E3,1.711E3,4.928E3,4.999E3,6.01E2,4.72E2,4.8E2,4.69E2,2.465E3,8.4E2,1.271E3,4.4E2,3.242E3,1.686E3,7.17E2,4.282E3,2.57E2,3.44E2,2.66E2,2.06E2,1.38E2,3.42E2,1.84E2,2.85E2],"tree_param":{"num_deleted":"0","num_feature":"2","num_nodes":"31","size_leaf_vector":"1"}},{"base_weights":[-2.538201E-4,1.8579084E-2,-1.3937329E-1,-6.674732E-2,6.1695926E-2,-2.2138824E-1,-4.6506517E-2,4.3295156E-2,-1.8704545E-1,1.4383796E-1,-1.929202E-2,-2.9985785E-1,-1.21049754E-1,1.6597573E-1,-2.6386282E-1,1.6236516E-2,-7.374759E-2,6.1500845E-3,-4.102545E-2,4.8297583E-3,3.2741446E-2,-3.803064E-2,4.1232756E-3,-1.1224296E-2,-4.39292E-2,-2.9924894E-2,1.0938616E-2,4.414198E-2,-2.4378648E-2,-6.0004003E-2,-4.5482907E-3],"categories":[],"categories_nodes":[],"categories_segments":[],"categories_sizes":[],"default_left":[0,0,0,0,0,0,0,0,0,0,0,0,0,0,0,0,0,0,0,0,0,0,0,0,0,0,0,0,0,0,0],"id":43,"left_children":[1,3,5,7,9,11,13,15,17,19,21,23,25,27,29,-1,-1,-1,-1,-1,-1,-1,-1,-1,-1,-1,-1,-1,-1,-1,-1],"loss_changes":[4.4453907E1,5.4983173E1,1.5397808E1,6.642266E1,6.6048935E1,8.419865E0,4.391893E1,2.4378468E2,1.3300546E2,8.6433754E1,1.09267265E2,1.5698971E1,1.9455765E1,5.4396442E1,3.4477448E1,0E0,0E0,0E0,0E0,0E0,0E0,0E0,0E0,0E0,0E0,0E0,0E0,0E0,0E0,0E0,0E0],"parents":[2147483647,0,0,1,1,2,2,3,3,4,4,5,5,6,6,7,7,8,8,9,9,10,10,11,11,12,12,13,13,14,14],"right_children":[2,4,6,8,10,12,14,16,18,20,22,24,26,28,30,-1,-1,-1,-1,-1,-1,-1,-1,-1,-1,-1,-1,-1,-1,-1,-1],"split_conditions":[2.2E1,1E1,5E0,5E0,1.7E1,2.3E1,2.3E1,9E0,5E0,1.5E1,2E0,3E0,3E0,7E0,6E0,1.6236516E-2,-7.374759E-2,6.1500845E-3,-4.102545E-2,4.8297583E-3,3.2741446E-2,-3.803064E-2,4.1232756E-3,-1.1224296E-2,-4.39292E-2,-2.9924894E-2,1.0938616E-2,4.414198E-2,-2.4378648E-2,-6.0004003E-2,-4.5482907E-3],"split_indices":[1,1,0,0,1,1,1,1,1,1,0,0,0,0,0,0,0,0,0,0,0,0,0,0,0,0,0,0,0,0,0],"split_type":[0,0,0,0,0,0,0,0,0,0,0,0,0,0,0,0,0,0,0,0,0,0,0,0,0,0,0,0,0,0,0],"sum_hessian":[1.6965E4,1.4943E4,2.022E3,5.016E3,9.927E3,1.073E3,9.49E2,2.62E3,2.396E3,4.928E3,4.999E3,6.01E2,4.72E2,4.8E2,4.69E2,2.274E3,3.46E2,1.134E3,1.262E3,3.242E3,1.686E3,7.17E2,4.282E3,2.57E2,3.44E2,2.66E2,2.06E2,2.87E2,1.93E2,1.84E2,2.85E2],"tree_param":{"num_deleted":"0","num_feature":"2","num_nodes":"31","size_leaf_vector":"1"}},{"base_weights":[-2.4078644E-4,-1.4978753E-1,1.5308431E-2,-3.2611147E-1,6.8975054E-2,4.620613E-2,-1.1183479E-1,-1.5135275E-1,-4.1592488E-1,1.39576625E-2,2.0458126E-1,7.915845E-2,-7.4280776E-2,-5.14998E-1,-6.2751554E-2,-3.931436E-2,4.9109305E-3,-1.08525595E-2,-6.456893E-2,-3.46177E-2,1.5836893E-2,8.43384E-2,1.5654331E-3,1.8105789E-3,1.5326385E-2,-1.736254E-2,3.775917E-2,-1.5995859E-3,-1.2032857E-1,1.5780983E-2,-2.4386294E-2],"categories":[],"categories_nodes":[],"categories_segments":[],"categories_sizes":[],"default_left":[0,0,0,0,0,0,0,0,0,0,0,0,0,0,0,0,0,0,0,0,0,0,0,0,0,0,0,0,0,0,0],"id":44,"left_children":[1,3,5,7,9,11,13,15,17,19,21,23,25,27,29,-1,-1,-1,-1,-1,-1,-1,-1,-1,-1,-1,-1,-1,-1,-1,-1],"loss_changes":[3.9453926E1,6.1662273E1,6.0381252E1,1.3827728E1,5.324084E0,4.909893E1,5.9432285E1,1.4657215E1,4.1177498E1,2.6526644E1,2.4848324E1,4.392848E1,1.1929634E2,1.1194776E2,1.0709424E2,0E0,0E0,0E0,0E0,0E0,0E0,0E0,0E0,0E0,0E0,0E0,0E0,0E0,0E0,0E0,0E0],"parents":[2147483647,0,0,1,1,2,2,3,3,4,4,5,5,6,6,7,7,8,8,9,9,10,10,11,11,12,12,13,13,14,14],"right_children":[2,4,6,8,10,12,14,16,18,20,22,24,26,28,30,-1,-1,-1,-1,-1,-1,-1,-1,-1,-1,-1,-1,-1,-1,-1,-1],"split_conditions":[3E0,5E0,7E0,1E0,2E0,2.1E1,7E0,3E0,2E0,6E0,6E0,1.5E1,6E0,5E0,1.6E1,-3.931436E-2,4.9109305E-3,-1.08525595E-2,-6.456893E-2,-3.46177E-2,1.5836893E-2,8.43384E-2,1.5654331E-3,1.8105789E-3,1.5326385E-2,-1.736254E-2,3.775917E-2,-1.5995859E-3,-1.2032857E-1,1.5780983E-2,-2.4386294E-2],"split_indices":[1,0,0,1,1,1,1,0,0,0,0,1,0,1,1,0,0,0,0,0,0,0,0,0,0,0,0,0,0,0,0],"split_type":[0,0,0,0,0,0,0,0,0,0,0,0,0,0,0,0,0,0,0,0,0,0,0,0,0,0,0,0,0,0,0],"sum_hessian":[1.6965E4,1.597E3,1.5368E4,8.84E2,7.13E2,1.2364E4,3.004E3,3.01E2,5.83E2,5.08E2,2.05E2,9.709E3,2.655E3,3.25E2,2.679E3,1.36E2,1.65E2,2.5E2,3.33E2,1.45E2,3.63E2,4.6E1,1.59E2,5.324E3,4.385E3,2.177E3,4.78E2,1.89E2,1.36E2,1.208E3,1.471E3],"tree_param":{"num_deleted":"0","num_feature":"2","num_nodes":"31","size_leaf_vector":"1"}},{"base_weights":[-2.2450232E-4,3.3512525E-2,-5.927657E-2,-1.7623615E-2,1.9977233E-1,-1.75068E-1,1.9245958E-2,-1.0892935E-1,1.9730322E-2,5.7359105E-1,6.9305934E-2,-2.5754403E-2,-2.3151067E-1,1.225175E-1,-2.2469637E-1,-3.077049E-2,2.584158E-3,1.4169717E-2,-8.640853E-3,-1.2369434E-2,1.3038452E-1,1.6079837E-2,-1.2723594E-2,-3.4895003E-2,8.368145E-2,-1.5003892E-2,-4.030155E-2,-5.351612E-3,2.076345E-2,-3.297407E-2,-1.2208621E-2],"categories":[],"categories_nodes":[],"categories_segments":[],"categories_sizes":[],"default_left":[0,0,0,0,0,0,0,0,0,0,0,0,0,0,0,0,0,0,0,0,0,0,0,0,0,0,0,0,0,0,0],"id":45,"left_children":[1,3,5,7,9,11,13,15,17,19,21,23,25,27,29,-1,-1,-1,-1,-1,-1,-1,-1,-1,-1,-1,-1,-1,-1,-1,-1],"loss_changes":[3.3802357E1,9.180687E1,5.6093372E1,2.8170532E1,1.2383802E2,2.1004189E1,9.2659615E1,6.424836E1,7.589829E1,3.3470276E2,3.3898727E1,1.9125528E2,2.5216316E1,3.872835E1,1.1751553E1,0E0,0E0,0E0,0E0,0E0,0E0,0E0,0E0,0E0,0E0,0E0,0E0,0E0,0E0,0E0,0E0],"parents":[2147483647,0,0,1,1,2,2,3,3,4,4,5,5,6,6,7,7,8,8,9,9,10,10,11,11,12,12,13,13,14,14],"right_children":[2,4,6,8,10,12,14,16,18,20,22,24,26,28,30,-1,-1,-1,-1,-1,-1,-1,-1,-1,-1,-1,-1,-1,-1,-1,-1],"split_conditions":[1.8E1,1.5E1,4E0,5E0,3E0,2E1,7E0,4E0,5E0,2E0,1.7E1,3E0,3E0,2E1,2.1E1,-3.077049E-2,2.584158E-3,1.4169717E-2,-8.640853E-3,-1.2369434E-2,1.3038452E-1,1.6079837E-2,-1.2723594E-2,-3.4895003E-2,8.368145E-2,-1.5003892E-2,-4.030155E-2,-5.351612E-3,2.076345E-2,-3.297407E-2,-1.2208621E-2],"split_indices":[1,1,0,1,0,1,0,0,0,0,1,0,0,1,1,0,0,0,0,0,0,0,0,0,0,0,0,0,0,0,0],"split_type":[0,0,0,0,0,0,0,0,0,0,0,0,0,0,0,0,0,0,0,0,0,0,0,0,0,0,0,0,0,0,0],"sum_hessian":[1.6965E4,1.0797E4,6.168E3,8.258E3,2.539E3,2.492E3,3.676E3,2.397E3,5.861E3,6.56E2,1.883E3,6.84E2,1.808E3,2.583E3,1.093E3,9.68E2,1.429E3,2.727E3,3.134E3,3.36E2,3.2E2,1.285E3,5.98E2,4.98E2,1.86E2,1.227E3,5.81E2,8.42E2,1.741E3,5.39E2,5.54E2],"tree_param":{"num_deleted":"0","num_feature":"2","num_nodes":"31","size_leaf_vector":"1"}},{"base_weights":[-1.9833444E-4,1.5039056E-2,-1.1275758E-1,-9.804816E-2,3.6651243E-2,-8.1488915E-2,-2.807792E-1,-2.7696615E-1,2.3259247E-2,9.733508E-2,-2.058029E-2,-1.3711019E-1,1.6764185E-1,-1.8312722E-2,-4.31293E-2,8.114809E-3,-4.9161404E-2,-5.8466396E-3,7.925579E-3,1.9456765E-1,1.6556397E-3,-2.8229922E-1,5.334644E-3,-7.5134407E-3,-2.067068E-2,1.0343513E-2,2.256993E-2],"categories":[],"categories_nodes":[],"categories_segments":[],"categories_sizes":[],"default_left":[0,0,0,0,0,0,0,0,0,0,0,0,0,0,0,0,0,0,0,0,0,0,0,0,0,0,0],"id":46,"left_children":[1,3,5,7,9,11,13,15,17,19,21,23,25,-1,-1,-1,-1,-1,-1,-1,-1,-1,-1,-1,-1,-1,-1],"loss_changes":[2.9100237E1,3.6527653E1,1.0605585E1,5.205282E1,4.3578094E1,2.3676838E1,4.5802746E0,7.452544E1,6.54882E0,9.092449E2,1.3380748E3,6.0058403E0,1.1396904E0,0E0,0E0,0E0,0E0,0E0,0E0,0E0,0E0,0E0,0E0,0E0,0E0,0E0,0E0],"parents":[2147483647,0,0,1,1,2,2,3,3,4,4,5,5,6,6,7,7,8,8,9,9,10,10,11,11,12,12],"right_children":[2,4,6,8,10,12,14,16,18,20,22,24,26,-1,-1,-1,-1,-1,-1,-1,-1,-1,-1,-1,-1,-1,-1],"split_conditions":[2.2E1,5E0,7E0,4E0,5E0,6E0,2.3E1,2E0,6E0,6E0,6E0,2.3E1,2.3E1,-1.8312722E-2,-4.31293E-2,8.114809E-3,-4.9161404E-2,-5.8466396E-3,7.925579E-3,1.9456765E-1,1.6556397E-3,-2.8229922E-1,5.334644E-3,-7.5134407E-3,-2.067068E-2,1.0343513E-2,2.256993E-2],"split_indices":[1,1,0,0,0,0,1,0,0,1,1,1,1,0,0,0,0,0,0,0,0,0,0,0,0,0,0],"split_type":[0,0,0,0,0,0,0,0,0,0,0,0,0,0,0,0,0,0,0,0,0,0,0,0,0,0,0],"sum_hessian":[1.6965E4,1.4943E4,2.022E3,2.397E3,1.2546E4,1.706E3,3.16E2,9.68E2,1.429E3,6.089E3,6.457E3,1.395E3,3.11E2,1.93E2,1.23E2,3.63E2,6.05E2,5.81E2,8.48E2,2.54E2,5.835E3,1.65E2,6.292E3,7.39E2,6.56E2,1.49E2,1.62E2],"tree_param":{"num_deleted":"0","num_feature":"2","num_nodes":"27","size_leaf_vector":"1"}},{"base_weights":[-1.8892686E-4,2.938826E-2,-5.195976E-2,-3.165216E-2,1.392439E-1,-1.5405226E-1,1.7272912E-2,1.6565317E-4,-1.68961E-1,4.0551233E-1,5.3541504E-2,-2.47608E-2,-2.0292489E-1,1.08397625E-1,-1.9797713E-1,-1.1519109E-2,6.0113803E-3,-6.358679E-3,-4.766653E-2,-7.6366165E-3,8.434718E-2,4.035495E-2,-1.8099378E-3,-3.157772E-2,7.519342E-2,-1.2994632E-2,-3.5655852E-2,1.5863951E-2,-1.5457411E-2,-5.048856E-3,-2.7175331E-2],"categories":[],"categories_nodes":[],"categories_segments":[],"categories_sizes":[],"default_left":[0,0,0,0,0,0,0,0,0,0,0,0,0,0,0,0,0,0,0,0,0,0,0,0,0,0,0,0,0,0,0],"id":47,"left_children":[1,3,5,7,9,11,13,15,17,19,21,23,25,27,29,-1,-1,-1,-1,-1,-1,-1,-1,-1,-1,-1,-1,-1,-1,-1,-1],"loss_changes":[2.5980474E1,7.241184E1,4.360599E1,3.0328705E1,8.799442E1,1.574778E1,7.214433E1,3.8989162E1,4.2315567E1,1.9823401E2,7.3200874E1,1.5506868E2,2.0236107E1,3.416483E1,1.1890251E1,0E0,0E0,0E0,0E0,0E0,0E0,0E0,0E0,0E0,0E0,0E0,0E0,0E0,0E0,0E0,0E0],"parents":[2147483647,0,0,1,1,2,2,3,3,4,4,5,5,6,6,7,7,8,8,9,9,10,10,11,11,12,12,13,13,14,14],"right_children":[2,4,6,8,10,12,14,16,18,20,22,24,26,28,30,-1,-1,-1,-1,-1,-1,-1,-1,-1,-1,-1,-1,-1,-1,-1,-1],"split_conditions":[1.8E1,1.3E1,4E0,7E0,3E0,2E1,7E0,5E0,1.1E1,2E0,1.4E1,3E0,3E0,2.3E1,2E1,-1.1519109E-2,6.0113803E-3,-6.358679E-3,-4.766653E-2,-7.6366165E-3,8.434718E-2,4.035495E-2,-1.8099378E-3,-3.157772E-2,7.519342E-2,-1.2994632E-2,-3.5655852E-2,1.5863951E-2,-1.5457411E-2,-5.048856E-3,-2.7175331E-2],"split_indices":[1,1,0,0,0,1,0,1,1,0,1,0,0,1,1,0,0,0,0,0,0,0,0,0,0,0,0,0,0,0,0],"split_type":[0,0,0,0,0,0,0,0,0,0,0,0,0,0,0,0,0,0,0,0,0,0,0,0,0,0,0,0,0,0,0],"sum_hessian":[1.6965E4,1.0797E4,6.168E3,6.941E3,3.856E3,2.492E3,3.676E3,5.636E3,1.305E3,9.38E2,2.918E3,6.84E2,1.808E3,2.583E3,1.093E3,1.927E3,3.709E3,9.73E2,3.32E2,4.47E2,4.91E2,4.95E2,2.423E3,4.98E2,1.86E2,1.227E3,5.81E2,2.169E3,4.14E2,3.65E2,7.28E2],"tree_param":{"num_deleted":"0","num_feature":"2","num_nodes":"31","size_leaf_vector":"1"}},{"base_weights":[-1.6901994E-4,2.6454473E-2,-4.6769816E-2,-1.7070523E-2,1.6796884E-1,-1.3864893E-1,1.5536793E-2,-1.23920314E-1,1.1996657E-3,4.7758195E-1,5.99095E-2,-2.2220807E-2,-1.8265921E-1,1.683023E-1,-9.850068E-2,-2.380972E-2,1.4084625E-2,1.3053152E-2,-1.708819E-3,-1.0539821E-2,1.0881325E-1,1.4233715E-2,-1.1715538E-2,-2.8426245E-2,6.771428E-2,-1.16962185E-2,-3.2096382E-2,9.9297926E-2,-3.7509345E-3,-5.2891243E-2,1.2078388E-2],"categories":[],"categories_nodes":[],"categories_segments":[],"categories_sizes":[],"default_left":[0,0,0,0,0,0,0,0,0,0,0,0,0,0,0,0,0,0,0,0,0,0,0,0,0,0,0,0,0,0,0],"id":48,"left_children":[1,3,5,7,9,11,13,15,17,19,21,23,25,27,29,-1,-1,-1,-1,-1,-1,-1,-1,-1,-1,-1,-1,-1,-1,-1,-1],"loss_changes":[2.1050547E1,6.651219E1,3.531768E1,1.6123087E1,8.495113E1,1.2770161E1,6.407357E1,3.649118E1,1.6686365E1,2.3396652E2,2.7513733E1,1.2572722E2,1.6399399E1,2.6684985E2,1.9883372E2,0E0,0E0,0E0,0E0,0E0,0E0,0E0,0E0,0E0,0E0,0E0,0E0,0E0,0E0,0E0,0E0],"parents":[2147483647,0,0,1,1,2,2,3,3,4,4,5,5,6,6,7,7,8,8,9,9,10,10,11,11,12,12,13,13,14,14],"right_children":[2,4,6,8,10,12,14,16,18,20,22,24,26,28,30,-1,-1,-1,-1,-1,-1,-1,-1,-1,-1,-1,-1,-1,-1,-1,-1],"split_conditions":[1.8E1,1.5E1,4E0,2E0,3E0,2E1,6E0,6E0,2E0,2E0,1.7E1,3E0,3E0,1.9E1,2E1,-2.380972E-2,1.4084625E-2,1.3053152E-2,-1.708819E-3,-1.0539821E-2,1.0881325E-1,1.4233715E-2,-1.1715538E-2,-2.8426245E-2,6.771428E-2,-1.16962185E-2,-3.2096382E-2,9.9297926E-2,-3.7509345E-3,-5.2891243E-2,1.2078388E-2],"split_indices":[1,1,0,1,0,1,0,0,0,0,1,0,0,1,1,0,0,0,0,0,0,0,0,0,0,0,0,0,0,0,0],"split_type":[0,0,0,0,0,0,0,0,0,0,0,0,0,0,0,0,0,0,0,0,0,0,0,0,0,0,0,0,0,0,0],"sum_hessian":[1.6965E4,1.0797E4,6.168E3,8.258E3,2.539E3,2.492E3,3.676E3,1.205E3,7.053E3,6.56E2,1.883E3,6.84E2,1.808E3,1.571E3,2.105E3,8.42E2,3.63E2,8.73E2,6.18E3,3.36E2,3.2E2,1.285E3,5.98E2,4.98E2,1.86E2,1.227E3,5.81E2,3.13E2,1.258E3,7.1E2,1.395E3],"tree_param":{"num_deleted":"0","num_feature":"2","num_nodes":"31","size_leaf_vector":"1"}},{"base_weights":[-1.43224E-4,2.3818443E-2,-4.2084858E-2,-1.5363232E-2,1.5121122E-1,-1.2478602E-1,1.3997844E-2,-1.11536436E-1,1.081373E-3,3.285184E-1,-6.815513E-3,-1.9941555E-2,-1.6441768E-1,1.5153262E-1,-8.867009E-2,-2.1431578E-2,1.26800155E-2,5.0150757E-3,-4.1895397E-3,-9.488948E-3,4.9386095E-2,-4.0146295E-2,1.0214959E-2,-2.5589326E-2,6.097902E-2,-3.1661395E-2,-1.1348966E-2,8.93997E-2,-3.376154E-3,-4.76096E-2,1.08714225E-2],"categories":[],"categories_nodes":[],"categories_segments":[],"categories_sizes":[],"default_left":[0,0,0,0,0,0,0,0,0,0,0,0,0,0,0,0,0,0,0,0,0,0,0,0,0,0,0,0,0,0,0],"id":49,"left_children":[1,3,5,7,9,11,13,15,17,19,21,23,25,27,29,-1,-1,-1,-1,-1,-1,-1,-1,-1,-1,-1,-1,-1,-1,-1,-1],"loss_changes":[1.705169E1,5.390013E1,2.8614216E1,1.3061979E1,7.1171196E1,1.0355534E1,5.193419E1,2.9569439E1,1.4877885E1,8.384564E1,5.783677E1,1.0193765E2,1.3985729E1,2.16297E2,1.6110138E2,0E0,0E0,0E0,0E0,0E0,0E0,0E0,0E0,0E0,0E0,0E0,0E0,0E0,0E0,0E0,0E0],"parents":[2147483647,0,0,1,1,2,2,3,3,4,4,5,5,6,6,7,7,8,8,9,9,10,10,11,11,12,12,13,13,14,14],"right_children":[2,4,6,8,10,12,14,16,18,20,22,24,26,28,30,-1,-1,-1,-1,-1,-1,-1,-1,-1,-1,-1,-1,-1,-1,-1,-1],"split_conditions":[1.8E1,1.5E1,4E0,2E0,5E0,2E1,6E0,6E0,5E0,2E0,6E0,3E0,2.1E1,1.9E1,2E1,-2.1431578E-2,1.26800155E-2,5.0150757E-3,-4.1895397E-3,-9.488948E-3,4.9386095E-2,-4.0146295E-2,1.0214959E-2,-2.5589326E-2,6.097902E-2,-3.1661395E-2,-1.1348966E-2,8.93997E-2,-3.376154E-3,-4.76096E-2,1.08714225E-2],"split_indices":[1,1,0,1,0,1,0,0,0,0,0,0,1,1,1,0,0,0,0,0,0,0,0,0,0,0,0,0,0,0,0],"split_type":[0,0,0,0,0,0,0,0,0,0,0,0,0,0,0,0,0,0,0,0,0,0,0,0,0,0,0,0,0,0,0],"sum_hessian":[1.6965E4,1.0797E4,6.168E3,8.258E3,2.539E3,2.492E3,3.676E3,1.205E3,7.053E3,1.196E3,1.343E3,6.84E2,1.808E3,1.571E3,2.105E3,8.42E2,3.63E2,3.293E3,3.76E3,3.36E2,8.6E2,2.9E2,1.053E3,4.98E2,1.86E2,4.52E2,1.356E3,3.13E2,1.258E3,7.1E2,1.395E3],"tree_param":{"num_deleted":"0","num_feature":"2","num_nodes":"31","size_leaf_vector":"1"}}]},"name":"gbtree"},"learner_model_param":{"base_score":"[1.3754259E1]","boost_from_average":"1","num_class":"0","num_feature":"2","num_target":"1"},"objective":{"name":"reg:squarederror","reg_loss_param":{"scale_pos_weight":"1"}}},"version":[3,2,1]}