{"learner":{"attributes":{},"feature_names":["day_of_week","hour_of_day"],"feature_types":[],"gradient_booster":{"model":{"cats":{"enc":[],"feature_segments":[],"sorted_idx":[]},"gbtree_model_param":{"num_parallel_tree":"1","num_trees":"50"},"iteration_indptr":[0,1,2,3,4,5,6,7,8,9,10,11,12,13,14,15,16,17,18,19,20,21,22,23,24,25,26,27,28,29,30,31,32,33,34,35,36,37,38,39,40,41,42,43,44,45,46,47,48,49,50],"tree_info":[0,0,0,0,0,0,0,0,0,0,0,0,0,0,0,0,0,0,0,0,0,0,0,0,0,0,0,0,0,0,0,0,0,0,0,0,0,0,0,0,0,0,0,0,0,0,0,0,0,0],"trees":[{"base_weights":[-3.5513776E-7,-1.0364844E1,1.1643485E0,-1.1200429E1,-8.7228565E0,3.6918142E0,-5.157165E0,-1.1658399E0,-3.8151689E0,-7.457199E-1,-9.398403E-1,-1.7279037E0,4.0445457E0,-2.6902165E0,-7.8937044E0,-4.413421E-1,-2.6533383E-1,1.2448519E-1,-6.7991513E-1,4.6658453E-1,1.1648786E-1,-4.0047112E-1,-1.1974712E-1,-1.05124E0,-5.963278E-1],"categories":[],"categories_nodes":[],"categories_segments":[],"categories_sizes":[],"default_left":[0,0,0,0,0,0,0,0,0,0,0,0,0,0,0,0,0,0,0,0,0,0,0,0,0],"id":0,"left_children":[1,3,5,7,9,11,13,-1,15,-1,-1,17,19,21,23,-1,-1,-1,-1,-1,-1,-1,-1,-1,-1],"loss_changes":[2.2764422E5,2.5160156E3,2.709639E5,4.2137344E3,4.8310547E2,2.3167297E4,3.2680133E4,0E0,4.0419678E1,0E0,0E0,1.1179467E4,2.0345984E4,4.996865E3,1.1544047E4,0E0,0E0,0E0,0E0,0E0,0E0,0E0,0E0,0E0,0E0],"parents":[2147483647,0,0,1,1,2,2,3,3,4,4,5,5,6,6,8,8,11,11,12,12,13,13,14,14],"right_children":[2,4,6,8,10,12,14,-1,16,-1,-1,18,20,22,24,-1,-1,-1,-1,-1,-1,-1,-1,-1,-1],"split_conditions":[4E0,6E0,2E1,3E0,1E0,5E0,2.2E1,-1.1658399E0,2E0,-7.457199E-1,-9.398403E-1,6E0,1.8E1,5E0,4E0,-4.413421E-1,-2.6533383E-1,1.2448519E-1,-6.7991513E-1,4.6658453E-1,1.1648786E-1,-4.0047112E-1,-1.1974712E-1,-1.05124E0,-5.963278E-1],"split_indices":[1,0,1,1,1,1,1,0,0,0,0,0,1,0,0,0,0,0,0,0,0,0,0,0,0],"split_type":[0,0,0,0,0,0,0,0,0,0,0,0,0,0,0,0,0,0,0,0,0,0,0,0,0],"sum_hessian":[1.8861E4,1.904E3,1.6957E4,1.258E3,6.46E2,1.2114E4,4.843E3,1.184E3,7.4E1,2.29E2,4.17E2,7.4E2,1.1374E4,2.548E3,2.295E3,4.7E1,2.7E1,4.67E2,2.73E2,9.355E3,2.019E3,1.354E3,1.194E3,9.72E2,1.323E3],"tree_param":{"num_deleted":"0","num_feature":"2","num_nodes":"25","size_leaf_vector":"1"}},{"base_weights":[-3.021239E-4,-9.330228E0,1.0477878E0,-9.649367E0,-5.883448E0,3.6309295E0,-3.9786847E0,-1.0493543E0,-7.839337E0,-3.443074E0,-7.8517213E0,3.7165353E-1,4.228619E0,-1.9041276E0,-7.1050515E0,-6.7147213E-1,-8.601715E-1,-3.981273E-1,-2.3974803E-1,-5.702567E-1,-8.3843005E-1,3.4023398E-1,-5.8881444E-1,4.681457E-1,2.4953933E-1,-1.01812616E-1,-3.3098444E-1,-8.9412117E-1,-4.871111E-1],"categories":[],"categories_nodes":[],"categories_segments":[],"categories_sizes":[],"default_left":[0,0,0,0,0,0,0,0,0,0,0,0,0,0,0,0,0,0,0,0,0,0,0,0,0,0,0,0,0],"id":1,"left_children":[1,3,5,7,9,11,13,-1,15,17,19,21,23,25,27,-1,-1,-1,-1,-1,-1,-1,-1,-1,-1,-1,-1,-1,-1],"loss_changes":[1.8445375E5,2.03875E3,2.2019866E5,2.5794688E3,7.6071094E2,2.1820328E4,3.7325367E4,0E0,4.2066016E2,3.266034E1,5.520117E1,3.29735E4,7.4179062E3,4.3084365E3,9.374352E3,0E0,0E0,0E0,0E0,0E0,0E0,0E0,0E0,0E0,0E0,0E0,0E0,0E0,0E0],"parents":[2147483647,0,0,1,1,2,2,3,3,4,4,5,5,6,6,8,8,9,9,10,10,11,11,12,12,13,13,14,14],"right_children":[2,4,6,8,10,12,14,-1,16,18,20,22,24,26,28,-1,-1,-1,-1,-1,-1,-1,-1,-1,-1,-1,-1,-1,-1],"split_conditions":[4E0,3E0,1.9E1,6E0,3E0,7E0,2.2E1,-1.0493543E0,1E0,2E0,7E0,6E0,7E0,2.1E1,5E0,-6.7147213E-1,-8.601715E-1,-3.981273E-1,-2.3974803E-1,-5.702567E-1,-8.3843005E-1,3.4023398E-1,-5.8881444E-1,4.681457E-1,2.4953933E-1,-1.01812616E-1,-3.3098444E-1,-8.9412117E-1,-4.871111E-1],"split_indices":[1,1,1,0,0,1,1,0,1,0,0,0,0,1,0,0,0,0,0,0,0,0,0,0,0,0,0,0,0],"split_type":[0,0,0,0,0,0,0,0,0,0,0,0,0,0,0,0,0,0,0,0,0,0,0,0,0,0,0,0,0],"sum_hessian":[1.8861E4,1.904E3,1.6957E4,1.741E3,1.63E2,1.1201E4,5.756E3,1.184E3,5.57E2,7.4E1,8.9E1,1.736E3,9.465E3,3.461E3,2.295E3,2.29E2,3.28E2,4.7E1,2.7E1,2E1,6.9E1,1.17E3,5.66E2,7.503E3,1.962E3,2.124E3,1.337E3,1.258E3,1.037E3],"tree_param":{"num_deleted":"0","num_feature":"2","num_nodes":"29","size_leaf_vector":"1"}},{"base_weights":[-5.8857707E-4,-8.399633E0,9.429296E-1,-9.075026E0,-7.072403E0,2.994617E0,-4.1886015E0,-9.445073E-1,-3.1072714E0,-6.046168E-1,-7.620158E-1,-1.5533562E0,3.2906218E0,-2.1994216E0,-6.395148E0,-3.5914397E-1,-2.1662949E-1,7.8112625E-2,-5.535051E-1,3.8148168E-1,8.610876E-2,-3.6359093E-1,-1.0958934E-1,-8.5690385E-1,-4.7927386E-1],"categories":[],"categories_nodes":[],"categories_segments":[],"categories_sizes":[],"default_left":[0,0,0,0,0,0,0,0,0,0,0,0,0,0,0,0,0,0,0,0,0,0,0,0,0],"id":2,"left_children":[1,3,5,7,9,11,13,-1,15,-1,-1,17,19,21,23,-1,-1,-1,-1,-1,-1,-1,-1,-1,-1],"loss_changes":[1.4948272E5,1.6434531E3,1.785514E5,2.7509688E3,3.176211E2,1.6314586E4,2.1247305E4,0E0,2.6389221E1,0E0,0E0,6.892064E3,1.4483336E4,4.0367031E3,7.956961E3,0E0,0E0,0E0,0E0,0E0,0E0,0E0,0E0,0E0,0E0],"parents":[2147483647,0,0,1,1,2,2,3,3,4,4,5,5,6,6,8,8,11,11,12,12,13,13,14,14],"right_children":[2,4,6,8,10,12,14,-1,16,-1,-1,18,20,22,24,-1,-1,-1,-1,-1,-1,-1,-1,-1,-1],"split_conditions":[4E0,6E0,2E1,3E0,1E0,5E0,2.2E1,-9.445073E-1,2E0,-6.046168E-1,-7.620158E-1,6E0,1.8E1,4E0,4E0,-3.5914397E-1,-2.1662949E-1,7.8112625E-2,-5.535051E-1,3.8148168E-1,8.610876E-2,-3.6359093E-1,-1.0958934E-1,-8.5690385E-1,-4.7927386E-1],"split_indices":[1,0,1,1,1,1,1,0,0,0,0,0,1,0,0,0,0,0,0,0,0,0,0,0,0],"split_type":[0,0,0,0,0,0,0,0,0,0,0,0,0,0,0,0,0,0,0,0,0,0,0,0,0],"sum_hessian":[1.8861E4,1.904E3,1.6957E4,1.258E3,6.46E2,1.2114E4,4.843E3,1.184E3,7.4E1,2.29E2,4.17E2,7.4E2,1.1374E4,2.548E3,2.295E3,4.7E1,2.7E1,4.67E2,2.73E2,9.355E3,2.019E3,1.106E3,1.442E3,9.72E2,1.323E3],"tree_param":{"num_deleted":"0","num_feature":"2","num_nodes":"25","size_leaf_vector":"1"}},{"base_weights":[-7.792771E-4,-7.561186E0,8.485293E-1,-7.820989E0,-4.755459E0,2.9510267E0,-3.2426684E0,-8.501363E-1,-6.362094E0,-3.1939478E0,-6.806717E-1,1.8159445E-1,3.4589026E0,-1.5747464E0,-5.756215E0,-5.4441804E-1,-6.984459E-1,-2.8042215E-1,-4.4337353E-1,2.802225E-1,-5.2309984E-1,3.8671324E-1,1.8965927E-1,-2.6949662E-1,-7.447674E-2,-7.7130145E-1,-4.3138266E-1],"categories":[],"categories_nodes":[],"categories_segments":[],"categories_sizes":[],"default_left":[0,0,0,0,0,0,0,0,0,0,0,0,0,0,0,0,0,0,0,0,0,0,0,0,0,0,0],"id":3,"left_children":[1,3,5,7,9,11,13,-1,15,17,-1,19,21,23,25,-1,-1,-1,-1,-1,-1,-1,-1,-1,-1,-1,-1],"loss_changes":[1.21121555E5,1.3514297E3,1.4587773E5,1.6750078E3,5.0356177E2,1.5755297E4,2.4126578E4,0E0,2.8074805E2,3.346875E1,0E0,2.465297E4,6.029914E3,3.2168184E3,6.4471094E3,0E0,0E0,0E0,0E0,0E0,0E0,0E0,0E0,0E0,0E0,0E0,0E0],"parents":[2147483647,0,0,1,1,2,2,3,3,4,4,5,5,6,6,8,8,9,9,11,11,12,12,13,13,14,14],"right_children":[2,4,6,8,10,12,14,-1,16,18,-1,20,22,24,26,-1,-1,-1,-1,-1,-1,-1,-1,-1,-1,-1,-1],"split_conditions":[4E0,3E0,1.9E1,6E0,7E0,7E0,2.2E1,-8.501363E-1,1E0,3E0,-6.806717E-1,6E0,7E0,4E0,4E0,-5.4441804E-1,-6.984459E-1,-2.8042215E-1,-4.4337353E-1,2.802225E-1,-5.2309984E-1,3.8671324E-1,1.8965927E-1,-2.6949662E-1,-7.447674E-2,-7.7130145E-1,-4.3138266E-1],"split_indices":[1,1,1,0,0,1,1,0,1,0,0,0,0,0,0,0,0,0,0,0,0,0,0,0,0,0,0],"split_type":[0,0,0,0,0,0,0,0,0,0,0,0,0,0,0,0,0,0,0,0,0,0,0,0,0,0,0],"sum_hessian":[1.8861E4,1.904E3,1.6957E4,1.741E3,1.63E2,1.1201E4,5.756E3,1.184E3,5.57E2,9.4E1,6.9E1,1.736E3,9.465E3,3.461E3,2.295E3,2.29E2,3.28E2,7.4E1,2E1,1.17E3,5.66E2,7.503E3,1.962E3,1.472E3,1.989E3,9.72E2,1.323E3],"tree_param":{"num_deleted":"0","num_feature":"2","num_nodes":"27","size_leaf_vector":"1"}},{"base_weights":[-9.510035E-4,-6.8069034E0,7.6360494E-1,-7.040092E0,-4.2884765E0,2.4338229E0,-3.4138217E0,-7.651945E-1,-5.7281113E0,-2.8821719E0,-6.135769E-1,-1.3825461E0,2.682218E0,-1.8205986E0,-5.1811175E0,-4.902129E-1,-6.2881356E-1,-2.5275382E-1,-4.0114745E-1,-2.4661435E-2,-6.344287E-1,3.120056E-1,6.529645E-2,-2.823314E-1,-6.821051E-2,-6.5838903E-1,-3.4746903E-1],"categories":[],"categories_nodes":[],"categories_segments":[],"categories_sizes":[],"default_left":[0,0,0,0,0,0,0,0,0,0,0,0,0,0,0,0,0,0,0,0,0,0,0,0,0,0,0],"id":4,"left_children":[1,3,5,7,9,11,13,-1,15,17,-1,19,21,23,25,-1,-1,-1,-1,-1,-1,-1,-1,-1,-1,-1,-1],"loss_changes":[9.815421E4,1.0885547E3,1.18327875E5,1.3545469E3,4.0836426E2,1.1488352E4,1.3629805E4,0E0,2.2728906E2,2.7907227E1,0E0,4.1748584E3,1.0104461E4,2.9079736E3,5.473121E3,0E0,0E0,0E0,0E0,0E0,0E0,0E0,0E0,0E0,0E0,0E0,0E0],"parents":[2147483647,0,0,1,1,2,2,3,3,4,4,5,5,6,6,8,8,9,9,11,11,12,12,13,13,14,14],"right_children":[2,4,6,8,10,12,14,-1,16,18,-1,20,22,24,26,-1,-1,-1,-1,-1,-1,-1,-1,-1,-1,-1,-1],"split_conditions":[4E0,3E0,2E1,6E0,7E0,5E0,2.2E1,-7.651945E-1,1E0,3E0,-6.135769E-1,7E0,1.8E1,5E0,5E0,-4.902129E-1,-6.2881356E-1,-2.5275382E-1,-4.0114745E-1,-2.4661435E-2,-6.344287E-1,3.120056E-1,6.529645E-2,-2.823314E-1,-6.821051E-2,-6.5838903E-1,-3.4746903E-1],"split_indices":[1,1,1,0,0,1,1,0,1,0,0,0,1,0,0,0,0,0,0,0,0,0,0,0,0,0,0],"split_type":[0,0,0,0,0,0,0,0,0,0,0,0,0,0,0,0,0,0,0,0,0,0,0,0,0,0,0],"sum_hessian":[1.8861E4,1.904E3,1.6957E4,1.741E3,1.63E2,1.2114E4,4.843E3,1.184E3,5.57E2,9.4E1,6.9E1,7.4E2,1.1374E4,2.548E3,2.295E3,2.29E2,3.28E2,7.4E1,2E1,6.03E2,1.37E2,9.355E3,2.019E3,1.354E3,1.194E3,1.258E3,1.037E3],"tree_param":{"num_deleted":"0","num_feature":"2","num_nodes":"27","size_leaf_vector":"1"}},{"base_weights":[-1.1099289E-3,-6.127867E0,6.8714774E-1,-6.3371644E0,-3.8673573E0,2.3980317E0,-2.6420183E0,-6.8873954E-1,-5.1573057E0,-2.6008375E0,-5.5309576E-1,9.307965E-1,3.1021583E0,-1.3006449E0,-4.6634436E0,-4.4140473E-1,-5.661233E-1,-2.2781539E-1,-3.6294293E-1,1.8996464E-1,-4.2267886E-1,3.6094224E-1,1.7402144E-1,-6.0685307E-2,-2.401547E-1,-5.9260243E-1,-3.1275555E-1],"categories":[],"categories_nodes":[],"categories_segments":[],"categories_sizes":[],"default_left":[0,0,0,0,0,0,0,0,0,0,0,0,0,0,0,0,0,0,0,0,0,0,0,0,0,0,0],"id":5,"left_children":[1,3,5,7,9,11,13,-1,15,17,-1,19,21,23,25,-1,-1,-1,-1,-1,-1,-1,-1,-1,-1,-1,-1],"loss_changes":[7.954126E4,8.7678125E2,9.659599E4,1.095375E3,3.3116016E2,1.1570109E4,1.5603961E4,0E0,1.8400977E2,2.3263E1,0E0,1.816686E4,5.222883E3,2.6428071E3,4.433828E3,0E0,0E0,0E0,0E0,0E0,0E0,0E0,0E0,0E0,0E0,0E0,0E0],"parents":[2147483647,0,0,1,1,2,2,3,3,4,4,5,5,6,6,8,8,9,9,11,11,12,12,13,13,14,14],"right_children":[2,4,6,8,10,12,14,-1,16,18,-1,20,22,24,26,-1,-1,-1,-1,-1,-1,-1,-1,-1,-1,-1,-1],"split_conditions":[4E0,3E0,1.9E1,6E0,7E0,1E1,2.2E1,-6.8873954E-1,1E0,3E0,-5.5309576E-1,7E0,1.7E1,2.1E1,5E0,-4.4140473E-1,-5.661233E-1,-2.2781539E-1,-3.6294293E-1,1.8996464E-1,-4.2267886E-1,3.6094224E-1,1.7402144E-1,-6.0685307E-2,-2.401547E-1,-5.9260243E-1,-3.1275555E-1],"split_indices":[1,1,1,0,0,1,1,0,1,0,0,0,1,1,0,0,0,0,0,0,0,0,0,0,0,0,0],"split_type":[0,0,0,0,0,0,0,0,0,0,0,0,0,0,0,0,0,0,0,0,0,0,0,0,0,0,0],"sum_hessian":[1.8861E4,1.904E3,1.6957E4,1.741E3,1.63E2,1.1201E4,5.756E3,1.184E3,5.57E2,9.4E1,6.9E1,3.633E3,7.568E3,3.461E3,2.295E3,2.29E2,3.28E2,7.4E1,2E1,3.059E3,5.74E2,5.513E3,2.055E3,2.124E3,1.337E3,1.258E3,1.037E3],"tree_param":{"num_deleted":"0","num_feature":"2","num_nodes":"27","size_leaf_vector":"1"}},{"base_weights":[-1.1975465E-3,-5.516571E0,6.1837953E-1,-5.7044215E0,-3.487596E0,2.1582553E0,-2.378026E0,-6.199237E0,-4.643381E0,-2.346972E0,-4.985763E-1,2.9233801E0,9.6900326E-1,-1.1706675E0,-4.1974936E0,-6.2856334E-1,-5.780211E-1,-3.9745623E-1,-5.096831E-1,-2.0533757E-1,-3.2837698E-1,2.5860623E-2,3.1193468E-1,-4.601175E-1,1.795311E-1,-2.4241519E-1,-6.210012E-2,-5.6928E-1,-3.095431E-1],"categories":[],"categories_nodes":[],"categories_segments":[],"categories_sizes":[],"default_left":[0,0,0,0,0,0,0,0,0,0,0,0,0,0,0,0,0,0,0,0,0,0,0,0,0,0,0,0,0],"id":6,"left_children":[1,3,5,7,9,11,13,15,17,19,-1,21,23,25,27,-1,-1,-1,-1,-1,-1,-1,-1,-1,-1,-1,-1,-1,-1],"loss_changes":[6.445862E4,7.061797E2,7.825091E4,8.858008E2,2.6854907E2,1.0190164E4,1.2641775E4,6.5625E0,1.489707E2,1.9385986E1,0E0,3.5585469E3,2.0200223E4,2.3838062E3,3.766004E3,0E0,0E0,0E0,0E0,0E0,0E0,0E0,0E0,0E0,0E0,0E0,0E0,0E0,0E0],"parents":[2147483647,0,0,1,1,2,2,3,3,4,4,5,5,6,6,7,7,8,8,9,9,11,11,12,12,13,13,14,14],"right_children":[2,4,6,8,10,12,14,16,18,20,-1,22,24,26,28,-1,-1,-1,-1,-1,-1,-1,-1,-1,-1,-1,-1,-1,-1],"split_conditions":[4E0,3E0,1.9E1,6E0,7E0,6E0,2.2E1,5E0,1E0,3E0,-4.985763E-1,5E0,7E0,3E0,4E0,-6.2856334E-1,-5.780211E-1,-3.9745623E-1,-5.096831E-1,-2.0533757E-1,-3.2837698E-1,2.5860623E-2,3.1193468E-1,-4.601175E-1,1.795311E-1,-2.4241519E-1,-6.210012E-2,-5.6928E-1,-3.095431E-1],"split_indices":[1,1,1,0,0,0,1,0,1,0,0,1,1,0,0,0,0,0,0,0,0,0,0,0,0,0,0,0,0],"split_type":[0,0,0,0,0,0,0,0,0,0,0,0,0,0,0,0,0,0,0,0,0,0,0,0,0,0,0,0,0],"sum_hessian":[1.8861E4,1.904E3,1.6957E4,1.741E3,1.63E2,1.1201E4,5.756E3,1.184E3,5.57E2,9.4E1,6.9E1,6.815E3,4.386E3,3.461E3,2.295E3,9.7E2,2.14E2,2.29E2,3.28E2,7.4E1,2E1,4.67E2,6.348E3,5.66E2,3.82E3,1.054E3,2.407E3,9.72E2,1.323E3],"tree_param":{"num_deleted":"0","num_feature":"2","num_nodes":"29","size_leaf_vector":"1"}},{"base_weights":[-1.3044744E-3,-4.9665656E0,5.56475E-1,-5.135193E0,-3.145131E0,1.7824113E0,-2.5097463E0,-5.5803313E0,-4.180669E0,-2.117893E0,-4.4943094E-1,2.1982398E0,1.14750884E-1,-1.3662733E0,-3.7781272E0,-5.6577176E-1,-5.2048784E-1,-3.5788342E-1,-4.5886976E-1,-1.8507761E-1,-2.97103E-1,2.524489E-1,5.8086496E-2,-4.5799637E-1,1.2165131E-1,-2.2129741E-1,-4.050635E-2,-5.124106E-1,-2.7861223E-1],"categories":[],"categories_nodes":[],"categories_segments":[],"categories_sizes":[],"default_left":[0,0,0,0,0,0,0,0,0,0,0,0,0,0,0,0,0,0,0,0,0,0,0,0,0,0,0,0,0],"id":7,"left_children":[1,3,5,7,9,11,13,15,17,19,-1,21,23,25,27,-1,-1,-1,-1,-1,-1,-1,-1,-1,-1,-1,-1,-1,-1],"loss_changes":[5.224146E4,5.6895703E2,6.374946E4,7.1683594E2,2.1777368E2,8.401023E3,7.020381E3,4.9804688E0,1.20603516E2,1.6150543E1,0E0,5.115324E3,1.251775E4,2.073625E3,3.0513828E3,0E0,0E0,0E0,0E0,0E0,0E0,0E0,0E0,0E0,0E0,0E0,0E0,0E0,0E0],"parents":[2147483647,0,0,1,1,2,2,3,3,4,4,5,5,6,6,7,7,8,8,9,9,11,11,12,12,13,13,14,14],"right_children":[2,4,6,8,10,12,14,16,18,20,-1,22,24,26,28,-1,-1,-1,-1,-1,-1,-1,-1,-1,-1,-1,-1,-1,-1],"split_conditions":[4E0,3E0,2E1,6E0,7E0,7E0,2.2E1,5E0,1E0,3E0,-4.4943094E-1,1.8E1,9E0,5E0,4E0,-5.6577176E-1,-5.2048784E-1,-3.5788342E-1,-4.5886976E-1,-1.8507761E-1,-2.97103E-1,2.524489E-1,5.8086496E-2,-4.5799637E-1,1.2165131E-1,-2.2129741E-1,-4.050635E-2,-5.124106E-1,-2.7861223E-1],"split_indices":[1,1,1,0,0,0,1,0,1,0,0,1,1,0,0,0,0,0,0,0,0,0,0,0,0,0,0,0,0],"split_type":[0,0,0,0,0,0,0,0,0,0,0,0,0,0,0,0,0,0,0,0,0,0,0,0,0,0,0,0,0],"sum_hessian":[1.8861E4,1.904E3,1.6957E4,1.741E3,1.63E2,1.2114E4,4.843E3,1.184E3,5.57E2,9.4E1,6.9E1,9.696E3,2.418E3,2.548E3,2.295E3,9.7E2,2.14E2,2.29E2,3.28E2,7.4E1,2E1,8.068E3,1.628E3,4.59E2,1.959E3,1.354E3,1.194E3,9.72E2,1.323E3],"tree_param":{"num_deleted":"0","num_feature":"2","num_nodes":"29","size_leaf_vector":"1"}},{"base_weights":[-1.3815484E-3,-4.471397E0,5.0076383E-1,-4.622766E0,-2.8362987E0,1.7554138E0,-1.9406276E0,-5.0232153E0,-3.7640657E0,-1.9111793E0,-4.0512997E-1,5.483196E-1,2.3347275E0,-9.7177345E-1,-3.400659E0,-5.092529E-1,-4.6868116E-1,-3.222507E-1,-4.1312224E-1,-1.6681662E-1,-2.6880747E-1,1.2777834E-1,-3.3346498E-1,2.7695078E-1,1.1675519E-1,-3.9253484E-2,-1.8909888E-1,-4.3651745E-1,-2.2275133E-1],"categories":[],"categories_nodes":[],"categories_segments":[],"categories_sizes":[],"default_left":[0,0,0,0,0,0,0,0,0,0,0,0,0,0,0,0,0,0,0,0,0,0,0,0,0,0,0,0,0],"id":8,"left_children":[1,3,5,7,9,11,13,15,17,19,-1,21,23,25,27,-1,-1,-1,-1,-1,-1,-1,-1,-1,-1,-1,-1,-1,-1],"loss_changes":[4.233984E4,4.583828E2,5.194732E4,5.8010547E2,1.765968E2,7.832121E3,8.1403027E3,3.7636719E0,9.7637695E1,1.3451447E1,0E0,1.0297514E4,3.8377656E3,1.8425823E3,2.5882422E3,0E0,0E0,0E0,0E0,0E0,0E0,0E0,0E0,0E0,0E0,0E0,0E0,0E0,0E0],"parents":[2147483647,0,0,1,1,2,2,3,3,4,4,5,5,6,6,7,7,8,8,9,9,11,11,12,12,13,13,14,14],"right_children":[2,4,6,8,10,12,14,16,18,20,-1,22,24,26,28,-1,-1,-1,-1,-1,-1,-1,-1,-1,-1,-1,-1,-1,-1],"split_conditions":[4E0,3E0,1.9E1,6E0,7E0,1E1,2.2E1,5E0,1E0,3E0,-4.0512997E-1,7E0,1.7E1,2.1E1,5E0,-5.092529E-1,-4.6868116E-1,-3.222507E-1,-4.1312224E-1,-1.6681662E-1,-2.6880747E-1,1.2777834E-1,-3.3346498E-1,2.7695078E-1,1.1675519E-1,-3.9253484E-2,-1.8909888E-1,-4.3651745E-1,-2.2275133E-1],"split_indices":[1,1,1,0,0,1,1,0,1,0,0,0,1,1,0,0,0,0,0,0,0,0,0,0,0,0,0,0,0],"split_type":[0,0,0,0,0,0,0,0,0,0,0,0,0,0,0,0,0,0,0,0,0,0,0,0,0,0,0,0,0],"sum_hessian":[1.8861E4,1.904E3,1.6957E4,1.741E3,1.63E2,1.1201E4,5.756E3,1.184E3,5.57E2,9.4E1,6.9E1,3.633E3,7.568E3,3.461E3,2.295E3,9.7E2,2.14E2,2.29E2,3.28E2,7.4E1,2E1,3.059E3,5.74E2,5.513E3,2.055E3,2.124E3,1.337E3,1.258E3,1.037E3],"tree_param":{"num_deleted":"0","num_feature":"2","num_nodes":"29","size_leaf_vector":"1"}},{"base_weights":[-1.4159245E-3,-4.025598E0,4.5064613E-1,-4.161473E0,-2.5577953E0,1.5798892E0,-1.7467189E0,-4.5217185E0,-3.388977E0,-1.7246468E0,-3.6519572E-1,2.2027938E0,6.117337E-1,-8.7466204E-1,-3.0608802E0,-4.5838004E-1,-4.22031E-1,-2.9016575E-1,-3.7193558E-1,-1.5035737E-1,-2.4320674E-1,-1.4661397E-2,2.3756273E-1,-3.9490137E-1,1.288345E-1,-1.9244385E-1,-4.143677E-2,-2.6360366E-1,-5.601906E-1],"categories":[],"categories_nodes":[],"categories_segments":[],"categories_sizes":[],"default_left":[0,0,0,0,0,0,0,0,0,0,0,0,0,0,0,0,0,0,0,0,0,0,0,0,0,0,0,0,0],"id":9,"left_children":[1,3,5,7,9,11,13,15,17,19,-1,21,23,25,27,-1,-1,-1,-1,-1,-1,-1,-1,-1,-1,-1,-1,-1,-1],"loss_changes":[3.4315188E4,3.6928516E2,4.2081645E4,4.6945508E2,1.4320398E2,6.7542305E3,6.5949805E3,2.828125E0,7.90459E1,1.1200439E1,0E0,2.7680273E3,1.3542725E4,1.6720625E3,2.4638555E3,0E0,0E0,0E0,0E0,0E0,0E0,0E0,0E0,0E0,0E0,0E0,0E0,0E0,0E0],"parents":[2147483647,0,0,1,1,2,2,3,3,4,4,5,5,6,6,7,7,8,8,9,9,11,11,12,12,13,13,14,14],"right_children":[2,4,6,8,10,12,14,16,18,20,-1,22,24,26,28,-1,-1,-1,-1,-1,-1,-1,-1,-1,-1,-1,-1,-1,-1],"split_conditions":[4E0,3E0,1.9E1,6E0,7E0,6E0,2.2E1,5E0,1E0,3E0,-3.6519572E-1,5E0,7E0,3E0,7E0,-4.5838004E-1,-4.22031E-1,-2.9016575E-1,-3.7193558E-1,-1.5035737E-1,-2.4320674E-1,-1.4661397E-2,2.3756273E-1,-3.9490137E-1,1.288345E-1,-1.9244385E-1,-4.143677E-2,-2.6360366E-1,-5.601906E-1],"split_indices":[1,1,1,0,0,0,1,0,1,0,0,1,1,0,0,0,0,0,0,0,0,0,0,0,0,0,0,0,0],"split_type":[0,0,0,0,0,0,0,0,0,0,0,0,0,0,0,0,0,0,0,0,0,0,0,0,0,0,0,0,0],"sum_hessian":[1.8861E4,1.904E3,1.6957E4,1.741E3,1.63E2,1.1201E4,5.756E3,1.184E3,5.57E2,9.4E1,6.9E1,6.815E3,4.386E3,3.461E3,2.295E3,9.7E2,2.14E2,2.29E2,3.28E2,7.4E1,2E1,4.67E2,6.348E3,5.66E2,3.82E3,1.054E3,2.407E3,1.968E3,3.27E2],"tree_param":{"num_deleted":"0","num_feature":"2","num_nodes":"29","size_leaf_vector":"1"}},{"base_weights":[-1.4544075E-3,-3.6242461E0,4.0551692E-1,-3.911783E0,-3.0591254E0,1.1520121E0,-2.3327713E0,-4.0702896E0,-1.3552213E0,-2.6127532E-1,-3.2974186E0,1.4844768E0,-2.0194218E-1,-3.2585692E0,-1.1700563E0,-3.813341E-1,-4.1441122E-1,-1.801792E-1,-5.4127067E-2,-3.0941635E-1,-3.445522E-1,1.888137E-1,2.4592958E-2,-3.6033976E-1,5.1952925E-2,-2.8821492E-1,-4.2337343E-1,5.0472002E-2,-4.0797353E-1],"categories":[],"categories_nodes":[],"categories_segments":[],"categories_sizes":[],"default_left":[0,0,0,0,0,0,0,0,0,0,0,0,0,0,0,0,0,0,0,0,0,0,0,0,0,0,0,0,0],"id":10,"left_children":[1,3,5,7,9,11,13,15,17,-1,19,21,23,25,27,-1,-1,-1,-1,-1,-1,-1,-1,-1,-1,-1,-1,-1,-1],"loss_changes":[2.7811082E4,2.9758203E2,3.466686E4,5.0467188E2,6.020459E1,5.9988926E3,3.9068887E3,6.673828E0,2.628624E1,0E0,1.921875E0,5.3485215E3,6.4511226E3,7.3001953E2,7.857435E3,0E0,0E0,0E0,0E0,0E0,0E0,0E0,0E0,0E0,0E0,0E0,0E0,0E0,0E0],"parents":[2147483647,0,0,1,1,2,2,3,3,4,4,5,5,6,6,7,7,8,8,10,10,11,11,12,12,13,13,14,14],"right_children":[2,4,6,8,10,12,14,16,18,-1,20,22,24,26,28,-1,-1,-1,-1,-1,-1,-1,-1,-1,-1,-1,-1,-1,-1],"split_conditions":[4E0,6E0,2.1E1,3E0,1E0,7E0,5E0,2E0,2E0,-2.6127532E-1,7E0,1.8E1,9E0,2.3E1,7E0,-3.813341E-1,-4.1441122E-1,-1.801792E-1,-5.4127067E-2,-3.0941635E-1,-3.445522E-1,1.888137E-1,2.4592958E-2,-3.6033976E-1,5.1952925E-2,-2.8821492E-1,-4.2337343E-1,5.0472002E-2,-4.0797353E-1],"split_indices":[1,0,1,1,1,0,0,0,0,0,0,1,1,1,0,0,0,0,0,0,0,0,0,0,0,0,0,0,0],"split_type":[0,0,0,0,0,0,0,0,0,0,0,0,0,0,0,0,0,0,0,0,0,0,0,0,0,0,0,0,0],"sum_hessian":[1.8861E4,1.904E3,1.6957E4,1.258E3,6.46E2,1.3325E4,3.632E3,1.184E3,7.4E1,2.29E2,4.17E2,1.0698E4,2.627E3,2.021E3,1.611E3,2.76E2,9.08E2,4.7E1,2.7E1,1.85E2,2.32E2,8.068E3,2.63E3,4.59E2,2.168E3,1.461E3,5.6E2,1.023E3,5.88E2],"tree_param":{"num_deleted":"0","num_feature":"2","num_nodes":"29","size_leaf_vector":"1"}},{"base_weights":[-1.4740768E-3,-3.2628427E0,3.648963E-1,-3.373891E0,-2.0633967E0,1.1814246E0,-1.6773427E0,-3.663932E0,-2.7518973E0,-1.3866597E0,-2.9523486E-1,-1.2637862E0,1.3406088E0,-1.2457285E0,-3.2452435E0,-3.7213096E-1,-3.3877584E-1,-2.3526137E-1,-3.0226675E-1,-1.22282304E-1,-1.9057593E-1,-3.203942E-2,-2.870515E-1,1.8101834E-1,6.1134536E-2,-2.0409869E-1,-3.1099686E-2,-2.967249E-1,-5.324113E-1],"categories":[],"categories_nodes":[],"categories_segments":[],"categories_sizes":[],"default_left":[0,0,0,0,0,0,0,0,0,0,0,0,0,0,0,0,0,0,0,0,0,0,0,0,0,0,0,0,0],"id":11,"left_children":[1,3,5,7,9,11,13,15,17,19,-1,21,23,25,27,-1,-1,-1,-1,-1,-1,-1,-1,-1,-1,-1,-1,-1,-1],"loss_changes":[2.2538807E4,2.467793E2,2.8280227E4,3.0417773E2,9.4566284E1,4.717324E3,3.2740303E3,6.171875E0,5.3216797E1,5.749115E0,0E0,1.1222694E3,3.8941875E3,2.8241064E3,5.8812305E2,0E0,0E0,0E0,0E0,0E0,0E0,0E0,0E0,0E0,0E0,0E0,0E0,0E0,0E0],"parents":[2147483647,0,0,1,1,2,2,3,3,4,4,5,5,6,6,7,7,8,8,9,9,11,11,12,12,13,13,14,14],"right_children":[2,4,6,8,10,12,14,16,18,20,-1,22,24,26,28,-1,-1,-1,-1,-1,-1,-1,-1,-1,-1,-1,-1,-1,-1],"split_conditions":[4E0,3E0,2E1,6E0,7E0,5E0,2.3E1,5E0,1E0,3E0,-2.9523486E-1,6E0,6E0,5E0,7E0,-3.7213096E-1,-3.3877584E-1,-2.3526137E-1,-3.0226675E-1,-1.22282304E-1,-1.9057593E-1,-3.203942E-2,-2.870515E-1,1.8101834E-1,6.1134536E-2,-2.0409869E-1,-3.1099686E-2,-2.967249E-1,-5.324113E-1],"split_indices":[1,1,1,0,0,1,1,0,1,0,0,0,0,0,0,0,0,0,0,0,0,0,0,0,0,0,0,0,0],"split_type":[0,0,0,0,0,0,0,0,0,0,0,0,0,0,0,0,0,0,0,0,0,0,0,0,0,0,0,0,0],"sum_hessian":[1.8861E4,1.904E3,1.6957E4,1.741E3,1.63E2,1.2114E4,4.843E3,1.184E3,5.57E2,9.4E1,6.9E1,7.4E2,1.1374E4,3.799E3,1.044E3,9.7E2,2.14E2,2.29E2,3.28E2,7.4E1,2E1,4.67E2,2.73E2,6.918E3,4.456E3,2.052E3,1.747E3,9.23E2,1.21E2],"tree_param":{"num_deleted":"0","num_feature":"2","num_nodes":"29","size_leaf_vector":"1"}},{"base_weights":[-1.4857069E-3,-2.9375331E0,3.2833928E-1,-3.0372188E0,-1.8607652E0,1.1737586E0,-1.3167391E0,-3.298139E0,-2.4776711E0,-1.2512872E0,-2.6613316E-1,2.0448184E-1,1.6389692E0,-6.610147E-1,-2.304893E0,-3.062596E-1,-3.366288E-1,-2.1183757E-1,-2.7213195E-1,-1.5056317E-1,-9.708744E-2,7.274335E-2,-2.578886E-1,2.0125954E-1,6.361412E-2,-3.6085974E-2,-1.9589761E-1,-1.9512579E-1,-4.420755E-1],"categories":[],"categories_nodes":[],"categories_segments":[],"categories_sizes":[],"default_left":[0,0,0,0,0,0,0,0,0,0,0,0,0,0,0,0,0,0,0,0,0,0,0,0,0,0,0,0,0],"id":12,"left_children":[1,3,5,7,9,11,13,15,17,19,-1,21,23,25,27,-1,-1,-1,-1,-1,-1,-1,-1,-1,-1,-1,-1,-1,-1],"loss_changes":[1.8266582E4,1.9882812E2,2.3586414E4,2.4615527E2,7.669006E1,5.0508438E3,3.7287617E3,8.712891E0,4.3083252E1,5.313751E0,0E0,5.291405E3,2.8346953E3,1.348052E3,1.7093398E3,0E0,0E0,0E0,0E0,0E0,0E0,0E0,0E0,0E0,0E0,0E0,0E0,0E0,0E0],"parents":[2147483647,0,0,1,1,2,2,3,3,4,4,5,5,6,6,7,7,8,8,9,9,11,11,12,12,13,13,14,14],"right_children":[2,4,6,8,10,12,14,16,18,20,-1,22,24,26,28,-1,-1,-1,-1,-1,-1,-1,-1,-1,-1,-1,-1,-1,-1],"split_conditions":[4E0,3E0,1.9E1,6E0,7E0,1E1,2.2E1,2E0,1E0,2E0,-2.6613316E-1,7E0,1.7E1,7E0,7E0,-3.062596E-1,-3.366288E-1,-2.1183757E-1,-2.7213195E-1,-1.5056317E-1,-9.708744E-2,7.274335E-2,-2.578886E-1,2.0125954E-1,6.361412E-2,-3.6085974E-2,-1.9589761E-1,-1.9512579E-1,-4.420755E-1],"split_indices":[1,1,1,0,0,1,1,0,1,0,0,0,1,0,0,0,0,0,0,0,0,0,0,0,0,0,0,0,0],"split_type":[0,0,0,0,0,0,0,0,0,0,0,0,0,0,0,0,0,0,0,0,0,0,0,0,0,0,0,0,0],"sum_hessian":[1.8861E4,1.904E3,1.6957E4,1.741E3,1.63E2,1.1201E4,5.756E3,1.184E3,5.57E2,9.4E1,6.9E1,3.633E3,7.568E3,3.461E3,2.295E3,2.76E2,9.08E2,2.29E2,3.28E2,4.7E1,4.7E1,3.059E3,5.74E2,5.513E3,2.055E3,2.812E3,6.49E2,1.968E3,3.27E2],"tree_param":{"num_deleted":"0","num_feature":"2","num_nodes":"29","size_leaf_vector":"1"}},{"base_weights":[-1.46583E-3,-2.2267344E0,3.614542E-1,-2.7341437E0,-1.2464981E0,1.212517E0,-1.1852162E0,-2.9688675E0,-2.2307713E0,-4.4634354E-1,-2.4377854E0,1.806973E0,6.7423356E-1,-2.2814953E-1,-1.7446935E0,-3.021912E-1,-2.7154955E-1,-1.9074589E-1,-2.4500147E-1,5.076743E-2,-6.988184E-2,-2.1394233E-1,-2.6523027E-1,2.0604856E-1,8.217502E-2,-2.3800734E-1,9.354669E-2,4.512674E-3,-1.4478223E-1,-2.8056213E-1,-9.2865966E-2],"categories":[],"categories_nodes":[],"categories_segments":[],"categories_sizes":[],"default_left":[0,0,0,0,0,0,0,0,0,0,0,0,0,0,0,0,0,0,0,0,0,0,0,0,0,0,0,0,0,0,0],"id":13,"left_children":[1,3,5,7,9,11,13,15,17,19,21,23,25,27,29,-1,-1,-1,-1,-1,-1,-1,-1,-1,-1,-1,-1,-1,-1,-1,-1],"loss_changes":[1.5233652E4,1.3121641E3,2.1349412E4,1.9920117E2,8.606173E2,3.3464746E3,3.0822295E3,7.720703E0,3.4880127E1,1.3090387E2,1.7558838E1,1.2398945E3,4.3842207E3,7.0834406E2,3.1426738E3,0E0,0E0,0E0,0E0,0E0,0E0,0E0,0E0,0E0,0E0,0E0,0E0,0E0,0E0,0E0,0E0],"parents":[2147483647,0,0,1,1,2,2,3,3,4,4,5,5,6,6,7,7,8,8,9,9,10,10,11,11,12,12,13,13,14,14],"right_children":[2,4,6,8,10,12,14,16,18,20,22,24,26,28,30,-1,-1,-1,-1,-1,-1,-1,-1,-1,-1,-1,-1,-1,-1,-1,-1],"split_conditions":[5E0,3E0,1.9E1,6E0,6E0,5E0,2.1E1,5E0,1E0,2E0,7E0,1.7E1,7E0,7E0,4E0,-3.021912E-1,-2.7154955E-1,-1.9074589E-1,-2.4500147E-1,5.076743E-2,-6.988184E-2,-2.1394233E-1,-2.6523027E-1,2.0604856E-1,8.217502E-2,-2.3800734E-1,9.354669E-2,4.512674E-3,-1.4478223E-1,-2.8056213E-1,-9.2865966E-2],"split_indices":[1,1,1,0,0,0,1,0,1,0,0,1,1,0,0,0,0,0,0,0,0,0,0,0,0,0,0,0,0,0,0],"split_type":[0,0,0,0,0,0,0,0,0,0,0,0,0,0,0,0,0,0,0,0,0,0,0,0,0,0,0,0,0,0,0],"sum_hessian":[1.8861E4,2.644E3,1.6217E4,1.741E3,9.03E2,1.0461E4,5.756E3,1.184E3,5.57E2,5.41E2,3.62E2,4.97E3,5.491E3,2.124E3,3.632E3,9.7E2,2.14E2,2.29E2,3.28E2,1.13E2,4.28E2,1.56E2,2.06E2,3.952E3,1.018E3,4.32E2,5.059E3,1.736E3,3.88E2,1.578E3,2.054E3],"tree_param":{"num_deleted":"0","num_feature":"2","num_nodes":"31","size_leaf_vector":"1"}},{"base_weights":[-1.4187392E-3,-2.004631E0,3.2528603E-1,-2.4613087E0,-1.1223997E0,1.0912793E0,-1.0667838E0,-2.6724648E0,-2.008475E0,-4.0174487E-1,-2.1953268E0,1.6263334E0,6.0678446E-1,-7.440865E-1,-2.5211432E0,-2.4563415E-1,-2.7353844E-1,-1.7175424E-1,-2.2057581E-1,4.5735184E-2,-6.290998E-2,-1.9268435E-1,-2.3883536E-1,1.7905092E-1,3.5809487E-2,-2.1426158E-1,8.419393E-2,-1.3675062E-1,-3.316914E-3,-2.2880982E-1,-4.2655078E-1],"categories":[],"categories_nodes":[],"categories_segments":[],"categories_sizes":[],"default_left":[0,0,0,0,0,0,0,0,0,0,0,0,0,0,0,0,0,0,0,0,0,0,0,0,0,0,0,0,0,0,0],"id":14,"left_children":[1,3,5,7,9,11,13,15,17,19,21,23,25,27,29,-1,-1,-1,-1,-1,-1,-1,-1,-1,-1,-1,-1,-1,-1,-1,-1],"loss_changes":[1.2345059E4,1.0628965E3,1.7294678E4,1.6119922E2,6.981E2,2.711088E3,2.6999868E3,9.395508E0,2.8238281E1,1.06151115E2,1.4210327E1,1.0343906E3,3.5525732E3,2.088756E3,4.1504883E2,0E0,0E0,0E0,0E0,0E0,0E0,0E0,0E0,0E0,0E0,0E0,0E0,0E0,0E0,0E0,0E0],"parents":[2147483647,0,0,1,1,2,2,3,3,4,4,5,5,6,6,7,7,8,8,9,9,10,10,11,11,12,12,13,13,14,14],"right_children":[2,4,6,8,10,12,14,16,18,20,22,24,26,28,30,-1,-1,-1,-1,-1,-1,-1,-1,-1,-1,-1,-1,-1,-1,-1,-1],"split_conditions":[5E0,3E0,1.9E1,6E0,6E0,5E0,2.3E1,2E0,1E0,2E0,7E0,1.8E1,7E0,5E0,7E0,-2.4563415E-1,-2.7353844E-1,-1.7175424E-1,-2.2057581E-1,4.5735184E-2,-6.290998E-2,-1.9268435E-1,-2.3883536E-1,1.7905092E-1,3.5809487E-2,-2.1426158E-1,8.419393E-2,-1.3675062E-1,-3.316914E-3,-2.2880982E-1,-4.2655078E-1],"split_indices":[1,1,1,0,0,0,1,0,1,0,0,1,1,0,0,0,0,0,0,0,0,0,0,0,0,0,0,0,0,0,0],"split_type":[0,0,0,0,0,0,0,0,0,0,0,0,0,0,0,0,0,0,0,0,0,0,0,0,0,0,0,0,0,0,0],"sum_hessian":[1.8861E4,2.644E3,1.6217E4,1.741E3,9.03E2,1.0461E4,5.756E3,1.184E3,5.57E2,5.41E2,3.62E2,4.97E3,5.491E3,4.712E3,1.044E3,2.76E2,9.08E2,2.29E2,3.28E2,1.13E2,4.28E2,1.56E2,2.06E2,4.4E3,5.7E2,4.32E2,5.059E3,2.51E3,2.202E3,9.23E2,1.21E2],"tree_param":{"num_deleted":"0","num_feature":"2","num_nodes":"31","size_leaf_vector":"1"}},{"base_weights":[-1.3866146E-3,-1.8046821E0,2.9271364E-1,-2.215701E0,-1.010656E0,7.934128E-1,-1.4419663E0,-2.4056563E0,-1.8083308E0,-3.616019E-1,-1.976983E0,1.0356618E0,-1.8873878E-1,-2.1669178E0,-5.3173435E-1,-2.4547067E-1,-2.1729422E-1,-1.5465349E-1,-1.9858526E-1,4.1201763E-2,-5.663362E-2,-1.7353867E-1,-2.150672E-1,1.3355783E-1,1.8419422E-2,-3.984997E-1,1.1221576E-2,-2.551677E-1,-1.7096762E-1,9.01875E-2,-3.0232185E-1],"categories":[],"categories_nodes":[],"categories_segments":[],"categories_sizes":[],"default_left":[0,0,0,0,0,0,0,0,0,0,0,0,0,0,0,0,0,0,0,0,0,0,0,0,0,0,0,0,0,0,0],"id":15,"left_children":[1,3,5,7,9,11,13,15,17,19,21,23,25,27,29,-1,-1,-1,-1,-1,-1,-1,-1,-1,-1,-1,-1,-1,-1,-1,-1],"loss_changes":[1.0003984E4,8.609824E2,1.4087333E4,1.304502E2,5.662725E2,2.9947222E3,2.396171E3,8.191895E0,2.2861694E1,8.6078804E1,1.1500244E1,2.577961E3,2.8464175E3,3.5136328E2,5.7604917E3,0E0,0E0,0E0,0E0,0E0,0E0,0E0,0E0,0E0,0E0,0E0,0E0,0E0,0E0,0E0,0E0],"parents":[2147483647,0,0,1,1,2,2,3,3,4,4,5,5,6,6,7,7,8,8,9,9,10,10,11,11,12,12,13,13,14,14],"right_children":[2,4,6,8,10,12,14,16,18,20,22,24,26,28,30,-1,-1,-1,-1,-1,-1,-1,-1,-1,-1,-1,-1,-1,-1,-1,-1],"split_conditions":[5E0,3E0,2.1E1,6E0,6E0,7E0,5E0,5E0,1E0,2E0,7E0,1.8E1,8E0,3E0,7E0,-2.4547067E-1,-2.1729422E-1,-1.5465349E-1,-1.9858526E-1,4.1201763E-2,-5.663362E-2,-1.7353867E-1,-2.150672E-1,1.3355783E-1,1.8419422E-2,-3.984997E-1,1.1221576E-2,-2.551677E-1,-1.7096762E-1,9.01875E-2,-3.0232185E-1],"split_indices":[1,1,1,0,0,0,0,0,1,0,0,1,1,0,0,0,0,0,0,0,0,0,0,0,0,0,0,0,0,0,0],"split_type":[0,0,0,0,0,0,0,0,0,0,0,0,0,0,0,0,0,0,0,0,0,0,0,0,0,0,0,0,0,0,0],"sum_hessian":[1.8861E4,2.644E3,1.6217E4,1.741E3,9.03E2,1.2585E4,3.632E3,1.184E3,5.57E2,5.41E2,3.62E2,1.0095E4,2.49E3,2.021E3,1.611E3,9.7E2,2.14E2,2.29E2,3.28E2,1.13E2,4.28E2,1.56E2,2.06E2,7.465E3,2.63E3,1.82E2,2.308E3,1.095E3,9.26E2,1.023E3,5.88E2],"tree_param":{"num_deleted":"0","num_feature":"2","num_nodes":"31","size_leaf_vector":"1"}},{"base_weights":[-1.359059E-3,-1.6246753E0,2.633883E-1,-1.9945996E0,-9.100372E-1,8.9016026E-1,-8.756687E-1,-2.1654813E0,-1.6281308E0,-3.2546994E-1,-1.7803553E0,1.3434148E0,4.797417E-1,-3.8559577E-1,-1.6142387E0,-1.9670098E-1,-2.2235794E-1,-1.3925537E-1,-1.7878713E-1,3.711775E-2,-5.0983436E-2,-1.5629537E-1,-1.9366436E-1,1.541959E-1,5.71885E-2,-1.8900706E-1,6.824391E-2,-1.2294843E-2,-1.5216595E-1,-1.3115112E-1,-3.4266055E-1],"categories":[],"categories_nodes":[],"categories_segments":[],"categories_sizes":[],"default_left":[0,0,0,0,0,0,0,0,0,0,0,0,0,0,0,0,0,0,0,0,0,0,0,0,0,0,0,0,0,0,0],"id":16,"left_children":[1,3,5,7,9,11,13,15,17,19,21,23,25,27,29,-1,-1,-1,-1,-1,-1,-1,-1,-1,-1,-1,-1,-1,-1,-1,-1],"loss_changes":[8.106725E3,6.9742236E2,1.1579279E4,1.0556299E2,4.593391E2,1.9455391E3,2.083142E3,9.290039E0,1.8508545E1,6.980211E1,9.306885E0,7.6058984E2,2.6393984E3,1.0328188E3,1.2552139E3,0E0,0E0,0E0,0E0,0E0,0E0,0E0,0E0,0E0,0E0,0E0,0E0,0E0,0E0,0E0,0E0],"parents":[2147483647,0,0,1,1,2,2,3,3,4,4,5,5,6,6,7,7,8,8,9,9,10,10,11,11,12,12,13,13,14,14],"right_children":[2,4,6,8,10,12,14,16,18,20,22,24,26,28,30,-1,-1,-1,-1,-1,-1,-1,-1,-1,-1,-1,-1,-1,-1,-1,-1],"split_conditions":[5E0,3E0,1.9E1,6E0,6E0,5E0,2.2E1,2E0,1E0,2E0,7E0,1.7E1,7E0,7E0,7E0,-1.9670098E-1,-2.2235794E-1,-1.3925537E-1,-1.7878713E-1,3.711775E-2,-5.0983436E-2,-1.5629537E-1,-1.9366436E-1,1.541959E-1,5.71885E-2,-1.8900706E-1,6.824391E-2,-1.2294843E-2,-1.5216595E-1,-1.3115112E-1,-3.4266055E-1],"split_indices":[1,1,1,0,0,0,1,0,1,0,0,1,1,0,0,0,0,0,0,0,0,0,0,0,0,0,0,0,0,0,0],"split_type":[0,0,0,0,0,0,0,0,0,0,0,0,0,0,0,0,0,0,0,0,0,0,0,0,0,0,0,0,0,0,0],"sum_hessian":[1.8861E4,2.644E3,1.6217E4,1.741E3,9.03E2,1.0461E4,5.756E3,1.184E3,5.57E2,5.41E2,3.62E2,4.97E3,5.491E3,3.461E3,2.295E3,2.76E2,9.08E2,2.29E2,3.28E2,1.13E2,4.28E2,1.56E2,2.06E2,3.952E3,1.018E3,4.32E2,5.059E3,2.812E3,6.49E2,1.968E3,3.27E2],"tree_param":{"num_deleted":"0","num_feature":"2","num_nodes":"31","size_leaf_vector":"1"}},{"base_weights":[-1.3102798E-3,-1.462624E0,2.3701602E-1,-1.7955627E0,-8.194359E-1,6.4645326E-1,-1.1814849E0,-1.9492869E0,-1.4658875E0,-2.929486E-1,-1.6032835E0,8.52632E-1,-1.8944676E-1,-1.8642007E0,-3.2439262E-1,-1.9946529E-1,-1.7353351E-1,-1.2539037E-1,-1.6096275E-1,-5.467644E-2,1.302695E-2,-1.4076535E-1,-1.7439148E-1,1.14933036E-1,2.5774568E-2,-2.6535392E-1,1.7758472E-2,-1.6208358E-1,-2.4951015E-1,9.064689E-2,-2.463744E-1],"categories":[],"categories_nodes":[],"categories_segments":[],"categories_sizes":[],"default_left":[0,0,0,0,0,0,0,0,0,0,0,0,0,0,0,0,0,0,0,0,0,0,0,0,0,0,0,0,0,0,0],"id":17,"left_children":[1,3,5,7,9,11,13,15,17,19,21,23,25,27,29,-1,-1,-1,-1,-1,-1,-1,-1,-1,-1,-1,-1,-1,-1,-1,-1],"loss_changes":[6.569406E3,5.649346E2,9.419969E3,8.542578E1,3.725984E2,2.1692935E3,2.125247E3,8.040527E0,1.4984131E1,5.829255E1,7.5318604E0,1.7816665E3,2.2533306E3,3.064121E2,4.2470244E3,0E0,0E0,0E0,0E0,0E0,0E0,0E0,0E0,0E0,0E0,0E0,0E0,0E0,0E0,0E0,0E0],"parents":[2147483647,0,0,1,1,2,2,3,3,4,4,5,5,6,6,7,7,8,8,9,9,10,10,11,11,12,12,13,13,14,14],"right_children":[2,4,6,8,10,12,14,16,18,20,22,24,26,28,30,-1,-1,-1,-1,-1,-1,-1,-1,-1,-1,-1,-1,-1,-1,-1,-1],"split_conditions":[5E0,3E0,2.1E1,6E0,6E0,7E0,5E0,5E0,1E0,4E0,7E0,1.7E1,9E0,2.3E1,7E0,-1.9946529E-1,-1.7353351E-1,-1.2539037E-1,-1.6096275E-1,-5.467644E-2,1.302695E-2,-1.4076535E-1,-1.7439148E-1,1.14933036E-1,2.5774568E-2,-2.6535392E-1,1.7758472E-2,-1.6208358E-1,-2.4951015E-1,9.064689E-2,-2.463744E-1],"split_indices":[1,1,1,0,0,0,0,0,1,0,0,1,1,1,0,0,0,0,0,0,0,0,0,0,0,0,0,0,0,0,0],"split_type":[0,0,0,0,0,0,0,0,0,0,0,0,0,0,0,0,0,0,0,0,0,0,0,0,0,0,0,0,0,0,0],"sum_hessian":[1.8861E4,2.644E3,1.6217E4,1.741E3,9.03E2,1.2585E4,3.632E3,1.184E3,5.57E2,5.41E2,3.62E2,1.0095E4,2.49E3,2.021E3,1.611E3,9.7E2,2.14E2,2.29E2,3.28E2,3.38E2,2.03E2,1.56E2,2.06E2,6.735E3,3.36E3,3.22E2,2.168E3,1.461E3,5.6E2,1.023E3,5.88E2],"tree_param":{"num_deleted":"0","num_feature":"2","num_nodes":"31","size_leaf_vector":"1"}},{"base_weights":[-1.2689264E-3,-1.3167459E0,2.132728E-1,-1.616385E0,-7.378873E-1,7.283089E-1,-7.227218E-1,-1.754673E0,-1.319812E0,-2.6373088E-1,-1.4438236E0,1.0032407E-1,9.683221E-1,-1.348532E0,-2.6065463E-1,-1.5722738E-1,-1.8083254E-1,-1.2145438E-1,-1.576337E-1,3.8858153E-2,-4.364579E-2,-1.267785E-1,-1.5703659E-1,4.3723408E-2,-1.7898318E-1,1.2364789E-1,2.4867961E-2,-4.178628E-2,-1.8586914E-1,3.853969E-2,-1.8057537E-1],"categories":[],"categories_nodes":[],"categories_segments":[],"categories_sizes":[],"default_left":[0,0,0,0,0,0,0,0,0,0,0,0,0,0,0,0,0,0,0,0,0,0,0,0,0,0,0,0,0,0,0],"id":18,"left_children":[1,3,5,7,9,11,13,15,17,19,21,23,25,27,29,-1,-1,-1,-1,-1,-1,-1,-1,-1,-1,-1,-1,-1,-1,-1,-1],"loss_changes":[5.3236025E3,4.575796E2,7.8187544E3,6.912793E1,3.0220984E2,1.5767837E3,1.6643789E3,8.753174E0,1.3153687E1,6.1237804E1,6.095459E0,1.8437175E3,1.4603359E3,1.1600845E3,3.3077776E3,0E0,0E0,0E0,0E0,0E0,0E0,0E0,0E0,0E0,0E0,0E0,0E0,0E0,0E0,0E0,0E0],"parents":[2147483647,0,0,1,1,2,2,3,3,4,4,5,5,6,6,7,7,8,8,9,9,10,10,11,11,12,12,13,13,14,14],"right_children":[2,4,6,8,10,12,14,16,18,20,22,24,26,28,30,-1,-1,-1,-1,-1,-1,-1,-1,-1,-1,-1,-1,-1,-1,-1,-1],"split_conditions":[5E0,3E0,1.9E1,6E0,6E0,1E1,4E0,2E0,2E0,2E0,7E0,7E0,1.7E1,2.1E1,7E0,-1.5722738E-1,-1.8083254E-1,-1.2145438E-1,-1.576337E-1,3.8858153E-2,-4.364579E-2,-1.267785E-1,-1.5703659E-1,4.3723408E-2,-1.7898318E-1,1.2364789E-1,2.4867961E-2,-4.178628E-2,-1.8586914E-1,3.853969E-2,-1.8057537E-1],"split_indices":[1,1,1,0,0,1,0,0,1,0,0,0,1,1,0,0,0,0,0,0,0,0,0,0,0,0,0,0,0,0,0],"split_type":[0,0,0,0,0,0,0,0,0,0,0,0,0,0,0,0,0,0,0,0,0,0,0,0,0,0,0,0,0,0,0],"sum_hessian":[1.8861E4,2.644E3,1.6217E4,1.741E3,9.03E2,1.0461E4,5.756E3,1.184E3,5.57E2,5.41E2,3.62E2,2.893E3,7.568E3,2.444E3,3.312E3,2.76E2,9.08E2,3.99E2,1.58E2,1.13E2,4.28E2,1.56E2,2.06E2,2.456E3,4.37E2,5.513E3,2.055E3,8.66E2,1.578E3,2.336E3,9.76E2],"tree_param":{"num_deleted":"0","num_feature":"2","num_nodes":"31","size_leaf_vector":"1"}},{"base_weights":[-1.2089981E-3,-1.1854136E0,1.9192348E-1,-1.4551008E0,-6.6441774E-1,7.276735E-1,-5.384669E-1,-1.6214563E0,-1.2439786E0,-2.3736662E-1,-1.3002229E0,9.024435E-2,1.0129887E0,-3.1610602E-1,-1.7761506E0,-1.5427865E-1,-1.900899E-1,-1.3826174E-1,-1.188331E-1,-4.762339E-2,1.6073808E-2,-1.1418138E-1,-1.4140877E-1,6.0178608E-2,-9.522576E-2,1.4651705E-1,7.779987E-2,-1.6961282E-1,-1.0278458E-2,-2.1032949E-1,-9.828744E-2],"categories":[],"categories_nodes":[],"categories_segments":[],"categories_sizes":[],"default_left":[0,0,0,0,0,0,0,0,0,0,0,0,0,0,0,0,0,0,0,0,0,0,0,0,0,0,0,0,0,0,0],"id":19,"left_children":[1,3,5,7,9,11,13,15,17,19,21,23,25,27,29,-1,-1,-1,-1,-1,-1,-1,-1,-1,-1,-1,-1,-1,-1,-1,-1],"loss_changes":[4.314125E3,3.7067114E2,6.346603E3,5.916455E1,2.4514664E2,1.7014683E3,1.8882211E3,1.841333E1,4.312866E0,5.1617584E1,4.9328613E0,1.5438948E3,6.8560645E2,1.7128715E3,2.6912695E2,0E0,0E0,0E0,0E0,0E0,0E0,0E0,0E0,0E0,0E0,0E0,0E0,0E0,0E0,0E0,0E0],"parents":[2147483647,0,0,1,1,2,2,3,3,4,4,5,5,6,6,7,7,8,8,9,9,10,10,11,11,12,12,13,13,14,14],"right_children":[2,4,6,8,10,12,14,16,18,20,22,24,26,28,30,-1,-1,-1,-1,-1,-1,-1,-1,-1,-1,-1,-1,-1,-1,-1,-1],"split_conditions":[5E0,3E0,1.8E1,5E0,6E0,1E1,2.3E1,2E0,6E0,4E0,7E0,6E0,4E0,2E0,6E0,-1.5427865E-1,-1.900899E-1,-1.3826174E-1,-1.188331E-1,-4.762339E-2,1.6073808E-2,-1.1418138E-1,-1.4140877E-1,6.0178608E-2,-9.522576E-2,1.4651705E-1,7.779987E-2,-1.6961282E-1,-1.0278458E-2,-2.1032949E-1,-9.828744E-2],"split_indices":[1,1,1,0,0,1,1,1,0,0,0,0,0,0,0,0,0,0,0,0,0,0,0,0,0,0,0,0,0,0,0],"split_type":[0,0,0,0,0,0,0,0,0,0,0,0,0,0,0,0,0,0,0,0,0,0,0,0,0,0,0,0,0,0,0],"sum_hessian":[1.8861E4,2.644E3,1.6217E4,1.741E3,9.03E2,9.355E3,6.862E3,9.7E2,7.71E2,5.41E2,3.62E2,2.893E3,6.462E3,5.818E3,1.044E3,7.62E2,2.08E2,2.14E2,5.57E2,3.38E2,2.03E2,1.56E2,2.06E2,1.941E3,9.52E2,2.208E3,4.254E3,7.78E2,5.04E3,7.38E2,3.06E2],"tree_param":{"num_deleted":"0","num_feature":"2","num_nodes":"31","size_leaf_vector":"1"}},{"base_weights":[-1.1512092E-3,2.1179059E-1,-8.938301E-1,-1.0672082E0,4.8056066E-1,-1.4452775E0,-2.0157185E-1,-1.2776388E0,-5.247824E-1,6.491274E-1,-2.0283173E-1,-1.7239602E0,-1.1142294E0,8.3835155E-1,-2.009178E0,-1.3921987E-1,-1.0527418E-1,1.7271273E-1,-7.4752785E-2,8.620299E-2,2.222425E-2,-3.381662E-1,-1.2096771E-3,-1.3837333E-1,-1.9887903E-1,-5.638616E-2,-1.3527583E-1,1.729602E-1,-7.8240365E-2,-1.2410384E-1,-2.6166272E-1],"categories":[],"categories_nodes":[],"categories_segments":[],"categories_sizes":[],"default_left":[0,0,0,0,0,0,0,0,0,0,0,0,0,0,0,0,0,0,0,0,0,0,0,0,0,0,0,0,0,0,0],"id":20,"left_children":[1,3,5,7,9,11,13,15,17,19,21,23,25,27,29,-1,-1,-1,-1,-1,-1,-1,-1,-1,-1,-1,-1,-1,-1,-1,-1],"loss_changes":[3.5856416E3,5.2359253E3,1.386585E3,3.0123755E2,1.4500039E3,1.8462354E2,3.0318767E3,4.7615234E1,3.7297864E2,9.1738184E2,1.5102874E3,9.6E1,1.2093237E2,1.4805198E3,2.715835E2,0E0,0E0,0E0,0E0,0E0,0E0,0E0,0E0,0E0,0E0,0E0,0E0,0E0,0E0,0E0,0E0],"parents":[2147483647,0,0,1,1,2,2,3,3,4,4,5,5,6,6,7,7,8,8,9,9,10,10,11,11,12,12,13,13,14,14],"right_children":[2,4,6,8,10,12,14,16,18,20,22,24,26,28,30,-1,-1,-1,-1,-1,-1,-1,-1,-1,-1,-1,-1,-1,-1,-1,-1],"split_conditions":[2.1E1,5E0,5E0,4E0,7E0,3E0,7E0,6E0,2E0,1.7E1,7E0,2.2E1,2.2E1,2.3E1,2.2E1,-1.3921987E-1,-1.0527418E-1,1.7271273E-1,-7.4752785E-2,8.620299E-2,2.222425E-2,-3.381662E-1,-1.2096771E-3,-1.3837333E-1,-1.9887903E-1,-5.638616E-2,-1.3527583E-1,1.729602E-1,-7.8240365E-2,-1.2410384E-1,-2.6166272E-1],"split_indices":[1,1,0,1,0,0,0,0,0,1,1,1,1,1,1,0,0,0,0,0,0,0,0,0,0,0,0,0,0,0,0],"split_type":[0,0,0,0,0,0,0,0,0,0,0,0,0,0,0,0,0,0,0,0,0,0,0,0,0,0,0,0,0,0,0],"sum_hessian":[1.8861E4,1.5229E4,3.632E3,2.644E3,1.2585E4,2.021E3,1.611E3,1.904E3,7.4E2,1.0095E4,2.49E3,1.095E3,9.26E2,1.023E3,5.88E2,1.258E3,6.46E2,6.6E1,6.74E2,6.735E3,3.36E3,1.4E2,2.35E3,4.82E2,6.13E2,2.81E2,6.45E2,6.6E2,3.63E2,2.61E2,3.27E2],"tree_param":{"num_deleted":"0","num_feature":"2","num_nodes":"31","size_leaf_vector":"1"}},{"base_weights":[-1.0995234E-3,1.905868E-1,-8.0467284E-1,-9.6054274E-1,4.3248633E-1,-1.3010112E0,-1.8159531E-1,-1.18165E0,-5.334084E-1,5.842256E-1,-1.8268518E-1,-1.5518718E0,-1.0030133E0,7.5460887E-1,-1.8089153E0,-1.3205889E-1,-1.0053661E-1,-1.6040549E-2,-1.0888745E-1,7.7584006E-2,2.0002468E-2,-3.0458942E-1,-1.0888015E-3,-1.2456464E-1,-1.7902349E-1,-5.076756E-2,-1.2176917E-1,1.5569034E-1,-7.0437826E-2,-1.1174085E-1,-2.3557626E-1],"categories":[],"categories_nodes":[],"categories_segments":[],"categories_sizes":[],"default_left":[0,0,0,0,0,0,0,0,0,0,0,0,0,0,0,0,0,0,0,0,0,0,0,0,0,0,0,0,0,0,0],"id":21,"left_children":[1,3,5,7,9,11,13,15,17,19,21,23,25,27,29,-1,-1,-1,-1,-1,-1,-1,-1,-1,-1,-1,-1,-1,-1,-1,-1],"loss_changes":[2.905543E3,4.241325E3,1.1232957E3,2.4917041E2,1.1749553E3,1.4959985E2,2.457253E3,4.133838E1,1.8712552E2,7.430967E2,1.2252678E3,7.777002E1,9.79574E1,1.1997269E3,2.2009705E2,0E0,0E0,0E0,0E0,0E0,0E0,0E0,0E0,0E0,0E0,0E0,0E0,0E0,0E0,0E0,0E0],"parents":[2147483647,0,0,1,1,2,2,3,3,4,4,5,5,6,6,7,7,8,8,9,9,10,10,11,11,12,12,13,13,14,14],"right_children":[2,4,6,8,10,12,14,16,18,20,22,24,26,28,30,-1,-1,-1,-1,-1,-1,-1,-1,-1,-1,-1,-1,-1,-1,-1,-1],"split_conditions":[2.1E1,5E0,5E0,3E0,7E0,3E0,7E0,5E0,6E0,1.7E1,7E0,2.2E1,2.2E1,2.3E1,2.2E1,-1.3205889E-1,-1.0053661E-1,-1.6040549E-2,-1.0888745E-1,7.7584006E-2,2.0002468E-2,-3.0458942E-1,-1.0888015E-3,-1.2456464E-1,-1.7902349E-1,-5.076756E-2,-1.2176917E-1,1.5569034E-1,-7.0437826E-2,-1.1174085E-1,-2.3557626E-1],"split_indices":[1,1,0,1,0,0,0,0,0,1,1,1,1,1,1,0,0,0,0,0,0,0,0,0,0,0,0,0,0,0,0],"split_type":[0,0,0,0,0,0,0,0,0,0,0,0,0,0,0,0,0,0,0,0,0,0,0,0,0,0,0,0,0,0,0],"sum_hessian":[1.8861E4,1.5229E4,3.632E3,2.644E3,1.2585E4,2.021E3,1.611E3,1.741E3,9.03E2,1.0095E4,2.49E3,1.095E3,9.26E2,1.023E3,5.88E2,9.7E2,7.71E2,5.41E2,3.62E2,6.735E3,3.36E3,1.4E2,2.35E3,4.82E2,6.13E2,2.81E2,6.45E2,6.6E2,3.63E2,2.61E2,3.27E2],"tree_param":{"num_deleted":"0","num_feature":"2","num_nodes":"31","size_leaf_vector":"1"}},{"base_weights":[-1.0584078E-3,1.7149137E-1,-7.2440886E-1,-8.6462355E-1,3.8922158E-1,-1.1711458E0,-1.6359837E-1,-1.0636185E0,-4.8020557E-1,5.2581316E-1,-1.6453914E-1,-1.3969618E0,-9.0289813E-1,6.7923117E-1,-1.6286134E0,-1.188666E-1,-9.049597E-2,-1.4439428E-2,-9.802868E-2,6.716754E-2,1.1169941E-2,-1.8357587E-1,8.440898E-3,-1.12134E-1,-1.6115032E-1,-4.5708768E-2,-1.0961112E-1,1.4014487E-1,-6.3413434E-2,-1.00609384E-1,-2.1209045E-1],"categories":[],"categories_nodes":[],"categories_segments":[],"categories_sizes":[],"default_left":[0,0,0,0,0,0,0,0,0,0,0,0,0,0,0,0,0,0,0,0,0,0,0,0,0,0,0,0,0,0,0],"id":22,"left_children":[1,3,5,7,9,11,13,15,17,19,21,23,25,27,29,-1,-1,-1,-1,-1,-1,-1,-1,-1,-1,-1,-1,-1,-1,-1,-1],"loss_changes":[2.354365E3,3.4361257E3,9.1000134E2,2.0182458E2,9.520796E2,1.2122046E2,1.9915359E3,3.348535E1,1.5166983E2,6.097595E2,1.036528E3,6.3001953E1,7.934747E1,9.7218896E2,1.7837158E2,0E0,0E0,0E0,0E0,0E0,0E0,0E0,0E0,0E0,0E0,0E0,0E0,0E0,0E0,0E0,0E0],"parents":[2147483647,0,0,1,1,2,2,3,3,4,4,5,5,6,6,7,7,8,8,9,9,10,10,11,11,12,12,13,13,14,14],"right_children":[2,4,6,8,10,12,14,16,18,20,22,24,26,28,30,-1,-1,-1,-1,-1,-1,-1,-1,-1,-1,-1,-1,-1,-1,-1,-1],"split_conditions":[2.1E1,5E0,5E0,3E0,7E0,3E0,7E0,5E0,6E0,1.8E1,9E0,2.2E1,2.2E1,2.3E1,2.2E1,-1.188666E-1,-9.049597E-2,-1.4439428E-2,-9.802868E-2,6.716754E-2,1.1169941E-2,-1.8357587E-1,8.440898E-3,-1.12134E-1,-1.6115032E-1,-4.5708768E-2,-1.0961112E-1,1.4014487E-1,-6.3413434E-2,-1.00609384E-1,-2.1209045E-1],"split_indices":[1,1,0,1,0,0,0,0,0,1,1,1,1,1,1,0,0,0,0,0,0,0,0,0,0,0,0,0,0,0,0],"split_type":[0,0,0,0,0,0,0,0,0,0,0,0,0,0,0,0,0,0,0,0,0,0,0,0,0,0,0,0,0,0,0],"sum_hessian":[1.8861E4,1.5229E4,3.632E3,2.644E3,1.2585E4,2.021E3,1.611E3,1.741E3,9.03E2,1.0095E4,2.49E3,1.095E3,9.26E2,1.023E3,5.88E2,9.7E2,7.71E2,5.41E2,3.62E2,7.465E3,2.63E3,3.22E2,2.168E3,4.82E2,6.13E2,2.81E2,6.45E2,6.6E2,3.63E2,2.61E2,3.27E2],"tree_param":{"num_deleted":"0","num_feature":"2","num_nodes":"31","size_leaf_vector":"1"}},{"base_weights":[-1.009845E-3,1.5431495E-1,-6.521509E-1,-7.7828276E-1,3.5029197E-1,-1.0542432E0,-1.4738499E-1,-9.340688E-1,-3.767299E-1,4.7323978E-1,-1.4815505E-1,-9.102514E-1,-1.4276153E0,6.113828E-1,-1.4662827E0,-1.0255005E-1,-7.547077E-2,1.5870184E-1,-5.7109196E-2,6.31111E-2,1.5669903E-2,-2.2483031E-1,1.8356532E-3,-1.1191048E-1,-6.630591E-2,-1.6111915E-1,-1.20260775E-1,1.2615155E-1,-5.7089496E-2,-9.058682E-2,-1.9094607E-1],"categories":[],"categories_nodes":[],"categories_segments":[],"categories_sizes":[],"default_left":[0,0,0,0,0,0,0,0,0,0,0,0,0,0,0,0,0,0,0,0,0,0,0,0,0,0,0,0,0,0,0],"id":23,"left_children":[1,3,5,7,9,11,13,15,17,19,21,23,25,27,29,-1,-1,-1,-1,-1,-1,-1,-1,-1,-1,-1,-1,-1,-1,-1,-1],"loss_changes":[1.9077722E3,2.7838245E3,7.372073E2,1.6510986E2,7.713777E2,1.0740845E2,1.6140847E3,3.046643E1,2.8372986E2,5.044253E2,8.711415E2,7.473657E1,2.1234985E1,7.878049E2,1.4455627E2,0E0,0E0,0E0,0E0,0E0,0E0,0E0,0E0,0E0,0E0,0E0,0E0,0E0,0E0,0E0,0E0],"parents":[2147483647,0,0,1,1,2,2,3,3,4,4,5,5,6,6,7,7,8,8,9,9,10,10,11,11,12,12,13,13,14,14],"right_children":[2,4,6,8,10,12,14,16,18,20,22,24,26,28,30,-1,-1,-1,-1,-1,-1,-1,-1,-1,-1,-1,-1,-1,-1,-1,-1],"split_conditions":[2.1E1,5E0,5E0,4E0,7E0,2.3E1,7E0,6E0,2E0,1.7E1,8E0,3E0,3E0,2.3E1,2.2E1,-1.0255005E-1,-7.547077E-2,1.5870184E-1,-5.7109196E-2,6.31111E-2,1.5669903E-2,-2.2483031E-1,1.8356532E-3,-1.1191048E-1,-6.630591E-2,-1.6111915E-1,-1.20260775E-1,1.2615155E-1,-5.7089496E-2,-9.058682E-2,-1.9094607E-1],"split_indices":[1,1,0,1,0,1,0,0,0,1,1,0,0,1,1,0,0,0,0,0,0,0,0,0,0,0,0,0,0,0,0],"split_type":[0,0,0,0,0,0,0,0,0,0,0,0,0,0,0,0,0,0,0,0,0,0,0,0,0,0,0,0,0,0,0],"sum_hessian":[1.8861E4,1.5229E4,3.632E3,2.644E3,1.2585E4,2.021E3,1.611E3,1.904E3,7.4E2,1.0095E4,2.49E3,1.461E3,5.6E2,1.023E3,5.88E2,1.258E3,6.46E2,6.6E1,6.74E2,6.735E3,3.36E3,1.82E2,2.308E3,7.9E2,6.71E2,3.05E2,2.55E2,6.6E2,3.63E2,2.61E2,3.27E2],"tree_param":{"num_deleted":"0","num_feature":"2","num_nodes":"31","size_leaf_vector":"1"}},{"base_weights":[-9.5589797E-4,1.3886929E-1,-5.8712065E-1,-3.883575E-1,4.400808E-1,-9.49046E-1,-1.3277805E-1,-8.407553E-1,-1.5109658E-1,7.8258723E-1,-1.1838025E-2,-8.19348E-1,-1.2853553E0,5.5031234E-1,-1.3201325E0,-9.2303194E-2,-6.793534E-2,1.9853516E-2,-8.379741E-2,1.19212486E-1,5.8296263E-2,-1.07408635E-1,1.582311E-2,-1.00733556E-1,-5.9685167E-2,-1.4505988E-1,-1.0828167E-1,1.1355551E-1,-5.139619E-2,-8.156272E-2,-1.7190968E-1],"categories":[],"categories_nodes":[],"categories_segments":[],"categories_sizes":[],"default_left":[0,0,0,0,0,0,0,0,0,0,0,0,0,0,0,0,0,0,0,0,0,0,0,0,0,0,0,0,0,0,0],"id":24,"left_children":[1,3,5,7,9,11,13,15,17,19,21,23,25,27,29,-1,-1,-1,-1,-1,-1,-1,-1,-1,-1,-1,-1,-1,-1,-1,-1],"loss_changes":[1.5460222E3,2.418798E3,5.972777E2,5.943014E2,1.5003413E3,8.71438E1,1.308172E3,2.4670654E1,8.728866E2,4.5009497E2,7.553105E2,6.0549072E1,1.7204834E1,6.383911E2,1.1715149E2,0E0,0E0,0E0,0E0,0E0,0E0,0E0,0E0,0E0,0E0,0E0,0E0,0E0,0E0,0E0,0E0],"parents":[2147483647,0,0,1,1,2,2,3,3,4,4,5,5,6,6,7,7,8,8,9,9,10,10,11,11,12,12,13,13,14,14],"right_children":[2,4,6,8,10,12,14,16,18,20,22,24,26,28,30,-1,-1,-1,-1,-1,-1,-1,-1,-1,-1,-1,-1,-1,-1,-1,-1],"split_conditions":[2.1E1,1E1,5E0,4E0,1.7E1,2.3E1,7E0,6E0,6E0,4E0,2E0,3E0,3E0,2.3E1,2.2E1,-9.2303194E-2,-6.793534E-2,1.9853516E-2,-8.379741E-2,1.19212486E-1,5.8296263E-2,-1.07408635E-1,1.582311E-2,-1.00733556E-1,-5.9685167E-2,-1.4505988E-1,-1.0828167E-1,1.1355551E-1,-5.139619E-2,-8.156272E-2,-1.7190968E-1],"split_indices":[1,1,0,1,1,1,0,0,0,0,0,0,0,1,1,0,0,0,0,0,0,0,0,0,0,0,0,0,0,0,0],"split_type":[0,0,0,0,0,0,0,0,0,0,0,0,0,0,0,0,0,0,0,0,0,0,0,0,0,0,0,0,0,0,0],"sum_hessian":[1.8861E4,1.5229E4,3.632E3,5.537E3,9.692E3,2.021E3,1.611E3,1.904E3,3.633E3,5.513E3,4.179E3,1.461E3,5.6E2,1.023E3,5.88E2,1.258E3,6.46E2,2.408E3,1.225E3,1.805E3,3.708E3,5.76E2,3.603E3,7.9E2,6.71E2,3.05E2,2.55E2,6.6E2,3.63E2,2.61E2,3.27E2],"tree_param":{"num_deleted":"0","num_feature":"2","num_nodes":"31","size_leaf_vector":"1"}},{"base_weights":[-8.9982885E-4,1.2497314E-1,-5.285751E-1,-3.4956223E-1,3.9608136E-1,-8.5434604E-1,-1.19619E-1,-7.567638E-1,-1.3600458E-1,7.043605E-1,-1.0676369E-2,-6.095748E-1,-1.0022022E0,4.9534157E-1,-1.1885494E0,-8.523231E-2,-6.399041E-2,1.7868977E-2,-7.54245E-2,3.453738E-2,9.307354E-2,-9.668639E-2,1.4241211E-2,-7.9723395E-2,-2.85997E-2,-1.1918546E-1,-8.203929E-2,1.022171E-1,-4.627068E-2,-7.3437564E-2,-1.547711E-1],"categories":[],"categories_nodes":[],"categories_segments":[],"categories_sizes":[],"default_left":[0,0,0,0,0,0,0,0,0,0,0,0,0,0,0,0,0,0,0,0,0,0,0,0,0,0,0,0,0,0,0],"id":25,"left_children":[1,3,5,7,9,11,13,15,17,19,21,23,25,27,29,-1,-1,-1,-1,-1,-1,-1,-1,-1,-1,-1,-1,-1,-1,-1,-1],"loss_changes":[1.2528812E3,1.9594846E3,4.8390796E2,4.8148712E2,1.2154607E3,7.256714E1,1.0602369E3,2.0727783E1,7.07154E2,4.4777686E2,6.1201154E2,4.616382E1,4.2433228E1,5.173145E2,9.494214E1,0E0,0E0,0E0,0E0,0E0,0E0,0E0,0E0,0E0,0E0,0E0,0E0,0E0,0E0,0E0,0E0],"parents":[2147483647,0,0,1,1,2,2,3,3,4,4,5,5,6,6,7,7,8,8,9,9,10,10,11,11,12,12,13,13,14,14],"right_children":[2,4,6,8,10,12,14,16,18,20,22,24,26,28,30,-1,-1,-1,-1,-1,-1,-1,-1,-1,-1,-1,-1,-1,-1,-1,-1],"split_conditions":[2.1E1,1E1,5E0,4E0,1.7E1,2.2E1,7E0,5E0,6E0,1.3E1,2E0,3E0,3E0,2.3E1,2.2E1,-8.523231E-2,-6.399041E-2,1.7868977E-2,-7.54245E-2,3.453738E-2,9.307354E-2,-9.668639E-2,1.4241211E-2,-7.9723395E-2,-2.85997E-2,-1.1918546E-1,-8.203929E-2,1.022171E-1,-4.627068E-2,-7.3437564E-2,-1.547711E-1],"split_indices":[1,1,0,1,1,1,0,0,0,1,0,0,0,1,1,0,0,0,0,0,0,0,0,0,0,0,0,0,0,0,0],"split_type":[0,0,0,0,0,0,0,0,0,0,0,0,0,0,0,0,0,0,0,0,0,0,0,0,0,0,0,0,0,0,0],"sum_hessian":[1.8861E4,1.5229E4,3.632E3,5.537E3,9.692E3,2.021E3,1.611E3,1.904E3,3.633E3,5.513E3,4.179E3,7.63E2,1.258E3,1.023E3,5.88E2,1.044E3,8.6E2,2.408E3,1.225E3,2.133E3,3.38E3,5.76E2,3.603E3,4.82E2,2.81E2,6.13E2,6.45E2,6.6E2,3.63E2,2.61E2,3.27E2],"tree_param":{"num_deleted":"0","num_feature":"2","num_nodes":"31","size_leaf_vector":"1"}},{"base_weights":[-8.437499E-4,-5.7576907E-1,9.29211E-2,-7.0330346E-1,-3.293746E-1,3.748033E-1,-2.91369E-1,-7.9012454E-1,-5.9319127E-1,-1.01316705E-1,-6.689834E-1,8.8278E-2,7.07364E-1,-1.10353E0,-1.6197205E-1,-7.193576E-2,-1.04469456E-1,-5.1996153E-2,-6.4611785E-2,-3.2371365E-2,2.6875129E-2,-4.220211E-2,-7.476609E-2,2.3814803E-2,-5.7659227E-2,1.1298126E-1,3.737895E-2,-2.1342674E-1,-9.89591E-2,3.764128E-3,-9.564278E-2],"categories":[],"categories_nodes":[],"categories_segments":[],"categories_sizes":[],"default_left":[0,0,0,0,0,0,0,0,0,0,0,0,0,0,0,0,0,0,0,0,0,0,0,0,0,0,0,0,0,0,0],"id":26,"left_children":[1,3,5,7,9,11,13,15,17,19,21,23,25,27,29,-1,-1,-1,-1,-1,-1,-1,-1,-1,-1,-1,-1,-1,-1,-1,-1],"loss_changes":[1.0168622E3,8.288428E1,1.7569166E3,1.6184875E1,6.994746E1,8.9144324E2,7.210618E2,1.674121E1,2.6561584E0,4.469467E1,6.7377014E0,5.0104837E2,6.097529E2,1.0863513E2,9.3901166E2,0E0,0E0,0E0,0E0,0E0,0E0,0E0,0E0,0E0,0E0,0E0,0E0,0E0,0E0,0E0,0E0],"parents":[2147483647,0,0,1,1,2,2,3,3,4,4,5,5,6,6,7,7,8,8,9,9,10,10,11,11,12,12,13,13,14,14],"right_children":[2,4,6,8,10,12,14,16,18,20,22,24,26,28,30,-1,-1,-1,-1,-1,-1,-1,-1,-1,-1,-1,-1,-1,-1,-1,-1],"split_conditions":[5E0,3E0,1.8E1,5E0,6E0,1.3E1,2E0,2E0,1E0,4E0,4E0,7E0,5E0,1.9E1,7E0,-7.193576E-2,-1.04469456E-1,-5.1996153E-2,-6.4611785E-2,-3.2371365E-2,2.6875129E-2,-4.220211E-2,-7.476609E-2,2.3814803E-2,-5.7659227E-2,1.1298126E-1,3.737895E-2,-2.1342674E-1,-9.89591E-2,3.764128E-3,-9.564278E-2],"split_indices":[1,1,1,0,0,1,0,1,1,0,1,0,0,1,0,0,0,0,0,0,0,0,0,0,0,0,0,0,0,0,0],"split_type":[0,0,0,0,0,0,0,0,0,0,0,0,0,0,0,0,0,0,0,0,0,0,0,0,0,0,0,0,0,0,0],"sum_hessian":[1.8861E4,2.644E3,1.6217E4,1.741E3,9.03E2,9.355E3,6.862E3,9.7E2,7.71E2,5.41E2,3.62E2,5.026E3,4.329E3,9.42E2,5.92E3,7.62E2,2.08E2,3.28E2,4.43E2,3.38E2,2.03E2,8.9E1,2.73E2,4.102E3,9.24E2,1.909E3,2.42E3,9.2E1,8.5E2,4.732E3,1.188E3],"tree_param":{"num_deleted":"0","num_feature":"2","num_nodes":"31","size_leaf_vector":"1"}},{"base_weights":[-7.9667603E-4,8.193343E-2,-5.9774303E-1,-2.9323053E-1,2.702903E-1,-8.7938577E-1,-2.5556E-1,-6.137778E-1,-1.2511392E-1,5.8898664E-1,-4.828174E-2,-1.0222483E0,-7.422388E-1,2.2572796E-1,-1.2980606E-1,-6.765569E-2,-4.906671E-2,1.4292329E-2,-6.516853E-2,9.261667E-2,4.2464685E-2,-7.898753E-2,7.784344E-3,-9.063773E-2,-1.13591455E-1,-6.3902095E-2,-8.969887E-2,-4.6918616E-2,8.674439E-2],"categories":[],"categories_nodes":[],"categories_segments":[],"categories_sizes":[],"default_left":[0,0,0,0,0,0,0,0,0,0,0,0,0,0,0,0,0,0,0,0,0,0,0,0,0,0,0,0,0],"id":27,"left_children":[1,3,5,7,9,11,13,15,17,19,21,23,25,27,-1,-1,-1,-1,-1,-1,-1,-1,-1,-1,-1,-1,-1,-1,-1],"loss_changes":[9.31557E2,1.1707815E3,2.2104858E2,2.9836227E2,1.1198794E3,2.3909058E1,5.211022E2,1.4391418E1,5.1299854E2,3.0514893E2,5.160864E2,7.05719E0,9.7453E0,3.1746857E2,0E0,0E0,0E0,0E0,0E0,0E0,0E0,0E0,0E0,0E0,0E0,0E0,0E0,0E0,0E0],"parents":[2147483647,0,0,1,1,2,2,3,3,4,4,5,5,6,6,7,7,8,8,9,9,10,10,11,11,12,12,13,13],"right_children":[2,4,6,8,10,12,14,16,18,20,22,24,26,28,-1,-1,-1,-1,-1,-1,-1,-1,-1,-1,-1,-1,-1,-1,-1],"split_conditions":[2.2E1,1E1,5E0,4E0,1.7E1,3E0,7E0,6E0,6E0,4E0,2E0,2.3E1,2.3E1,6E0,-1.2980606E-1,-6.765569E-2,-4.906671E-2,1.4292329E-2,-6.516853E-2,9.261667E-2,4.2464685E-2,-7.898753E-2,7.784344E-3,-9.063773E-2,-1.13591455E-1,-6.3902095E-2,-8.969887E-2,-4.6918616E-2,8.674439E-2],"split_indices":[1,1,0,1,1,0,0,0,0,0,0,1,1,0,0,0,0,0,0,0,0,0,0,0,0,0,0,0,0],"split_type":[0,0,0,0,0,0,0,0,0,0,0,0,0,0,0,0,0,0,0,0,0,0,0,0,0,0,0,0,0],"sum_hessian":[1.8861E4,1.6566E4,2.295E3,5.537E3,1.1029E4,1.258E3,1.037E3,1.904E3,3.633E3,5.513E3,5.516E3,6.13E2,6.45E2,7.1E2,3.27E2,1.258E3,6.46E2,2.408E3,1.225E3,1.805E3,3.708E3,8.01E2,4.715E3,3.08E2,3.05E2,3.9E2,2.55E2,3.41E2,3.69E2],"tree_param":{"num_deleted":"0","num_feature":"2","num_nodes":"29","size_leaf_vector":"1"}},{"base_weights":[-7.462491E-4,7.373382E-2,-5.381638E-1,-2.6393762E-1,2.4326698E-1,-7.9173154E-1,-2.3009056E-1,-5.5246127E-1,-1.12616345E-1,5.3011197E-1,-4.3466143E-2,-9.203561E-1,-6.682529E-1,2.0321135E-1,-1.1686503E-1,-6.0895484E-2,-4.416764E-2,2.1710636E-2,-4.645941E-2,2.4620418E-2,7.091505E-2,9.371183E-3,-6.0647737E-2,-8.160329E-2,-1.0226943E-1,-5.7528246E-2,-8.076403E-2,8.7693945E-2,-4.4146057E-2],"categories":[],"categories_nodes":[],"categories_segments":[],"categories_sizes":[],"default_left":[0,0,0,0,0,0,0,0,0,0,0,0,0,0,0,0,0,0,0,0,0,0,0,0,0,0,0,0,0],"id":28,"left_children":[1,3,5,7,9,11,13,15,17,19,21,23,25,27,-1,-1,-1,-1,-1,-1,-1,-1,-1,-1,-1,-1,-1,-1,-1],"loss_changes":[7.550269E2,9.484671E2,1.7917548E2,2.4172565E2,9.0721814E2,1.938092E1,4.2237097E2,1.1653748E1,4.2184494E2,2.8010437E2,4.261498E2,5.720642E0,7.90683E0,3.091983E2,0E0,0E0,0E0,0E0,0E0,0E0,0E0,0E0,0E0,0E0,0E0,0E0,0E0,0E0,0E0],"parents":[2147483647,0,0,1,1,2,2,3,3,4,4,5,5,6,6,7,7,8,8,9,9,10,10,11,11,12,12,13,13],"right_children":[2,4,6,8,10,12,14,16,18,20,22,24,26,28,-1,-1,-1,-1,-1,-1,-1,-1,-1,-1,-1,-1,-1,-1,-1],"split_conditions":[2.2E1,1E1,5E0,4E0,1.7E1,3E0,7E0,6E0,5E0,1.3E1,7E0,2.3E1,2.3E1,2.3E1,-1.1686503E-1,-6.0895484E-2,-4.416764E-2,2.1710636E-2,-4.645941E-2,2.4620418E-2,7.091505E-2,9.371183E-3,-6.0647737E-2,-8.160329E-2,-1.0226943E-1,-5.7528246E-2,-8.076403E-2,8.7693945E-2,-4.4146057E-2],"split_indices":[1,1,0,1,1,0,0,0,0,1,0,1,1,1,0,0,0,0,0,0,0,0,0,0,0,0,0,0,0],"split_type":[0,0,0,0,0,0,0,0,0,0,0,0,0,0,0,0,0,0,0,0,0,0,0,0,0,0,0,0,0],"sum_hessian":[1.8861E4,1.6566E4,2.295E3,5.537E3,1.1029E4,1.258E3,1.037E3,1.904E3,3.633E3,5.513E3,5.516E3,6.13E2,6.45E2,7.1E2,3.27E2,1.258E3,6.46E2,1.876E3,1.757E3,2.133E3,3.38E3,4.436E3,1.08E3,3.08E2,3.05E2,3.9E2,2.55E2,3.47E2,3.63E2],"tree_param":{"num_deleted":"0","num_feature":"2","num_nodes":"29","size_leaf_vector":"1"}},{"base_weights":[-6.971099E-4,1.06478594E-1,-3.1087372E-1,-2.3756756E-1,3.310979E-1,-1.8086696E-1,-9.6980417E-1,-5.1595646E-1,-1.09784834E-1,4.7711813E-1,5.9798934E-2,-4.781559E-1,1.1202592E0,-1.4015359E-1,-8.142295E-1,-5.82875E-2,-4.3111987E-2,1.0926198E-2,-5.2330833E-2,7.812584E-2,3.288964E-2,-7.237809E-2,2.026412E-2,-3.3169243E-2,-9.842845E-2,1.82944E-1,8.742839E-2,-5.132779E-2,-1.05214134E-1],"categories":[],"categories_nodes":[],"categories_segments":[],"categories_sizes":[],"default_left":[0,0,0,0,0,0,0,0,0,0,0,0,0,0,0,0,0,0,0,0,0,0,0,0,0,0,0,0,0],"id":29,"left_children":[1,3,5,7,9,11,13,15,17,19,21,23,25,-1,27,-1,-1,-1,-1,-1,-1,-1,-1,-1,-1,-1,-1,-1,-1],"loss_changes":[6.2707007E2,1.0834587E3,4.1478784E2,1.9694824E2,3.3598712E2,1.5659575E3,5.2457703E1,9.638336E0,3.4399332E2,2.483153E2,3.3246188E2,2.4392981E2,1.2975458E2,0E0,4.1632324E1,0E0,0E0,0E0,0E0,0E0,0E0,0E0,0E0,0E0,0E0,0E0,0E0,0E0,0E0],"parents":[2147483647,0,0,1,1,2,2,3,3,4,4,5,5,6,6,7,7,8,8,9,9,10,10,11,11,12,12,14,14],"right_children":[2,4,6,8,10,12,14,16,18,20,22,24,26,-1,28,-1,-1,-1,-1,-1,-1,-1,-1,-1,-1,-1,-1,-1,-1],"split_conditions":[2E1,1E1,7E0,3E0,1.7E1,6E0,2.1E1,5E0,6E0,4E0,2E0,2.3E1,2.1E1,-1.4015359E-1,2.2E1,-5.82875E-2,-4.3111987E-2,1.0926198E-2,-5.2330833E-2,7.812584E-2,3.288964E-2,-7.237809E-2,2.026412E-2,-3.3169243E-2,-9.842845E-2,1.82944E-1,8.742839E-2,-5.132779E-2,-1.05214134E-1],"split_indices":[1,1,0,1,1,0,1,0,0,0,0,1,1,0,1,0,0,0,0,0,0,0,0,0,0,0,0,0,0],"split_type":[0,0,0,0,0,0,0,0,0,0,0,0,0,0,0,0,0,0,0,0,0,0,0,0,0,0,0,0,0],"sum_hessian":[1.8861E4,1.4018E4,4.843E3,5.537E3,8.481E3,4.046E3,7.97E2,1.741E3,3.796E3,5.513E3,2.968E3,3.294E3,7.52E2,2.09E2,5.88E2,9.7E2,7.71E2,2.482E3,1.314E3,1.805E3,3.708E3,4.57E2,2.511E3,2.556E3,7.38E2,1.92E2,5.6E2,2.61E2,3.27E2],"tree_param":{"num_deleted":"0","num_feature":"2","num_nodes":"29","size_leaf_vector":"1"}},{"base_weights":[-6.401678E-4,7.952679E-2,-3.3671013E-1,-2.1383633E-1,2.4712871E-1,-5.867608E-1,-2.2852054E-2,-4.644191E-1,-9.881684E-2,4.2942628E-1,6.5937894E-3,-6.9948226E-1,-4.528563E-1,3.8568565E-1,-7.3307234E-1,-4.243446E-2,-5.9234798E-2,1.6550383E-2,-3.7796725E-2,1.7339522E-2,5.9089947E-2,-6.8723015E-2,1.1767309E-2,-6.509494E-2,-8.2265235E-2,-2.4529222E-2,-5.4276373E-2,8.143159E-2,-3.9373815E-2,-4.6214607E-2,-9.4724804E-2],"categories":[],"categories_nodes":[],"categories_segments":[],"categories_sizes":[],"default_left":[0,0,0,0,0,0,0,0,0,0,0,0,0,0,0,0,0,0,0,0,0,0,0,0,0,0,0,0,0,0,0],"id":30,"left_children":[1,3,5,7,9,11,13,15,17,19,21,23,25,27,29,-1,-1,-1,-1,-1,-1,-1,-1,-1,-1,-1,-1,-1,-1,-1,-1],"loss_changes":[5.0820123E2,7.488849E2,2.851059E2,1.5956978E2,4.250249E2,3.0203125E1,4.6800735E2,8.679352E0,2.8022507E2,2.2785815E2,3.2223123E2,6.0161743E0,1.7166138E1,3.4242328E2,3.373944E1,0E0,0E0,0E0,0E0,0E0,0E0,0E0,0E0,0E0,0E0,0E0,0E0,0E0,0E0,0E0,0E0],"parents":[2147483647,0,0,1,1,2,2,3,3,4,4,5,5,6,6,7,7,8,8,9,9,10,10,11,11,12,12,13,13,14,14],"right_children":[2,4,6,8,10,12,14,16,18,20,22,24,26,28,30,-1,-1,-1,-1,-1,-1,-1,-1,-1,-1,-1,-1,-1,-1,-1,-1],"split_conditions":[2.1E1,1E1,5E0,3E0,1.7E1,3E0,7E0,2E0,5E0,1.3E1,2E0,2.3E1,2.2E1,2.3E1,2.2E1,-4.243446E-2,-5.9234798E-2,1.6550383E-2,-3.7796725E-2,1.7339522E-2,5.9089947E-2,-6.8723015E-2,1.1767309E-2,-6.509494E-2,-8.2265235E-2,-2.4529222E-2,-5.4276373E-2,8.143159E-2,-3.9373815E-2,-4.6214607E-2,-9.4724804E-2],"split_indices":[1,1,0,1,1,0,0,1,0,1,0,1,1,1,1,0,0,0,0,0,0,0,0,0,0,0,0,0,0,0,0],"split_type":[0,0,0,0,0,0,0,0,0,0,0,0,0,0,0,0,0,0,0,0,0,0,0,0,0,0,0,0,0,0,0],"sum_hessian":[1.8861E4,1.5229E4,3.632E3,5.537E3,9.692E3,2.021E3,1.611E3,1.741E3,3.796E3,5.513E3,4.179E3,1.095E3,9.26E2,1.023E3,5.88E2,1.329E3,4.12E2,1.95E3,1.846E3,2.133E3,3.38E3,5.76E2,3.603E3,7.9E2,3.05E2,2.81E2,6.45E2,6.6E2,3.63E2,2.61E2,3.27E2],"tree_param":{"num_deleted":"0","num_feature":"2","num_nodes":"31","size_leaf_vector":"1"}},{"base_weights":[-5.987511E-4,8.7511234E-2,-2.5559735E-1,-1.9247484E-1,2.703072E-1,-1.4378092E-1,-8.223462E-1,-1.2035629E-1,-5.45114E-1,3.8649762E-1,5.4428358E-2,-3.993443E-1,9.7471195E-1,-1.2737606E-1,-6.6000426E-1,-4.1259415E-2,2.6756988E-3,-7.016601E-2,5.7295192E-2,6.6083364E-2,2.5281275E-2,3.0266045E-2,-3.253666E-2,-2.7650893E-2,-8.238243E-2,1.6357373E-1,7.4556306E-2,-4.161074E-2,-8.5281216E-2],"categories":[],"categories_nodes":[],"categories_segments":[],"categories_sizes":[],"default_left":[0,0,0,0,0,0,0,0,0,0,0,0,0,0,0,0,0,0,0,0,0,0,0,0,0,0,0,0,0],"id":31,"left_children":[1,3,5,7,9,11,13,15,17,19,21,23,25,-1,27,-1,-1,-1,-1,-1,-1,-1,-1,-1,-1,-1,-1,-1,-1],"loss_changes":[4.2381235E2,7.17549E2,3.0685495E2,1.4077583E2,2.1273346E2,1.1572074E3,5.7639587E1,1.9773154E2,1.6492914E2,2.0205664E2,2.8000775E2,1.7157733E2,1.1283978E2,0E0,2.7342987E1,0E0,0E0,0E0,0E0,0E0,0E0,0E0,0E0,0E0,0E0,0E0,0E0,0E0,0E0],"parents":[2147483647,0,0,1,1,2,2,3,3,4,4,5,5,6,6,7,7,8,8,9,9,10,10,11,11,12,12,14,14],"right_children":[2,4,6,8,10,12,14,16,18,20,22,24,26,-1,28,-1,-1,-1,-1,-1,-1,-1,-1,-1,-1,-1,-1,-1,-1],"split_conditions":[2E1,1E1,7E0,7E0,1.7E1,6E0,2.1E1,4E0,9E0,4E0,6E0,2.3E1,2.1E1,-1.2737606E-1,2.2E1,-4.1259415E-2,2.6756988E-3,-7.016601E-2,5.7295192E-2,6.6083364E-2,2.5281275E-2,3.0266045E-2,-3.253666E-2,-2.7650893E-2,-8.238243E-2,1.6357373E-1,7.4556306E-2,-4.161074E-2,-8.5281216E-2],"split_indices":[1,1,0,0,1,0,1,1,1,0,0,1,1,0,1,0,0,0,0,0,0,0,0,0,0,0,0,0,0],"split_type":[0,0,0,0,0,0,0,0,0,0,0,0,0,0,0,0,0,0,0,0,0,0,0,0,0,0,0,0,0],"sum_hessian":[1.8861E4,1.4018E4,4.843E3,5.537E3,8.481E3,4.046E3,7.97E2,4.598E3,9.39E2,5.513E3,2.968E3,3.294E3,7.52E2,2.09E2,5.88E2,1.539E3,3.059E3,8.24E2,1.15E2,1.805E3,3.708E3,1.795E3,1.173E3,2.556E3,7.38E2,1.92E2,5.6E2,2.61E2,3.27E2],"tree_param":{"num_deleted":"0","num_feature":"2","num_nodes":"29","size_leaf_vector":"1"}},{"base_weights":[-5.437534E-4,7.876256E-2,-2.3006372E-1,-1.7323679E-1,2.4328668E-1,-1.2937121E-1,-7.4043024E-1,-1.0832922E-1,-4.906162E-1,3.2382473E-1,-1.4515663E-2,-3.5944334E-1,8.7755704E-1,-1.1469916E-1,-5.942192E-1,-3.7136145E-2,2.4081867E-3,-6.315791E-2,5.16151E-2,5.6782026E-2,1.9707741E-2,-1.0588588E-1,1.4928773E-2,-2.488689E-2,-7.4155346E-2,1.4730112E-1,6.711396E-2,-3.746555E-2,-7.677908E-2],"categories":[],"categories_nodes":[],"categories_segments":[],"categories_sizes":[],"default_left":[0,0,0,0,0,0,0,0,0,0,0,0,0,0,0,0,0,0,0,0,0,0,0,0,0,0,0,0,0],"id":32,"left_children":[1,3,5,7,9,11,13,15,17,19,21,23,25,-1,27,-1,-1,-1,-1,-1,-1,-1,-1,-1,-1,-1,-1,-1,-1],"loss_changes":[3.4335147E2,5.812695E2,2.4883777E2,1.1403148E2,1.761156E2,9.3786816E2,4.6754547E1,1.6018468E2,1.337278E2,1.9976147E2,3.4571332E2,1.3903445E2,9.156427E1,0E0,2.215915E1,0E0,0E0,0E0,0E0,0E0,0E0,0E0,0E0,0E0,0E0,0E0,0E0,0E0,0E0],"parents":[2147483647,0,0,1,1,2,2,3,3,4,4,5,5,6,6,7,7,8,8,9,9,10,10,11,11,12,12,14,14],"right_children":[2,4,6,8,10,12,14,16,18,20,22,24,26,-1,28,-1,-1,-1,-1,-1,-1,-1,-1,-1,-1,-1,-1,-1,-1],"split_conditions":[2E1,1E1,7E0,7E0,1.8E1,6E0,2.1E1,4E0,9E0,4E0,2E0,2.3E1,2.1E1,-1.1469916E-1,2.2E1,-3.7136145E-2,2.4081867E-3,-6.315791E-2,5.16151E-2,5.6782026E-2,1.9707741E-2,-1.0588588E-1,1.4928773E-2,-2.488689E-2,-7.4155346E-2,1.4730112E-1,6.711396E-2,-3.746555E-2,-7.677908E-2],"split_indices":[1,1,0,0,1,0,1,1,1,0,0,1,1,0,1,0,0,0,0,0,0,0,0,0,0,0,0,0,0],"split_type":[0,0,0,0,0,0,0,0,0,0,0,0,0,0,0,0,0,0,0,0,0,0,0,0,0,0,0,0,0],"sum_hessian":[1.8861E4,1.4018E4,4.843E3,5.537E3,8.481E3,4.046E3,7.97E2,4.598E3,9.39E2,6.462E3,2.019E3,3.294E3,7.52E2,2.09E2,5.88E2,1.539E3,3.059E3,8.24E2,1.15E2,2.208E3,4.254E3,2.73E2,1.746E3,2.556E3,7.38E2,1.92E2,5.6E2,2.61E2,3.27E2],"tree_param":{"num_deleted":"0","num_feature":"2","num_nodes":"29","size_leaf_vector":"1"}},{"base_weights":[-4.9886503E-4,4.4731587E-2,-3.2686317E-1,-2.8339732E-1,1.0706414E-1,-4.4530585E-1,-5.450277E-2,-8.001589E-3,-3.3088E-1,1.7783579E-1,-1.8027885E-1,-2.5430176E-1,-6.674983E-1,5.1010877E-1,-6.91246E-1,-2.9042644E-2,1.3578738E-1,-5.9233606E-2,-2.1911407E-2,-8.007105E-3,2.2590913E-2,-1.7899095E-1,-9.331936E-3,-4.699274E-2,6.662875E-2,-5.101622E-2,-1.1568731E-1,5.8936924E-2,4.2853188E-2,-6.436213E-2,-7.663859E-2],"categories":[],"categories_nodes":[],"categories_segments":[],"categories_sizes":[],"default_left":[0,0,0,0,0,0,0,0,0,0,0,0,0,0,0,0,0,0,0,0,0,0,0,0,0,0,0,0,0,0,0],"id":33,"left_children":[1,3,5,7,9,11,13,15,17,19,21,23,25,27,29,-1,-1,-1,-1,-1,-1,-1,-1,-1,-1,-1,-1,-1,-1,-1,-1],"loss_changes":[2.78448E2,3.3887708E2,7.404262E1,3.4584763E1,2.8316653E2,6.7733765E1,2.5093285E2,1.5083966E2,6.579477E1,1.3853351E2,3.8503775E2,1.7142238E2,5.631009E1,2.1397858E0,6.8048096E-1,0E0,0E0,0E0,0E0,0E0,0E0,0E0,0E0,0E0,0E0,0E0,0E0,0E0,0E0,0E0,0E0],"parents":[2147483647,0,0,1,1,2,2,3,3,4,4,5,5,6,6,7,7,8,8,9,9,10,10,11,11,12,12,13,13,14,14],"right_children":[2,4,6,8,10,12,14,16,18,20,22,24,26,28,30,-1,-1,-1,-1,-1,-1,-1,-1,-1,-1,-1,-1,-1,-1,-1,-1],"split_conditions":[2.2E1,5E0,6E0,2E0,7E0,2.3E1,7E0,4E0,4E0,2E0,7E0,5E0,5E0,2.3E1,2.3E1,-2.9042644E-2,1.3578738E-1,-5.9233606E-2,-2.1911407E-2,-8.007105E-3,2.2590913E-2,-1.7899095E-1,-9.331936E-3,-4.699274E-2,6.662875E-2,-5.101622E-2,-1.1568731E-1,5.8936924E-2,4.2853188E-2,-6.436213E-2,-7.663859E-2],"split_indices":[1,1,0,0,0,1,0,1,0,0,1,0,0,1,1,0,0,0,0,0,0,0,0,0,0,0,0,0,0,0,0],"split_type":[0,0,0,0,0,0,0,0,0,0,0,0,0,0,0,0,0,0,0,0,0,0,0,0,0,0,0,0,0,0,0],"sum_hessian":[1.8861E4,1.6566E4,2.295E3,2.644E3,1.3922E4,1.599E3,6.96E2,3.89E2,2.255E3,1.1171E4,2.751E3,8.61E2,7.38E2,3.69E2,3.27E2,3.23E2,6.6E1,6.74E2,1.581E3,1.755E3,9.416E3,1.4E2,2.611E3,6.98E2,1.63E2,5.6E2,1.78E2,1.84E2,1.85E2,2.06E2,1.21E2],"tree_param":{"num_deleted":"0","num_feature":"2","num_nodes":"31","size_leaf_vector":"1"}},{"base_weights":[-4.6651156E-4,6.787001E-2,-1.9823886E-1,-1.451705E-1,2.0695873E-1,-1.12473615E-1,-6.329428E-1,-2.6027385E-2,-2.7804744E-1,3.0366036E-1,2.729561E-2,-3.1037667E-1,7.536659E-1,-1.02355115E-1,-4.9260205E-1,-2.8077995E-2,2.1025768E-2,-4.6314143E-2,4.904354E-3,1.24359615E-2,4.9739357E-2,2.513071E-2,-3.1542324E-2,-2.2626963E-2,-6.0097396E-2,1.3040002E-1,5.629918E-2,-3.280374E-2,-6.2255125E-2],"categories":[],"categories_nodes":[],"categories_segments":[],"categories_sizes":[],"default_left":[0,0,0,0,0,0,0,0,0,0,0,0,0,0,0,0,0,0,0,0,0,0,0,0,0,0,0,0,0],"id":34,"left_children":[1,3,5,7,9,11,13,15,17,19,21,23,25,-1,27,-1,-1,-1,-1,-1,-1,-1,-1,-1,-1,-1,-1,-1,-1],"loss_changes":[2.5493481E2,4.1543448E2,1.8052519E2,8.7666916E1,1.4735562E2,6.9393695E2,4.3240784E1,1.7588638E2,1.5852316E2,1.9147519E2,2.2801817E2,8.039807E1,7.8281555E1,0E0,1.2391571E1,0E0,0E0,0E0,0E0,0E0,0E0,0E0,0E0,0E0,0E0,0E0,0E0,0E0,0E0],"parents":[2147483647,0,0,1,1,2,2,3,3,4,4,5,5,6,6,7,7,8,8,9,9,10,10,11,11,12,12,14,14],"right_children":[2,4,6,8,10,12,14,16,18,20,22,24,26,-1,28,-1,-1,-1,-1,-1,-1,-1,-1,-1,-1,-1,-1,-1,-1],"split_conditions":[2E1,1E1,7E0,5E0,1.7E1,6E0,2.1E1,5E0,7E0,1.4E1,6E0,2.3E1,2.1E1,-1.02355115E-1,2.2E1,-2.8077995E-2,2.1025768E-2,-4.6314143E-2,4.904354E-3,1.24359615E-2,4.9739357E-2,2.513071E-2,-3.1542324E-2,-2.2626963E-2,-6.0097396E-2,1.3040002E-1,5.629918E-2,-3.280374E-2,-6.2255125E-2],"split_indices":[1,1,0,0,1,0,1,1,1,1,0,1,1,0,1,0,0,0,0,0,0,0,0,0,0,0,0,0,0],"split_type":[0,0,0,0,0,0,0,0,0,0,0,0,0,0,0,0,0,0,0,0,0,0,0,0,0,0,0,0,0],"sum_hessian":[1.8861E4,1.4018E4,4.843E3,5.537E3,8.481E3,4.046E3,7.97E2,2.92E3,2.617E3,5.513E3,2.968E3,3.294E3,7.52E2,2.09E2,5.88E2,1.405E3,1.515E3,1.671E3,9.46E2,2.864E3,2.649E3,1.795E3,1.173E3,2.556E3,7.38E2,1.92E2,5.6E2,2.61E2,3.27E2],"tree_param":{"num_deleted":"0","num_feature":"2","num_nodes":"29","size_leaf_vector":"1"}},{"base_weights":[-4.2455696E-4,6.904456E-2,-1.5857323E-1,-7.756019E-2,2.7591285E-1,-3.1770346E-1,2.3357362E-2,-1.0641113E-2,-3.7036473E-1,5.447829E-1,5.0321534E-2,-5.2920926E-1,-2.3651966E-1,3.270099E-1,-5.08447E-1,-2.1393025E-2,9.553955E-3,-2.9031465E-2,-1.2641707E-1,7.419376E-2,2.613825E-2,-8.073132E-3,2.4802526E-2,-6.373844E-2,-4.6915498E-2,2.73254E-4,-3.582606E-2,4.9995605E-2,-3.1435948E-2,-2.3319783E-2,-5.698961E-2],"categories":[],"categories_nodes":[],"categories_segments":[],"categories_sizes":[],"default_left":[0,0,0,0,0,0,0,0,0,0,0,0,0,0,0,0,0,0,0,0,0,0,0,0,0,0,0,0,0,0,0],"id":35,"left_children":[1,3,5,7,9,11,13,15,17,19,21,23,25,27,29,-1,-1,-1,-1,-1,-1,-1,-1,-1,-1,-1,-1,-1,-1,-1,-1],"loss_changes":[2.0723734E2,3.974985E2,1.6667633E2,1.503032E2,3.2969174E2,5.2606476E1,4.3407306E2,1.3482112E2,1.01733765E2,1.3837292E2,7.663481E1,5.2294006E0,6.469156E1,1.8994534E2,1.6391891E1,0E0,0E0,0E0,0E0,0E0,0E0,0E0,0E0,0E0,0E0,0E0,0E0,0E0,0E0,0E0,0E0],"parents":[2147483647,0,0,1,1,2,2,3,3,4,4,5,5,6,6,7,7,8,8,9,9,10,10,11,11,12,12,13,13,14,14],"right_children":[2,4,6,8,10,12,14,16,18,20,22,24,26,28,30,-1,-1,-1,-1,-1,-1,-1,-1,-1,-1,-1,-1,-1,-1,-1,-1],"split_conditions":[1.9E1,1.3E1,5E0,7E0,5E0,2E0,7E0,5E0,1.2E1,1.7E1,7E0,2.1E1,2.1E1,2.3E1,2E1,-2.1393025E-2,9.553955E-3,-2.9031465E-2,-1.2641707E-1,7.419376E-2,2.613825E-2,-8.073132E-3,2.4802526E-2,-6.373844E-2,-4.6915498E-2,2.73254E-4,-3.582606E-2,4.9995605E-2,-3.1435948E-2,-2.3319783E-2,-5.698961E-2],"split_indices":[1,1,0,0,0,0,0,1,1,1,0,1,1,1,1,0,0,0,0,0,0,0,0,0,0,0,0,0,0,0,0],"split_type":[0,0,0,0,0,0,0,0,0,0,0,0,0,0,0,0,0,0,0,0,0,0,0,0,0,0,0,0,0,0,0],"sum_hessian":[1.8861E4,1.3105E4,5.756E3,7.67E3,5.435E3,3.07E3,2.686E3,6.244E3,1.426E3,2.479E3,2.956E3,8.5E2,2.22E3,1.71E3,9.76E2,2.142E3,4.102E3,1.31E3,1.16E2,1.461E3,1.018E3,1.778E3,1.178E3,3E2,5.5E2,7.49E2,1.471E3,1.347E3,3.63E2,1.79E2,7.97E2],"tree_param":{"num_deleted":"0","num_feature":"2","num_nodes":"31","size_leaf_vector":"1"}},{"base_weights":[-3.9577234E-4,6.2136307E-2,-1.4275204E-1,-1.2170244E-1,1.9663715E-1,-3.2260907E-1,-9.974138E-3,-1.809262E-2,-2.3725729E-1,3.253216E-1,8.848689E-2,-4.7641835E-1,-2.4034306E-1,1.7719866E-1,-4.5768434E-1,7.267111E-3,-6.982403E-2,-3.9794646E-2,4.6702097E-3,-6.391648E-3,5.6500863E-2,3.986673E-2,5.783063E-4,-5.738573E-2,-4.223248E-2,1.5257251E-3,-3.809505E-2,-1.8309429E-3,4.7996834E-2,-2.1000711E-2,-5.1297784E-2],"categories":[],"categories_nodes":[],"categories_segments":[],"categories_sizes":[],"default_left":[0,0,0,0,0,0,0,0,0,0,0,0,0,0,0,0,0,0,0,0,0,0,0,0,0,0,0,0,0,0,0],"id":36,"left_children":[1,3,5,7,9,11,13,15,17,19,21,23,25,27,29,-1,-1,-1,-1,-1,-1,-1,-1,-1,-1,-1,-1,-1,-1,-1,-1],"loss_changes":[1.6791525E2,3.24089E2,1.3747993E2,6.630005E1,1.05310974E2,3.0822739E1,2.7770776E2,1.8037207E2,1.19475815E2,3.224647E2,1.0553459E2,4.2431183E0,5.7329002E1,1.3834499E2,1.3272232E1,0E0,0E0,0E0,0E0,0E0,0E0,0E0,0E0,0E0,0E0,0E0,0E0,0E0,0E0,0E0,0E0],"parents":[2147483647,0,0,1,1,2,2,3,3,4,4,5,5,6,6,7,7,8,8,9,9,10,10,11,11,12,12,13,13,14,14],"right_children":[2,4,6,8,10,12,14,16,18,20,22,24,26,28,30,-1,-1,-1,-1,-1,-1,-1,-1,-1,-1,-1,-1,-1,-1,-1,-1],"split_conditions":[1.9E1,1E1,4E0,5E0,5E0,2E0,7E0,9E0,7E0,1.4E1,1.2E1,2.1E1,2.1E1,6E0,2E1,7.267111E-3,-6.982403E-2,-3.9794646E-2,4.6702097E-3,-6.391648E-3,5.6500863E-2,3.986673E-2,5.783063E-4,-5.738573E-2,-4.223248E-2,1.5257251E-3,-3.809505E-2,-1.8309429E-3,4.7996834E-2,-2.1000711E-2,-5.1297784E-2],"split_indices":[1,1,0,0,0,0,0,1,1,1,1,1,1,0,1,0,0,0,0,0,0,0,0,0,0,0,0,0,0,0,0],"split_type":[0,0,0,0,0,0,0,0,0,0,0,0,0,0,0,0,0,0,0,0,0,0,0,0,0,0,0,0,0,0,0],"sum_hessian":[1.8861E4,1.3105E4,5.756E3,5.537E3,7.568E3,2.444E3,3.312E3,2.92E3,2.617E3,3.455E3,4.113E3,8.5E2,1.594E3,2.336E3,9.76E2,2.577E3,3.43E2,1.671E3,9.46E2,1.317E3,2.138E3,8.65E2,3.248E3,3E2,5.5E2,5.66E2,1.028E3,1.42E3,9.16E2,1.79E2,7.97E2],"tree_param":{"num_deleted":"0","num_feature":"2","num_nodes":"31","size_leaf_vector":"1"}},{"base_weights":[-3.651906E-4,6.6091485E-2,-1.1656506E-1,-6.475688E-2,2.978863E-1,-3.3869803E-1,3.669272E-2,-4.8420085E-3,-3.2691777E-1,5.613638E-1,8.989793E-2,-5.585103E-1,-2.2707346E-1,2.1854912E-1,-4.0291363E-1,-2.4765842E-2,6.8307444E-3,-2.5415793E-2,-1.1394069E-1,2.8308055E-3,6.7719795E-2,-8.345738E-3,3.5064466E-2,-1.738567E-1,-4.2889368E-2,-8.3558215E-3,-3.4289233E-2,3.0895805E-2,-2.615337E-2,-2.8212363E-2,-4.617442E-2],"categories":[],"categories_nodes":[],"categories_segments":[],"categories_sizes":[],"default_left":[0,0,0,0,0,0,0,0,0,0,0,0,0,0,0,0,0,0,0,0,0,0,0,0,0,0,0,0,0,0,0],"id":37,"left_children":[1,3,5,7,9,11,13,15,17,19,21,23,25,27,29,-1,-1,-1,-1,-1,-1,-1,-1,-1,-1,-1,-1,-1,-1,-1,-1],"loss_changes":[1.4566492E2,3.6397897E2,2.3365369E2,1.2048937E2,2.3723468E2,6.862433E1,3.2482556E2,1.1093991E2,8.406979E1,1.1791571E2,1.09462906E2,1.434909E2,3.088784E1,1.2482324E2,8.318939E0,0E0,0E0,0E0,0E0,0E0,0E0,0E0,0E0,0E0,0E0,0E0,0E0,0E0,0E0,0E0,0E0],"parents":[2147483647,0,0,1,1,2,2,3,3,4,4,5,5,6,6,7,7,8,8,9,9,10,10,11,11,12,12,13,13,14,14],"right_children":[2,4,6,8,10,12,14,16,18,20,22,24,26,28,30,-1,-1,-1,-1,-1,-1,-1,-1,-1,-1,-1,-1,-1,-1,-1,-1],"split_conditions":[1.8E1,1.3E1,4E0,7E0,5E0,2E0,7E0,3E0,1.2E1,1.4E1,7E0,1.9E1,2.1E1,2.3E1,2E1,-2.4765842E-2,6.8307444E-3,-2.5415793E-2,-1.1394069E-1,2.8308055E-3,6.7719795E-2,-8.345738E-3,3.5064466E-2,-1.738567E-1,-4.2889368E-2,-8.3558215E-3,-3.4289233E-2,3.0895805E-2,-2.615337E-2,-2.8212363E-2,-4.617442E-2],"split_indices":[1,1,0,0,0,0,0,1,1,1,0,1,1,1,1,0,0,0,0,0,0,0,0,0,0,0,0,0,0,0,0],"split_type":[0,0,0,0,0,0,0,0,0,0,0,0,0,0,0,0,0,0,0,0,0,0,0,0,0,0,0,0,0,0,0],"sum_hessian":[1.8861E4,1.1999E4,6.862E3,7.67E3,4.329E3,2.801E3,4.061E3,6.244E3,1.426E3,1.909E3,2.42E3,9.42E2,1.859E3,2.873E3,1.188E3,1.445E3,4.799E3,1.31E3,1.16E2,3.41E2,1.568E3,1.454E3,9.66E2,9.2E1,8.5E2,8.31E2,1.028E3,2.418E3,4.55E2,3.91E2,7.97E2],"tree_param":{"num_deleted":"0","num_feature":"2","num_nodes":"31","size_leaf_vector":"1"}},{"base_weights":[-3.4920563E-4,5.9477467E-2,-1.0495648E-1,-5.8301494E-2,2.6812017E-1,-3.0492064E-1,3.3006247E-2,-4.360421E-3,-2.943237E-1,5.052639E-1,8.091958E-2,-5.02889E-1,-2.043889E-1,1.9669579E-1,-3.6268488E-1,-2.2290977E-2,6.147848E-3,-2.2876164E-2,-1.0264397E-1,2.5485826E-3,6.0952067E-2,-7.5116563E-3,3.1561624E-2,-1.5665796E-1,-3.8605455E-2,-7.5212135E-3,-3.086364E-2,2.7807489E-2,-2.354375E-2,-2.5398305E-2,-4.1562777E-2],"categories":[],"categories_nodes":[],"categories_segments":[],"categories_sizes":[],"default_left":[0,0,0,0,0,0,0,0,0,0,0,0,0,0,0,0,0,0,0,0,0,0,0,0,0,0,0,0,0,0,0],"id":38,"left_children":[1,3,5,7,9,11,13,15,17,19,21,23,25,27,29,-1,-1,-1,-1,-1,-1,-1,-1,-1,-1,-1,-1,-1,-1,-1,-1],"loss_changes":[1.1805039E2,2.9490027E2,1.8934378E2,9.766045E1,1.9218274E2,5.5662933E1,2.6316907E2,8.9873314E1,6.825983E1,9.552292E1,8.8683525E1,1.1658719E2,2.5024208E1,1.0113436E2,6.7371216E0,0E0,0E0,0E0,0E0,0E0,0E0,0E0,0E0,0E0,0E0,0E0,0E0,0E0,0E0,0E0,0E0],"parents":[2147483647,0,0,1,1,2,2,3,3,4,4,5,5,6,6,7,7,8,8,9,9,10,10,11,11,12,12,13,13,14,14],"right_children":[2,4,6,8,10,12,14,16,18,20,22,24,26,28,30,-1,-1,-1,-1,-1,-1,-1,-1,-1,-1,-1,-1,-1,-1,-1,-1],"split_conditions":[1.8E1,1.3E1,4E0,7E0,5E0,2E0,7E0,3E0,1.2E1,1.4E1,7E0,1.9E1,2.1E1,2.3E1,2E1,-2.2290977E-2,6.147848E-3,-2.2876164E-2,-1.0264397E-1,2.5485826E-3,6.0952067E-2,-7.5116563E-3,3.1561624E-2,-1.5665796E-1,-3.8605455E-2,-7.5212135E-3,-3.086364E-2,2.7807489E-2,-2.354375E-2,-2.5398305E-2,-4.1562777E-2],"split_indices":[1,1,0,0,0,0,0,1,1,1,0,1,1,1,1,0,0,0,0,0,0,0,0,0,0,0,0,0,0,0,0],"split_type":[0,0,0,0,0,0,0,0,0,0,0,0,0,0,0,0,0,0,0,0,0,0,0,0,0,0,0,0,0,0,0],"sum_hessian":[1.8861E4,1.1999E4,6.862E3,7.67E3,4.329E3,2.801E3,4.061E3,6.244E3,1.426E3,1.909E3,2.42E3,9.42E2,1.859E3,2.873E3,1.188E3,1.445E3,4.799E3,1.31E3,1.16E2,3.41E2,1.568E3,1.454E3,9.66E2,9.2E1,8.5E2,8.31E2,1.028E3,2.418E3,4.55E2,3.91E2,7.97E2],"tree_param":{"num_deleted":"0","num_feature":"2","num_nodes":"31","size_leaf_vector":"1"}},{"base_weights":[-3.326366E-4,5.3525522E-2,-9.4503924E-2,-5.24895E-2,2.4132869E-1,-2.7451187E-1,2.969026E-2,-3.9266045E-3,-2.649792E-1,4.547715E-1,7.283753E-2,-4.52807E-1,-1.8397059E-1,1.7702779E-1,-3.264727E-1,-1.5611728E-2,7.5563653E-3,-1.4514866E-2,-6.0075678E-2,2.2945057E-3,5.4860827E-2,-6.7610587E-3,2.8408796E-2,-1.4116059E-1,-3.474943E-2,-6.7699845E-3,-2.7780274E-2,2.5027907E-2,-2.1194564E-2,-4.0301997E-2,-2.4781162E-2],"categories":[],"categories_nodes":[],"categories_segments":[],"categories_sizes":[],"default_left":[0,0,0,0,0,0,0,0,0,0,0,0,0,0,0,0,0,0,0,0,0,0,0,0,0,0,0,0,0,0,0],"id":39,"left_children":[1,3,5,7,9,11,13,15,17,19,21,23,25,27,29,-1,-1,-1,-1,-1,-1,-1,-1,-1,-1,-1,-1,-1,-1,-1,-1],"loss_changes":[9.567109E1,2.3893217E2,1.5343698E2,7.9156906E1,1.5568764E2,4.5149582E1,2.13216E2,7.5561775E1,5.733013E1,7.7382904E1,7.184961E1,9.472769E1,2.0273666E1,8.194136E1,7.0594482E0,0E0,0E0,0E0,0E0,0E0,0E0,0E0,0E0,0E0,0E0,0E0,0E0,0E0,0E0,0E0,0E0],"parents":[2147483647,0,0,1,1,2,2,3,3,4,4,5,5,6,6,7,7,8,8,9,9,10,10,11,11,12,12,13,13,14,14],"right_children":[2,4,6,8,10,12,14,16,18,20,22,24,26,28,30,-1,-1,-1,-1,-1,-1,-1,-1,-1,-1,-1,-1,-1,-1,-1,-1],"split_conditions":[1.8E1,1.3E1,4E0,7E0,5E0,2E0,7E0,5E0,1.1E1,1.4E1,7E0,1.9E1,2.1E1,2.3E1,2.1E1,-1.5611728E-2,7.5563653E-3,-1.4514866E-2,-6.0075678E-2,2.2945057E-3,5.4860827E-2,-6.7610587E-3,2.8408796E-2,-1.4116059E-1,-3.474943E-2,-6.7699845E-3,-2.7780274E-2,2.5027907E-2,-2.1194564E-2,-4.0301997E-2,-2.4781162E-2],"split_indices":[1,1,0,0,0,0,0,1,1,1,0,1,1,1,1,0,0,0,0,0,0,0,0,0,0,0,0,0,0,0,0],"split_type":[0,0,0,0,0,0,0,0,0,0,0,0,0,0,0,0,0,0,0,0,0,0,0,0,0,0,0,0,0,0,0],"sum_hessian":[1.8861E4,1.1999E4,6.862E3,7.67E3,4.329E3,2.801E3,4.061E3,6.244E3,1.426E3,1.909E3,2.42E3,9.42E2,1.859E3,2.873E3,1.188E3,2.142E3,4.102E3,1.052E3,3.74E2,3.41E2,1.568E3,1.454E3,9.66E2,9.2E1,8.5E2,8.31E2,1.028E3,2.418E3,4.55E2,6E2,5.88E2],"tree_param":{"num_deleted":"0","num_feature":"2","num_nodes":"31","size_leaf_vector":"1"}},{"base_weights":[-3.1407602E-4,4.817256E-2,-8.509322E-2,-9.132419E-2,1.6769674E-1,-2.4713585E-1,2.6706023E-2,-5.7521537E-3,-1.867652E-1,5.2862036E-1,1.407271E-1,-4.077129E-1,-1.6559215E-1,1.5932609E-1,-2.9388002E-1,8.009552E-3,-6.490939E-2,-2.6011059E-2,2.8458728E-2,-3.6192752E-2,7.559997E-2,-5.5791414E-3,2.1721428E-2,-1.271963E-1,-3.127858E-2,-6.0938187E-3,-2.5004938E-2,2.2526124E-2,-1.9079765E-2,-1.8845012E-2,-3.453019E-2],"categories":[],"categories_nodes":[],"categories_segments":[],"categories_sizes":[],"default_left":[0,0,0,0,0,0,0,0,0,0,0,0,0,0,0,0,0,0,0,0,0,0,0,0,0,0,0,0,0,0,0],"id":40,"left_children":[1,3,5,7,9,11,13,15,17,19,21,23,25,27,29,-1,-1,-1,-1,-1,-1,-1,-1,-1,-1,-1,-1,-1,-1,-1,-1],"loss_changes":[7.7539276E1,2.0009413E2,1.2433838E2,4.522823E1,6.2836334E1,3.6621994E1,1.727474E2,1.6137703E2,9.0582275E1,9.119258E1,9.042446E1,7.696658E1,1.6424908E1,6.639058E1,6.380974E0,0E0,0E0,0E0,0E0,0E0,0E0,0E0,0E0,0E0,0E0,0E0,0E0,0E0,0E0,0E0,0E0],"parents":[2147483647,0,0,1,1,2,2,3,3,4,4,5,5,6,6,7,7,8,8,9,9,10,10,11,11,12,12,13,13,14,14],"right_children":[2,4,6,8,10,12,14,16,18,20,22,24,26,28,30,-1,-1,-1,-1,-1,-1,-1,-1,-1,-1,-1,-1,-1,-1,-1,-1],"split_conditions":[1.8E1,1E1,4E0,5E0,1.1E1,2E0,7E0,9E0,9E0,2E0,1.3E1,1.9E1,2.1E1,2.3E1,2E1,8.009552E-3,-6.490939E-2,-2.6011059E-2,2.8458728E-2,-3.6192752E-2,7.559997E-2,-5.5791414E-3,2.1721428E-2,-1.271963E-1,-3.127858E-2,-6.0938187E-3,-2.5004938E-2,2.2526124E-2,-1.9079765E-2,-1.8845012E-2,-3.453019E-2],"split_indices":[1,1,0,0,1,0,0,1,1,0,1,1,1,1,1,0,0,0,0,0,0,0,0,0,0,0,0,0,0,0,0],"split_type":[0,0,0,0,0,0,0,0,0,0,0,0,0,0,0,0,0,0,0,0,0,0,0,0,0,0,0,0,0,0,0],"sum_hessian":[1.8861E4,1.1999E4,6.862E3,5.537E3,6.462E3,2.801E3,4.061E3,2.92E3,2.617E3,4.48E2,6.014E3,9.42E2,1.859E3,2.873E3,1.188E3,2.577E3,3.43E2,2.265E3,3.52E2,9.1E1,3.57E2,1.685E3,4.329E3,9.2E1,8.5E2,8.31E2,1.028E3,2.418E3,4.55E2,3.91E2,7.97E2],"tree_param":{"num_deleted":"0","num_feature":"2","num_nodes":"31","size_leaf_vector":"1"}},{"base_weights":[-2.9512536E-4,4.9441416E-2,-7.065332E-2,-4.252915E-2,2.580947E-1,-3.580018E-1,-2.2206955E-2,3.9103068E-4,-2.3033153E-1,4.6190554E-1,1.0276682E-1,-5.916032E-1,-2.8154397E-1,4.3616805E-2,-2.6898354E-1,-1.5519156E-2,7.89131E-3,-1.739987E-2,-8.595794E-2,-1.00012556E-4,6.0271896E-2,-7.942942E-3,3.8834628E-2,-3.0964116E-2,-1.1461343E-1,-3.6962982E-2,-2.3291355E-2,-9.250768E-3,1.3201393E-2,-3.263939E-2,-1.886007E-2],"categories":[],"categories_nodes":[],"categories_segments":[],"categories_sizes":[],"default_left":[0,0,0,0,0,0,0,0,0,0,0,0,0,0,0,0,0,0,0,0,0,0,0,0,0,0,0,0,0,0,0],"id":41,"left_children":[1,3,5,7,9,11,13,15,17,19,21,23,25,27,29,-1,-1,-1,-1,-1,-1,-1,-1,-1,-1,-1,-1,-1,-1,-1,-1],"loss_changes":[6.600867E1,2.1207922E2,1.0874281E2,6.1832275E1,1.0698656E2,1.9962402E1,1.0861753E2,7.6305336E1,5.043374E1,9.5298615E1,9.9931335E1,4.295591E1,3.5592957E0,6.353449E1,6.4360886E0,0E0,0E0,0E0,0E0,0E0,0E0,0E0,0E0,0E0,0E0,0E0,0E0,0E0,0E0,0E0,0E0],"parents":[2147483647,0,0,1,1,2,2,3,3,4,4,5,5,6,6,7,7,8,8,9,9,10,10,11,11,12,12,13,13,14,14],"right_children":[2,4,6,8,10,12,14,16,18,20,22,24,26,28,30,-1,-1,-1,-1,-1,-1,-1,-1,-1,-1,-1,-1,-1,-1,-1,-1],"split_conditions":[1.7E1,1.3E1,2E0,7E0,5E0,1.9E1,7E0,3E0,1.2E1,1.4E1,7E0,1.8E1,2.1E1,4E0,2.1E1,-1.5519156E-2,7.89131E-3,-1.739987E-2,-8.595794E-2,-1.00012556E-4,6.0271896E-2,-7.942942E-3,3.8834628E-2,-3.0964116E-2,-1.1461343E-1,-3.6962982E-2,-2.3291355E-2,-9.250768E-3,1.3201393E-2,-3.263939E-2,-1.886007E-2],"split_indices":[1,1,0,0,0,1,0,0,1,1,0,1,1,0,1,0,0,0,0,0,0,0,0,0,0,0,0,0,0,0,0],"split_type":[0,0,0,0,0,0,0,0,0,0,0,0,0,0,0,0,0,0,0,0,0,0,0,0,0,0,0,0,0,0,0],"sum_hessian":[1.8861E4,1.105E4,7.811E3,7.67E3,3.38E3,1.126E3,6.685E3,6.244E3,1.426E3,1.461E3,1.919E3,2.76E2,8.5E2,5.278E3,1.407E3,2.094E3,4.15E3,1.31E3,1.16E2,3.41E2,1.12E3,1.172E3,7.47E2,1.84E2,9.2E1,3E2,5.5E2,2.078E3,3.2E3,8.19E2,5.88E2],"tree_param":{"num_deleted":"0","num_feature":"2","num_nodes":"31","size_leaf_vector":"1"}},{"base_weights":[-2.8008895E-4,2.0800348E-2,-1.523878E-1,-7.913658E-2,7.097532E-2,-2.3501635E-1,3.7508987E-2,-4.455605E-4,-1.6690485E-1,1.686577E-1,-2.6666822E-2,-1.2777655E-1,-3.5978726E-1,3.2519254E-1,-2.8712645E-1,7.6851025E-3,-5.7971932E-2,-2.3280205E-2,2.565794E-2,4.8283696E-2,1.4077867E-2,-3.6489915E-2,3.0858414E-3,-2.645488E-2,4.559527E-2,-1.9550588E-2,-8.72648E-2,2.5848016E-2,3.897979E-2,-2.4474496E-2,-3.5668258E-2],"categories":[],"categories_nodes":[],"categories_segments":[],"categories_sizes":[],"default_left":[0,0,0,0,0,0,0,0,0,0,0,0,0,0,0,0,0,0,0,0,0,0,0,0,0,0,0,0,0,0,0],"id":42,"left_children":[1,3,5,7,9,11,13,15,17,19,21,23,25,27,29,-1,-1,-1,-1,-1,-1,-1,-1,-1,-1,-1,-1,-1,-1,-1,-1],"loss_changes":[6.0484116E1,8.3078064E1,3.603511E1,3.824853E1,1.05207726E2,2.1362679E1,6.518779E1,1.308349E2,7.311876E1,4.8229218E1,1.0735494E2,6.894096E1,6.2092705E1,1.4939346E0,8.796139E-1,0E0,0E0,0E0,0E0,0E0,0E0,0E0,0E0,0E0,0E0,0E0,0E0,0E0,0E0,0E0,0E0],"parents":[2147483647,0,0,1,1,2,2,3,3,4,4,5,5,6,6,7,7,8,8,9,9,10,10,11,11,12,12,13,13,14,14],"right_children":[2,4,6,8,10,12,14,16,18,20,22,24,26,28,30,-1,-1,-1,-1,-1,-1,-1,-1,-1,-1,-1,-1,-1,-1,-1,-1],"split_conditions":[2.2E1,1E1,6E0,5E0,1.7E1,2.3E1,7E0,9E0,9E0,1.1E1,2E0,5E0,5E0,2.3E1,2.3E1,7.6851025E-3,-5.7971932E-2,-2.3280205E-2,2.565794E-2,4.8283696E-2,1.4077867E-2,-3.6489915E-2,3.0858414E-3,-2.645488E-2,4.559527E-2,-1.9550588E-2,-8.72648E-2,2.5848016E-2,3.897979E-2,-2.4474496E-2,-3.5668258E-2],"split_indices":[1,1,0,0,1,1,0,1,1,1,0,0,0,1,1,0,0,0,0,0,0,0,0,0,0,0,0,0,0,0,0],"split_type":[0,0,0,0,0,0,0,0,0,0,0,0,0,0,0,0,0,0,0,0,0,0,0,0,0,0,0,0,0,0,0],"sum_hessian":[1.8861E4,1.6566E4,2.295E3,5.537E3,1.1029E4,1.599E3,6.96E2,2.92E3,2.617E3,5.513E3,5.516E3,8.61E2,7.38E2,3.69E2,3.27E2,2.577E3,3.43E2,2.265E3,3.52E2,4.48E2,5.065E3,8.01E2,4.715E3,6.98E2,1.63E2,5.6E2,1.78E2,1.84E2,1.85E2,2.06E2,1.21E2],"tree_param":{"num_deleted":"0","num_feature":"2","num_nodes":"31","size_leaf_vector":"1"}},{"base_weights":[-2.5759146E-4,1.871904E-2,-1.3718511E-1,-7.123138E-2,6.388012E-2,-2.1156946E-1,3.376487E-2,-1.7767467E-2,-1.7592207E-1,1.5180293E-1,-2.4006452E-2,-1.1497664E-1,-3.23953E-1,2.9284847E-1,-2.5859702E-1,9.028281E-3,-8.145361E-2,-4.9140163E-2,6.4965844E-2,2.7836403E-2,9.01364E-3,-3.284551E-2,2.777298E-3,-2.3813175E-2,4.1063555E-2,-1.7599013E-2,-7.858705E-2,2.327715E-2,3.51028E-2,-2.2038853E-2,-3.2130655E-2],"categories":[],"categories_nodes":[],"categories_segments":[],"categories_sizes":[],"default_left":[0,0,0,0,0,0,0,0,0,0,0,0,0,0,0,0,0,0,0,0,0,0,0,0,0,0,0,0,0,0,0],"id":43,"left_children":[1,3,5,7,9,11,13,15,17,19,21,23,25,27,29,-1,-1,-1,-1,-1,-1,-1,-1,-1,-1,-1,-1,-1,-1,-1,-1],"loss_changes":[4.9014027E1,6.7303986E1,2.920308E1,3.099402E1,8.523504E1,1.7331459E1,5.287081E1,3.1576947E2,4.8788867E2,4.30094E1,8.698009E1,5.5896614E1,5.0369858E1,1.2115326E0,7.150898E-1,0E0,0E0,0E0,0E0,0E0,0E0,0E0,0E0,0E0,0E0,0E0,0E0,0E0,0E0,0E0,0E0],"parents":[2147483647,0,0,1,1,2,2,3,3,4,4,5,5,6,6,7,7,8,8,9,9,10,10,11,11,12,12,13,13,14,14],"right_children":[2,4,6,8,10,12,14,16,18,20,22,24,26,28,30,-1,-1,-1,-1,-1,-1,-1,-1,-1,-1,-1,-1,-1,-1,-1,-1],"split_conditions":[2.2E1,1E1,6E0,6E0,1.7E1,2.3E1,7E0,9E0,8E0,4E0,2E0,5E0,5E0,2.3E1,2.3E1,9.028281E-3,-8.145361E-2,-4.9140163E-2,6.4965844E-2,2.7836403E-2,9.01364E-3,-3.284551E-2,2.777298E-3,-2.3813175E-2,4.1063555E-2,-1.7599013E-2,-7.858705E-2,2.327715E-2,3.51028E-2,-2.2038853E-2,-3.2130655E-2],"split_indices":[1,1,0,0,1,1,0,1,1,0,0,0,0,1,1,0,0,0,0,0,0,0,0,0,0,0,0,0,0,0,0],"split_type":[0,0,0,0,0,0,0,0,0,0,0,0,0,0,0,0,0,0,0,0,0,0,0,0,0,0,0,0,0,0,0],"sum_hessian":[1.8861E4,1.6566E4,2.295E3,5.537E3,1.1029E4,1.599E3,6.96E2,3.666E3,1.871E3,5.513E3,5.516E3,8.61E2,7.38E2,3.69E2,3.27E2,3.229E3,4.37E2,1.354E3,5.17E2,1.805E3,3.708E3,8.01E2,4.715E3,6.98E2,1.63E2,5.6E2,1.78E2,1.84E2,1.85E2,2.06E2,1.21E2],"tree_param":{"num_deleted":"0","num_feature":"2","num_nodes":"31","size_leaf_vector":"1"}},{"base_weights":[-2.3837281E-4,2.3458108E-2,-1.01363584E-1,-1.7742445E-1,4.4449124E-2,1.0127791E-2,-2.4019241E-1,-2.745446E-1,2.1065237E-2,-4.909015E-2,8.984846E-2,-1.9464016E-1,5.3097224E-1,-2.972849E-1,-1.421749E-1,-7.344983E-3,-3.5429817E-2,1.1640392E-2,-2.7581692E-2,3.7980124E-2,-1.2920602E-2,-9.814348E-3,1.1824287E-2,-7.867682E-3,-5.1974624E-2,3.0775255E-2,6.2004883E-2,-2.105487E-2,-6.2546685E-2,-2.8049739E-3,-2.3290241E-2],"categories":[],"categories_nodes":[],"categories_segments":[],"categories_sizes":[],"default_left":[0,0,0,0,0,0,0,0,0,0,0,0,0,0,0,0,0,0,0,0,0,0,0,0,0,0,0,0,0,0,0],"id":44,"left_children":[1,3,5,7,9,11,13,15,17,19,21,23,25,27,29,-1,-1,-1,-1,-1,-1,-1,-1,-1,-1,-1,-1,-1,-1,-1,-1],"loss_changes":[4.520161E1,6.444794E1,5.542993E1,2.7880825E1,5.87649E1,2.1202138E2,8.883446E0,1.55469055E1,1.3504979E1,1.5542953E2,4.9739647E1,5.3757557E1,1.0963913E1,2.8532814E1,6.092145E0,0E0,0E0,0E0,0E0,0E0,0E0,0E0,0E0,0E0,0E0,0E0,0E0,0E0,0E0,0E0,0E0],"parents":[2147483647,0,0,1,1,2,2,3,3,4,4,5,5,6,6,7,7,8,8,9,9,10,10,11,11,12,12,13,13,14,14],"right_children":[2,4,6,8,10,12,14,16,18,20,22,24,26,28,30,-1,-1,-1,-1,-1,-1,-1,-1,-1,-1,-1,-1,-1,-1,-1,-1],"split_conditions":[7E0,3E0,1.6E1,5E0,3E0,1.3E1,2.1E1,2E0,2E0,8E0,8E0,1.1E1,1.4E1,2E1,2.2E1,-7.344983E-3,-3.5429817E-2,1.1640392E-2,-2.7581692E-2,3.7980124E-2,-1.2920602E-2,-9.814348E-3,1.1824287E-2,-7.867682E-3,-5.1974624E-2,3.0775255E-2,6.2004883E-2,-2.105487E-2,-6.2546685E-2,-2.8049739E-3,-2.3290241E-2],"split_indices":[0,1,1,0,0,1,1,0,1,1,1,1,1,1,1,0,0,0,0,0,0,0,0,0,0,0,0,0,0,0,0],"split_type":[0,0,0,0,0,0,0,0,0,0,0,0,0,0,0,0,0,0,0,0,0,0,0,0,0,0,0,0,0,0,0],"sum_hessian":[1.8861E4,1.5281E4,3.58E3,1.445E3,1.3836E4,1.986E3,1.594E3,9.7E2,4.75E2,4.521E3,9.315E3,1.426E3,5.6E2,1.006E3,5.88E2,2.76E2,6.94E2,3.6E2,1.15E2,7.11E2,3.81E3,1.222E3,8.093E3,1.052E3,3.74E2,1.61E2,3.99E2,7.97E2,2.09E2,2.61E2,3.27E2],"tree_param":{"num_deleted":"0","num_feature":"2","num_nodes":"31","size_leaf_vector":"1"}},{"base_weights":[-2.2013167E-4,1.689428E-2,-1.23710655E-1,-6.1913636E-2,5.6461036E-2,-1.9279821E-1,3.506096E-2,2.8580183E-3,-1.3415813E-1,1.3215923E-1,-1.9206222E-2,-1.06427826E-1,-2.932833E-1,2.519287E-1,-2.096833E-1,-2.0118533E-2,1.920942E-2,2.4963217E-3,-2.7714312E-2,2.5609938E-2,7.1774195E-3,-2.8274605E-2,2.5615268E-3,-2.152565E-2,3.5807017E-2,-1.5677249E-2,-7.1948044E-2,1.978594E-2,3.0435279E-2,-1.752785E-2,-2.6633993E-2],"categories":[],"categories_nodes":[],"categories_segments":[],"categories_sizes":[],"default_left":[0,0,0,0,0,0,0,0,0,0,0,0,0,0,0,0,0,0,0,0,0,0,0,0,0,0,0,0,0,0,0],"id":45,"left_children":[1,3,5,7,9,11,13,15,17,19,21,23,25,27,29,-1,-1,-1,-1,-1,-1,-1,-1,-1,-1,-1,-1,-1,-1,-1,-1],"loss_changes":[3.9866318E1,5.1662277E1,2.519191E1,2.5914875E1,6.3180992E1,1.3855091E1,3.704759E1,1.1282543E2,5.9571556E1,4.1249115E1,6.5175415E1,4.365178E1,4.2882626E1,9.885578E-1,5.926733E-1,0E0,0E0,0E0,0E0,0E0,0E0,0E0,0E0,0E0,0E0,0E0,0E0,0E0,0E0,0E0,0E0],"parents":[2147483647,0,0,1,1,2,2,3,3,4,4,5,5,6,6,7,7,8,8,9,9,10,10,11,11,12,12,13,13,14,14],"right_children":[2,4,6,8,10,12,14,16,18,20,22,24,26,28,30,-1,-1,-1,-1,-1,-1,-1,-1,-1,-1,-1,-1,-1,-1,-1,-1],"split_conditions":[2.2E1,1E1,6E0,5E0,1.7E1,2.3E1,7E0,5E0,5E0,4E0,2E0,5E0,5E0,2.3E1,2.3E1,-2.0118533E-2,1.920942E-2,2.4963217E-3,-2.7714312E-2,2.5609938E-2,7.1774195E-3,-2.8274605E-2,2.5615268E-3,-2.152565E-2,3.5807017E-2,-1.5677249E-2,-7.1948044E-2,1.978594E-2,3.0435279E-2,-1.752785E-2,-2.6633993E-2],"split_indices":[1,1,0,0,1,1,0,1,1,0,0,0,0,1,1,0,0,0,0,0,0,0,0,0,0,0,0,0,0,0,0],"split_type":[0,0,0,0,0,0,0,0,0,0,0,0,0,0,0,0,0,0,0,0,0,0,0,0,0,0,0,0,0,0,0],"sum_hessian":[1.8861E4,1.6566E4,2.295E3,5.537E3,1.1029E4,1.599E3,6.96E2,2.92E3,2.617E3,5.513E3,5.516E3,8.61E2,7.38E2,3.69E2,3.27E2,1.405E3,1.515E3,1.239E3,1.378E3,1.805E3,3.708E3,8.01E2,4.715E3,6.98E2,1.63E2,5.6E2,1.78E2,1.84E2,1.85E2,2.06E2,1.21E2],"tree_param":{"num_deleted":"0","num_feature":"2","num_nodes":"31","size_leaf_vector":"1"}},{"base_weights":[-2.0266874E-4,2.0734819E-2,-8.955382E-2,-5.7661764E-2,5.9284475E-2,1.0814622E-2,-2.1453346E-1,-1.8953408E-1,5.30069E-2,-1.0785519E-1,1.0371557E-1,-1.7005819E-1,4.7087646E-1,-2.7105534E-1,-1.1753508E-1,1.2286993E-2,-6.699995E-2,1.525841E-1,-1.31421415E-2,1.1289013E-2,-5.952422E-2,3.9739158E-2,3.022386E-3,-6.1275046E-3,-4.750678E-2,2.7003441E-2,5.510403E-2,-1.9315986E-2,-5.6576736E-2,-2.7807516E-3,-1.8884936E-2],"categories":[],"categories_nodes":[],"categories_segments":[],"categories_sizes":[],"default_left":[0,0,0,0,0,0,0,0,0,0,0,0,0,0,0,0,0,0,0,0,0,0,0,0,0,0,0,0,0,0,0],"id":46,"left_children":[1,3,5,7,9,11,13,15,17,19,21,23,25,27,29,-1,-1,-1,-1,-1,-1,-1,-1,-1,-1,-1,-1,-1,-1,-1,-1],"loss_changes":[3.528867E1,4.618809E1,4.492243E1,7.353529E1,7.609259E1,1.6542368E2,8.712776E0,3.451607E2,7.444731E2,2.3159744E2,1.7467877E2,4.731862E1,8.883446E0,2.300814E1,3.7636766E0,0E0,0E0,0E0,0E0,0E0,0E0,0E0,0E0,0E0,0E0,0E0,0E0,0E0,0E0,0E0,0E0],"parents":[2147483647,0,0,1,1,2,2,3,3,4,4,5,5,6,6,7,7,8,8,9,9,10,10,11,11,12,12,13,13,14,14],"right_children":[2,4,6,8,10,12,14,16,18,20,22,24,26,28,30,-1,-1,-1,-1,-1,-1,-1,-1,-1,-1,-1,-1,-1,-1,-1,-1],"split_conditions":[7E0,3E0,1.6E1,1.4E1,8E0,1.3E1,2.1E1,9E0,1.6E1,6E0,1.2E1,1.1E1,1.4E1,2E1,2.2E1,1.2286993E-2,-6.699995E-2,1.525841E-1,-1.31421415E-2,1.1289013E-2,-5.952422E-2,3.9739158E-2,3.022386E-3,-6.1275046E-3,-4.750678E-2,2.7003441E-2,5.510403E-2,-1.9315986E-2,-5.6576736E-2,-2.7807516E-3,-1.8884936E-2],"split_indices":[0,0,1,1,1,1,1,1,1,0,1,1,1,1,1,0,0,0,0,0,0,0,0,0,0,0,0,0,0,0,0],"split_type":[0,0,0,0,0,0,0,0,0,0,0,0,0,0,0,0,0,0,0,0,0,0,0,0,0,0,0,0,0,0,0],"sum_hessian":[1.8861E4,1.5281E4,3.58E3,5.037E3,1.0244E4,1.986E3,1.594E3,2.298E3,2.739E3,2.151E3,8.093E3,1.426E3,5.6E2,1.006E3,5.88E2,1.393E3,9.05E2,3.04E2,2.435E3,1.481E3,6.7E2,1.619E3,6.474E3,1.052E3,3.74E2,1.61E2,3.99E2,7.97E2,2.09E2,2.61E2,3.27E2],"tree_param":{"num_deleted":"0","num_feature":"2","num_nodes":"31","size_leaf_vector":"1"}},{"base_weights":[-1.8204919E-4,1.4615356E-2,-1.0695401E-1,-5.76131E-2,5.087887E-2,-1.7039154E-1,3.882363E-2,-7.841758E-3,-1.13122836E-1,4.1386357E-1,3.5472427E-2,-9.301139E-2,-2.6042038E-1,2.2385737E-1,-1.7002183E-1,-1.9291637E-2,1.6380914E-2,4.205362E-3,-2.5257586E-2,-3.3235103E-2,6.0447216E-2,6.5650605E-3,-7.940442E-3,-1.8965697E-2,3.1947803E-2,-1.3535197E-2,-6.509397E-2,1.7517462E-2,2.7107487E-2,-1.3904122E-2,-2.211937E-2],"categories":[],"categories_nodes":[],"categories_segments":[],"categories_sizes":[],"default_left":[0,0,0,0,0,0,0,0,0,0,0,0,0,0,0,0,0,0,0,0,0,0,0,0,0,0,0,0,0,0,0],"id":47,"left_children":[1,3,5,7,9,11,13,15,17,19,21,23,25,27,29,-1,-1,-1,-1,-1,-1,-1,-1,-1,-1,-1,-1,-1,-1,-1,-1],"loss_changes":[2.9802542E1,4.3396175E1,2.1239506E1,1.5299469E1,6.166842E1,1.1122093E1,2.6972551E1,9.282659E1,5.6663666E1,6.406438E1,3.6690617E1,3.4424458E1,3.6005863E1,8.030262E-1,4.8923588E-1,0E0,0E0,0E0,0E0,0E0,0E0,0E0,0E0,0E0,0E0,0E0,0E0,0E0,0E0,0E0,0E0],"parents":[2147483647,0,0,1,1,2,2,3,3,4,4,5,5,6,6,7,7,8,8,9,9,10,10,11,11,12,12,13,13,14,14],"right_children":[2,4,6,8,10,12,14,16,18,20,22,24,26,28,30,-1,-1,-1,-1,-1,-1,-1,-1,-1,-1,-1,-1,-1,-1,-1,-1],"split_conditions":[2.2E1,1E1,6E0,5E0,1.1E1,2.3E1,7E0,5E0,5E0,2E0,7E0,5E0,5E0,2.3E1,2.3E1,-1.9291637E-2,1.6380914E-2,4.205362E-3,-2.5257586E-2,-3.3235103E-2,6.0447216E-2,6.5650605E-3,-7.940442E-3,-1.8965697E-2,3.1947803E-2,-1.3535197E-2,-6.509397E-2,1.7517462E-2,2.7107487E-2,-1.3904122E-2,-2.211937E-2],"split_indices":[1,1,0,0,1,1,0,1,1,0,0,0,0,1,1,0,0,0,0,0,0,0,0,0,0,0,0,0,0,0,0],"split_type":[0,0,0,0,0,0,0,0,0,0,0,0,0,0,0,0,0,0,0,0,0,0,0,0,0,0,0,0,0,0,0],"sum_hessian":[1.8861E4,1.6566E4,2.295E3,5.537E3,1.1029E4,1.599E3,6.96E2,2.92E3,2.617E3,4.48E2,1.0581E4,8.61E2,7.38E2,3.69E2,3.27E2,1.405E3,1.515E3,1.239E3,1.378E3,9.1E1,3.57E2,8.38E3,2.201E3,6.98E2,1.63E2,5.6E2,1.78E2,1.84E2,1.85E2,2.06E2,1.21E2],"tree_param":{"num_deleted":"0","num_feature":"2","num_nodes":"31","size_leaf_vector":"1"}},{"base_weights":[-1.6677736E-4,1.3153915E-2,-9.628339E-2,-5.185605E-2,4.5793265E-2,-1.5339342E-1,3.4953803E-2,-7.0582475E-3,-1.0181881E-1,3.7253752E-1,3.1925E-2,-8.36952E-2,-2.3448472E-1,2.0159256E-1,-1.5312941E-1,1.0979262E-2,-2.4885356E-2,-2.2786882E-2,4.2808875E-3,-2.9947672E-2,5.4419335E-2,5.9086303E-3,-7.146773E-3,-1.7071834E-2,2.8772473E-2,-1.2184088E-2,-5.8620937E-2,1.5775222E-2,2.4411336E-2,-1.2520425E-2,-1.9925548E-2],"categories":[],"categories_nodes":[],"categories_segments":[],"categories_sizes":[],"default_left":[0,0,0,0,0,0,0,0,0,0,0,0,0,0,0,0,0,0,0,0,0,0,0,0,0,0,0,0,0,0,0],"id":48,"left_children":[1,3,5,7,9,11,13,15,17,19,21,23,25,27,29,-1,-1,-1,-1,-1,-1,-1,-1,-1,-1,-1,-1,-1,-1,-1,-1],"loss_changes":[2.415104E1,3.515561E1,1.721379E1,1.2394554E1,4.9969177E1,9.023445E0,2.1876211E1,8.2557236E1,4.7736732E1,5.195742E1,2.9721453E1,2.7910797E1,2.9207466E1,6.5121746E-1,3.97542E-1,0E0,0E0,0E0,0E0,0E0,0E0,0E0,0E0,0E0,0E0,0E0,0E0,0E0,0E0,0E0,0E0],"parents":[2147483647,0,0,1,1,2,2,3,3,4,4,5,5,6,6,7,7,8,8,9,9,10,10,11,11,12,12,13,13,14,14],"right_children":[2,4,6,8,10,12,14,16,18,20,22,24,26,28,30,-1,-1,-1,-1,-1,-1,-1,-1,-1,-1,-1,-1,-1,-1,-1,-1],"split_conditions":[2.2E1,1E1,6E0,5E0,1.1E1,2.3E1,7E0,7E0,6E0,2E0,7E0,5E0,5E0,2.3E1,2.3E1,1.0979262E-2,-2.4885356E-2,-2.2786882E-2,4.2808875E-3,-2.9947672E-2,5.4419335E-2,5.9086303E-3,-7.146773E-3,-1.7071834E-2,2.8772473E-2,-1.2184088E-2,-5.8620937E-2,1.5775222E-2,2.4411336E-2,-1.2520425E-2,-1.9925548E-2],"split_indices":[1,1,0,0,1,1,0,1,1,0,0,0,0,1,1,0,0,0,0,0,0,0,0,0,0,0,0,0,0,0,0],"split_type":[0,0,0,0,0,0,0,0,0,0,0,0,0,0,0,0,0,0,0,0,0,0,0,0,0,0,0,0,0,0,0],"sum_hessian":[1.8861E4,1.6566E4,2.295E3,5.537E3,1.1029E4,1.599E3,6.96E2,2.92E3,2.617E3,4.48E2,1.0581E4,8.61E2,7.38E2,3.69E2,3.27E2,1.969E3,9.51E2,1.398E3,1.219E3,9.1E1,3.57E2,8.38E3,2.201E3,6.98E2,1.63E2,5.6E2,1.78E2,1.84E2,1.85E2,2.06E2,1.21E2],"tree_param":{"num_deleted":"0","num_feature":"2","num_nodes":"31","size_leaf_vector":"1"}},{"base_weights":[-1.5339954E-4,-5.4981343E-2,1.982659E-2,-1.9497125E-1,3.724209E-2,-1.2189662E-1,5.639685E-2,1.10492595E-1,-8.9500684E-1,6.7175215E-1,-1.1983788E-1,1.09420024E-1,-3.748039E-1,2.6865715E-1,1.8750648E-3,-2.0037888E-2,5.06889E-2,-3.156958E-2,-1.2369142E-1,-3.390393E-3,1.361324E-1,-6.492193E-2,-6.0882615E-3,-1.0751702E-2,9.717052E-2,8.128616E-3,-1.3363361E-1,-4.7873906E-3,5.470856E-2,-3.5687085E-2,2.3489182E-3],"categories":[],"categories_nodes":[],"categories_segments":[],"categories_sizes":[],"default_left":[0,0,0,0,0,0,0,0,0,0,0,0,0,0,0,0,0,0,0,0,0,0,0,0,0,0,0,0,0,0,0],"id":49,"left_children":[1,3,5,7,9,11,13,15,17,19,21,23,25,27,29,-1,-1,-1,-1,-1,-1,-1,-1,-1,-1,-1,-1,-1,-1,-1,-1],"loss_changes":[2.0663687E1,6.50496E1,7.165984E1,4.2798386E2,3.0287436E2,1.6595174E2,1.2718468E2,1.7188185E2,1.200365E2,2.9346625E2,7.59876E1,2.7732977E2,5.943374E2,1.9796898E2,6.78169E1,0E0,0E0,0E0,0E0,0E0,0E0,0E0,0E0,0E0,0E0,0E0,0E0,0E0,0E0,0E0,0E0],"parents":[2147483647,0,0,1,1,2,2,3,3,4,4,5,5,6,6,7,7,8,8,9,9,10,10,11,11,12,12,13,13,14,14],"right_children":[2,4,6,8,10,12,14,16,18,20,22,24,26,28,30,-1,-1,-1,-1,-1,-1,-1,-1,-1,-1,-1,-1,-1,-1,-1,-1],"split_conditions":[3E0,1.2E1,8E0,9E0,1.6E1,6E0,1.2E1,5E0,2E0,1.4E1,1.7E1,6E0,5E0,6E0,1.3E1,-2.0037888E-2,5.06889E-2,-3.156958E-2,-1.2369142E-1,-3.390393E-3,1.361324E-1,-6.492193E-2,-6.0882615E-3,-1.0751702E-2,9.717052E-2,8.128616E-3,-1.3363361E-1,-4.7873906E-3,5.470856E-2,-3.5687085E-2,2.3489182E-3],"split_indices":[0,1,1,1,1,0,1,1,0,1,1,1,1,0,1,0,0,0,0,0,0,0,0,0,0,0,0,0,0,0,0],"split_type":[0,0,0,0,0,0,0,0,0,0,0,0,0,0,0,0,0,0,0,0,0,0,0,0,0,0,0,0,0,0,0],"sum_hessian":[1.8861E4,5.037E3,1.3824E4,2E3,3.037E3,2.835E3,1.0989E4,1.393E3,6.07E2,6.02E2,2.435E3,1.481E3,1.354E3,2.245E3,8.744E3,7.81E2,6.12E2,2.26E2,3.81E2,2.98E2,3.04E2,2.43E2,2.192E3,1.184E3,2.97E2,9.19E2,4.35E2,1.051E3,1.194E3,4.96E2,8.248E3],"tree_param":{"num_deleted":"0","num_feature":"2","num_nodes":"31","size_leaf_vector":"1"}}]},"name":"gbtree"},"learner_model_param":{"base_score":"[1.3677536E1]","boost_from_average":"1","num_class":"0","num_feature":"2","num_target":"1"},"objective":{"name":"reg:squarederror","reg_loss_param":{"scale_pos_weight":"1"}}},"version":[3,2,1]}