{"learner":{"attributes":{},"feature_names":["day_of_week","hour_of_day"],"feature_types":[],"gradient_booster":{"model":{"cats":{"enc":[],"feature_segments":[],"sorted_idx":[]},"gbtree_model_param":{"num_parallel_tree":"1","num_trees":"50"},"iteration_indptr":[0,1,2,3,4,5,6,7,8,9,10,11,12,13,14,15,16,17,18,19,20,21,22,23,24,25,26,27,28,29,30,31,32,33,34,35,36,37,38,39,40,41,42,43,44,45,46,47,48,49,50],"tree_info":[0,0,0,0,0,0,0,0,0,0,0,0,0,0,0,0,0,0,0,0,0,0,0,0,0,0,0,0,0,0,0,0,0,0,0,0,0,0,0,0,0,0,0,0,0,0,0,0,0,0],"trees":[{"base_weights":[-2.2242709E-7,-9.127232E0,2.3627539E0,-9.705879E0,-5.8467884E0,5.6717286E0,-4.4362617E0,-1.0737578E0,-8.064049E-1,-2.9907474E-1,-8.696415E-1,6.1309605E0,-7.557018E-1,-2.5948565E0,-9.411875E-1,6.4794266E-1,9.547013E-2,-3.8919267E-1,-1.5045603E-1],"categories":[],"categories_nodes":[],"categories_segments":[],"categories_sizes":[],"default_left":[0,0,0,0,0,0,0,0,0,0,0,0,0,0,0,0,0,0,0],"id":0,"left_children":[1,3,5,7,9,11,13,-1,-1,-1,-1,15,-1,17,-1,-1,-1,-1,-1],"loss_changes":[2.8315371E4,4.5577344E2,2.349034E4,2.9961523E2,3.2395325E2,4.3110195E3,3.109022E3,0E0,0E0,0E0,0E0,1.2185605E3,0E0,3.4910632E2,0E0,0E0,0E0,0E0,0E0],"parents":[2147483647,0,0,1,1,2,2,3,3,4,4,5,5,6,6,11,11,13,13],"right_children":[2,4,6,8,10,12,14,-1,-1,-1,-1,16,-1,18,-1,-1,-1,-1,-1],"split_conditions":[4E0,3E0,1.9E1,4E0,2E0,7E0,2.2E1,-1.0737578E0,-8.064049E-1,-2.9907474E-1,-8.696415E-1,1.8E1,-7.557018E-1,2E0,-9.411875E-1,6.4794266E-1,9.547013E-2,-3.8919267E-1,-1.5045603E-1],"split_indices":[1,1,1,0,0,0,1,0,0,0,0,1,0,0,0,0,0,0,0],"split_type":[0,0,0,0,0,0,0,0,0,0,0,0,0,0,0,0,0,0,0],"sum_hessian":[1.311E3,2.69E2,1.042E3,2.27E2,4.2E1,7.01E2,3.41E2,1.36E2,9.1E1,2.2E1,2E1,6.78E2,2.3E1,2.5E2,9.1E1,6.35E2,4.3E1,1.13E2,1.37E2],"tree_param":{"num_deleted":"0","num_feature":"2","num_nodes":"19","size_leaf_vector":"1"}},{"base_weights":[-3.4619905E-3,-8.2258E0,2.125047E0,-8.743538E0,-5.289289E0,5.1045384E0,-3.996965E0,-9.6716565E-1,-7.266409E-1,-2.7046755E-1,-7.8681856E-1,5.518959E0,-6.8328035E-1,-2.3375206E0,-8.480917E-1,5.832502E-1,8.614007E-2,-3.5061482E-1,-1.3551942E-1],"categories":[],"categories_nodes":[],"categories_segments":[],"categories_sizes":[],"default_left":[0,0,0,0,0,0,0,0,0,0,0,0,0,0,0,0,0,0,0],"id":1,"left_children":[1,3,5,7,9,11,13,-1,-1,-1,-1,15,-1,17,-1,-1,-1,-1,-1],"loss_changes":[2.297921E4,3.6424414E2,1.9045227E4,2.4229883E2,2.653335E2,3.5105605E3,2.5249526E3,0E0,0E0,0E0,0E0,9.865508E2,0E0,2.8339E2,0E0,0E0,0E0,0E0,0E0],"parents":[2147483647,0,0,1,1,2,2,3,3,4,4,5,5,6,6,11,11,13,13],"right_children":[2,4,6,8,10,12,14,-1,-1,-1,-1,16,-1,18,-1,-1,-1,-1,-1],"split_conditions":[4E0,3E0,1.9E1,4E0,2E0,7E0,2.2E1,-9.6716565E-1,-7.266409E-1,-2.7046755E-1,-7.8681856E-1,1.8E1,-6.8328035E-1,2E0,-8.480917E-1,5.832502E-1,8.614007E-2,-3.5061482E-1,-1.3551942E-1],"split_indices":[1,1,1,0,0,0,1,0,0,0,0,1,0,0,0,0,0,0,0],"split_type":[0,0,0,0,0,0,0,0,0,0,0,0,0,0,0,0,0,0,0],"sum_hessian":[1.311E3,2.69E2,1.042E3,2.27E2,4.2E1,7.01E2,3.41E2,1.36E2,9.1E1,2.2E1,2E1,6.78E2,2.3E1,2.5E2,9.1E1,6.35E2,4.3E1,1.13E2,1.37E2],"tree_param":{"num_deleted":"0","num_feature":"2","num_nodes":"19","size_leaf_vector":"1"}},{"base_weights":[-6.239917E-3,-7.413409E0,1.91125E0,-7.8766127E0,-4.784948E0,4.594065E0,-3.60117E0,-8.711551E-1,-6.547667E-1,-2.4459672E-1,-7.118835E-1,4.9680495E0,-6.1779934E-1,-2.1057057E0,-7.642044E-1,5.2501696E-1,7.772187E-2,-3.1586093E-1,-1.22065715E-1],"categories":[],"categories_nodes":[],"categories_segments":[],"categories_sizes":[],"default_left":[0,0,0,0,0,0,0,0,0,0,0,0,0,0,0,0,0,0,0],"id":2,"left_children":[1,3,5,7,9,11,13,-1,-1,-1,-1,15,-1,17,-1,-1,-1,-1,-1],"loss_changes":[1.864873E4,2.9104004E2,1.5441267E4,1.9594531E2,2.173208E2,2.8587578E3,2.050608E3,0E0,0E0,0E0,0E0,7.987129E2,0E0,2.3004395E2,0E0,0E0,0E0,0E0,0E0],"parents":[2147483647,0,0,1,1,2,2,3,3,4,4,5,5,6,6,11,11,13,13],"right_children":[2,4,6,8,10,12,14,-1,-1,-1,-1,16,-1,18,-1,-1,-1,-1,-1],"split_conditions":[4E0,3E0,1.9E1,4E0,2E0,7E0,2.2E1,-8.711551E-1,-6.547667E-1,-2.4459672E-1,-7.118835E-1,1.8E1,-6.1779934E-1,2E0,-7.642044E-1,5.2501696E-1,7.772187E-2,-3.1586093E-1,-1.22065715E-1],"split_indices":[1,1,1,0,0,0,1,0,0,0,0,1,0,0,0,0,0,0,0],"split_type":[0,0,0,0,0,0,0,0,0,0,0,0,0,0,0,0,0,0,0],"sum_hessian":[1.311E3,2.69E2,1.042E3,2.27E2,4.2E1,7.01E2,3.41E2,1.36E2,9.1E1,2.2E1,2E1,6.78E2,2.3E1,2.5E2,9.1E1,6.35E2,4.3E1,1.13E2,1.37E2],"tree_param":{"num_deleted":"0","num_feature":"2","num_nodes":"19","size_leaf_vector":"1"}},{"base_weights":[-8.4356805E-3,-6.6812625E0,1.718958E0,-8.402454E-1,-6.048602E0,4.1346374E0,-3.244568E0,-6.475692E0,-4.328697E0,4.4721327E0,-5.585935E-1,-1.89688E0,-6.886146E-1,-7.1593165E-1,-5.9000164E-1,-2.2120054E-1,-6.4408505E-1,4.7259784E-1,7.012635E-2,-8.204628E-2,-2.786596E-1],"categories":[],"categories_nodes":[],"categories_segments":[],"categories_sizes":[],"default_left":[0,0,0,0,0,0,0,0,0,0,0,0,0,0,0,0,0,0,0,0,0],"id":3,"left_children":[1,3,5,-1,7,9,11,13,15,17,-1,19,-1,-1,-1,-1,-1,-1,-1,-1,-1],"loss_changes":[1.5134382E4,2.431875E2,1.2519284E4,0E0,1.1961426E2,2.327995E3,1.665375E3,2.0333496E1,1.7799615E2,6.466377E2,0E0,2.380979E2,0E0,0E0,0E0,0E0,0E0,0E0,0E0,0E0,0E0],"parents":[2147483647,0,0,1,1,2,2,4,4,5,5,6,6,7,7,8,8,9,9,11,11],"right_children":[2,4,6,-1,8,10,12,14,16,18,-1,20,-1,-1,-1,-1,-1,-1,-1,-1,-1],"split_conditions":[4E0,2E0,1.9E1,-8.402454E-1,3E0,7E0,2.2E1,2E0,2E0,1.8E1,-5.585935E-1,2.1E1,-6.886146E-1,-7.1593165E-1,-5.9000164E-1,-2.2120054E-1,-6.4408505E-1,4.7259784E-1,7.012635E-2,-8.204628E-2,-2.786596E-1],"split_indices":[1,1,1,0,1,0,1,0,0,1,0,1,0,0,0,0,0,0,0,0,0],"split_type":[0,0,0,0,0,0,0,0,0,0,0,0,0,0,0,0,0,0,0,0,0],"sum_hessian":[1.311E3,2.69E2,1.042E3,6.9E1,2E2,7.01E2,3.41E2,1.58E2,4.2E1,6.78E2,2.3E1,2.5E2,9.1E1,6.7E1,9.1E1,2.2E1,2E1,6.35E2,4.3E1,1.14E2,1.36E2],"tree_param":{"num_deleted":"0","num_feature":"2","num_nodes":"21","size_leaf_vector":"1"}},{"base_weights":[-1.0699419E-2,-6.0242896E0,1.5460408E0,-7.574213E-1,-5.4545436E0,3.7211509E0,-2.9231794E0,-5.8363357E0,-3.91595E0,4.025718E0,-5.050616E-1,-1.7086289E0,-6.2050164E-1,-6.4539135E-1,-5.3164274E-1,-2.0004217E-1,-5.827436E-1,4.2541233E-1,6.327307E-2,-2.6848572E-1,-8.89798E-2],"categories":[],"categories_nodes":[],"categories_segments":[],"categories_sizes":[],"default_left":[0,0,0,0,0,0,0,0,0,0,0,0,0,0,0,0,0,0,0,0,0],"id":4,"left_children":[1,3,5,-1,7,9,11,13,15,17,-1,19,-1,-1,-1,-1,-1,-1,-1,-1,-1],"loss_changes":[1.22917295E4,1.9711328E2,1.0149928E4,0E0,9.5217285E1,1.895791E3,1.352595E3,1.6740723E1,1.4578735E2,5.235166E2,0E0,1.9825177E2,0E0,0E0,0E0,0E0,0E0,0E0,0E0,0E0,0E0],"parents":[2147483647,0,0,1,1,2,2,4,4,5,5,6,6,7,7,8,8,9,9,11,11],"right_children":[2,4,6,-1,8,10,12,14,16,18,-1,20,-1,-1,-1,-1,-1,-1,-1,-1,-1],"split_conditions":[4E0,2E0,1.9E1,-7.574213E-1,3E0,7E0,2.2E1,2E0,2E0,1.8E1,-5.050616E-1,2E0,-6.2050164E-1,-6.4539135E-1,-5.3164274E-1,-2.0004217E-1,-5.827436E-1,4.2541233E-1,6.327307E-2,-2.6848572E-1,-8.89798E-2],"split_indices":[1,1,1,0,1,0,1,0,0,1,0,0,0,0,0,0,0,0,0,0,0],"split_type":[0,0,0,0,0,0,0,0,0,0,0,0,0,0,0,0,0,0,0,0,0],"sum_hessian":[1.311E3,2.69E2,1.042E3,6.9E1,2E2,7.01E2,3.41E2,1.58E2,4.2E1,6.78E2,2.3E1,2.5E2,9.1E1,6.7E1,9.1E1,2.2E1,2E1,6.35E2,4.3E1,1.13E2,1.37E2],"tree_param":{"num_deleted":"0","num_feature":"2","num_nodes":"21","size_leaf_vector":"1"}},{"base_weights":[-1.2458237E-2,-5.4319243E0,1.3904835E0,-6.827612E-1,-4.9188395E0,3.3490126E0,-2.6337209E0,-5.2601047E0,-3.5425596E0,3.6238663E0,-4.5665985E-1,-1.53919E0,-5.591259E-1,-5.818013E-1,-4.7905633E-1,-1.8090776E-1,-5.272442E-1,3.8293803E-1,5.7089537E-2,-5.463418E-2,-2.361368E-1],"categories":[],"categories_nodes":[],"categories_segments":[],"categories_sizes":[],"default_left":[0,0,0,0,0,0,0,0,0,0,0,0,0,0,0,0,0,0,0,0,0],"id":5,"left_children":[1,3,5,-1,7,9,11,13,15,17,-1,19,-1,-1,-1,-1,-1,-1,-1,-1,-1],"loss_changes":[9.982945E3,1.5976416E2,8.229247E3,0E0,7.577051E1,1.5438447E3,1.098488E3,1.3780273E1,1.1940668E2,4.238379E2,0E0,2.0360065E2,0E0,0E0,0E0,0E0,0E0,0E0,0E0,0E0,0E0],"parents":[2147483647,0,0,1,1,2,2,4,4,5,5,6,6,7,7,8,8,9,9,11,11],"right_children":[2,4,6,-1,8,10,12,14,16,18,-1,20,-1,-1,-1,-1,-1,-1,-1,-1,-1],"split_conditions":[4E0,2E0,1.9E1,-6.827612E-1,3E0,7E0,2.2E1,2E0,2E0,1.8E1,-4.5665985E-1,2.1E1,-5.591259E-1,-5.818013E-1,-4.7905633E-1,-1.8090776E-1,-5.272442E-1,3.8293803E-1,5.7089537E-2,-5.463418E-2,-2.361368E-1],"split_indices":[1,1,1,0,1,0,1,0,0,1,0,1,0,0,0,0,0,0,0,0,0],"split_type":[0,0,0,0,0,0,0,0,0,0,0,0,0,0,0,0,0,0,0,0,0],"sum_hessian":[1.311E3,2.69E2,1.042E3,6.9E1,2E2,7.01E2,3.41E2,1.58E2,4.2E1,6.78E2,2.3E1,2.5E2,9.1E1,6.7E1,9.1E1,2.2E1,2E1,6.35E2,4.3E1,1.14E2,1.36E2],"tree_param":{"num_deleted":"0","num_feature":"2","num_nodes":"21","size_leaf_vector":"1"}},{"base_weights":[-1.3741796E-2,-4.8978124E0,1.2506042E0,-6.1546046E-1,-4.435756E0,3.0140874E0,-2.372834E0,-4.740766E0,-3.204772E0,3.3126583E0,-2.9493856E0,-1.3864298E0,-5.038211E-1,-5.244767E-1,-4.3167138E-1,-1.636035E-1,-4.7703043E-1,2.6168215E-1,4.12956E-1,-1.0763064E-2,-4.1289654E-1,-2.2913337E-1,-6.288538E-2],"categories":[],"categories_nodes":[],"categories_segments":[],"categories_sizes":[],"default_left":[0,0,0,0,0,0,0,0,0,0,0,0,0,0,0,0,0,0,0,0,0,0,0],"id":6,"left_children":[1,3,5,-1,7,9,11,13,15,17,19,21,-1,-1,-1,-1,-1,-1,-1,-1,-1,-1,-1],"loss_changes":[8.1079287E3,1.2949023E2,6.6717886E3,0E0,6.0274902E1,1.2596953E3,8.921803E2,1.1341797E1,9.779962E1,3.6947363E2,1.13526215E2,1.7062796E2,0E0,0E0,0E0,0E0,0E0,0E0,0E0,0E0,0E0,0E0,0E0],"parents":[2147483647,0,0,1,1,2,2,4,4,5,5,6,6,7,7,8,8,9,9,10,10,11,11],"right_children":[2,4,6,-1,8,10,12,14,16,18,20,22,-1,-1,-1,-1,-1,-1,-1,-1,-1,-1,-1],"split_conditions":[4E0,2E0,1.9E1,-6.1546046E-1,3E0,4E0,2.2E1,2E0,2E0,1.3E1,7E0,2E0,-5.038211E-1,-5.244767E-1,-4.3167138E-1,-1.636035E-1,-4.7703043E-1,2.6168215E-1,4.12956E-1,-1.0763064E-2,-4.1289654E-1,-2.2913337E-1,-6.288538E-2],"split_indices":[1,1,1,0,1,0,1,0,0,1,0,0,0,0,0,0,0,0,0,0,0,0,0],"split_type":[0,0,0,0,0,0,0,0,0,0,0,0,0,0,0,0,0,0,0,0,0,0,0],"sum_hessian":[1.311E3,2.69E2,1.042E3,6.9E1,2E2,7.01E2,3.41E2,1.58E2,4.2E1,6.68E2,3.3E1,2.5E2,9.1E1,6.7E1,9.1E1,2.2E1,2E1,3.63E2,3.05E2,1E1,2.3E1,1.13E2,1.37E2],"tree_param":{"num_deleted":"0","num_feature":"2","num_nodes":"23","size_leaf_vector":"1"}},{"base_weights":[-1.4469187E-2,-4.416225E0,1.1250212E0,-5.5479366E-1,-4.000125E0,2.8826158E0,-1.8863552E0,-4.272703E0,-2.899193E0,3.1794229E0,-2.666908E0,-1.0495887E0,-4.5398661E-1,-4.7280034E-1,-3.8897347E-1,-1.4795445E-1,-4.3159896E-1,2.5099948E-1,4.668295E-1,-9.78463E-3,-3.7332734E-1,-2.1130407E-2,-2.0087083E-1],"categories":[],"categories_nodes":[],"categories_segments":[],"categories_sizes":[],"default_left":[0,0,0,0,0,0,0,0,0,0,0,0,0,0,0,0,0,0,0,0,0,0,0],"id":7,"left_children":[1,3,5,-1,7,9,11,13,15,17,19,21,-1,-1,-1,-1,-1,-1,-1,-1,-1,-1,-1],"loss_changes":[6.5856426E3,1.0495215E2,5.5258057E3,0E0,4.7930664E1,1.0939429E3,8.5007715E2,9.333496E0,8.010248E1,6.122129E2,9.277971E1,2.3595609E2,0E0,0E0,0E0,0E0,0E0,0E0,0E0,0E0,0E0,0E0,0E0],"parents":[2147483647,0,0,1,1,2,2,4,4,5,5,6,6,7,7,8,8,9,9,10,10,11,11],"right_children":[2,4,6,-1,8,10,12,14,16,18,20,22,-1,-1,-1,-1,-1,-1,-1,-1,-1,-1,-1],"split_conditions":[4E0,2E0,1.8E1,-5.5479366E-1,3E0,4E0,2.2E1,2E0,2E0,1.5E1,7E0,2.1E1,-4.5398661E-1,-4.7280034E-1,-3.8897347E-1,-1.4795445E-1,-4.3159896E-1,2.5099948E-1,4.668295E-1,-9.78463E-3,-3.7332734E-1,-2.1130407E-2,-2.0087083E-1],"split_indices":[1,1,1,0,1,0,1,0,0,1,0,1,0,0,0,0,0,0,0,0,0,0,0],"split_type":[0,0,0,0,0,0,0,0,0,0,0,0,0,0,0,0,0,0,0,0,0,0,0],"sum_hessian":[1.311E3,2.69E2,1.042E3,6.9E1,2E2,6.58E2,3.84E2,1.58E2,4.2E1,6.25E2,3.3E1,2.93E2,9.1E1,6.7E1,9.1E1,2.2E1,2E1,4.33E2,1.92E2,1E1,2.3E1,1.57E2,1.36E2],"tree_param":{"num_deleted":"0","num_feature":"2","num_nodes":"23","size_leaf_vector":"1"}},{"base_weights":[-1.4804012E-2,-3.9819953E0,1.0121917E0,-5.001068E-1,-3.6072836E0,2.5948617E0,-1.6994755E0,-3.8508532E0,-2.622752E0,2.862627E0,-2.4114852E0,-9.453849E-1,-4.0908143E-1,-4.2621562E-1,-3.5049897E-1,-1.3380232E-1,-3.904943E-1,2.259573E-1,4.2038846E-1,-8.895111E-3,-3.3755013E-1,-1.903072E-2,-1.8093039E-1],"categories":[],"categories_nodes":[],"categories_segments":[],"categories_sizes":[],"default_left":[0,0,0,0,0,0,0,0,0,0,0,0,0,0,0,0,0,0,0,0,0,0,0],"id":8,"left_children":[1,3,5,-1,7,9,11,13,15,17,19,21,-1,-1,-1,-1,-1,-1,-1,-1,-1,-1,-1],"loss_changes":[5.349497E3,8.506152E1,4.4806265E3,0E0,3.8100098E1,8.903091E2,6.903976E2,7.6799316E0,6.5607605E1,4.968413E2,7.58244E1,1.9143954E2,0E0,0E0,0E0,0E0,0E0,0E0,0E0,0E0,0E0,0E0,0E0],"parents":[2147483647,0,0,1,1,2,2,4,4,5,5,6,6,7,7,8,8,9,9,10,10,11,11],"right_children":[2,4,6,-1,8,10,12,14,16,18,20,22,-1,-1,-1,-1,-1,-1,-1,-1,-1,-1,-1],"split_conditions":[4E0,2E0,1.8E1,-5.001068E-1,3E0,4E0,2.2E1,2E0,2E0,1.5E1,7E0,2.1E1,-4.0908143E-1,-4.2621562E-1,-3.5049897E-1,-1.3380232E-1,-3.904943E-1,2.259573E-1,4.2038846E-1,-8.895111E-3,-3.3755013E-1,-1.903072E-2,-1.8093039E-1],"split_indices":[1,1,1,0,1,0,1,0,0,1,0,1,0,0,0,0,0,0,0,0,0,0,0],"split_type":[0,0,0,0,0,0,0,0,0,0,0,0,0,0,0,0,0,0,0,0,0,0,0],"sum_hessian":[1.311E3,2.69E2,1.042E3,6.9E1,2E2,6.58E2,3.84E2,1.58E2,4.2E1,6.25E2,3.3E1,2.93E2,9.1E1,6.7E1,9.1E1,2.2E1,2E1,4.33E2,1.92E2,1E1,2.3E1,1.57E2,1.36E2],"tree_param":{"num_deleted":"0","num_feature":"2","num_nodes":"23","size_leaf_vector":"1"}},{"base_weights":[-1.49323605E-2,-3.5904665E0,9.1067564E-1,-4.5081058E-1,-3.2530277E0,2.3358302E0,-1.53111E0,-3.4706528E0,-2.3726695E0,-3.4219816E-1,2.7491553E0,-8.515268E-1,-3.6861792E-1,-3.8422084E-1,-3.1583002E-1,-1.2100382E-1,-3.5330436E-1,2.6137397E-1,-1.2934987E-1,2.2140706E-1,3.7856737E-1,-1.7139712E-2,-1.6296946E-1],"categories":[],"categories_nodes":[],"categories_segments":[],"categories_sizes":[],"default_left":[0,0,0,0,0,0,0,0,0,0,0,0,0,0,0,0,0,0,0,0,0,0,0],"id":9,"left_children":[1,3,5,-1,7,9,11,13,15,17,19,21,-1,-1,-1,-1,-1,-1,-1,-1,-1,-1,-1],"loss_changes":[4.34539E3,6.893994E1,3.633135E3,0E0,3.0274658E1,7.3038574E2,5.607124E2,6.317993E0,5.3735596E1,2.5364754E2,3.0830908E2,1.5532161E2,0E0,0E0,0E0,0E0,0E0,0E0,0E0,0E0,0E0,0E0,0E0],"parents":[2147483647,0,0,1,1,2,2,4,4,5,5,6,6,7,7,8,8,9,9,10,10,11,11],"right_children":[2,4,6,-1,8,10,12,14,16,18,20,22,-1,-1,-1,-1,-1,-1,-1,-1,-1,-1,-1],"split_conditions":[4E0,2E0,1.8E1,-4.5081058E-1,3E0,6E0,2.2E1,2E0,2E0,2E0,1.5E1,2.1E1,-3.6861792E-1,-3.8422084E-1,-3.1583002E-1,-1.2100382E-1,-3.5330436E-1,2.6137397E-1,-1.2934987E-1,2.2140706E-1,3.7856737E-1,-1.7139712E-2,-1.6296946E-1],"split_indices":[1,1,1,0,1,1,1,0,0,0,1,1,0,0,0,0,0,0,0,0,0,0,0],"split_type":[0,0,0,0,0,0,0,0,0,0,0,0,0,0,0,0,0,0,0,0,0,0,0],"sum_hessian":[1.311E3,2.69E2,1.042E3,6.9E1,2E2,6.58E2,3.84E2,1.58E2,4.2E1,8.8E1,5.7E2,2.93E2,9.1E1,6.7E1,9.1E1,2.2E1,2E1,2.1E1,6.7E1,3.78E2,1.92E2,1.57E2,1.36E2],"tree_param":{"num_deleted":"0","num_feature":"2","num_nodes":"23","size_leaf_vector":"1"}},{"base_weights":[-1.4537965E-2,-3.237439E0,8.19784E-1,-4.0637356E-1,-2.9335673E0,2.1033583E0,-1.3794243E0,-3.12799E0,-2.1464329E0,2.3314536E0,-2.1581447E0,-7.669868E-1,-3.3215678E-1,-3.4636375E-1,-2.845903E-1,-1.09429516E-1,-3.196563E-1,1.6995047E-1,3.1972253E-1,-2.8214369E-2,-2.9280558E-1,-1.5669803E-1,-8.719861E-3],"categories":[],"categories_nodes":[],"categories_segments":[],"categories_sizes":[],"default_left":[0,0,0,0,0,0,0,0,0,0,0,0,0,0,0,0,0,0,0,0,0,0,0],"id":10,"left_children":[1,3,5,-1,7,9,11,13,15,17,19,21,-1,-1,-1,-1,-1,-1,-1,-1,-1,-1,-1],"loss_changes":[3.5305393E3,5.587256E1,2.9471309E3,0E0,2.4046387E1,6.455989E2,4.5538733E2,5.1973877E0,4.4011932E1,3.3706567E2,4.8281906E1,1.5974826E2,0E0,0E0,0E0,0E0,0E0,0E0,0E0,0E0,0E0,0E0,0E0],"parents":[2147483647,0,0,1,1,2,2,4,4,5,5,6,6,7,7,8,8,9,9,10,10,11,11],"right_children":[2,4,6,-1,8,10,12,14,16,18,20,22,-1,-1,-1,-1,-1,-1,-1,-1,-1,-1,-1],"split_conditions":[4E0,2E0,1.8E1,-4.0637356E-1,3E0,4E0,2.2E1,2E0,2E0,1.3E1,7E0,2E0,-3.3215678E-1,-3.4636375E-1,-2.845903E-1,-1.09429516E-1,-3.196563E-1,1.6995047E-1,3.1972253E-1,-2.8214369E-2,-2.9280558E-1,-1.5669803E-1,-8.719861E-3],"split_indices":[1,1,1,0,1,0,1,0,0,1,0,0,0,0,0,0,0,0,0,0,0,0,0],"split_type":[0,0,0,0,0,0,0,0,0,0,0,0,0,0,0,0,0,0,0,0,0,0,0],"sum_hessian":[1.311E3,2.69E2,1.042E3,6.9E1,2E2,6.58E2,3.84E2,1.58E2,4.2E1,6.25E2,3.3E1,2.93E2,9.1E1,6.7E1,9.1E1,2.2E1,2E1,3.63E2,2.62E2,1E1,2.3E1,1.34E2,1.59E2],"tree_param":{"num_deleted":"0","num_feature":"2","num_nodes":"23","size_leaf_vector":"1"}},{"base_weights":[-1.4452754E-2,-2.9191263E0,7.3749E-1,-3.6631674E-1,-2.6454844E0,1.8932781E0,-1.2427745E0,-2.8191595E0,-1.9417684E0,2.0990903E0,-1.9517719E0,-6.908509E-1,-2.9930216E-1,-3.1223676E-1,-2.564406E-1,-9.896236E-2,-2.8921285E-1,1.5300213E-1,2.878718E-1,-2.5649402E-2,-2.6474506E-1,-6.3283364E-3,-1.4095722E-1],"categories":[],"categories_nodes":[],"categories_segments":[],"categories_sizes":[],"default_left":[0,0,0,0,0,0,0,0,0,0,0,0,0,0,0,0,0,0,0,0,0,0,0],"id":11,"left_children":[1,3,5,-1,7,9,11,13,15,17,19,21,-1,-1,-1,-1,-1,-1,-1,-1,-1,-1,-1],"loss_changes":[2.8677551E3,4.5281494E1,2.389536E3,0E0,1.9091675E1,5.256018E2,3.6984326E2,4.274658E0,3.604773E1,2.7332812E2,3.9419464E1,1.325184E2,0E0,0E0,0E0,0E0,0E0,0E0,0E0,0E0,0E0,0E0,0E0],"parents":[2147483647,0,0,1,1,2,2,4,4,5,5,6,6,7,7,8,8,9,9,10,10,11,11],"right_children":[2,4,6,-1,8,10,12,14,16,18,20,22,-1,-1,-1,-1,-1,-1,-1,-1,-1,-1,-1],"split_conditions":[4E0,2E0,1.8E1,-3.6631674E-1,3E0,4E0,2.2E1,2E0,2E0,1.3E1,7E0,2.1E1,-2.9930216E-1,-3.1223676E-1,-2.564406E-1,-9.896236E-2,-2.8921285E-1,1.5300213E-1,2.878718E-1,-2.5649402E-2,-2.6474506E-1,-6.3283364E-3,-1.4095722E-1],"split_indices":[1,1,1,0,1,0,1,0,0,1,0,1,0,0,0,0,0,0,0,0,0,0,0],"split_type":[0,0,0,0,0,0,0,0,0,0,0,0,0,0,0,0,0,0,0,0,0,0,0],"sum_hessian":[1.311E3,2.69E2,1.042E3,6.9E1,2E2,6.58E2,3.84E2,1.58E2,4.2E1,6.25E2,3.3E1,2.93E2,9.1E1,6.7E1,9.1E1,2.2E1,2E1,3.63E2,2.62E2,1E1,2.3E1,1.57E2,1.36E2],"tree_param":{"num_deleted":"0","num_feature":"2","num_nodes":"23","size_leaf_vector":"1"}},{"base_weights":[-1.4241699E-2,-2.6321142E0,6.634571E-1,-3.3020836E-1,-2.3856964E0,1.6156405E0,-1.2929646E0,-2.5408201E0,-1.7566187E0,-3.982723E-1,1.9049281E0,-7.731969E-1,-2.6969728E-1,-2.8147227E-1,-2.3107529E-1,-8.949636E-2,-2.6166877E-1,2.055974E-1,-1.18643634E-1,1.2619093E-1,2.609689E-1,-1.5947933E-1,-8.888388E-3],"categories":[],"categories_nodes":[],"categories_segments":[],"categories_sizes":[],"default_left":[0,0,0,0,0,0,0,0,0,0,0,0,0,0,0,0,0,0,0,0,0,0,0],"id":12,"left_children":[1,3,5,-1,7,9,11,13,15,17,19,21,-1,-1,-1,-1,-1,-1,-1,-1,-1,-1,-1],"loss_changes":[2.3294036E3,3.6697144E1,1.945065E3,0E0,1.5151367E1,4.0974377E2,2.4749194E2,3.5153809E0,2.9524734E1,1.7459631E2,2.749558E2,1.4097775E2,0E0,0E0,0E0,0E0,0E0,0E0,0E0,0E0,0E0,0E0,0E0],"parents":[2147483647,0,0,1,1,2,2,4,4,5,5,6,6,7,7,8,8,9,9,10,10,11,11],"right_children":[2,4,6,-1,8,10,12,14,16,18,20,22,-1,-1,-1,-1,-1,-1,-1,-1,-1,-1,-1],"split_conditions":[4E0,2E0,1.9E1,-3.3020836E-1,3E0,6E0,2.2E1,2E0,2E0,2E0,2E0,2E0,-2.6969728E-1,-2.8147227E-1,-2.3107529E-1,-8.949636E-2,-2.6166877E-1,2.055974E-1,-1.18643634E-1,1.2619093E-1,2.609689E-1,-1.5947933E-1,-8.888388E-3],"split_indices":[1,1,1,0,1,1,1,0,0,0,0,0,0,0,0,0,0,0,0,0,0,0,0],"split_type":[0,0,0,0,0,0,0,0,0,0,0,0,0,0,0,0,0,0,0,0,0,0,0],"sum_hessian":[1.311E3,2.69E2,1.042E3,6.9E1,2E2,7.01E2,3.41E2,1.58E2,4.2E1,8.8E1,6.13E2,2.5E2,9.1E1,6.7E1,9.1E1,2.2E1,2E1,2.1E1,6.7E1,3.22E2,2.91E2,1.13E2,1.37E2],"tree_param":{"num_deleted":"0","num_feature":"2","num_nodes":"23","size_leaf_vector":"1"}},{"base_weights":[-1.3699996E-2,-2.3733246E0,5.9714603E-1,-2.9765925E0,-2.151424E0,1.5455254E0,-1.0277351E0,-2.4380727E-1,-3.2045576E-1,-2.2899616E0,-1.5891234E0,1.7226785E0,-1.7616323E0,-3.9833352E-2,-1.707826E0,-2.5373897E-1,-2.0821892E-1,-8.093581E-2,-2.3674797E-1,1.3194813E-1,2.6204246E-1,-4.7042154E-2,-2.280036E-1,-6.0241945E-2,6.760237E-2,-2.4598432E-1,-9.7334966E-2],"categories":[],"categories_nodes":[],"categories_segments":[],"categories_sizes":[],"default_left":[0,0,0,0,0,0,0,0,0,0,0,0,0,0,0,0,0,0,0,0,0,0,0,0,0,0,0],"id":13,"left_children":[1,3,5,7,9,11,13,-1,-1,15,17,19,21,23,25,-1,-1,-1,-1,-1,-1,-1,-1,-1,-1,-1,-1],"loss_changes":[1.8924911E3,2.9739868E1,1.6088552E3,7.805176E-1,1.2018799E1,3.8912524E2,2.5859918E2,0E0,0E0,2.890686E0,2.4182068E1,2.2313489E2,2.1685936E1,6.403878E1,1.23539E2,0E0,0E0,0E0,0E0,0E0,0E0,0E0,0E0,0E0,0E0,0E0,0E0],"parents":[2147483647,0,0,1,1,2,2,3,3,4,4,5,5,6,6,9,9,10,10,11,11,12,12,13,13,14,14],"right_children":[2,4,6,8,10,12,14,-1,-1,16,18,20,22,24,26,-1,-1,-1,-1,-1,-1,-1,-1,-1,-1,-1,-1],"split_conditions":[4E0,2E0,1.8E1,2E0,3E0,4E0,2.1E1,-2.4380727E-1,-3.2045576E-1,2E0,2E0,1.5E1,7E0,2E0,2E0,-2.5373897E-1,-2.0821892E-1,-8.093581E-2,-2.3674797E-1,1.3194813E-1,2.6204246E-1,-4.7042154E-2,-2.280036E-1,-6.0241945E-2,6.760237E-2,-2.4598432E-1,-9.7334966E-2],"split_indices":[1,1,1,0,1,0,1,0,0,0,0,1,0,0,0,0,0,0,0,0,0,0,0,0,0,0,0],"split_type":[0,0,0,0,0,0,0,0,0,0,0,0,0,0,0,0,0,0,0,0,0,0,0,0,0,0,0],"sum_hessian":[1.311E3,2.69E2,1.042E3,6.9E1,2E2,6.58E2,3.84E2,2.4E1,4.5E1,1.58E2,4.2E1,6.25E2,3.3E1,1.57E2,2.27E2,6.7E1,9.1E1,2.2E1,2E1,4.33E2,1.92E2,1E1,2.3E1,8.8E1,6.9E1,1.11E2,1.16E2],"tree_param":{"num_deleted":"0","num_feature":"2","num_nodes":"27","size_leaf_vector":"1"}},{"base_weights":[-1.351991E-2,-2.1409698E0,5.372231E-1,-2.686994E0,-1.9401604E0,1.3911531E0,-9.258342E-1,-2.2040176E-1,-2.8910685E-1,-2.063871E0,-1.4375993E0,-3.9491293E-1,1.6671053E0,-3.5803415E-2,-1.5385492E0,-2.2873822E-1,-1.8762334E-1,-7.319416E-2,-2.1420054E-1,1.7337717E-1,-1.0777974E-1,1.0514708E-1,2.3495296E-1,-5.4285463E-2,6.0938742E-2,-2.216055E-1,-8.7684676E-2],"categories":[],"categories_nodes":[],"categories_segments":[],"categories_sizes":[],"default_left":[0,0,0,0,0,0,0,0,0,0,0,0,0,0,0,0,0,0,0,0,0,0,0,0,0,0,0],"id":14,"left_children":[1,3,5,7,9,11,13,-1,-1,15,17,19,21,23,25,-1,-1,-1,-1,-1,-1,-1,-1,-1,-1,-1,-1],"loss_changes":[1.5383917E3,2.439148E1,1.3043584E3,5.274658E-1,9.529541E0,3.2545898E2,2.0989896E2,0E0,0E0,2.376587E0,1.9806175E1,1.3124313E2,2.3742029E2,5.2019684E1,1.00270996E2,0E0,0E0,0E0,0E0,0E0,0E0,0E0,0E0,0E0,0E0,0E0,0E0],"parents":[2147483647,0,0,1,1,2,2,3,3,4,4,5,5,6,6,9,9,10,10,11,11,12,12,13,13,14,14],"right_children":[2,4,6,8,10,12,14,-1,-1,16,18,20,22,24,26,-1,-1,-1,-1,-1,-1,-1,-1,-1,-1,-1,-1],"split_conditions":[4E0,2E0,1.8E1,2E0,3E0,6E0,2.1E1,-2.2040176E-1,-2.8910685E-1,2E0,2E0,2E0,2E0,2E0,2E0,-2.2873822E-1,-1.8762334E-1,-7.319416E-2,-2.1420054E-1,1.7337717E-1,-1.0777974E-1,1.0514708E-1,2.3495296E-1,-5.4285463E-2,6.0938742E-2,-2.216055E-1,-8.7684676E-2],"split_indices":[1,1,1,0,1,1,1,0,0,0,0,0,0,0,0,0,0,0,0,0,0,0,0,0,0,0,0],"split_type":[0,0,0,0,0,0,0,0,0,0,0,0,0,0,0,0,0,0,0,0,0,0,0,0,0,0,0],"sum_hessian":[1.311E3,2.69E2,1.042E3,6.9E1,2E2,6.58E2,3.84E2,2.4E1,4.5E1,1.58E2,4.2E1,8.8E1,5.7E2,1.57E2,2.27E2,6.7E1,9.1E1,2.2E1,2E1,2.1E1,6.7E1,3.01E2,2.69E2,8.8E1,6.9E1,1.11E2,1.16E2],"tree_param":{"num_deleted":"0","num_feature":"2","num_nodes":"27","size_leaf_vector":"1"}},{"base_weights":[-1.3014E-2,-1.9313662E0,4.8359972E-1,-2.4255733E0,-1.7496455E0,1.2526537E0,-8.3403707E-1,-1.992432E-1,-2.6082465E-1,-1.8601023E0,-1.3005228E0,1.4050325E0,-1.5897529E0,-4.5145938E-1,-2.0475566E-1,-2.0620076E-1,-1.6906492E-1,-6.619295E-2,-1.938005E-1,1.0488769E-1,2.1986416E-1,-6.412506E-2,-1.9582434E-1,-1.01144634E-1,2.3851227E-3],"categories":[],"categories_nodes":[],"categories_segments":[],"categories_sizes":[],"default_left":[0,0,0,0,0,0,0,0,0,0,0,0,0,0,0,0,0,0,0,0,0,0,0,0,0],"id":15,"left_children":[1,3,5,7,9,11,13,-1,-1,15,17,19,21,23,-1,-1,-1,-1,-1,-1,-1,-1,-1,-1,-1],"loss_changes":[1.2508502E3,2.000415E1,1.0579519E3,3.4188843E-1,7.552246E0,2.876615E2,1.7781784E2,0E0,0E0,1.9537964E0,1.622213E1,1.7463171E2,1.0627754E1,7.8277435E1,0E0,0E0,0E0,0E0,0E0,0E0,0E0,0E0,0E0,0E0,0E0],"parents":[2147483647,0,0,1,1,2,2,3,3,4,4,5,5,6,6,9,9,10,10,11,11,12,12,13,13],"right_children":[2,4,6,8,10,12,14,-1,-1,16,18,20,22,24,-1,-1,-1,-1,-1,-1,-1,-1,-1,-1,-1],"split_conditions":[4E0,2E0,1.8E1,2E0,3E0,4E0,2.2E1,-1.992432E-1,-2.6082465E-1,2E0,2E0,1.5E1,7E0,2E0,-2.0475566E-1,-2.0620076E-1,-1.6906492E-1,-6.619295E-2,-1.938005E-1,1.0488769E-1,2.1986416E-1,-6.412506E-2,-1.9582434E-1,-1.01144634E-1,2.3851227E-3],"split_indices":[1,1,1,0,1,0,1,0,0,0,0,1,0,0,0,0,0,0,0,0,0,0,0,0,0],"split_type":[0,0,0,0,0,0,0,0,0,0,0,0,0,0,0,0,0,0,0,0,0,0,0,0,0],"sum_hessian":[1.311E3,2.69E2,1.042E3,6.9E1,2E2,6.58E2,3.84E2,2.4E1,4.5E1,1.58E2,4.2E1,6.25E2,3.3E1,2.93E2,9.1E1,6.7E1,9.1E1,2.2E1,2E1,4.33E2,1.92E2,1E1,2.3E1,1.34E2,1.59E2],"tree_param":{"num_deleted":"0","num_feature":"2","num_nodes":"25","size_leaf_vector":"1"}},{"base_weights":[-1.2729125E-2,-1.7422864E0,4.3501124E-1,-2.1895883E0,-1.5778415E0,1.2541832E0,-5.819767E-1,-1.8011583E-1,-2.353092E-1,-1.6764523E0,-1.1765171E0,7.7278394E-1,3.250248E0,-1.3624723E0,2.457806E-1,-1.8588395E-1,-1.523422E-1,-5.9861477E-2,-1.7534332E-1,9.442315E-2,-1.4384232E-1,2.2170699E-1,4.7965905E-1,-9.407377E-2,-1.8360554E-1,2.4955975E-1,-2.6356393E-2],"categories":[],"categories_nodes":[],"categories_segments":[],"categories_sizes":[],"default_left":[0,0,0,0,0,0,0,0,0,0,0,0,0,0,0,0,0,0,0,0,0,0,0,0,0,0,0],"id":16,"left_children":[1,3,5,7,9,11,13,-1,-1,15,17,19,21,23,25,-1,-1,-1,-1,-1,-1,-1,-1,-1,-1,-1,-1],"loss_changes":[1.016761E3,1.6405457E1,8.696407E2,2.0739746E-1,5.982147E0,5.5289075E2,3.013993E2,0E0,0E0,1.6060181E0,1.3286621E1,1.7840079E2,1.6830212E2,4.620706E1,2.6078424E2,0E0,0E0,0E0,0E0,0E0,0E0,0E0,0E0,0E0,0E0,0E0,0E0],"parents":[2147483647,0,0,1,1,2,2,3,3,4,4,5,5,6,6,9,9,10,10,11,11,12,12,13,13,14,14],"right_children":[2,4,6,8,10,12,14,-1,-1,16,18,20,22,24,26,-1,-1,-1,-1,-1,-1,-1,-1,-1,-1,-1,-1],"split_conditions":[4E0,2E0,1.7E1,2E0,3E0,1.5E1,2E0,-1.8011583E-1,-2.353092E-1,2E0,2E0,4E0,2E0,2.1E1,1.8E1,-1.8588395E-1,-1.523422E-1,-5.9861477E-2,-1.7534332E-1,9.442315E-2,-1.4384232E-1,2.2170699E-1,4.7965905E-1,-9.407377E-2,-1.8360554E-1,2.4955975E-1,-2.6356393E-2],"split_indices":[1,1,1,0,1,1,0,0,0,0,0,0,0,1,1,0,0,0,0,0,0,0,0,0,0,0,0],"split_type":[0,0,0,0,0,0,0,0,0,0,0,0,0,0,0,0,0,0,0,0,0,0,0,0,0,0,0],"sum_hessian":[1.311E3,2.69E2,1.042E3,6.9E1,2E2,5.77E2,4.65E2,2.4E1,4.5E1,1.58E2,4.2E1,4.66E2,1.11E2,2.39E2,2.26E2,6.7E1,9.1E1,2.2E1,2E1,4.33E2,3.3E1,6.8E1,4.3E1,1.28E2,1.11E2,4.1E1,1.85E2],"tree_param":{"num_deleted":"0","num_feature":"2","num_nodes":"27","size_leaf_vector":"1"}},{"base_weights":[-1.1754418E-2,-1.5717201E0,3.9208305E-1,-1.9765642E0,-1.4229101E0,8.314386E-1,-1.182067E0,-1.628247E-1,-2.1228981E-1,-1.5109341E0,-1.0643353E0,1.1298928E0,1.0617507E-1,-1.6540891E-1,-7.2011364E-1,-1.675689E-1,-1.3727355E-1,-5.413562E-2,-1.5864393E-1,6.953996E-2,2.931486E-1,-8.473929E-2,1.2134192E-1,-3.5690878E-2,-1.9175777E-1],"categories":[],"categories_nodes":[],"categories_segments":[],"categories_sizes":[],"default_left":[0,0,0,0,0,0,0,0,0,0,0,0,0,0,0,0,0,0,0,0,0,0,0,0,0],"id":17,"left_children":[1,3,5,7,9,11,13,-1,-1,15,17,19,21,-1,23,-1,-1,-1,-1,-1,-1,-1,-1,-1,-1],"loss_changes":[8.271403E2,1.3453613E1,7.223337E2,1.1135864E-1,4.7360535E0,1.7650977E2,4.852475E1,0E0,0E0,1.3199768E0,1.0882301E1,4.5040826E2,2.533722E2,0E0,5.0201786E1,0E0,0E0,0E0,0E0,0E0,0E0,0E0,0E0,0E0,0E0],"parents":[2147483647,0,0,1,1,2,2,3,3,4,4,5,5,6,6,9,9,10,10,11,11,12,12,14,14],"right_children":[2,4,6,8,10,12,14,-1,-1,16,18,20,22,-1,24,-1,-1,-1,-1,-1,-1,-1,-1,-1,-1],"split_conditions":[4E0,2E0,2.1E1,2E0,3E0,1.7E1,2E0,-1.628247E-1,-2.1228981E-1,2E0,2E0,1.5E1,2E0,-1.6540891E-1,2.2E1,-1.675689E-1,-1.3727355E-1,-5.413562E-2,-1.5864393E-1,6.953996E-2,2.931486E-1,-8.473929E-2,1.2134192E-1,-3.5690878E-2,-1.9175777E-1],"split_indices":[1,1,1,0,1,1,0,0,0,0,0,1,0,0,1,0,0,0,0,0,0,0,0,0,0],"split_type":[0,0,0,0,0,0,0,0,0,0,0,0,0,0,0,0,0,0,0,0,0,0,0,0,0],"sum_hessian":[1.311E3,2.69E2,1.042E3,6.9E1,2E2,8.15E2,2.27E2,2.4E1,4.5E1,1.58E2,4.2E1,5.77E2,2.38E2,1.11E2,1.16E2,6.7E1,9.1E1,2.2E1,2E1,4.66E2,1.11E2,1.28E2,1.1E2,9E1,2.6E1],"tree_param":{"num_deleted":"0","num_feature":"2","num_nodes":"25","size_leaf_vector":"1"}},{"base_weights":[-1.1254394E-2,-1.1889665E0,4.3024525E-1,-1.4974481E0,-6.429911E-1,1.287678E0,-4.7227043E-1,-1.6614481E0,-1.2369539E-1,3.9990833E-1,-1.1571342E0,8.8436735E-1,2.6409554E0,-1.1056857E0,1.9950025E-1,-1.5165013E-1,-1.9152234E-1,-4.8957463E-2,1.3116448E-1,-6.866782E-2,-1.6119838E-1,2.5004098E-1,3.5762057E-2,1.709677E-1,4.041348E-1,-1.9406433E-1,-9.28991E-2,2.1335272E-1,-2.382881E-2],"categories":[],"categories_nodes":[],"categories_segments":[],"categories_sizes":[],"default_left":[0,0,0,0,0,0,0,0,0,0,0,0,0,0,0,0,0,0,0,0,0,0,0,0,0,0,0,0,0],"id":18,"left_children":[1,3,5,7,9,11,13,15,-1,17,19,21,23,25,27,-1,-1,-1,-1,-1,-1,-1,-1,-1,-1,-1,-1,-1,-1],"loss_changes":[6.8269836E2,5.9332672E1,7.3963153E2,7.685272E0,7.070488E1,2.6510217E2,1.9850815E2,2.1349487E0,0E0,3.6324997E1,1.77239E1,3.2172778E2,1.3915594E2,3.360498E1,1.9270804E2,0E0,0E0,0E0,0E0,0E0,0E0,0E0,0E0,0E0,0E0,0E0,0E0,0E0,0E0],"parents":[2147483647,0,0,1,1,2,2,3,3,4,4,5,5,6,6,7,7,9,9,10,10,11,11,12,12,13,13,14,14],"right_children":[2,4,6,8,10,12,14,16,-1,18,20,22,24,26,28,-1,-1,-1,-1,-1,-1,-1,-1,-1,-1,-1,-1,-1,-1],"split_conditions":[6E0,3E0,1.7E1,4E0,2E0,1.5E1,2E0,2E0,-1.2369539E-1,4E0,4E0,9E0,2E0,1.8E1,1.8E1,-1.5165013E-1,-1.9152234E-1,-4.8957463E-2,1.3116448E-1,-6.866782E-2,-1.6119838E-1,2.5004098E-1,3.5762057E-2,1.709677E-1,4.041348E-1,-1.9406433E-1,-9.28991E-2,2.1335272E-1,-2.382881E-2],"split_indices":[1,1,1,0,0,1,0,0,0,1,0,1,0,1,1,0,0,0,0,0,0,0,0,0,0,0,0,0,0],"split_type":[0,0,0,0,0,0,0,0,0,0,0,0,0,0,0,0,0,0,0,0,0,0,0,0,0,0,0,0,0],"sum_hessian":[1.311E3,3.57E2,9.54E2,2.27E2,1.3E2,4.89E2,4.65E2,1.36E2,9.1E1,4.3E1,8.7E1,3.78E2,1.11E2,2.39E2,2.26E2,9.1E1,4.5E1,2.2E1,2.1E1,4.4E1,4.3E1,9.2E1,2.86E2,6.8E1,4.3E1,4E1,1.99E2,4.1E1,1.85E2],"tree_param":{"num_deleted":"0","num_feature":"2","num_nodes":"29","size_leaf_vector":"1"}},{"base_weights":[-1.001542E-2,-1.0717863E0,3.8802016E-1,-1.3497509E0,-5.7981896E-1,1.1606671E0,-4.2525235E-1,-1.4978082E0,-1.11460306E-1,3.6178598E-1,-1.0440326E0,7.9668444E-1,2.3819952E0,-9.963125E-1,1.8038505E-1,-1.3664995E-1,-1.7278646E-1,-4.427454E-2,1.18644215E-1,-6.1953582E-2,-1.454449E-1,2.2530584E-1,3.2198243E-2,1.5411876E-1,3.646398E-1,-6.397617E-2,-1.398087E-1,1.9252549E-1,-2.145876E-2],"categories":[],"categories_nodes":[],"categories_segments":[],"categories_sizes":[],"default_left":[0,0,0,0,0,0,0,0,0,0,0,0,0,0,0,0,0,0,0,0,0,0,0,0,0,0,0,0,0],"id":19,"left_children":[1,3,5,7,9,11,13,15,-1,17,19,21,23,25,27,-1,-1,-1,-1,-1,-1,-1,-1,-1,-1,-1,-1,-1,-1],"loss_changes":[5.548967E2,4.8173737E1,6.0058923E2,6.2684326E0,5.763858E1,2.1592804E2,1.6134833E2,1.7774048E0,0E0,2.9717606E1,1.4430313E1,2.6129385E2,1.13449524E2,3.3486313E1,1.5685605E2,0E0,0E0,0E0,0E0,0E0,0E0,0E0,0E0,0E0,0E0,0E0,0E0,0E0,0E0],"parents":[2147483647,0,0,1,1,2,2,3,3,4,4,5,5,6,6,7,7,9,9,10,10,11,11,12,12,13,13,14,14],"right_children":[2,4,6,8,10,12,14,16,-1,18,20,22,24,26,28,-1,-1,-1,-1,-1,-1,-1,-1,-1,-1,-1,-1,-1,-1],"split_conditions":[6E0,3E0,1.7E1,4E0,2E0,1.5E1,2E0,2E0,-1.11460306E-1,4E0,4E0,9E0,2E0,2.1E1,1.8E1,-1.3664995E-1,-1.7278646E-1,-4.427454E-2,1.18644215E-1,-6.1953582E-2,-1.454449E-1,2.2530584E-1,3.2198243E-2,1.5411876E-1,3.646398E-1,-6.397617E-2,-1.398087E-1,1.9252549E-1,-2.145876E-2],"split_indices":[1,1,1,0,0,1,0,0,0,1,0,1,0,1,1,0,0,0,0,0,0,0,0,0,0,0,0,0,0],"split_type":[0,0,0,0,0,0,0,0,0,0,0,0,0,0,0,0,0,0,0,0,0,0,0,0,0,0,0,0,0],"sum_hessian":[1.311E3,3.57E2,9.54E2,2.27E2,1.3E2,4.89E2,4.65E2,1.36E2,9.1E1,4.3E1,8.7E1,3.78E2,1.11E2,2.39E2,2.26E2,9.1E1,4.5E1,2.2E1,2.1E1,4.4E1,4.3E1,9.2E1,2.86E2,6.8E1,4.3E1,1.28E2,1.11E2,4.1E1,1.85E2],"tree_param":{"num_deleted":"0","num_feature":"2","num_nodes":"29","size_leaf_vector":"1"}},{"base_weights":[-8.869305E-3,-9.661549E-1,3.4999678E-1,-1.2166219E0,-5.2285236E-1,7.501593E-1,-9.292502E-1,-1.3502861E0,-1.0043543E-1,3.2729724E-1,-9.4198567E-1,2.0301757E0,5.618076E-1,-6.3348204E-1,-1.3595871E0,-1.231335E-1,-1.5588343E-1,-4.0039606E-2,1.07319035E-1,-5.5895813E-2,-1.3123097E-1,2.4713027E-1,1.4827546E-1,2.6043754E-3,1.177124E-1,-1.3105616E-1,-2.7682025E-2,-1.2040999E-1,-1.6893117E-1],"categories":[],"categories_nodes":[],"categories_segments":[],"categories_sizes":[],"default_left":[0,0,0,0,0,0,0,0,0,0,0,0,0,0,0,0,0,0,0,0,0,0,0,0,0,0,0,0,0],"id":20,"left_children":[1,3,5,7,9,11,13,15,-1,17,19,21,23,25,27,-1,-1,-1,-1,-1,-1,-1,-1,-1,-1,-1,-1,-1,-1],"loss_changes":[4.510591E2,3.9113586E1,4.89568E2,5.112793E0,4.698702E1,1.7437534E2,2.8158554E1,1.479126E0,0E0,2.4312084E1,1.1748764E1,1.8793518E1,2.0963586E2,3.2721123E1,2.6825562E0,0E0,0E0,0E0,0E0,0E0,0E0,0E0,0E0,0E0,0E0,0E0,0E0,0E0,0E0],"parents":[2147483647,0,0,1,1,2,2,3,3,4,4,5,5,6,6,7,7,9,9,10,10,11,11,12,12,13,13,14,14],"right_children":[2,4,6,8,10,12,14,16,-1,18,20,22,24,26,28,-1,-1,-1,-1,-1,-1,-1,-1,-1,-1,-1,-1,-1,-1],"split_conditions":[6E0,3E0,2.1E1,4E0,2E0,9E0,2.2E1,2E0,-1.0043543E-1,4E0,4E0,2E0,2E0,2E0,2E0,-1.231335E-1,-1.5588343E-1,-4.0039606E-2,1.07319035E-1,-5.5895813E-2,-1.3123097E-1,2.4713027E-1,1.4827546E-1,2.6043754E-3,1.177124E-1,-1.3105616E-1,-2.7682025E-2,-1.2040999E-1,-1.6893117E-1],"split_indices":[1,1,1,0,0,1,1,0,0,1,0,0,0,0,0,0,0,0,0,0,0,0,0,0,0,0,0,0,0],"split_type":[0,0,0,0,0,0,0,0,0,0,0,0,0,0,0,0,0,0,0,0,0,0,0,0,0,0,0,0,0],"sum_hessian":[1.311E3,3.57E2,9.54E2,2.27E2,1.3E2,7.27E2,2.27E2,1.36E2,9.1E1,4.3E1,8.7E1,9.2E1,6.35E2,1.36E2,9.1E1,9.1E1,4.5E1,2.2E1,2.1E1,4.4E1,4.3E1,4.9E1,4.3E1,3.4E2,2.95E2,4.6E1,9E1,6.5E1,2.6E1],"tree_param":{"num_deleted":"0","num_feature":"2","num_nodes":"29","size_leaf_vector":"1"}},{"base_weights":[-8.311082E-3,-8.70934E-1,3.150683E-1,-1.096624E0,-4.7148162E-1,9.6289116E-1,-3.667949E-1,-1.2172941E0,-9.050107E-2,2.960969E-1,-8.499131E-1,6.238297E-1,2.1016536E0,-8.4118915E-1,1.3638316E-1,-1.10954E-1,-1.4063396E-1,-3.6209688E-2,9.707496E-2,-5.0430354E-2,-1.1840614E-1,1.8314102E-1,2.3034954E-2,1.386736E-1,3.1750092E-1,-1.6914357E-1,-6.626827E-2,1.6224036E-1,-1.9990308E-2],"categories":[],"categories_nodes":[],"categories_segments":[],"categories_sizes":[],"default_left":[0,0,0,0,0,0,0,0,0,0,0,0,0,0,0,0,0,0,0,0,0,0,0,0,0,0,0,0,0],"id":21,"left_children":[1,3,5,7,9,11,13,15,-1,17,19,21,23,25,27,-1,-1,-1,-1,-1,-1,-1,-1,-1,-1,-1,-1,-1,-1],"loss_changes":[3.6626266E2,3.1757507E1,4.2220203E2,4.170166E0,3.8304E1,1.8788297E2,1.1135116E2,1.2303619E0,0E0,1.9889801E1,9.565548E0,1.7966342E2,8.1541534E1,3.5305008E1,1.1376263E2,0E0,0E0,0E0,0E0,0E0,0E0,0E0,0E0,0E0,0E0,0E0,0E0,0E0,0E0],"parents":[2147483647,0,0,1,1,2,2,3,3,4,4,5,5,6,6,7,7,9,9,10,10,11,11,12,12,13,13,14,14],"right_children":[2,4,6,8,10,12,14,16,-1,18,20,22,24,26,28,-1,-1,-1,-1,-1,-1,-1,-1,-1,-1,-1,-1,-1,-1],"split_conditions":[6E0,3E0,1.7E1,4E0,2E0,1.5E1,2E0,2E0,-9.050107E-2,4E0,4E0,9E0,2E0,1.8E1,1.8E1,-1.10954E-1,-1.4063396E-1,-3.6209688E-2,9.707496E-2,-5.0430354E-2,-1.1840614E-1,1.8314102E-1,2.3034954E-2,1.386736E-1,3.1750092E-1,-1.6914357E-1,-6.626827E-2,1.6224036E-1,-1.9990308E-2],"split_indices":[1,1,1,0,0,1,0,0,0,1,0,1,0,1,1,0,0,0,0,0,0,0,0,0,0,0,0,0,0],"split_type":[0,0,0,0,0,0,0,0,0,0,0,0,0,0,0,0,0,0,0,0,0,0,0,0,0,0,0,0,0],"sum_hessian":[1.311E3,3.57E2,9.54E2,2.27E2,1.3E2,4.89E2,4.65E2,1.36E2,9.1E1,4.3E1,8.7E1,3.78E2,1.11E2,2.39E2,2.26E2,9.1E1,4.5E1,2.2E1,2.1E1,4.4E1,4.3E1,9.2E1,2.86E2,6.8E1,4.3E1,4E1,1.99E2,4.1E1,1.85E2],"tree_param":{"num_deleted":"0","num_feature":"2","num_nodes":"29","size_leaf_vector":"1"}},{"base_weights":[-7.389295E-3,-7.850976E-1,2.8415728E-1,-9.884619E-1,-4.251575E-1,6.2201345E-1,-7.9585785E-1,-1.0974011E0,-8.154931E-2,2.6787093E-1,-7.668404E-1,1.6502377E0,4.7068188E-1,-5.359098E-1,-1.1743039E0,-9.99792E-2,-1.2687628E-1,-3.2746114E-2,8.780876E-2,-4.5499388E-2,-1.0683461E-1,2.0496368E-1,1.1588698E-1,2.3009102E-3,9.848229E-2,-1.1174362E-1,-2.2967186E-2,-1.02024995E-1,-1.5073875E-1],"categories":[],"categories_nodes":[],"categories_segments":[],"categories_sizes":[],"default_left":[0,0,0,0,0,0,0,0,0,0,0,0,0,0,0,0,0,0,0,0,0,0,0,0,0,0,0,0,0],"id":22,"left_children":[1,3,5,7,9,11,13,15,-1,17,19,21,23,25,27,-1,-1,-1,-1,-1,-1,-1,-1,-1,-1,-1,-1,-1,-1],"loss_changes":[2.9770358E2,2.5784988E1,3.4896478E2,3.401291E0,3.1225683E1,1.12502106E2,2.1800491E1,1.0230255E0,0E0,1.6271927E1,7.787979E0,1.5876175E1,1.463635E2,2.414106E1,3.182869E0,0E0,0E0,0E0,0E0,0E0,0E0,0E0,0E0,0E0,0E0,0E0,0E0,0E0,0E0],"parents":[2147483647,0,0,1,1,2,2,3,3,4,4,5,5,6,6,7,7,9,9,10,10,11,11,12,12,13,13,14,14],"right_children":[2,4,6,8,10,12,14,16,-1,18,20,22,24,26,28,-1,-1,-1,-1,-1,-1,-1,-1,-1,-1,-1,-1,-1,-1],"split_conditions":[6E0,3E0,2.1E1,4E0,2E0,9E0,2.2E1,2E0,-8.154931E-2,4E0,4E0,2E0,2E0,2E0,2E0,-9.99792E-2,-1.2687628E-1,-3.2746114E-2,8.780876E-2,-4.5499388E-2,-1.0683461E-1,2.0496368E-1,1.1588698E-1,2.3009102E-3,9.848229E-2,-1.1174362E-1,-2.2967186E-2,-1.02024995E-1,-1.5073875E-1],"split_indices":[1,1,1,0,0,1,1,0,0,1,0,0,0,0,0,0,0,0,0,0,0,0,0,0,0,0,0,0,0],"split_type":[0,0,0,0,0,0,0,0,0,0,0,0,0,0,0,0,0,0,0,0,0,0,0,0,0,0,0,0,0],"sum_hessian":[1.311E3,3.57E2,9.54E2,2.27E2,1.3E2,7.27E2,2.27E2,1.36E2,9.1E1,4.3E1,8.7E1,9.2E1,6.35E2,1.36E2,9.1E1,9.1E1,4.5E1,2.2E1,2.1E1,4.4E1,4.3E1,4.9E1,4.3E1,3.4E2,2.95E2,4.6E1,9E1,6.5E1,2.6E1],"tree_param":{"num_deleted":"0","num_feature":"2","num_nodes":"29","size_leaf_vector":"1"}},{"base_weights":[-6.9333613E-3,-7.07721E-1,2.5577754E-1,-8.909684E-1,-3.8338417E-1,7.991103E-1,-3.1608686E-1,-9.893168E-1,-7.3483035E-2,2.4233541E-1,-6.918873E-1,4.8457086E-1,1.8563542E0,-7.1022904E-1,1.0201978E-1,-9.0089954E-2,-1.14464454E-1,-2.9613858E-2,7.9427026E-2,-4.105052E-2,-9.639398E-2,1.4886642E-1,1.5751427E-2,1.247805E-1,2.7684805E-1,-1.5286617E-1,-5.3889927E-2,1.3678882E-1,-1.8436996E-2],"categories":[],"categories_nodes":[],"categories_segments":[],"categories_sizes":[],"default_left":[0,0,0,0,0,0,0,0,0,0,0,0,0,0,0,0,0,0,0,0,0,0,0,0,0,0,0,0,0],"id":23,"left_children":[1,3,5,7,9,11,13,15,-1,17,19,21,23,25,27,-1,-1,-1,-1,-1,-1,-1,-1,-1,-1,-1,-1,-1,-1],"loss_changes":[2.417262E2,2.0935745E1,2.9698315E2,2.77417E0,2.5455446E1,1.6204749E2,7.686621E1,8.503113E-1,0E0,1.3312127E1,6.3407593E0,1.2422733E2,5.8713745E1,3.282946E1,8.254689E1,0E0,0E0,0E0,0E0,0E0,0E0,0E0,0E0,0E0,0E0,0E0,0E0,0E0,0E0],"parents":[2147483647,0,0,1,1,2,2,3,3,4,4,5,5,6,6,7,7,9,9,10,10,11,11,12,12,13,13,14,14],"right_children":[2,4,6,8,10,12,14,16,-1,18,20,22,24,26,28,-1,-1,-1,-1,-1,-1,-1,-1,-1,-1,-1,-1,-1,-1],"split_conditions":[6E0,3E0,1.7E1,4E0,2E0,1.5E1,2E0,2E0,-7.3483035E-2,4E0,4E0,9E0,2E0,1.8E1,1.8E1,-9.0089954E-2,-1.14464454E-1,-2.9613858E-2,7.9427026E-2,-4.105052E-2,-9.639398E-2,1.4886642E-1,1.5751427E-2,1.247805E-1,2.7684805E-1,-1.5286617E-1,-5.3889927E-2,1.3678882E-1,-1.8436996E-2],"split_indices":[1,1,1,0,0,1,0,0,0,1,0,1,0,1,1,0,0,0,0,0,0,0,0,0,0,0,0,0,0],"split_type":[0,0,0,0,0,0,0,0,0,0,0,0,0,0,0,0,0,0,0,0,0,0,0,0,0,0,0,0,0],"sum_hessian":[1.311E3,3.57E2,9.54E2,2.27E2,1.3E2,4.89E2,4.65E2,1.36E2,9.1E1,4.3E1,8.7E1,3.78E2,1.11E2,2.39E2,2.26E2,9.1E1,4.5E1,2.2E1,2.1E1,4.4E1,4.3E1,9.2E1,2.86E2,6.8E1,4.3E1,4E1,1.99E2,4.1E1,1.85E2],"tree_param":{"num_deleted":"0","num_feature":"2","num_nodes":"29","size_leaf_vector":"1"}},{"base_weights":[-6.154403E-3,-6.3797045E-1,2.3070036E-1,-8.0309105E-1,-3.4571502E-1,5.1634043E-1,-6.8235517E-1,-8.9187825E-1,-6.621461E-2,2.1923347E-1,-6.2426066E-1,1.7215605E0,4.3252563E-1,-4.5309535E-1,-1.016336E0,-8.1178874E-2,-1.0326685E-1,-2.6781265E-2,7.1845286E-2,-3.7036743E-2,-8.6973645E-2,2.0836766E-1,1.2153524E-1,1.0448295E-2,8.076925E-2,-9.553266E-2,-1.8872214E-2,-8.666973E-2,-1.3444775E-1],"categories":[],"categories_nodes":[],"categories_segments":[],"categories_sizes":[],"default_left":[0,0,0,0,0,0,0,0,0,0,0,0,0,0,0,0,0,0,0,0,0,0,0,0,0,0,0,0,0],"id":24,"left_children":[1,3,5,7,9,11,13,15,-1,17,19,21,23,25,27,-1,-1,-1,-1,-1,-1,-1,-1,-1,-1,-1,-1,-1,-1],"loss_changes":[1.9648619E2,1.6998505E1,2.4942133E2,2.2626648E0,2.0751534E1,7.2794495E1,1.6997093E1,7.0648956E-1,0E0,1.0890697E1,5.162445E0,6.0829926E0,8.384983E1,1.8010084E1,3.3521957E0,0E0,0E0,0E0,0E0,0E0,0E0,0E0,0E0,0E0,0E0,0E0,0E0,0E0,0E0],"parents":[2147483647,0,0,1,1,2,2,3,3,4,4,5,5,6,6,7,7,9,9,10,10,11,11,12,12,13,13,14,14],"right_children":[2,4,6,8,10,12,14,16,-1,18,20,22,24,26,28,-1,-1,-1,-1,-1,-1,-1,-1,-1,-1,-1,-1,-1,-1],"split_conditions":[6E0,3E0,2.1E1,4E0,2E0,7E0,2.2E1,2E0,-6.621461E-2,4E0,4E0,2E0,2E0,2E0,2E0,-8.1178874E-2,-1.0326685E-1,-2.6781265E-2,7.1845286E-2,-3.7036743E-2,-8.6973645E-2,2.0836766E-1,1.2153524E-1,1.0448295E-2,8.076925E-2,-9.553266E-2,-1.8872214E-2,-8.666973E-2,-1.3444775E-1],"split_indices":[1,1,1,0,0,1,1,0,0,1,0,0,0,0,0,0,0,0,0,0,0,0,0,0,0,0,0,0,0],"split_type":[0,0,0,0,0,0,0,0,0,0,0,0,0,0,0,0,0,0,0,0,0,0,0,0,0,0,0,0,0],"sum_hessian":[1.311E3,3.57E2,9.54E2,2.27E2,1.3E2,7.27E2,2.27E2,1.36E2,9.1E1,4.3E1,8.7E1,4.6E1,6.81E2,1.36E2,9.1E1,9.1E1,4.5E1,2.2E1,2.1E1,4.4E1,4.3E1,2.5E1,2.1E1,3.64E2,3.17E2,4.6E1,9E1,6.5E1,2.6E1],"tree_param":{"num_deleted":"0","num_feature":"2","num_nodes":"29","size_leaf_vector":"1"}},{"base_weights":[-5.724893E-3,-5.7509416E-1,2.0772004E-1,-7.238813E-1,-3.1174624E-1,6.6536254E-1,-2.7393776E-1,-8.040367E-1,-5.9665125E-2,1.9833387E-1,-5.6324375E-1,3.7648827E-1,1.6369517E0,-6.038565E-1,7.6081745E-2,-7.314922E-2,-9.316466E-2,-2.4219597E-2,6.4987265E-2,-3.341536E-2,-7.847395E-2,1.2361391E-1,9.661366E-3,1.11453585E-1,2.4189913E-1,-1.3897173E-1,-4.3973576E-2,1.1555102E-1,-1.680692E-2],"categories":[],"categories_nodes":[],"categories_segments":[],"categories_sizes":[],"default_left":[0,0,0,0,0,0,0,0,0,0,0,0,0,0,0,0,0,0,0,0,0,0,0,0,0,0,0,0,0],"id":25,"left_children":[1,3,5,7,9,11,13,15,-1,17,19,21,23,25,27,-1,-1,-1,-1,-1,-1,-1,-1,-1,-1,-1,-1,-1,-1],"loss_changes":[1.5956548E2,1.3801781E1,2.1069012E2,1.8454514E0,1.6916897E1,1.3691061E2,5.3858685E1,5.8677673E-1,0E0,8.909714E0,4.2031174E0,9.1065865E1,4.3061523E1,3.0343147E1,6.0018574E1,0E0,0E0,0E0,0E0,0E0,0E0,0E0,0E0,0E0,0E0,0E0,0E0,0E0,0E0],"parents":[2147483647,0,0,1,1,2,2,3,3,4,4,5,5,6,6,7,7,9,9,10,10,11,11,12,12,13,13,14,14],"right_children":[2,4,6,8,10,12,14,16,-1,18,20,22,24,26,28,-1,-1,-1,-1,-1,-1,-1,-1,-1,-1,-1,-1,-1,-1],"split_conditions":[6E0,3E0,1.7E1,4E0,2E0,1.5E1,2E0,2E0,-5.9665125E-2,4E0,4E0,9E0,2E0,1.8E1,1.8E1,-7.314922E-2,-9.316466E-2,-2.4219597E-2,6.4987265E-2,-3.341536E-2,-7.847395E-2,1.2361391E-1,9.661366E-3,1.11453585E-1,2.4189913E-1,-1.3897173E-1,-4.3973576E-2,1.1555102E-1,-1.680692E-2],"split_indices":[1,1,1,0,0,1,0,0,0,1,0,1,0,1,1,0,0,0,0,0,0,0,0,0,0,0,0,0,0],"split_type":[0,0,0,0,0,0,0,0,0,0,0,0,0,0,0,0,0,0,0,0,0,0,0,0,0,0,0,0,0],"sum_hessian":[1.311E3,3.57E2,9.54E2,2.27E2,1.3E2,4.89E2,4.65E2,1.36E2,9.1E1,4.3E1,8.7E1,3.78E2,1.11E2,2.39E2,2.26E2,9.1E1,4.5E1,2.2E1,2.1E1,4.4E1,4.3E1,9.2E1,2.86E2,6.8E1,4.3E1,4E1,1.99E2,4.1E1,1.85E2],"tree_param":{"num_deleted":"0","num_feature":"2","num_nodes":"29","size_leaf_vector":"1"}},{"base_weights":[-5.072005E-3,-5.184147E-1,1.873696E-1,-6.524843E-1,-2.8111467E-1,4.2920622E-1,-5.8563226E-1,-7.2484696E-1,-5.376346E-2,1.7942701E-1,-5.0819105E-1,1.4354404E0,3.592323E-1,-3.8281515E-1,-8.8128775E-1,-6.591381E-2,-8.405072E-2,-2.1902947E-2,5.8783937E-2,-3.0148128E-2,-7.0804894E-2,1.7644635E-1,9.813478E-2,8.71914E-3,6.703509E-2,-8.1878856E-2,-1.5343534E-2,-7.3803335E-2,-1.1988249E-1],"categories":[],"categories_nodes":[],"categories_segments":[],"categories_sizes":[],"default_left":[0,0,0,0,0,0,0,0,0,0,0,0,0,0,0,0,0,0,0,0,0,0,0,0,0,0,0,0,0],"id":26,"left_children":[1,3,5,7,9,11,13,15,-1,17,19,21,23,25,27,-1,-1,-1,-1,-1,-1,-1,-1,-1,-1,-1,-1,-1,-1],"loss_changes":[1.2970763E2,1.1206253E1,1.7877919E2,1.5051651E0,1.3790918E1,5.0742935E1,1.3334419E1,4.87175E-1,0E0,7.289075E0,3.4220448E0,5.290573E0,5.7663963E1,1.3574848E1,3.3001785E0,0E0,0E0,0E0,0E0,0E0,0E0,0E0,0E0,0E0,0E0,0E0,0E0,0E0,0E0],"parents":[2147483647,0,0,1,1,2,2,3,3,4,4,5,5,6,6,7,7,9,9,10,10,11,11,12,12,13,13,14,14],"right_children":[2,4,6,8,10,12,14,16,-1,18,20,22,24,26,28,-1,-1,-1,-1,-1,-1,-1,-1,-1,-1,-1,-1,-1,-1],"split_conditions":[6E0,3E0,2.1E1,4E0,2E0,7E0,2.2E1,2E0,-5.376346E-2,4E0,4E0,2E0,2E0,2E0,2E0,-6.591381E-2,-8.405072E-2,-2.1902947E-2,5.8783937E-2,-3.0148128E-2,-7.0804894E-2,1.7644635E-1,9.813478E-2,8.71914E-3,6.703509E-2,-8.1878856E-2,-1.5343534E-2,-7.3803335E-2,-1.1988249E-1],"split_indices":[1,1,1,0,0,1,1,0,0,1,0,0,0,0,0,0,0,0,0,0,0,0,0,0,0,0,0,0,0],"split_type":[0,0,0,0,0,0,0,0,0,0,0,0,0,0,0,0,0,0,0,0,0,0,0,0,0,0,0,0,0],"sum_hessian":[1.311E3,3.57E2,9.54E2,2.27E2,1.3E2,7.27E2,2.27E2,1.36E2,9.1E1,4.3E1,8.7E1,4.6E1,6.81E2,1.36E2,9.1E1,9.1E1,4.5E1,2.2E1,2.1E1,4.4E1,4.3E1,2.5E1,2.1E1,3.64E2,3.17E2,4.6E1,9E1,6.5E1,2.6E1],"tree_param":{"num_deleted":"0","num_feature":"2","num_nodes":"29","size_leaf_vector":"1"}},{"base_weights":[-4.7236313E-3,-4.6732128E-1,1.6869488E-1,-5.8812934E-1,-2.5349256E-1,5.5409336E-1,-2.3691443E-1,-6.534568E-1,-4.8445556E-2,1.6232228E-1,-4.5851937E-1,1.674103E-1,1.2075602E0,4.2094186E-2,-5.2834487E-1,-5.939406E-2,-7.5828366E-2,-1.9807879E-2,5.317269E-2,-2.720037E-2,-6.388532E-2,1.0261556E-1,-2.0139486E-2,9.694159E-2,2.5991407E-1,-3.452614E-2,4.91885E-2,-3.4524333E-2,-7.952642E-2],"categories":[],"categories_nodes":[],"categories_segments":[],"categories_sizes":[],"default_left":[0,0,0,0,0,0,0,0,0,0,0,0,0,0,0,0,0,0,0,0,0,0,0,0,0,0,0,0,0],"id":27,"left_children":[1,3,5,7,9,11,13,15,-1,17,19,21,23,25,27,-1,-1,-1,-1,-1,-1,-1,-1,-1,-1,-1,-1,-1,-1],"loss_changes":[1.0533141E2,9.098862E0,1.4941803E2,1.2276154E0,1.1242595E1,1.23613266E2,3.7913452E1,4.0435028E-1,0E0,5.9632115E0,2.7861176E0,9.8069954E1,5.7794617E1,4.1810555E1,1.0868565E1,0E0,0E0,0E0,0E0,0E0,0E0,0E0,0E0,0E0,0E0,0E0,0E0,0E0,0E0],"parents":[2147483647,0,0,1,1,2,2,3,3,4,4,5,5,6,6,7,7,9,9,10,10,11,11,12,12,13,13,14,14],"right_children":[2,4,6,8,10,12,14,16,-1,18,20,22,24,26,28,-1,-1,-1,-1,-1,-1,-1,-1,-1,-1,-1,-1,-1,-1],"split_conditions":[6E0,3E0,1.7E1,4E0,2E0,1.3E1,2.1E1,2E0,-4.8445556E-2,4E0,4E0,9E0,1.6E1,2E0,2.2E1,-5.939406E-2,-7.5828366E-2,-1.9807879E-2,5.317269E-2,-2.720037E-2,-6.388532E-2,1.0261556E-1,-2.0139486E-2,9.694159E-2,2.5991407E-1,-3.452614E-2,4.91885E-2,-3.4524333E-2,-7.952642E-2],"split_indices":[1,1,1,0,0,1,1,0,0,1,0,1,1,0,1,0,0,0,0,0,0,0,0,0,0,0,0,0,0],"split_type":[0,0,0,0,0,0,0,0,0,0,0,0,0,0,0,0,0,0,0,0,0,0,0,0,0,0,0,0,0],"sum_hessian":[1.311E3,3.57E2,9.54E2,2.27E2,1.3E2,4.89E2,4.65E2,1.36E2,9.1E1,4.3E1,8.7E1,3.08E2,1.81E2,2.38E2,2.27E2,9.1E1,4.5E1,2.2E1,2.1E1,4.4E1,4.3E1,9.2E1,2.16E2,1.56E2,2.5E1,1.28E2,1.1E2,1.36E2,9.1E1],"tree_param":{"num_deleted":"0","num_feature":"2","num_nodes":"29","size_leaf_vector":"1"}},{"base_weights":[-4.176056E-3,-4.212634E-1,1.5218148E-1,-5.30122E-1,-2.2858392E-1,4.995809E-1,-2.1343632E-1,-5.8909816E-1,-4.365365E-2,1.4684819E-1,-4.137024E-1,1.5093638E-1,1.0887654E0,-4.6663186E-1,5.5199634E-2,-5.3519215E-2,-6.841038E-2,-1.791321E-2,4.8097085E-2,-2.4540745E-2,-5.7641994E-2,9.246436E-2,-1.8134799E-2,8.7309234E-2,2.3492232E-1,-1.2289566E-1,-3.080221E-2,9.292533E-2,-1.4246411E-2],"categories":[],"categories_nodes":[],"categories_segments":[],"categories_sizes":[],"default_left":[0,0,0,0,0,0,0,0,0,0,0,0,0,0,0,0,0,0,0,0,0,0,0,0,0,0,0,0,0],"id":28,"left_children":[1,3,5,7,9,11,13,15,-1,17,19,21,23,25,27,-1,-1,-1,-1,-1,-1,-1,-1,-1,-1,-1,-1,-1,-1],"loss_changes":[8.562586E1,7.387806E0,1.2140636E2,1.001236E0,9.165176E0,1.0048946E2,3.1721878E1,3.3550262E-1,0E0,4.8785224E0,2.268381E0,7.9608734E1,4.742505E1,2.864037E1,3.9350883E1,0E0,0E0,0E0,0E0,0E0,0E0,0E0,0E0,0E0,0E0,0E0,0E0,0E0,0E0],"parents":[2147483647,0,0,1,1,2,2,3,3,4,4,5,5,6,6,7,7,9,9,10,10,11,11,12,12,13,13,14,14],"right_children":[2,4,6,8,10,12,14,16,-1,18,20,22,24,26,28,-1,-1,-1,-1,-1,-1,-1,-1,-1,-1,-1,-1,-1,-1],"split_conditions":[6E0,3E0,1.7E1,4E0,2E0,1.3E1,2E0,2E0,-4.365365E-2,4E0,4E0,9E0,1.6E1,1.8E1,1.8E1,-5.3519215E-2,-6.841038E-2,-1.791321E-2,4.8097085E-2,-2.4540745E-2,-5.7641994E-2,9.246436E-2,-1.8134799E-2,8.7309234E-2,2.3492232E-1,-1.2289566E-1,-3.080221E-2,9.292533E-2,-1.4246411E-2],"split_indices":[1,1,1,0,0,1,0,0,0,1,0,1,1,1,1,0,0,0,0,0,0,0,0,0,0,0,0,0,0],"split_type":[0,0,0,0,0,0,0,0,0,0,0,0,0,0,0,0,0,0,0,0,0,0,0,0,0,0,0,0,0],"sum_hessian":[1.311E3,3.57E2,9.54E2,2.27E2,1.3E2,4.89E2,4.65E2,1.36E2,9.1E1,4.3E1,8.7E1,3.08E2,1.81E2,2.39E2,2.26E2,9.1E1,4.5E1,2.2E1,2.1E1,4.4E1,4.3E1,9.2E1,2.16E2,1.56E2,2.5E1,4E1,1.99E2,4.1E1,1.85E2],"tree_param":{"num_deleted":"0","num_feature":"2","num_nodes":"29","size_leaf_vector":"1"}},{"base_weights":[-3.6792594E-3,-3.79745E-1,1.3730003E-1,-4.7783604E-1,-2.0612288E-1,3.2222578E-1,-4.5376688E-1,-5.310783E-1,-3.9335754E-2,1.3284892E-1,-3.7326646E-1,1.106809E0,2.676838E-1,-2.912701E-1,-6.908135E-1,-4.822546E-2,-6.1718058E-2,-1.6199809E-2,4.3505948E-2,-2.2141283E-2,-5.2008804E-2,1.4072263E-1,7.014609E-2,-3.7909634E-3,4.5840617E-2,-6.747153E-2,-9.002627E-3,-5.566911E-2,-9.930826E-2],"categories":[],"categories_nodes":[],"categories_segments":[],"categories_sizes":[],"default_left":[0,0,0,0,0,0,0,0,0,0,0,0,0,0,0,0,0,0,0,0,0,0,0,0,0,0,0,0,0],"id":29,"left_children":[1,3,5,7,9,11,13,15,-1,17,19,21,23,25,27,-1,-1,-1,-1,-1,-1,-1,-1,-1,-1,-1,-1,-1,-1],"loss_changes":[6.961108E1,5.9985237E0,1.0453105E2,8.166046E-1,7.4716506E0,3.0856827E1,8.581192E0,2.7828217E-1,0E0,3.9911373E0,1.846839E0,4.736244E0,3.976673E1,1.0510996E1,3.176937E0,0E0,0E0,0E0,0E0,0E0,0E0,0E0,0E0,0E0,0E0,0E0,0E0,0E0,0E0],"parents":[2147483647,0,0,1,1,2,2,3,3,4,4,5,5,6,6,7,7,9,9,10,10,11,11,12,12,13,13,14,14],"right_children":[2,4,6,8,10,12,14,16,-1,18,20,22,24,26,28,-1,-1,-1,-1,-1,-1,-1,-1,-1,-1,-1,-1,-1,-1],"split_conditions":[6E0,3E0,2.1E1,4E0,2E0,7E0,2.2E1,2E0,-3.9335754E-2,4E0,4E0,2E0,1.3E1,2E0,2E0,-4.822546E-2,-6.1718058E-2,-1.6199809E-2,4.3505948E-2,-2.2141283E-2,-5.2008804E-2,1.4072263E-1,7.014609E-2,-3.7909634E-3,4.5840617E-2,-6.747153E-2,-9.002627E-3,-5.566911E-2,-9.930826E-2],"split_indices":[1,1,1,0,0,1,1,0,0,1,0,0,1,0,0,0,0,0,0,0,0,0,0,0,0,0,0,0,0],"split_type":[0,0,0,0,0,0,0,0,0,0,0,0,0,0,0,0,0,0,0,0,0,0,0,0,0,0,0,0,0],"sum_hessian":[1.311E3,3.57E2,9.54E2,2.27E2,1.3E2,7.27E2,2.27E2,1.36E2,9.1E1,4.3E1,8.7E1,4.6E1,6.81E2,1.36E2,9.1E1,9.1E1,4.5E1,2.2E1,2.1E1,4.4E1,4.3E1,2.5E1,2.1E1,2.62E2,4.19E2,4.6E1,9E1,6.5E1,2.6E1],"tree_param":{"num_deleted":"0","num_feature":"2","num_nodes":"29","size_leaf_vector":"1"}},{"base_weights":[-3.444394E-3,-3.4231848E-1,1.2359264E-1,-4.3070716E-1,-1.8586852E-1,4.2534062E-1,-1.9396125E-1,-4.78773E-1,-3.5444926E-2,1.201844E-1,-3.3678284E-1,2.106571E-1,1.1480167E0,-4.1704834E-1,4.2756222E-2,-4.345534E-2,-5.568042E-2,-1.4650241E-2,3.935304E-2,-1.9976435E-2,-4.6926126E-2,7.8138076E-2,2.4984772E-3,6.5681696E-2,1.8922158E-1,-1.15378104E-1,-2.6393292E-2,7.9379015E-2,-1.2706195E-2],"categories":[],"categories_nodes":[],"categories_segments":[],"categories_sizes":[],"default_left":[0,0,0,0,0,0,0,0,0,0,0,0,0,0,0,0,0,0,0,0,0,0,0,0,0,0,0,0,0],"id":30,"left_children":[1,3,5,7,9,11,13,15,-1,17,19,21,23,25,27,-1,-1,-1,-1,-1,-1,-1,-1,-1,-1,-1,-1,-1,-1],"loss_changes":[5.6523323E1,4.8705177E0,9.159179E1,6.660118E-1,6.091073E0,7.5780014E1,2.4626646E1,2.3076057E-1,0E0,3.265155E0,1.5036335E0,4.0142197E1,3.969879E1,2.6768711E1,2.9052258E1,0E0,0E0,0E0,0E0,0E0,0E0,0E0,0E0,0E0,0E0,0E0,0E0,0E0,0E0],"parents":[2147483647,0,0,1,1,2,2,3,3,4,4,5,5,6,6,7,7,9,9,10,10,11,11,12,12,13,13,14,14],"right_children":[2,4,6,8,10,12,14,16,-1,18,20,22,24,26,28,-1,-1,-1,-1,-1,-1,-1,-1,-1,-1,-1,-1,-1,-1],"split_conditions":[6E0,3E0,1.7E1,4E0,2E0,1.5E1,2E0,2E0,-3.5444926E-2,4E0,4E0,9E0,2E0,1.8E1,1.8E1,-4.345534E-2,-5.568042E-2,-1.4650241E-2,3.935304E-2,-1.9976435E-2,-4.6926126E-2,7.8138076E-2,2.4984772E-3,6.5681696E-2,1.8922158E-1,-1.15378104E-1,-2.6393292E-2,7.9379015E-2,-1.2706195E-2],"split_indices":[1,1,1,0,0,1,0,0,0,1,0,1,0,1,1,0,0,0,0,0,0,0,0,0,0,0,0,0,0],"split_type":[0,0,0,0,0,0,0,0,0,0,0,0,0,0,0,0,0,0,0,0,0,0,0,0,0,0,0,0,0],"sum_hessian":[1.311E3,3.57E2,9.54E2,2.27E2,1.3E2,4.89E2,4.65E2,1.36E2,9.1E1,4.3E1,8.7E1,3.78E2,1.11E2,2.39E2,2.26E2,9.1E1,4.5E1,2.2E1,2.1E1,4.4E1,4.3E1,9.2E1,2.86E2,6.8E1,4.3E1,4E1,1.99E2,4.1E1,1.85E2],"tree_param":{"num_deleted":"0","num_feature":"2","num_nodes":"29","size_leaf_vector":"1"}},{"base_weights":[-3.0363484E-3,-3.0858052E-1,1.115059E-1,-3.8822678E-1,-1.6760395E-1,2.6844645E-1,-3.900915E-1,-4.3161932E-1,-3.193898E-2,1.0872778E-1,-3.0386522E-1,9.737991E-2,4.6445674E-1,-2.4549234E-1,-6.011784E-1,-3.9157037E-2,-5.023342E-2,-1.3248895E-2,3.5596676E-2,-1.8023258E-2,-4.234017E-2,1.0438394E-1,-4.1682716E-3,9.27977E-3,7.1916394E-2,-5.8284737E-2,-6.8556303E-3,-4.7587227E-2,-8.852165E-2],"categories":[],"categories_nodes":[],"categories_segments":[],"categories_sizes":[],"default_left":[0,0,0,0,0,0,0,0,0,0,0,0,0,0,0,0,0,0,0,0,0,0,0,0,0,0,0,0,0],"id":31,"left_children":[1,3,5,7,9,11,13,15,-1,17,19,21,23,25,27,-1,-1,-1,-1,-1,-1,-1,-1,-1,-1,-1,-1,-1,-1],"loss_changes":[4.5951412E1,3.9546432E0,7.528324E1,5.431862E-1,4.965623E0,2.4365196E1,6.811657E0,1.9129181E-1,0E0,2.6712415E0,1.2242069E0,5.137419E1,3.2024445E1,8.137609E0,2.8531914E0,0E0,0E0,0E0,0E0,0E0,0E0,0E0,0E0,0E0,0E0,0E0,0E0,0E0,0E0],"parents":[2147483647,0,0,1,1,2,2,3,3,4,4,5,5,6,6,7,7,9,9,10,10,11,11,12,12,13,13,14,14],"right_children":[2,4,6,8,10,12,14,16,-1,18,20,22,24,26,28,-1,-1,-1,-1,-1,-1,-1,-1,-1,-1,-1,-1,-1,-1],"split_conditions":[6E0,3E0,2.1E1,4E0,2E0,2E0,2.2E1,2E0,-3.193898E-2,4E0,4E0,9E0,1.3E1,2E0,2E0,-3.9157037E-2,-5.023342E-2,-1.3248895E-2,3.5596676E-2,-1.8023258E-2,-4.234017E-2,1.0438394E-1,-4.1682716E-3,9.27977E-3,7.1916394E-2,-5.8284737E-2,-6.8556303E-3,-4.7587227E-2,-8.852165E-2],"split_indices":[1,1,1,0,0,0,1,0,0,1,0,1,1,0,0,0,0,0,0,0,0,0,0,0,0,0,0,0,0],"split_type":[0,0,0,0,0,0,0,0,0,0,0,0,0,0,0,0,0,0,0,0,0,0,0,0,0,0,0,0,0],"sum_hessian":[1.311E3,3.57E2,9.54E2,2.27E2,1.3E2,7.27E2,2.27E2,1.36E2,9.1E1,4.3E1,8.7E1,3.89E2,3.38E2,1.36E2,9.1E1,9.1E1,4.5E1,2.2E1,2.1E1,4.4E1,4.3E1,4.9E1,3.4E2,1.38E2,2E2,4.6E1,9E1,6.5E1,2.6E1],"tree_param":{"num_deleted":"0","num_feature":"2","num_nodes":"29","size_leaf_vector":"1"}},{"base_weights":[-2.8693622E-3,-2.7816767E-1,1.0033447E-1,-3.4993625E-1,-1.5113407E-1,3.5903344E-1,-1.7190333E-1,-3.8910985E-1,-2.8779795E-2,9.8362595E-2,-2.7416497E-1,2.653839E-1,2.0201102E-1,-8.0515385E-2,-5.4254E-1,-3.528389E-2,-4.5319285E-2,-1.1981654E-2,3.2198794E-2,-1.6261054E-2,-3.820237E-2,7.9069985E-3,6.303878E-2,-3.1772617E-2,1.2641199E-2,-4.290061E-2,-7.999734E-2],"categories":[],"categories_nodes":[],"categories_segments":[],"categories_sizes":[],"default_left":[0,0,0,0,0,0,0,0,0,0,0,0,0,0,0,0,0,0,0,0,0,0,0,0,0,0,0],"id":32,"left_children":[1,3,5,7,9,11,13,15,-1,17,19,21,-1,23,25,-1,-1,-1,-1,-1,-1,-1,-1,-1,-1,-1,-1],"loss_changes":[3.7304245E1,3.2110043E0,6.732011E1,4.4301033E-1,4.0481176E0,7.5687836E1,1.5740542E1,1.5853119E-1,0E0,2.1853564E0,9.9670553E-1,3.1572624E1,0E0,1.8447191E1,2.345728E0,0E0,0E0,0E0,0E0,0E0,0E0,0E0,0E0,0E0,0E0,0E0,0E0],"parents":[2147483647,0,0,1,1,2,2,3,3,4,4,5,5,6,6,7,7,9,9,10,10,11,11,13,13,14,14],"right_children":[2,4,6,8,10,12,14,16,-1,18,20,22,-1,24,26,-1,-1,-1,-1,-1,-1,-1,-1,-1,-1,-1,-1],"split_conditions":[6E0,3E0,1.7E1,4E0,2E0,1.6E1,2.2E1,2E0,-2.8779795E-2,4E0,4E0,1.3E1,2.0201102E-1,2E0,2E0,-3.528389E-2,-4.5319285E-2,-1.1981654E-2,3.2198794E-2,-1.6261054E-2,-3.820237E-2,7.9069985E-3,6.303878E-2,-3.1772617E-2,1.2641199E-2,-4.290061E-2,-7.999734E-2],"split_indices":[1,1,1,0,0,1,1,0,0,1,0,1,0,0,0,0,0,0,0,0,0,0,0,0,0,0,0],"split_type":[0,0,0,0,0,0,0,0,0,0,0,0,0,0,0,0,0,0,0,0,0,0,0,0,0,0,0],"sum_hessian":[1.311E3,3.57E2,9.54E2,2.27E2,1.3E2,4.89E2,4.65E2,1.36E2,9.1E1,4.3E1,8.7E1,4.64E2,2.5E1,3.74E2,9.1E1,9.1E1,4.5E1,2.2E1,2.1E1,4.4E1,4.3E1,3.08E2,1.56E2,1.74E2,2E2,6.5E1,2.6E1],"tree_param":{"num_deleted":"0","num_feature":"2","num_nodes":"27","size_leaf_vector":"1"}},{"base_weights":[-2.592204E-3,-2.5075212E-1,9.043799E-2,-3.154223E-1,-1.3628224E-1,3.2368687E-1,-1.5501778E-1,-3.5078722E-1,-2.5933081E-2,8.8986374E-2,-2.4736787E-1,2.3899782E-1,1.8258688E-1,1.1788288E-2,-3.291916E-1,-3.179386E-2,-4.0885877E-2,-1.0835553E-2,2.9125353E-2,-1.4671174E-2,-3.4468967E-2,7.1187704E-3,5.677515E-2,-2.0792602E-2,2.6702574E-2,-2.7864454E-2,-7.676047E-2],"categories":[],"categories_nodes":[],"categories_segments":[],"categories_sizes":[],"default_left":[0,0,0,0,0,0,0,0,0,0,0,0,0,0,0,0,0,0,0,0,0,0,0,0,0,0,0],"id":33,"left_children":[1,3,5,7,9,11,13,15,-1,17,19,21,-1,23,25,-1,-1,-1,-1,-1,-1,-1,-1,-1,-1,-1,-1],"loss_changes":[3.031199E1,2.6072102E0,5.4726112E1,3.6130905E-1,3.300171E0,6.190062E1,1.3542695E1,1.3134384E-1,0E0,1.7878535E0,8.11481E-1,2.561279E1,0E0,1.3458479E1,4.838705E0,0E0,0E0,0E0,0E0,0E0,0E0,0E0,0E0,0E0,0E0,0E0,0E0],"parents":[2147483647,0,0,1,1,2,2,3,3,4,4,5,5,6,6,7,7,9,9,10,10,11,11,13,13,14,14],"right_children":[2,4,6,8,10,12,14,16,-1,18,20,22,-1,24,26,-1,-1,-1,-1,-1,-1,-1,-1,-1,-1,-1,-1],"split_conditions":[6E0,3E0,1.7E1,4E0,2E0,1.6E1,2.1E1,2E0,-2.5933081E-2,4E0,4E0,1.3E1,1.8258688E-1,2E0,2.3E1,-3.179386E-2,-4.0885877E-2,-1.0835553E-2,2.9125353E-2,-1.4671174E-2,-3.4468967E-2,7.1187704E-3,5.677515E-2,-2.0792602E-2,2.6702574E-2,-2.7864454E-2,-7.676047E-2],"split_indices":[1,1,1,0,0,1,1,0,0,1,0,1,0,0,1,0,0,0,0,0,0,0,0,0,0,0,0],"split_type":[0,0,0,0,0,0,0,0,0,0,0,0,0,0,0,0,0,0,0,0,0,0,0,0,0,0,0],"sum_hessian":[1.311E3,3.57E2,9.54E2,2.27E2,1.3E2,4.89E2,4.65E2,1.36E2,9.1E1,4.3E1,8.7E1,4.64E2,2.5E1,2.38E2,2.27E2,9.1E1,4.5E1,2.2E1,2.1E1,4.4E1,4.3E1,3.08E2,1.56E2,1.28E2,1.1E2,2.05E2,2.2E1],"tree_param":{"num_deleted":"0","num_feature":"2","num_nodes":"27","size_leaf_vector":"1"}},{"base_weights":[-2.3189988E-3,-2.2603846E-1,8.1548944E-2,-2.8431252E-1,-1.22889414E-1,2.9182127E-1,-1.3972788E-1,-3.1623903E-1,-2.336794E-2,8.0503486E-2,-2.231894E-1,2.152355E-1,1.6503046E-1,-6.314494E-2,-4.503678E-1,-2.8649036E-2,-3.6886167E-2,-9.799107E-3,2.6345218E-2,-1.3236644E-2,-3.1100405E-2,8.497632E-2,1.4354567E-2,-2.6360242E-2,1.1169686E-2,-3.430146E-2,-6.961065E-2],"categories":[],"categories_nodes":[],"categories_segments":[],"categories_sizes":[],"default_left":[0,0,0,0,0,0,0,0,0,0,0,0,0,0,0,0,0,0,0,0,0,0,0,0,0,0,0],"id":34,"left_children":[1,3,5,7,9,11,13,15,-1,17,19,21,-1,23,25,-1,-1,-1,-1,-1,-1,-1,-1,-1,-1,-1,-1],"loss_changes":[2.4635344E1,2.1169662E0,4.4475395E1,2.9467392E-1,2.6904078E0,5.0624645E1,1.1057571E1,1.08792305E-1,0E0,1.4626513E0,6.6068506E-1,2.1030487E1,0E0,1.3172572E1,2.188263E0,0E0,0E0,0E0,0E0,0E0,0E0,0E0,0E0,0E0,0E0,0E0,0E0],"parents":[2147483647,0,0,1,1,2,2,3,3,4,4,5,5,6,6,7,7,9,9,10,10,11,11,13,13,14,14],"right_children":[2,4,6,8,10,12,14,16,-1,18,20,22,-1,24,26,-1,-1,-1,-1,-1,-1,-1,-1,-1,-1,-1,-1],"split_conditions":[6E0,3E0,1.7E1,4E0,2E0,1.6E1,2.2E1,2E0,-2.336794E-2,4E0,4E0,7E0,1.6503046E-1,2E0,2E0,-2.8649036E-2,-3.6886167E-2,-9.799107E-3,2.6345218E-2,-1.3236644E-2,-3.1100405E-2,8.497632E-2,1.4354567E-2,-2.6360242E-2,1.1169686E-2,-3.430146E-2,-6.961065E-2],"split_indices":[1,1,1,0,0,1,1,0,0,1,0,1,0,0,0,0,0,0,0,0,0,0,0,0,0,0,0],"split_type":[0,0,0,0,0,0,0,0,0,0,0,0,0,0,0,0,0,0,0,0,0,0,0,0,0,0,0],"sum_hessian":[1.311E3,3.57E2,9.54E2,2.27E2,1.3E2,4.89E2,4.65E2,1.36E2,9.1E1,4.3E1,8.7E1,4.64E2,2.5E1,3.74E2,9.1E1,9.1E1,4.5E1,2.2E1,2.1E1,4.4E1,4.3E1,4.6E1,4.18E2,1.74E2,2E2,6.5E1,2.6E1],"tree_param":{"num_deleted":"0","num_feature":"2","num_nodes":"27","size_leaf_vector":"1"}},{"base_weights":[-2.0652968E-3,5.5943113E-2,-2.7810502E-1,-9.130856E-2,2.89309E-1,-2.3396312E-1,-6.613714E-2,-4.8899714E-2,-8.321049E-2,6.418833E-1,1.9610932E-2,-1.8988015E-1,-3.1689745E-1,-2.0376047E-2,1.5361506E-2,4.9707375E-2,1.4916223E-1,-1.6113868E-2,2.2949463E-2,-4.4163533E-2,-5.776616E-3,-1.1813231E-2,-6.290741E-2],"categories":[],"categories_nodes":[],"categories_segments":[],"categories_sizes":[],"default_left":[0,0,0,0,0,0,0,0,0,0,0,0,0,0,0,0,0,0,0,0,0,0,0],"id":35,"left_children":[1,3,5,7,9,11,-1,13,-1,15,17,19,21,-1,-1,-1,-1,-1,-1,-1,-1,-1,-1],"loss_changes":[2.1024124E1,3.731083E1,3.702591E0,2.0882574E1,3.992463E1,6.929617E-1,0E0,1.9820463E1,0E0,2.165371E1,9.103779E0,4.5311604E0,4.2691736E0,0E0,0E0,0E0,0E0,0E0,0E0,0E0,0E0,0E0,0E0],"parents":[2147483647,0,0,1,1,2,2,3,3,4,4,5,5,7,7,9,9,10,10,11,11,12,12],"right_children":[2,4,6,8,10,12,-1,14,-1,16,18,20,22,-1,-1,-1,-1,-1,-1,-1,-1,-1,-1],"split_conditions":[2.1E1,1.3E1,2.3E1,1.2E1,1.7E1,2.2E1,-6.613714E-2,6E0,-8.321049E-2,1.6E1,2E0,2E0,2E0,-2.0376047E-2,1.5361506E-2,4.9707375E-2,1.4916223E-1,-1.6113868E-2,2.2949463E-2,-4.4163533E-2,-5.776616E-3,-1.1813231E-2,-6.290741E-2],"split_indices":[1,1,1,1,1,1,0,1,0,1,0,0,0,0,0,0,0,0,0,0,0,0,0],"split_type":[0,0,0,0,0,0,0,0,0,0,0,0,0,0,0,0,0,0,0,0,0,0,0],"sum_hessian":[1.311E3,1.084E3,2.27E2,6.65E2,4.19E2,2.05E2,2.2E1,6.3E2,3.5E1,1.81E2,2.38E2,1.36E2,6.9E1,3.57E2,2.73E2,1.56E2,2.5E1,1.28E2,1.1E2,4.6E1,9E1,4.3E1,2.6E1],"tree_param":{"num_deleted":"0","num_feature":"2","num_nodes":"23","size_leaf_vector":"1"}},{"base_weights":[-1.9146946E-3,5.045704E-2,-2.5113145E-1,-8.231027E-2,2.6086792E-1,-2.1117204E-1,-5.9810992E-2,-4.401777E-2,-7.512063E-2,5.787876E-1,1.7678585E-2,-1.712568E-1,-2.8627518E-1,-1.8344127E-2,1.3830935E-2,2.47282E-2,9.075759E-2,-1.4514967E-2,2.0675216E-2,-3.9841134E-2,-5.2053262E-3,-1.0658761E-2,-5.684966E-2],"categories":[],"categories_nodes":[],"categories_segments":[],"categories_sizes":[],"default_left":[0,0,0,0,0,0,0,0,0,0,0,0,0,0,0,0,0,0,0,0,0,0,0],"id":36,"left_children":[1,3,5,7,9,11,-1,13,-1,15,17,19,21,-1,-1,-1,-1,-1,-1,-1,-1,-1,-1],"loss_changes":[1.7136782E1,3.0331694E1,3.0349274E0,1.702566E1,3.2461933E1,5.6851196E-1,0E0,1.606582E1,0E0,1.9612694E1,7.3879876E0,3.6888957E0,3.4892235E0,0E0,0E0,0E0,0E0,0E0,0E0,0E0,0E0,0E0,0E0],"parents":[2147483647,0,0,1,1,2,2,3,3,4,4,5,5,7,7,9,9,10,10,11,11,12,12],"right_children":[2,4,6,8,10,12,-1,14,-1,16,18,20,22,-1,-1,-1,-1,-1,-1,-1,-1,-1,-1],"split_conditions":[2.1E1,1.3E1,2.3E1,1.2E1,1.7E1,2.2E1,-5.9810992E-2,6E0,-7.512063E-2,2E0,2E0,2E0,2E0,-1.8344127E-2,1.3830935E-2,2.47282E-2,9.075759E-2,-1.4514967E-2,2.0675216E-2,-3.9841134E-2,-5.2053262E-3,-1.0658761E-2,-5.684966E-2],"split_indices":[1,1,1,1,1,1,0,1,0,0,0,0,0,0,0,0,0,0,0,0,0,0,0],"split_type":[0,0,0,0,0,0,0,0,0,0,0,0,0,0,0,0,0,0,0,0,0,0,0],"sum_hessian":[1.311E3,1.084E3,2.27E2,6.65E2,4.19E2,2.05E2,2.2E1,6.3E2,3.5E1,1.81E2,2.38E2,1.36E2,6.9E1,3.57E2,2.73E2,9.1E1,9E1,1.28E2,1.1E2,4.6E1,9E1,4.3E1,2.6E1],"tree_param":{"num_deleted":"0","num_feature":"2","num_nodes":"23","size_leaf_vector":"1"}},{"base_weights":[-1.8224668E-3,4.5450207E-2,-2.2677435E-1,-7.419845E-2,2.3507057E-1,-1.9060127E-1,-5.4089945E-2,-3.9622776E-2,-6.78172E-2,5.215432E-1,1.5936289E-2,-1.5446001E-1,-2.58612E-1,-1.651483E-2,1.2452964E-2,3.8526088E-2,1.3244195E-1,-1.3074723E-2,1.8626276E-2,-3.594178E-2,-4.690533E-3,-9.617105E-3,-5.137524E-2],"categories":[],"categories_nodes":[],"categories_segments":[],"categories_sizes":[],"default_left":[0,0,0,0,0,0,0,0,0,0,0,0,0,0,0,0,0,0,0,0,0,0,0],"id":37,"left_children":[1,3,5,7,9,11,-1,13,-1,15,17,19,21,-1,-1,-1,-1,-1,-1,-1,-1,-1,-1],"loss_changes":[1.3962215E1,2.4633728E1,2.4876385E0,1.3881069E1,2.63576E1,4.6640158E-1,0E0,1.3022521E1,0E0,1.9403801E1,5.99555E0,3.0031931E0,2.8517594E0,0E0,0E0,0E0,0E0,0E0,0E0,0E0,0E0,0E0,0E0],"parents":[2147483647,0,0,1,1,2,2,3,3,4,4,5,5,7,7,9,9,10,10,11,11,12,12],"right_children":[2,4,6,8,10,12,-1,14,-1,16,18,20,22,-1,-1,-1,-1,-1,-1,-1,-1,-1,-1],"split_conditions":[2.1E1,1.3E1,2.3E1,1.2E1,1.7E1,2.2E1,-5.4089945E-2,6E0,-6.78172E-2,1.6E1,2E0,2E0,2E0,-1.651483E-2,1.2452964E-2,3.8526088E-2,1.3244195E-1,-1.3074723E-2,1.8626276E-2,-3.594178E-2,-4.690533E-3,-9.617105E-3,-5.137524E-2],"split_indices":[1,1,1,1,1,1,0,1,0,1,0,0,0,0,0,0,0,0,0,0,0,0,0],"split_type":[0,0,0,0,0,0,0,0,0,0,0,0,0,0,0,0,0,0,0,0,0,0,0],"sum_hessian":[1.311E3,1.084E3,2.27E2,6.65E2,4.19E2,2.05E2,2.2E1,6.3E2,3.5E1,1.81E2,2.38E2,1.36E2,6.9E1,3.57E2,2.73E2,1.56E2,2.5E1,1.28E2,1.1E2,4.6E1,9E1,4.3E1,2.6E1],"tree_param":{"num_deleted":"0","num_feature":"2","num_nodes":"23","size_leaf_vector":"1"}},{"base_weights":[-1.6792362E-3,4.1001566E-2,-2.0478007E-1,-6.6886485E-2,2.1198356E-1,-1.720347E-1,-4.891612E-2,-3.5666917E-2,-6.1223816E-2,4.7032782E-1,1.4365818E-2,-1.393109E-1,-2.3362221E-1,-1.4867948E-2,1.12122E-2,1.5919358E-2,7.797127E-2,-1.8421281E-2,1.1733469E-2,-3.24241E-2,-4.226668E-3,-8.677257E-3,-4.6428006E-2],"categories":[],"categories_nodes":[],"categories_segments":[],"categories_sizes":[],"default_left":[0,0,0,0,0,0,0,0,0,0,0,0,0,0,0,0,0,0,0,0,0,0,0],"id":38,"left_children":[1,3,5,7,9,11,-1,13,-1,15,17,19,21,-1,-1,-1,-1,-1,-1,-1,-1,-1,-1],"loss_changes":[1.1381476E1,2.0029081E1,2.0390215E0,1.1317244E1,2.1435677E1,3.826213E-1,0E0,1.05556345E1,0E0,1.7395237E1,4.908547E0,2.4449515E0,2.330754E0,0E0,0E0,0E0,0E0,0E0,0E0,0E0,0E0,0E0,0E0],"parents":[2147483647,0,0,1,1,2,2,3,3,4,4,5,5,7,7,9,9,10,10,11,11,12,12],"right_children":[2,4,6,8,10,12,-1,14,-1,16,18,20,22,-1,-1,-1,-1,-1,-1,-1,-1,-1,-1],"split_conditions":[2.1E1,1.3E1,2.3E1,1.2E1,1.7E1,2.2E1,-4.891612E-2,6E0,-6.1223816E-2,2E0,1.8E1,2E0,2E0,-1.4867948E-2,1.12122E-2,1.5919358E-2,7.797127E-2,-1.8421281E-2,1.1733469E-2,-3.24241E-2,-4.226668E-3,-8.677257E-3,-4.6428006E-2],"split_indices":[1,1,1,1,1,1,0,1,0,0,1,0,0,0,0,0,0,0,0,0,0,0,0],"split_type":[0,0,0,0,0,0,0,0,0,0,0,0,0,0,0,0,0,0,0,0,0,0,0],"sum_hessian":[1.311E3,1.084E3,2.27E2,6.65E2,4.19E2,2.05E2,2.2E1,6.3E2,3.5E1,1.81E2,2.38E2,1.36E2,6.9E1,3.57E2,2.73E2,9.1E1,9E1,8.1E1,1.57E2,4.6E1,9E1,4.3E1,2.6E1],"tree_param":{"num_deleted":"0","num_feature":"2","num_nodes":"23","size_leaf_vector":"1"}},{"base_weights":[-1.6012318E-3,-1.8647581E-1,3.7249465E-2,-2.1550219E-1,-1.4122485E-2,1.0465497E-1,-1.6070598E-1,-1.8881168E-2,-2.6419837E-2,1.3433777E-1,-3.133921E-1,-2.587172E-1,-6.5030575E-2,4.234751E-3,2.4175806E-2,-6.900666E-2,-2.1210095E-2,-2.1939464E-2,-4.4237193E-2,1.8774987E-3,-4.1957166E-2],"categories":[],"categories_nodes":[],"categories_segments":[],"categories_sizes":[],"default_left":[0,0,0,0,0,0,0,0,0,0,0,0,0,0,0,0,0,0,0,0,0],"id":39,"left_children":[1,3,5,7,-1,9,11,-1,-1,13,15,17,19,-1,-1,-1,-1,-1,-1,-1,-1],"loss_changes":[9.430394E0,2.6903725E-1,1.4494285E1,1.2817812E-1,0E0,1.0093238E1,2.571301E0,0E0,0E0,7.47015E0,1.9139414E0,8.8510895E-1,4.1973414E0,0E0,0E0,0E0,0E0,0E0,0E0,0E0,0E0],"parents":[2147483647,0,0,1,1,2,2,3,3,5,5,6,6,9,9,10,10,11,11,12,12],"right_children":[2,4,6,8,-1,10,12,-1,-1,14,16,18,20,-1,-1,-1,-1,-1,-1,-1,-1],"split_conditions":[3E0,4E0,2E1,2E0,-1.4122485E-2,4E0,2E0,-1.8881168E-2,-2.6419837E-2,2E0,7E0,2.3E1,2.2E1,4.234751E-3,2.4175806E-2,-6.900666E-2,-2.1210095E-2,-2.1939464E-2,-4.4237193E-2,1.8774987E-3,-4.1957166E-2],"split_indices":[1,0,1,0,0,0,0,0,0,0,0,1,1,0,0,0,0,0,0,0,0],"split_type":[0,0,0,0,0,0,0,0,0,0,0,0,0,0,0,0,0,0,0,0,0],"sum_hessian":[1.311E3,2.27E2,1.084E3,1.36E2,9.1E1,8.09E2,2.75E2,9.1E1,4.5E1,7.56E2,5.3E1,1.35E2,1.4E2,4.08E2,3.48E2,1E1,4.3E1,1.13E2,2.2E1,1.14E2,2.6E1],"tree_param":{"num_deleted":"0","num_feature":"2","num_nodes":"21","size_leaf_vector":"1"}},{"base_weights":[-1.6143626E-3,-1.6808888E-1,3.336979E-2,-1.9428265E-1,-1.2725591E-2,9.411344E-2,-1.4502053E-1,-1.7013581E-2,-2.3835283E-2,-2.5011022E-3,2.07876E-1,-2.3333222E-1,-5.8811948E-2,1.8909296E-2,-1.9938117E-2,4.097395E-2,1.4436053E-3,-1.9764775E-2,-4.0005814E-2,1.691358E-3,-3.791684E-2],"categories":[],"categories_nodes":[],"categories_segments":[],"categories_sizes":[],"default_left":[0,0,0,0,0,0,0,0,0,0,0,0,0,0,0,0,0,0,0,0,0],"id":40,"left_children":[1,3,5,7,-1,9,11,-1,-1,13,15,17,19,-1,-1,-1,-1,-1,-1,-1,-1],"loss_changes":[7.6466575E0,2.1913862E-1,1.1770795E1,1.0523701E-1,0E0,8.903326E0,2.0875268E0,0E0,0E0,1.6597242E1,1.4520113E1,7.300644E-1,3.4269547E0,0E0,0E0,0E0,0E0,0E0,0E0,0E0,0E0],"parents":[2147483647,0,0,1,1,2,2,3,3,5,5,6,6,9,9,10,10,11,11,12,12],"right_children":[2,4,6,8,-1,10,12,-1,-1,14,16,18,20,-1,-1,-1,-1,-1,-1,-1,-1],"split_conditions":[3E0,4E0,2E1,2E0,-1.2725591E-2,1.3E1,2E0,-1.7013581E-2,-2.3835283E-2,9E0,1.7E1,2.3E1,2.2E1,1.8909296E-2,-1.9938117E-2,4.097395E-2,1.4436053E-3,-1.9764775E-2,-4.0005814E-2,1.691358E-3,-3.791684E-2],"split_indices":[1,0,1,0,0,1,0,0,0,1,1,1,1,0,0,0,0,0,0,0,0],"split_type":[0,0,0,0,0,0,0,0,0,0,0,0,0,0,0,0,0,0,0,0,0],"sum_hessian":[1.311E3,2.27E2,1.084E3,1.36E2,9.1E1,8.09E2,2.75E2,9.1E1,4.5E1,4.38E2,3.71E2,1.35E2,1.4E2,2.22E2,2.16E2,1.81E2,1.9E2,1.13E2,2.2E1,1.14E2,2.6E1],"tree_param":{"num_deleted":"0","num_feature":"2","num_nodes":"21","size_leaf_vector":"1"}},{"base_weights":[-1.5355545E-3,-1.193865E-1,4.2644735E-2,-1.5151507E-1,-6.255674E-2,4.9639535E-1,-6.302488E-3,-1.7515257E-1,-1.1466882E-2,1.1872218E-1,-1.5248534E-1,8.029595E-1,1.3674527E-1,-3.983497E-1,4.213807E-2,-1.5330719E-2,-2.150357E-2,-4.370084E-3,2.831316E-2,-9.300453E-3,-2.0985242E-2,9.271814E-2,6.416504E-2,3.6402147E-2,-8.659479E-3,-9.682997E-2,2.0432906E-2,2.1723805E-2,-7.2180666E-3],"categories":[],"categories_nodes":[],"categories_segments":[],"categories_sizes":[],"default_left":[0,0,0,0,0,0,0,0,0,0,0,0,0,0,0,0,0,0,0,0,0,0,0,0,0,0,0,0,0],"id":41,"left_children":[1,3,5,7,9,11,13,15,-1,17,19,21,23,25,27,-1,-1,-1,-1,-1,-1,-1,-1,-1,-1,-1,-1,-1,-1],"loss_changes":[6.8362675E0,6.4417887E-1,2.1213516E1,1.7849302E-1,2.153686E0,1.0143991E1,1.6406006E1,8.639622E-2,0E0,1.1873436E0,2.8076005E-1,4.0698242E-1,2.264957E0,3.2830048E1,1.5408912E1,0E0,0E0,0E0,0E0,0E0,0E0,0E0,0E0,0E0,0E0,0E0,0E0,0E0,0E0],"parents":[2147483647,0,0,1,1,2,2,3,3,4,4,5,5,6,6,7,7,9,9,10,10,11,11,12,12,13,13,14,14],"right_children":[2,4,6,8,10,12,14,16,-1,18,20,22,24,26,28,-1,-1,-1,-1,-1,-1,-1,-1,-1,-1,-1,-1,-1,-1],"split_conditions":[6E0,3E0,9E0,4E0,2E0,2E0,1.1E1,2E0,-1.1466882E-2,4E0,4E0,7E0,7E0,2E0,1.7E1,-1.5330719E-2,-2.150357E-2,-4.370084E-3,2.831316E-2,-9.300453E-3,-2.0985242E-2,9.271814E-2,6.416504E-2,3.6402147E-2,-8.659479E-3,-9.682997E-2,2.0432906E-2,2.1723805E-2,-7.2180666E-3],"split_indices":[1,1,1,0,0,0,1,0,0,1,0,1,1,0,1,0,0,0,0,0,0,0,0,0,0,0,0,0,0],"split_type":[0,0,0,0,0,0,0,0,0,0,0,0,0,0,0,0,0,0,0,0,0,0,0,0,0,0,0,0,0],"sum_hessian":[1.311E3,3.57E2,9.54E2,2.27E2,1.3E2,9.2E1,8.62E2,1.36E2,9.1E1,4.3E1,8.7E1,4.9E1,4.3E1,9.4E1,7.68E2,9.1E1,4.5E1,2.2E1,2.1E1,4.4E1,4.3E1,2.5E1,2.4E1,2.1E1,2.2E1,4.8E1,4.6E1,3.03E2,4.65E2],"tree_param":{"num_deleted":"0","num_feature":"2","num_nodes":"29","size_leaf_vector":"1"}},{"base_weights":[-1.3302821E-3,2.8992822E-2,-1.4562519E-1,-5.2086707E-2,1.5749276E-1,-1.21554054E-1,-3.5488732E-2,-2.4268877E-2,-5.3822458E-2,-3.2035694E-2,3.641533E-1,-1.0682398E-1,-1.4864641E-1,-1.07600475E-2,8.46982E-3,-2.2510137E-2,2.5466887E-2,5.9569176E-2,-7.7664307E-3,-2.4462566E-2,-3.4477802E-3,-3.0482064E-3,-3.357051E-2],"categories":[],"categories_nodes":[],"categories_segments":[],"categories_sizes":[],"default_left":[0,0,0,0,0,0,0,0,0,0,0,0,0,0,0,0,0,0,0,0,0,0,0],"id":42,"left_children":[1,3,5,7,9,11,-1,13,-1,15,17,19,21,-1,-1,-1,-1,-1,-1,-1,-1,-1,-1],"loss_changes":[5.744838E0,1.1312509E1,1.1053386E0,8.993456E0,1.6462246E1,6.632972E-2,0E0,5.7388463E0,0E0,1.2234945E1,2.0608118E1,1.3573768E0,1.5370239E0,0E0,0E0,0E0,0E0,0E0,0E0,0E0,0E0,0E0,0E0],"parents":[2147483647,0,0,1,1,2,2,3,3,4,4,5,5,7,7,9,9,10,10,11,11,12,12],"right_children":[2,4,6,8,10,12,-1,14,-1,16,18,20,22,-1,-1,-1,-1,-1,-1,-1,-1,-1,-1],"split_conditions":[2.1E1,1.3E1,2.3E1,1.2E1,2E0,2.2E1,-3.5488732E-2,6E0,-5.3822458E-2,1.8E1,1.8E1,2E0,2E0,-1.07600475E-2,8.46982E-3,-2.2510137E-2,2.5466887E-2,5.9569176E-2,-7.7664307E-3,-2.4462566E-2,-3.4477802E-3,-3.0482064E-3,-3.357051E-2],"split_indices":[1,1,1,1,0,1,0,1,0,1,1,0,0,0,0,0,0,0,0,0,0,0,0],"split_type":[0,0,0,0,0,0,0,0,0,0,0,0,0,0,0,0,0,0,0,0,0,0,0],"sum_hessian":[1.311E3,1.084E3,2.27E2,6.65E2,4.19E2,2.05E2,2.2E1,6.3E2,3.5E1,2.19E2,2E2,1.36E2,6.9E1,3.57E2,2.73E2,1.31E2,8.8E1,1.31E2,6.9E1,4.6E1,9E1,4.3E1,2.6E1],"tree_param":{"num_deleted":"0","num_feature":"2","num_nodes":"23","size_leaf_vector":"1"}},{"base_weights":[-1.2746339E-3,2.6092166E-2,-1.315014E-1,-4.6962734E-2,1.4187424E-1,-1.09711975E-1,-3.2094143E-2,-2.184604E-2,-4.8589807E-2,-2.88185E-2,3.2799628E-1,-9.6345425E-2,-1.3430491E-1,-9.687067E-3,7.625858E-3,-2.0276142E-2,2.2948809E-2,5.365746E-2,-7.000854E-3,-2.2068342E-2,-3.1068164E-3,-2.7503164E-3,-3.0337794E-2],"categories":[],"categories_nodes":[],"categories_segments":[],"categories_sizes":[],"default_left":[0,0,0,0,0,0,0,0,0,0,0,0,0,0,0,0,0,0,0,0,0,0,0],"id":43,"left_children":[1,3,5,7,9,11,-1,13,-1,15,17,19,21,-1,-1,-1,-1,-1,-1,-1,-1,-1,-1],"loss_changes":[4.679255E0,9.184078E0,9.059253E-1,7.3317723E0,1.3352716E1,5.4776907E-2,0E0,4.6517134E0,0E0,9.931264E0,1.6723616E1,1.1050968E0,1.255667E0,0E0,0E0,0E0,0E0,0E0,0E0,0E0,0E0,0E0,0E0],"parents":[2147483647,0,0,1,1,2,2,3,3,4,4,5,5,7,7,9,9,10,10,11,11,12,12],"right_children":[2,4,6,8,10,12,-1,14,-1,16,18,20,22,-1,-1,-1,-1,-1,-1,-1,-1,-1,-1],"split_conditions":[2.1E1,1.3E1,2.3E1,1.2E1,2E0,2.2E1,-3.2094143E-2,6E0,-4.8589807E-2,1.8E1,1.8E1,2E0,2E0,-9.687067E-3,7.625858E-3,-2.0276142E-2,2.2948809E-2,5.365746E-2,-7.000854E-3,-2.2068342E-2,-3.1068164E-3,-2.7503164E-3,-3.0337794E-2],"split_indices":[1,1,1,1,0,1,0,1,0,1,1,0,0,0,0,0,0,0,0,0,0,0,0],"split_type":[0,0,0,0,0,0,0,0,0,0,0,0,0,0,0,0,0,0,0,0,0,0,0],"sum_hessian":[1.311E3,1.084E3,2.27E2,6.65E2,4.19E2,2.05E2,2.2E1,6.3E2,3.5E1,2.19E2,2E2,1.36E2,6.9E1,3.57E2,2.73E2,1.31E2,8.8E1,1.31E2,6.9E1,4.6E1,9E1,4.3E1,2.6E1],"tree_param":{"num_deleted":"0","num_feature":"2","num_nodes":"23","size_leaf_vector":"1"}},{"base_weights":[-1.2168793E-3,2.3481896E-2,-1.18747376E-1,-4.2342357E-2,1.2780444E-1,-9.902341E-2,-2.9024264E-2,-1.9664532E-2,-4.386581E-2,3.1278852E-1,-1.3596838E-2,-8.689438E-2,-1.2134703E-1,-8.721056E-3,6.866081E-3,1.7073419E-2,1.1585479E-1,-2.102075E-2,8.852767E-3,-1.9908445E-2,-2.7995172E-3,-2.4815279E-3,-2.7416369E-2],"categories":[],"categories_nodes":[],"categories_segments":[],"categories_sizes":[],"default_left":[0,0,0,0,0,0,0,0,0,0,0,0,0,0,0,0,0,0,0,0,0,0,0],"id":44,"left_children":[1,3,5,7,9,11,-1,13,-1,15,17,19,21,-1,-1,-1,-1,-1,-1,-1,-1,-1,-1],"loss_changes":[3.8113396E0,7.4560566E0,7.424848E-1,5.9771013E0,1.0990189E1,4.5232773E-2,0E0,3.7705507E0,0E0,2.1668367E1,4.8174343E0,8.997098E-1,1.0258129E0,0E0,0E0,0E0,0E0,0E0,0E0,0E0,0E0,0E0,0E0],"parents":[2147483647,0,0,1,1,2,2,3,3,4,4,5,5,7,7,9,9,10,10,11,11,12,12],"right_children":[2,4,6,8,10,12,-1,14,-1,16,18,20,22,-1,-1,-1,-1,-1,-1,-1,-1,-1,-1],"split_conditions":[2.1E1,1.3E1,2.3E1,1.2E1,1.7E1,2.2E1,-2.9024264E-2,6E0,-4.386581E-2,1.6E1,1.8E1,2E0,2E0,-8.721056E-3,6.866081E-3,1.7073419E-2,1.1585479E-1,-2.102075E-2,8.852767E-3,-1.9908445E-2,-2.7995172E-3,-2.4815279E-3,-2.7416369E-2],"split_indices":[1,1,1,1,1,1,0,1,0,1,1,0,0,0,0,0,0,0,0,0,0,0,0],"split_type":[0,0,0,0,0,0,0,0,0,0,0,0,0,0,0,0,0,0,0,0,0,0,0],"sum_hessian":[1.311E3,1.084E3,2.27E2,6.65E2,4.19E2,2.05E2,2.2E1,6.3E2,3.5E1,1.81E2,2.38E2,1.36E2,6.9E1,3.57E2,2.73E2,1.56E2,2.5E1,8.1E1,1.57E2,4.6E1,9E1,4.3E1,2.6E1],"tree_param":{"num_deleted":"0","num_feature":"2","num_nodes":"23","size_leaf_vector":"1"}},{"base_weights":[-1.1002341E-3,2.4271114E-2,-9.642266E-2,-3.082406E-2,1.5846244E-1,-1.7266184E-1,-2.2203138E-2,2.5582984E-2,-1.1915976E-1,-3.390742E-2,4.1324335E-1,-3.2074463E-2,-1.3806602E-1,2.341805E-2,-7.67962E-2,-7.851403E-3,4.2602543E-2,-3.820398E-2,1.0854573E-3,-2.8908668E-2,3.9453022E-2,7.600535E-2,-2.3658495E-2,-1.04737235E-2,-2.6248014E-2,-2.5225955E-3,-2.477627E-2],"categories":[],"categories_nodes":[],"categories_segments":[],"categories_sizes":[],"default_left":[0,0,0,0,0,0,0,0,0,0,0,0,0,0,0,0,0,0,0,0,0,0,0,0,0,0,0],"id":45,"left_children":[1,3,5,7,9,11,13,15,17,19,21,-1,23,-1,25,-1,-1,-1,-1,-1,-1,-1,-1,-1,-1,-1,-1],"loss_changes":[3.1753578E0,7.6717305E0,1.5578945E0,3.6703563E0,1.4815689E1,6.524501E-1,1.9915282E0,1.879164E1,9.813283E0,1.9027864E1,2.9477528E1,0E0,4.3692446E-1,0E0,1.0253136E0,0E0,0E0,0E0,0E0,0E0,0E0,0E0,0E0,0E0,0E0,0E0,0E0],"parents":[2147483647,0,0,1,1,2,2,3,3,4,4,5,5,6,6,7,7,8,8,9,9,10,10,12,12,14,14],"right_children":[2,4,6,8,10,12,14,16,18,20,22,-1,24,-1,26,-1,-1,-1,-1,-1,-1,-1,-1,-1,-1,-1,-1],"split_conditions":[2E1,1.5E1,2E0,9E0,2E0,2.1E1,2.1E1,6E0,1.1E1,1.8E1,1.8E1,-3.2074463E-2,2.3E1,2.341805E-2,2.2E1,-7.851403E-3,4.2602543E-2,-3.820398E-2,1.0854573E-3,-2.8908668E-2,3.9453022E-2,7.600535E-2,-2.3658495E-2,-1.04737235E-2,-2.6248014E-2,-2.5225955E-3,-2.477627E-2],"split_indices":[1,1,0,1,0,1,1,1,1,1,1,0,1,0,1,0,0,0,0,0,0,0,0,0,0,0,0],"split_type":[0,0,0,0,0,0,0,0,0,0,0,0,0,0,0,0,0,0,0,0,0,0,0,0,0,0,0],"sum_hessian":[1.311E3,1.036E3,2.75E2,7.35E2,3.01E2,1.35E2,1.4E2,4.49E2,2.86E2,1.72E2,1.29E2,2.4E1,1.11E2,2.4E1,1.16E2,3.57E2,9.2E1,9.4E1,1.92E2,1.08E2,6.4E1,8.4E1,4.5E1,8.9E1,2.2E1,9E1,2.6E1],"tree_param":{"num_deleted":"0","num_feature":"2","num_nodes":"27","size_leaf_vector":"1"}},{"base_weights":[-9.995401E-4,-9.971819E-2,1.9745944E-2,-1.21156685E-1,-6.670958E-3,8.006686E-2,-6.055172E-2,-1.0152573E-2,-1.5778475E-2,3.64586E-2,1.07494555E-1,-1.299757E-1,1.3114832E-2,1.4857215E-2,-3.0666818E-3,-8.075871E-2,9.5845107E-4,3.718289E-2,-6.795563E-3],"categories":[],"categories_nodes":[],"categories_segments":[],"categories_sizes":[],"default_left":[0,0,0,0,0,0,0,0,0,0,0,0,0,0,0,0,0,0,0],"id":46,"left_children":[1,3,5,7,-1,9,11,-1,-1,13,-1,15,17,-1,-1,-1,-1,-1,-1],"loss_changes":[2.6889007E0,1.5326309E-1,5.260185E0,8.248973E-2,0E0,2.6859467E1,2.3849337E0,0E0,0E0,4.4823284E0,0E0,2.2703964E1,6.626681E0,0E0,0E0,0E0,0E0,0E0,0E0],"parents":[2147483647,0,0,1,1,2,2,3,3,5,5,6,6,9,9,11,11,12,12],"right_children":[2,4,6,8,-1,10,12,-1,-1,14,-1,16,18,-1,-1,-1,-1,-1,-1],"split_conditions":[3E0,4E0,1.7E1,2E0,-6.670958E-3,1.6E1,2E0,-1.0152573E-2,-1.5778475E-2,9E0,1.07494555E-1,1.8E1,1.8E1,1.4857215E-2,-3.0666818E-3,-8.075871E-2,9.5845107E-4,3.718289E-2,-6.795563E-3],"split_indices":[1,0,1,0,0,1,0,0,0,1,0,1,1,0,0,0,0,0,0],"split_type":[0,0,0,0,0,0,0,0,0,0,0,0,0,0,0,0,0,0,0],"sum_hessian":[1.311E3,2.27E2,1.084E3,1.36E2,9.1E1,6.19E2,4.65E2,9.1E1,4.5E1,5.94E2,2.5E1,2.39E2,2.26E2,2.22E2,3.72E2,4E1,1.99E2,4.1E1,1.85E2],"tree_param":{"num_deleted":"0","num_feature":"2","num_nodes":"19","size_leaf_vector":"1"}},{"base_weights":[-8.709523E-4,1.4727461E-2,-1.2651286E-1,6.066349E-2,-5.460249E-2,-5.4596867E-2,-3.5969162E-1,2.5641905E-2,9.715855E-2,-1.17310576E-1,1.1937345E-2,-6.0111214E-3,-2.7838934E-3,-4.9417842E-2,-2.830647E-2,-3.8105698E-4,2.2575943E-2,-7.287978E-2,8.6308457E-4,3.3553053E-2,-6.1196256E-3],"categories":[],"categories_nodes":[],"categories_segments":[],"categories_sizes":[],"default_left":[0,0,0,0,0,0,0,0,0,0,0,0,0,0,0,0,0,0,0,0,0],"id":47,"left_children":[1,3,5,7,9,11,13,15,-1,17,19,-1,-1,-1,-1,-1,-1,-1,-1,-1,-1],"loss_changes":[2.5731397E0,3.723092E0,2.4119077E0,2.2402145E1,1.9458251E0,1.4852434E-2,2.1049643E-1,3.9969623E0,0E0,1.8489063E1,5.392609E0,0E0,0E0,0E0,0E0,0E0,0E0,0E0,0E0,0E0,0E0],"parents":[2147483647,0,0,1,1,2,2,3,3,4,4,5,5,6,6,7,7,9,9,10,10],"right_children":[2,4,6,8,10,12,14,16,-1,18,20,-1,-1,-1,-1,-1,-1,-1,-1,-1,-1],"split_conditions":[4E0,1.7E1,4E0,1.6E1,2E0,3E0,7E0,1.5E1,9.715855E-2,1.8E1,1.8E1,-6.0111214E-3,-2.7838934E-3,-4.9417842E-2,-2.830647E-2,-3.8105698E-4,2.2575943E-2,-7.287978E-2,8.6308457E-4,3.3553053E-2,-6.1196256E-3],"split_indices":[0,1,1,1,0,1,0,1,0,1,1,0,0,0,0,0,0,0,0,0,0],"split_type":[0,0,0,0,0,0,0,0,0,0,0,0,0,0,0,0,0,0,0,0,0],"sum_hessian":[1.311E3,1.167E3,1.44E2,7.02E2,4.65E2,1.11E2,3.3E1,6.77E2,2.5E1,2.39E2,2.26E2,9.1E1,2E1,1E1,2.3E1,5.91E2,8.6E1,4E1,1.99E2,4.1E1,1.85E2],"tree_param":{"num_deleted":"0","num_feature":"2","num_nodes":"21","size_leaf_vector":"1"}},{"base_weights":[-7.9258985E-4,2.0657592E-2,-8.138333E-2,-2.5308313E-2,1.3261205E-1,-1.5770958E-1,-7.186501E-3,2.3805516E-2,-1.0222788E-1,-3.0029545E-2,3.480304E-1,-2.9170135E-2,-1.2639259E-1,2.2409791E-2,-5.654482E-2,-6.608035E-3,3.695618E-2,-3.4082558E-2,1.5746251E-3,-5.4692686E-2,1.4515131E-2,9.491902E-2,3.9995215E-3,-9.618119E-3,-2.3911573E-2,-9.957523E-4,-2.1146702E-2],"categories":[],"categories_nodes":[],"categories_segments":[],"categories_sizes":[],"default_left":[0,0,0,0,0,0,0,0,0,0,0,0,0,0,0,0,0,0,0,0,0,0,0,0,0,0,0],"id":48,"left_children":[1,3,5,7,9,11,13,15,17,19,21,-1,23,-1,25,-1,-1,-1,-1,-1,-1,-1,-1,-1,-1,-1,-1],"loss_changes":[2.2697172E0,5.33985E0,1.5619004E0,2.7829049E0,1.0591318E1,5.3381705E-1,1.6223009E0,1.400979E1,8.083944E0,1.5744626E1,2.4035229E1,0E0,3.5842025E-1,0E0,8.423309E-1,0E0,0E0,0E0,0E0,0E0,0E0,0E0,0E0,0E0,0E0,0E0,0E0],"parents":[2147483647,0,0,1,1,2,2,3,3,4,4,5,5,6,6,7,7,8,8,9,9,10,10,12,12,14,14],"right_children":[2,4,6,8,10,12,14,16,18,20,22,-1,24,-1,26,-1,-1,-1,-1,-1,-1,-1,-1,-1,-1,-1,-1],"split_conditions":[2E1,1.5E1,2E0,9E0,2E0,2.1E1,2.1E1,6E0,1.1E1,1.6E1,1.6E1,-2.9170135E-2,2.3E1,2.2409791E-2,2.2E1,-6.608035E-3,3.695618E-2,-3.4082558E-2,1.5746251E-3,-5.4692686E-2,1.4515131E-2,9.491902E-2,3.9995215E-3,-9.618119E-3,-2.3911573E-2,-9.957523E-4,-2.1146702E-2],"split_indices":[1,1,0,1,0,1,1,1,1,1,1,0,1,0,1,0,0,0,0,0,0,0,0,0,0,0,0],"split_type":[0,0,0,0,0,0,0,0,0,0,0,0,0,0,0,0,0,0,0,0,0,0,0,0,0,0,0],"sum_hessian":[1.311E3,1.036E3,2.75E2,7.35E2,3.01E2,1.35E2,1.4E2,4.49E2,2.86E2,1.72E2,1.29E2,2.4E1,1.11E2,2.4E1,1.16E2,3.57E2,9.2E1,9.4E1,1.92E2,4.3E1,1.29E2,4.3E1,8.6E1,8.9E1,2.2E1,9E1,2.6E1],"tree_param":{"num_deleted":"0","num_feature":"2","num_nodes":"27","size_leaf_vector":"1"}},{"base_weights":[-7.1790995E-4,1.2658253E-2,-1.08460255E-1,5.319976E-2,-4.8529167E-2,-4.266681E-2,-3.220016E-1,2.2020709E-2,8.642074E-2,-1.8284705E-1,-1.9795153E-2,-4.762936E-3,-1.8894378E-3,-4.50685E-2,-2.4960501E-2,-3.8597975E-3,9.496718E-3,-6.718564E-2,2.9887272E-2,1.1506288E-2,-7.3471195E-3],"categories":[],"categories_nodes":[],"categories_segments":[],"categories_sizes":[],"default_left":[0,0,0,0,0,0,0,0,0,0,0,0,0,0,0,0,0,0,0,0,0],"id":49,"left_children":[1,3,5,7,9,11,13,15,-1,17,19,-1,-1,-1,-1,-1,-1,-1,-1,-1,-1],"loss_changes":[1.8922001E0,2.899958E0,2.023456E0,1.7757341E1,1.7949036E0,1.2312919E-2,2.0425868E-1,3.0017264E0,0E0,1.9517166E1,2.7953324E0,0E0,0E0,0E0,0E0,0E0,0E0,0E0,0E0,0E0,0E0],"parents":[2147483647,0,0,1,1,2,2,3,3,4,4,5,5,6,6,7,7,9,9,10,10],"right_children":[2,4,6,8,10,12,14,16,-1,18,20,-1,-1,-1,-1,-1,-1,-1,-1,-1,-1],"split_conditions":[4E0,1.7E1,4E0,1.6E1,1.8E1,3E0,7E0,2E0,8.642074E-2,2E0,2E1,-4.762936E-3,-1.8894378E-3,-4.50685E-2,-2.4960501E-2,-3.8597975E-3,9.496718E-3,-6.718564E-2,2.9887272E-2,1.1506288E-2,-7.3471195E-3],"split_indices":[0,1,1,1,1,1,0,0,0,0,1,0,0,0,0,0,0,0,0,0,0],"split_type":[0,0,0,0,0,0,0,0,0,0,0,0,0,0,0,0,0,0,0,0,0],"sum_hessian":[1.311E3,1.167E3,1.44E2,7.02E2,4.65E2,1.11E2,3.3E1,6.77E2,2.5E1,8.1E1,3.84E2,9.1E1,2E1,1E1,2.3E1,3.7E2,3.07E2,4E1,4.1E1,1.09E2,2.75E2],"tree_param":{"num_deleted":"0","num_feature":"2","num_nodes":"21","size_leaf_vector":"1"}}]},"name":"gbtree"},"learner_model_param":{"base_score":"[1.2581236E1]","boost_from_average":"1","num_class":"0","num_feature":"2","num_target":"1"},"objective":{"name":"reg:squarederror","reg_loss_param":{"scale_pos_weight":"1"}}},"version":[3,2,0]}