{"learner":{"attributes":{},"feature_names":["day_of_week","hour_of_day"],"feature_types":[],"gradient_booster":{"model":{"cats":{"enc":[],"feature_segments":[],"sorted_idx":[]},"gbtree_model_param":{"num_parallel_tree":"1","num_trees":"50"},"iteration_indptr":[0,1,2,3,4,5,6,7,8,9,10,11,12,13,14,15,16,17,18,19,20,21,22,23,24,25,26,27,28,29,30,31,32,33,34,35,36,37,38,39,40,41,42,43,44,45,46,47,48,49,50],"tree_info":[0,0,0,0,0,0,0,0,0,0,0,0,0,0,0,0,0,0,0,0,0,0,0,0,0,0,0,0,0,0,0,0,0,0,0,0,0,0,0,0,0,0,0,0,0,0,0,0,0,0],"trees":[{"base_weights":[-3.3026345E-7,-1.0098408E1,1.1200279E0,-1.1122462E1,-8.345107E0,3.4953175E0,-5.0061193E0,-1.1584374E0,-3.7114458E0,-7.182904E-1,-9.075956E-1,1.24082595E-1,4.110285E0,-2.498781E0,-7.959759E0,-2.1019733E-1,-4.930559E-1,3.19213E-1,-5.8160096E-1,4.9236283E-1,8.586749E-2,-4.2490664E-1,-1.2203403E-1,-1.0191299E0,-6.193053E-1],"categories":[],"categories_nodes":[],"categories_segments":[],"categories_sizes":[],"default_left":[0,0,0,0,0,0,0,0,0,0,0,0,0,0,0,0,0,0,0,0,0,0,0,0,0],"id":0,"left_children":[1,3,5,7,9,11,13,-1,15,-1,-1,17,19,21,23,-1,-1,-1,-1,-1,-1,-1,-1,-1,-1],"loss_changes":[1.397978E5,2.122789E3,1.6191608E5,2.6134297E3,3.246797E2,1.6622406E4,2.3004656E4,0E0,8.185614E1,0E0,0E0,2.2580479E4,1.7929305E4,3.7607568E3,5.562797E3,0E0,0E0,0E0,0E0,0E0,0E0,0E0,0E0,0E0,0E0],"parents":[2147483647,0,0,1,1,2,2,3,3,4,4,5,5,6,6,8,8,11,11,12,12,13,13,14,14],"right_children":[2,4,6,8,10,12,14,-1,16,-1,-1,18,20,22,24,-1,-1,-1,-1,-1,-1,-1,-1,-1,-1],"split_conditions":[4E0,6E0,2E1,3E0,1E0,7E0,2.2E1,-1.1584374E0,2E0,-7.182904E-1,-9.075956E-1,6E0,1.8E1,4E0,4E0,-2.1019733E-1,-4.930559E-1,3.19213E-1,-5.8160096E-1,4.9236283E-1,8.586749E-2,-4.2490664E-1,-1.2203403E-1,-1.0191299E0,-6.193053E-1],"split_indices":[1,0,1,1,1,1,1,0,0,0,0,0,1,0,0,0,0,0,0,0,0,0,0,0,0],"split_type":[0,0,0,0,0,0,0,0,0,0,0,0,0,0,0,0,0,0,0,0,0,0,0,0,0],"sum_hessian":[1.2358E4,1.233E3,1.1125E4,7.75E2,4.58E2,8.017E3,3.108E3,7.29E2,4.6E1,1.81E2,2.77E2,1.237E3,6.78E3,1.682E3,1.426E3,2.1E1,2.5E1,8.16E2,4.21E2,5.423E3,1.357E3,7.09E2,9.73E2,6.28E2,7.98E2],"tree_param":{"num_deleted":"0","num_feature":"2","num_nodes":"25","size_leaf_vector":"1"}},{"base_weights":[-4.3381494E-4,-9.0913925E0,1.007857E0,-1.0012614E1,-7.514138E0,3.4651325E0,-3.8089066E0,-1.0427523E0,-3.3552637E0,-6.46856E-1,-8.1716245E-1,1.11462414E-1,4.141756E0,-1.7545317E0,-7.1649313E0,-1.9013302E-1,-4.4564667E-1,2.8733078E-1,-5.2357864E-1,4.5642263E-1,2.5307408E-1,-3.0419213E-1,-8.409538E-2,-8.7193835E-1,-5.068692E-1],"categories":[],"categories_nodes":[],"categories_segments":[],"categories_sizes":[],"default_left":[0,0,0,0,0,0,0,0,0,0,0,0,0,0,0,0,0,0,0,0,0,0,0,0,0],"id":1,"left_children":[1,3,5,7,9,11,13,-1,15,-1,-1,17,19,21,23,-1,-1,-1,-1,-1,-1,-1,-1,-1,-1],"loss_changes":[1.1329584E5,1.7177578E3,1.3170183E5,2.1084766E3,2.6268164E2,1.6718805E4,2.5903984E4,0E0,6.677734E1,0E0,0E0,1.8298168E4,4.1612344E3,2.741355E3,4.6056875E3,0E0,0E0,0E0,0E0,0E0,0E0,0E0,0E0,0E0,0E0],"parents":[2147483647,0,0,1,1,2,2,3,3,4,4,5,5,6,6,8,8,11,11,12,12,13,13,14,14],"right_children":[2,4,6,8,10,12,14,-1,16,-1,-1,18,20,22,24,-1,-1,-1,-1,-1,-1,-1,-1,-1,-1],"split_conditions":[4E0,6E0,1.9E1,3E0,1E0,7E0,2.2E1,-1.0427523E0,2E0,-6.46856E-1,-8.1716245E-1,6E0,7E0,4E0,5E0,-1.9013302E-1,-4.4564667E-1,2.8733078E-1,-5.2357864E-1,4.5642263E-1,2.5307408E-1,-3.0419213E-1,-8.409538E-2,-8.7193835E-1,-5.068692E-1],"split_indices":[1,0,1,1,1,1,1,0,0,0,0,0,0,0,0,0,0,0,0,0,0,0,0,0,0],"split_type":[0,0,0,0,0,0,0,0,0,0,0,0,0,0,0,0,0,0,0,0,0,0,0,0,0],"sum_hessian":[1.2358E4,1.233E3,1.1125E4,7.75E2,4.58E2,7.367E3,3.758E3,7.29E2,4.6E1,1.81E2,2.77E2,1.237E3,6.13E3,2.332E3,1.426E3,2.1E1,2.5E1,8.16E2,4.21E2,4.855E3,1.275E3,9.67E2,1.365E3,8.17E2,6.09E2],"tree_param":{"num_deleted":"0","num_feature":"2","num_nodes":"25","size_leaf_vector":"1"}},{"base_weights":[-7.494131E-4,-8.1848E0,9.06955E-1,-9.013516E0,-6.7659135E0,2.8413613E0,-4.0821013E0,-9.386199E-1,-3.0332649E0,-5.825258E-1,-7.357401E0,-1.5860008E0,3.1752887E0,-2.072462E0,-6.4494042E0,-1.7198396E-1,-4.027961E-1,-7.5214785E-1,-6.313864E-1,5.3358525E-2,-5.816737E-1,3.7396574E-1,6.382789E-2,-3.520994E-1,-1.0144228E-1,-8.303237E-1,-4.9819323E-1],"categories":[],"categories_nodes":[],"categories_segments":[],"categories_sizes":[],"default_left":[0,0,0,0,0,0,0,0,0,0,0,0,0,0,0,0,0,0,0,0,0,0,0,0,0,0,0],"id":2,"left_children":[1,3,5,7,9,11,13,-1,15,-1,17,19,21,23,25,-1,-1,-1,-1,-1,-1,-1,-1,-1,-1,-1,-1],"loss_changes":[9.181871E4,1.3900156E3,1.07387086E5,1.7010312E3,2.1252344E2,1.1858996E4,1.4777473E4,0E0,5.4476105E1,0E0,1.09375E-1,5.0517554E3,1.067318E4,2.5757988E3,3.8407148E3,0E0,0E0,0E0,0E0,0E0,0E0,0E0,0E0,0E0,0E0,0E0,0E0],"parents":[2147483647,0,0,1,1,2,2,3,3,4,4,5,5,6,6,8,8,10,10,11,11,12,12,13,13,14,14],"right_children":[2,4,6,8,10,12,14,-1,16,-1,18,20,22,24,26,-1,-1,-1,-1,-1,-1,-1,-1,-1,-1,-1,-1],"split_conditions":[4E0,6E0,2E1,3E0,1E0,5E0,2.2E1,-9.386199E-1,2E0,-5.825258E-1,3E0,6E0,1.8E1,4E0,4E0,-1.7198396E-1,-4.027961E-1,-7.5214785E-1,-6.313864E-1,5.3358525E-2,-5.816737E-1,3.7396574E-1,6.382789E-2,-3.520994E-1,-1.0144228E-1,-8.303237E-1,-4.9819323E-1],"split_indices":[1,0,1,1,1,1,1,0,0,0,1,0,1,0,0,0,0,0,0,0,0,0,0,0,0,0,0],"split_type":[0,0,0,0,0,0,0,0,0,0,0,0,0,0,0,0,0,0,0,0,0,0,0,0,0,0,0],"sum_hessian":[1.2358E4,1.233E3,1.1125E4,7.75E2,4.58E2,8.017E3,3.108E3,7.29E2,4.6E1,1.81E2,2.77E2,5.62E2,7.455E3,1.682E3,1.426E3,2.1E1,2.5E1,2.34E2,4.3E1,3.75E2,1.87E2,6.098E3,1.357E3,7.09E2,9.73E2,6.28E2,7.98E2],"tree_param":{"num_deleted":"0","num_feature":"2","num_nodes":"27","size_leaf_vector":"1"}},{"base_weights":[-1.1075753E-3,-7.3691397E0,8.160911E-1,-8.114115E0,-6.0936055E0,2.8150995E0,-3.1023738E0,-8.448865E-1,-2.742168E0,-5.2459323E-1,-6.626638E0,5.891164E-1,3.6139145E0,-1.4477174E0,-5.805395E0,-1.5556733E-1,-3.640657E-1,-7.0902514E-1,-6.2350637E-1,1.8351458E-1,-5.347855E-1,3.9398858E-1,1.4379688E-1,-3.5320857E-1,-1.0568247E-1,-7.0959413E-1,-4.0652773E-1],"categories":[],"categories_nodes":[],"categories_segments":[],"categories_sizes":[],"default_left":[0,0,0,0,0,0,0,0,0,0,0,0,0,0,0,0,0,0,0,0,0,0,0,0,0,0,0],"id":3,"left_children":[1,3,5,7,9,11,13,-1,15,-1,17,19,21,23,25,-1,-1,-1,-1,-1,-1,-1,-1,-1,-1,-1,-1],"loss_changes":[7.442136E4,1.1231562E3,8.715919E4,1.3722812E3,1.726289E2,1.3099266E4,1.6803992E4,0E0,4.4440765E1,0E0,6.2597656E0,1.44130205E4,3.8401406E3,1.8971133E3,3.1757734E3,0E0,0E0,0E0,0E0,0E0,0E0,0E0,0E0,0E0,0E0,0E0,0E0],"parents":[2147483647,0,0,1,1,2,2,3,3,4,4,5,5,6,6,8,8,10,10,11,11,12,12,13,13,14,14],"right_children":[2,4,6,8,10,12,14,-1,16,-1,18,20,22,24,26,-1,-1,-1,-1,-1,-1,-1,-1,-1,-1,-1,-1],"split_conditions":[4E0,6E0,1.9E1,3E0,1E0,9E0,2.2E1,-8.448865E-1,2E0,-5.2459323E-1,7E0,7E0,1.8E1,2E0,5E0,-1.5556733E-1,-3.640657E-1,-7.0902514E-1,-6.2350637E-1,1.8351458E-1,-5.347855E-1,3.9398858E-1,1.4379688E-1,-3.5320857E-1,-1.0568247E-1,-7.0959413E-1,-4.0652773E-1],"split_indices":[1,0,1,1,1,1,1,0,0,0,0,0,1,0,0,0,0,0,0,0,0,0,0,0,0,0,0],"split_type":[0,0,0,0,0,0,0,0,0,0,0,0,0,0,0,0,0,0,0,0,0,0,0,0,0,0,0],"sum_hessian":[1.2358E4,1.233E3,1.1125E4,7.75E2,4.58E2,7.367E3,3.758E3,7.29E2,4.6E1,1.81E2,2.77E2,1.946E3,5.421E3,2.332E3,1.426E3,2.1E1,2.5E1,1.19E2,1.58E2,1.609E3,3.37E2,4.714E3,7.07E2,3.67E2,1.965E3,8.17E2,6.09E2],"tree_param":{"num_deleted":"0","num_feature":"2","num_nodes":"27","size_leaf_vector":"1"}},{"base_weights":[-1.3698539E-3,-6.634836E0,7.343572E-1,-7.304462E0,-5.488291E0,2.3114996E0,-3.3332732E0,-7.605136E-1,-2.479007E0,-4.7242212E-1,-5.968767E0,-1.4737364E0,2.5970116E0,-1.726774E0,-5.225638E0,-1.4071773E-1,-3.2905933E-1,-6.1160153E-1,-5.0466746E-1,2.9734267E-2,-5.0080556E-1,3.0465603E-1,5.7610195E-2,-2.9854155E-1,-8.0751084E-2,-6.765768E-1,-4.0066552E-1],"categories":[],"categories_nodes":[],"categories_segments":[],"categories_sizes":[],"default_left":[0,0,0,0,0,0,0,0,0,0,0,0,0,0,0,0,0,0,0,0,0,0,0,0,0,0,0],"id":4,"left_children":[1,3,5,7,9,11,13,-1,15,-1,17,19,21,23,25,-1,-1,-1,-1,-1,-1,-1,-1,-1,-1,-1,-1],"loss_changes":[6.032199E4,9.073242E2,7.138358E4,1.1070352E3,1.403086E2,8.669117E3,9.442594E3,0E0,3.625403E1,0E0,6.879883E0,3.5256204E3,6.772E3,1.9448584E3,2.6519297E3,0E0,0E0,0E0,0E0,0E0,0E0,0E0,0E0,0E0,0E0,0E0,0E0],"parents":[2147483647,0,0,1,1,2,2,3,3,4,4,5,5,6,6,8,8,10,10,11,11,12,12,13,13,14,14],"right_children":[2,4,6,8,10,12,14,-1,16,-1,18,20,22,24,26,-1,-1,-1,-1,-1,-1,-1,-1,-1,-1,-1,-1],"split_conditions":[4E0,6E0,2E1,3E0,1E0,5E0,2.2E1,-7.605136E-1,2E0,-4.7242212E-1,3E0,6E0,1.8E1,4E0,4E0,-1.4071773E-1,-3.2905933E-1,-6.1160153E-1,-5.0466746E-1,2.9734267E-2,-5.0080556E-1,3.0465603E-1,5.7610195E-2,-2.9854155E-1,-8.0751084E-2,-6.765768E-1,-4.0066552E-1],"split_indices":[1,0,1,1,1,1,1,0,0,0,1,0,1,0,0,0,0,0,0,0,0,0,0,0,0,0,0],"split_type":[0,0,0,0,0,0,0,0,0,0,0,0,0,0,0,0,0,0,0,0,0,0,0,0,0,0,0],"sum_hessian":[1.2358E4,1.233E3,1.1125E4,7.75E2,4.58E2,8.017E3,3.108E3,7.29E2,4.6E1,1.81E2,2.77E2,5.62E2,7.455E3,1.682E3,1.426E3,2.1E1,2.5E1,2.34E2,4.3E1,3.75E2,1.87E2,6.098E3,1.357E3,7.09E2,9.73E2,6.28E2,7.98E2],"tree_param":{"num_deleted":"0","num_feature":"2","num_nodes":"27","size_leaf_vector":"1"}},{"base_weights":[-1.5877228E-3,-5.973637E0,6.6078067E-1,-6.575601E0,-4.9429226E0,2.0803359E0,-3.0004144E0,-6.8456644E-1,-2.2411015E0,-4.2543945E-1,-5.3759055E0,3.5583642E-1,2.632958E0,-1.5543219E0,-4.7038293E0,-1.2728561E-1,-2.9741898E-1,-5.799343E-1,-5.022519E-1,1.4508355E-1,-4.86104E-1,3.2413897E-1,5.1853396E-2,-4.1275993E-1,-1.1543802E-1,-5.775215E-1,-3.2594076E-1],"categories":[],"categories_nodes":[],"categories_segments":[],"categories_sizes":[],"default_left":[0,0,0,0,0,0,0,0,0,0,0,0,0,0,0,0,0,0,0,0,0,0,0,0,0,0,0],"id":5,"left_children":[1,3,5,7,9,11,13,-1,15,-1,17,19,21,23,25,-1,-1,-1,-1,-1,-1,-1,-1,-1,-1,-1,-1],"loss_changes":[4.8892402E4,7.331328E2,5.7831055E4,8.9303516E2,1.1396582E2,7.6401875E3,7.651074E3,0E0,2.9575333E1,0E0,1.2472168E1,1.112924E4,7.80984E3,1.7273132E3,2.1895078E3,0E0,0E0,0E0,0E0,0E0,0E0,0E0,0E0,0E0,0E0,0E0,0E0],"parents":[2147483647,0,0,1,1,2,2,3,3,4,4,5,5,6,6,8,8,10,10,11,11,12,12,13,13,14,14],"right_children":[2,4,6,8,10,12,14,-1,16,-1,18,20,22,24,26,-1,-1,-1,-1,-1,-1,-1,-1,-1,-1,-1,-1],"split_conditions":[4E0,6E0,2E1,3E0,1E0,9E0,2.2E1,-6.8456644E-1,2E0,-4.2543945E-1,7E0,7E0,1.8E1,2E0,5E0,-1.2728561E-1,-2.9741898E-1,-5.799343E-1,-5.022519E-1,1.4508355E-1,-4.86104E-1,3.2413897E-1,5.1853396E-2,-4.1275993E-1,-1.1543802E-1,-5.775215E-1,-3.2594076E-1],"split_indices":[1,0,1,1,1,1,1,0,0,0,0,0,1,0,0,0,0,0,0,0,0,0,0,0,0,0,0],"split_type":[0,0,0,0,0,0,0,0,0,0,0,0,0,0,0,0,0,0,0,0,0,0,0,0,0,0,0],"sum_hessian":[1.2358E4,1.233E3,1.1125E4,7.75E2,4.58E2,8.017E3,3.108E3,7.29E2,4.6E1,1.81E2,2.77E2,1.946E3,6.071E3,1.682E3,1.426E3,2.1E1,2.5E1,1.19E2,1.58E2,1.609E3,3.37E2,4.714E3,1.357E3,2.25E2,1.457E3,8.17E2,6.09E2],"tree_param":{"num_deleted":"0","num_feature":"2","num_nodes":"27","size_leaf_vector":"1"}},{"base_weights":[-1.7534795E-3,-5.378394E0,5.945773E-1,-5.919471E0,-4.451915E0,2.0653338E0,-2.2884045E0,-6.1620355E-1,-2.0260277E0,-3.8312922E0,-4.842208E0,3.2007778E-1,2.6916614E0,-1.0973344E0,-4.2340794E0,-1.1513559E-1,-2.6882106E-1,-4.1927657E-1,-3.5997066E-1,-5.2242416E-1,-4.5234266E-1,1.9072974E-1,-2.7148607E-1,3.0185097E-1,1.4894922E-1,-2.7871773E-1,-7.80468E-2,-5.513664E-1,-3.2214484E-1],"categories":[],"categories_nodes":[],"categories_segments":[],"categories_sizes":[],"default_left":[0,0,0,0,0,0,0,0,0,0,0,0,0,0,0,0,0,0,0,0,0,0,0,0,0,0,0,0,0],"id":6,"left_children":[1,3,5,7,9,11,13,-1,15,17,19,21,23,25,27,-1,-1,-1,-1,-1,-1,-1,-1,-1,-1,-1,-1,-1,-1],"loss_changes":[3.9629316E4,5.922461E2,4.7180793E4,7.2038086E2,9.262891E1,8.0531133E3,8.706594E3,0E0,2.4126968E1,1.430664E-1,1.0224609E1,9.384099E3,2.125957E3,1.2470393E3,1.8312695E3,0E0,0E0,0E0,0E0,0E0,0E0,0E0,0E0,0E0,0E0,0E0,0E0,0E0,0E0],"parents":[2147483647,0,0,1,1,2,2,3,3,4,4,5,5,6,6,8,8,9,9,10,10,11,11,12,12,13,13,14,14],"right_children":[2,4,6,8,10,12,14,-1,16,18,20,22,24,26,28,-1,-1,-1,-1,-1,-1,-1,-1,-1,-1,-1,-1,-1,-1],"split_conditions":[4E0,6E0,1.9E1,3E0,1E0,9E0,2.2E1,-6.1620355E-1,2E0,7E0,7E0,6E0,7E0,2E0,4E0,-1.1513559E-1,-2.6882106E-1,-4.1927657E-1,-3.5997066E-1,-5.2242416E-1,-4.5234266E-1,1.9072974E-1,-2.7148607E-1,3.0185097E-1,1.4894922E-1,-2.7871773E-1,-7.80468E-2,-5.513664E-1,-3.2214484E-1],"split_indices":[1,0,1,1,1,1,1,0,0,0,0,0,0,0,0,0,0,0,0,0,0,0,0,0,0,0,0,0,0],"split_type":[0,0,0,0,0,0,0,0,0,0,0,0,0,0,0,0,0,0,0,0,0,0,0,0,0,0,0,0,0],"sum_hessian":[1.2358E4,1.233E3,1.1125E4,7.75E2,4.58E2,7.367E3,3.758E3,7.29E2,4.6E1,1.81E2,2.77E2,1.946E3,5.421E3,2.332E3,1.426E3,2.1E1,2.5E1,6.4E1,1.17E2,1.19E2,1.58E2,1.278E3,6.68E2,4.261E3,1.16E3,3.67E2,1.965E3,6.28E2,7.98E2],"tree_param":{"num_deleted":"0","num_feature":"2","num_nodes":"29","size_leaf_vector":"1"}},{"base_weights":[-1.8707698E-3,-4.842787E0,5.3504205E-1,-5.3288126E0,-4.010545E0,1.6924436E0,-2.4500275E0,-5.5466765E-1,-1.8315945E0,-3.4524443E0,-4.3614936E0,-1.3878115E0,1.9248056E0,-1.2943751E0,-3.8112836E0,-1.0414541E-1,-2.429729E-1,-3.7799403E-1,-3.2427862E-1,-4.4948632E-1,-3.5500547E-1,-6.7233345E-3,-4.021586E-1,2.310489E-1,4.208204E-2,-8.503959E-2,-3.2123157E-1,-4.7006693E-1,-2.6123843E-1],"categories":[],"categories_nodes":[],"categories_segments":[],"categories_sizes":[],"default_left":[0,0,0,0,0,0,0,0,0,0,0,0,0,0,0,0,0,0,0,0,0,0,0,0,0,0,0,0,0],"id":7,"left_children":[1,3,5,7,9,11,13,-1,15,17,19,21,23,25,27,-1,-1,-1,-1,-1,-1,-1,-1,-1,-1,-1,-1,-1,-1],"loss_changes":[3.2125484E4,4.7776953E2,3.8443633E4,5.8108984E2,7.484326E1,5.7414297E3,4.885955E3,0E0,1.9682236E1,2.3901367E-1,1.4128418E1,1.9579025E3,4.3239707E3,1.430386E3,1.5093066E3,0E0,0E0,0E0,0E0,0E0,0E0,0E0,0E0,0E0,0E0,0E0,0E0,0E0,0E0],"parents":[2147483647,0,0,1,1,2,2,3,3,4,4,5,5,6,6,8,8,9,9,10,10,11,11,12,12,13,13,14,14],"right_children":[2,4,6,8,10,12,14,-1,16,18,20,22,24,26,28,-1,-1,-1,-1,-1,-1,-1,-1,-1,-1,-1,-1,-1,-1],"split_conditions":[4E0,6E0,2E1,3E0,1E0,5E0,2.2E1,-5.5466765E-1,2E0,7E0,3E0,6E0,7E0,7E0,5E0,-1.0414541E-1,-2.429729E-1,-3.7799403E-1,-3.2427862E-1,-4.4948632E-1,-3.5500547E-1,-6.7233345E-3,-4.021586E-1,2.310489E-1,4.208204E-2,-8.503959E-2,-3.2123157E-1,-4.7006693E-1,-2.6123843E-1],"split_indices":[1,0,1,1,1,1,1,0,0,0,1,0,0,0,0,0,0,0,0,0,0,0,0,0,0,0,0,0,0],"split_type":[0,0,0,0,0,0,0,0,0,0,0,0,0,0,0,0,0,0,0,0,0,0,0,0,0,0,0,0,0],"sum_hessian":[1.2358E4,1.233E3,1.1125E4,7.75E2,4.58E2,8.017E3,3.108E3,7.29E2,4.6E1,1.81E2,2.77E2,5.62E2,7.455E3,1.682E3,1.426E3,2.1E1,2.5E1,6.4E1,1.17E2,2.34E2,4.3E1,3.75E2,1.87E2,5.933E3,1.522E3,1.367E3,3.15E2,8.17E2,6.09E2],"tree_param":{"num_deleted":"0","num_feature":"2","num_nodes":"29","size_leaf_vector":"1"}},{"base_weights":[-1.9814959E-3,-4.36046E0,4.8142353E-1,-4.7970934E0,-3.6127727E0,1.6916292E0,-1.8908235E0,-4.9927688E-1,-1.6558205E0,-3.1110587E0,-3.9282377E0,1.859364E-1,2.232E0,-9.4815356E-1,-3.4306679E0,-9.420429E-2,-2.1961008E-1,-3.4077618E-1,-2.9212555E-1,-4.2769647E-1,-3.6403415E-1,1.0658046E-1,-4.0057015E-1,2.4584894E-1,7.2051965E-2,-1.7998457E-1,-3.439177E-2,-4.4938537E-1,-2.5893983E-1],"categories":[],"categories_nodes":[],"categories_segments":[],"categories_sizes":[],"default_left":[0,0,0,0,0,0,0,0,0,0,0,0,0,0,0,0,0,0,0,0,0,0,0,0,0,0,0,0,0],"id":8,"left_children":[1,3,5,7,9,11,13,-1,15,17,19,21,23,25,27,-1,-1,-1,-1,-1,-1,-1,-1,-1,-1,-1,-1,-1,-1],"loss_changes":[2.6041404E4,3.8552734E2,3.1944904E4,4.6871484E2,6.0427246E1,5.9944316E3,5.4531797E3,0E0,1.605626E1,2.944336E-1,1.2340332E1,7.1849785E3,1.8543613E3,1.1999963E3,1.264709E3,0E0,0E0,0E0,0E0,0E0,0E0,0E0,0E0,0E0,0E0,0E0,0E0,0E0,0E0],"parents":[2147483647,0,0,1,1,2,2,3,3,4,4,5,5,6,6,8,8,9,9,10,10,11,11,12,12,13,13,14,14],"right_children":[2,4,6,8,10,12,14,-1,16,18,20,22,24,26,28,-1,-1,-1,-1,-1,-1,-1,-1,-1,-1,-1,-1,-1,-1],"split_conditions":[4E0,6E0,1.9E1,3E0,1E0,9E0,2.2E1,-4.9927688E-1,2E0,7E0,7E0,7E0,1.8E1,4E0,4E0,-9.420429E-2,-2.1961008E-1,-3.4077618E-1,-2.9212555E-1,-4.2769647E-1,-3.6403415E-1,1.0658046E-1,-4.0057015E-1,2.4584894E-1,7.2051965E-2,-1.7998457E-1,-3.439177E-2,-4.4938537E-1,-2.5893983E-1],"split_indices":[1,0,1,1,1,1,1,0,0,0,0,0,1,0,0,0,0,0,0,0,0,0,0,0,0,0,0,0,0],"split_type":[0,0,0,0,0,0,0,0,0,0,0,0,0,0,0,0,0,0,0,0,0,0,0,0,0,0,0,0,0],"sum_hessian":[1.2358E4,1.233E3,1.1125E4,7.75E2,4.58E2,7.367E3,3.758E3,7.29E2,4.6E1,1.81E2,2.77E2,1.946E3,5.421E3,2.332E3,1.426E3,2.1E1,2.5E1,6.4E1,1.17E2,1.19E2,1.58E2,1.609E3,3.37E2,4.714E3,7.07E2,9.67E2,1.365E3,6.28E2,7.98E2],"tree_param":{"num_deleted":"0","num_feature":"2","num_nodes":"29","size_leaf_vector":"1"}},{"base_weights":[-2.037383E-3,-3.926227E0,4.332001E-1,-4.318432E0,-3.2545996E0,1.2242234E0,-2.5245624E0,-4.4941756E-1,-1.4969155E0,-2.80343E0,-3.5382621E0,1.595506E0,-2.365646E-1,-3.4221194E0,-1.344476E0,-8.52121E-2,-1.984937E-1,-3.072228E-1,-2.6316056E-1,-3.6582556E-1,-2.8169733E-1,2.0500536E-1,1.7387021E-2,-3.2928538E-1,6.863039E-2,-2.774682E-1,-3.8263437E-1,2.7068136E-2,-4.2383036E-1],"categories":[],"categories_nodes":[],"categories_segments":[],"categories_sizes":[],"default_left":[0,0,0,0,0,0,0,0,0,0,0,0,0,0,0,0,0,0,0,0,0,0,0,0,0,0,0,0,0],"id":9,"left_children":[1,3,5,7,9,11,13,-1,15,17,19,21,23,25,27,-1,-1,-1,-1,-1,-1,-1,-1,-1,-1,-1,-1,-1,-1],"loss_changes":[2.111031E4,3.11E2,2.6034135E4,3.780625E2,4.8823242E1,4.761801E3,2.4823896E3,0E0,1.3098267E1,3.2092285E-1,1.3755859E1,4.523051E3,5.022844E3,3.382422E2,4.749918E3,0E0,0E0,0E0,0E0,0E0,0E0,0E0,0E0,0E0,0E0,0E0,0E0,0E0,0E0],"parents":[2147483647,0,0,1,1,2,2,3,3,4,4,5,5,6,6,8,8,9,9,10,10,11,11,12,12,13,13,14,14],"right_children":[2,4,6,8,10,12,14,-1,16,18,20,22,24,26,28,-1,-1,-1,-1,-1,-1,-1,-1,-1,-1,-1,-1,-1,-1],"split_conditions":[4E0,6E0,2.1E1,3E0,1E0,7E0,5E0,-4.4941756E-1,2E0,7E0,3E0,1.8E1,1E1,2.2E1,7E0,-8.52121E-2,-1.984937E-1,-3.072228E-1,-2.6316056E-1,-3.6582556E-1,-2.8169733E-1,2.0500536E-1,1.7387021E-2,-3.2928538E-1,6.863039E-2,-2.774682E-1,-3.8263437E-1,2.7068136E-2,-4.2383036E-1],"split_indices":[1,0,1,1,1,0,0,0,0,0,1,1,1,1,0,0,0,0,0,0,0,0,0,0,0,0,0,0,0],"split_type":[0,0,0,0,0,0,0,0,0,0,0,0,0,0,0,0,0,0,0,0,0,0,0,0,0,0,0,0,0],"sum_hessian":[1.2358E4,1.233E3,1.1125E4,7.75E2,4.58E2,8.778E3,2.347E3,7.29E2,4.6E1,1.81E2,2.77E2,6.999E3,1.779E3,1.332E3,1.015E3,2.1E1,2.5E1,6.4E1,1.17E2,2.34E2,4.3E1,5.303E3,1.696E3,4.12E2,1.367E3,5.15E2,8.17E2,6.52E2,3.63E2],"tree_param":{"num_deleted":"0","num_feature":"2","num_nodes":"29","size_leaf_vector":"1"}},{"base_weights":[-2.0802864E-3,-3.5351853E0,3.8978148E-1,-3.8875334E0,-2.931793E0,1.381888E0,-1.5549461E0,-4.0453735E-1,-1.3532602E0,-2.6337254E0,-3.285081E0,-4.2164987E-1,1.7458414E0,-7.81518E-1,-2.8183327E0,-7.7078246E-2,-1.7940776E-1,-3.0254826E-1,-2.3964529E-1,-3.4656003E-1,-2.5416782E-1,1.2303569E-1,-3.6189672E-1,1.986988E-1,8.267549E-2,-2.2544216E-1,-5.0541934E-2,-2.4921362E-1,-4.8304707E-1],"categories":[],"categories_nodes":[],"categories_segments":[],"categories_sizes":[],"default_left":[0,0,0,0,0,0,0,0,0,0,0,0,0,0,0,0,0,0,0,0,0,0,0,0,0,0,0,0,0],"id":10,"left_children":[1,3,5,7,9,11,13,-1,15,17,19,21,23,25,27,-1,-1,-1,-1,-1,-1,-1,-1,-1,-1,-1,-1,-1,-1],"loss_changes":[1.7112275E4,2.5095508E2,2.1468396E4,3.0493262E2,3.9682617E1,4.837117E3,3.6708613E3,0E0,1.0685173E1,1.635962E1,1.8836426E1,6.543556E3,1.3571992E3,9.4761365E2,9.2457715E2,0E0,0E0,0E0,0E0,0E0,0E0,0E0,0E0,0E0,0E0,0E0,0E0,0E0,0E0],"parents":[2147483647,0,0,1,1,2,2,3,3,4,4,5,5,6,6,8,8,9,9,10,10,11,11,12,12,13,13,14,14],"right_children":[2,4,6,8,10,12,14,-1,16,18,20,22,24,26,28,-1,-1,-1,-1,-1,-1,-1,-1,-1,-1,-1,-1,-1,-1],"split_conditions":[4E0,6E0,1.9E1,3E0,2E0,7E0,2.2E1,-4.0453735E-1,2E0,7E0,3E0,6E0,7E0,2E0,7E0,-7.7078246E-2,-1.7940776E-1,-3.0254826E-1,-2.3964529E-1,-3.4656003E-1,-2.5416782E-1,1.2303569E-1,-3.6189672E-1,1.986988E-1,8.267549E-2,-2.2544216E-1,-5.0541934E-2,-2.4921362E-1,-4.8304707E-1],"split_indices":[1,0,1,1,1,1,1,0,0,0,1,0,0,0,0,0,0,0,0,0,0,0,0,0,0,0,0,0,0],"split_type":[0,0,0,0,0,0,0,0,0,0,0,0,0,0,0,0,0,0,0,0,0,0,0,0,0,0,0,0,0],"sum_hessian":[1.2358E4,1.233E3,1.1125E4,7.75E2,4.58E2,7.367E3,3.758E3,7.29E2,4.6E1,2.53E2,2.05E2,1.237E3,6.13E3,2.332E3,1.426E3,2.1E1,2.5E1,9.1E1,1.62E2,1.62E2,4.3E1,8.16E2,4.21E2,4.855E3,1.275E3,3.67E2,1.965E3,1.229E3,1.97E2],"tree_param":{"num_deleted":"0","num_feature":"2","num_nodes":"29","size_leaf_vector":"1"}},{"base_weights":[-2.0961931E-3,-2.6017225E0,4.3986997E-1,-3.292207E0,-1.3851478E0,1.4558233E0,-1.3997197E0,-3.5772517E0,-2.2782228E0,1.8224673E0,-1.755631E0,1.7511153E0,3.0398646E-1,-7.034846E-1,-2.5370126E0,-3.7332055E-1,-3.3881715E-1,-2.1582781E-1,-2.4659704E-1,-6.972082E-2,2.963114E-1,-1.2705114E-1,-3.427187E-1,1.9159095E-1,3.4090046E-2,-2.6267415E-1,1.126793E-1,-4.0480565E-2,-1.9558372E-1,-3.4143397E-1,-1.8431757E-1],"categories":[],"categories_nodes":[],"categories_segments":[],"categories_sizes":[],"default_left":[0,0,0,0,0,0,0,0,0,0,0,0,0,0,0,0,0,0,0,0,0,0,0,0,0,0,0,0,0,0,0],"id":11,"left_children":[1,3,5,7,9,11,13,15,17,19,21,23,25,27,29,-1,-1,-1,-1,-1,-1,-1,-1,-1,-1,-1,-1,-1,-1,-1,-1],"loss_changes":[1.4200978E4,1.504127E3,1.974549E4,3.2279004E2,7.7801514E2,2.3143828E3,2.9746787E3,1.3654297E1,3.97583E-1,1.9750197E2,4.7002502E2,1.2582305E3,3.3548364E3,8.718701E2,8.6235254E2,0E0,0E0,0E0,0E0,0E0,0E0,0E0,0E0,0E0,0E0,0E0,0E0,0E0,0E0,0E0,0E0],"parents":[2147483647,0,0,1,1,2,2,3,3,4,4,5,5,6,6,7,7,8,8,9,9,10,10,11,11,12,12,13,13,14,14],"right_children":[2,4,6,8,10,12,14,16,18,20,22,24,26,28,30,-1,-1,-1,-1,-1,-1,-1,-1,-1,-1,-1,-1,-1,-1,-1,-1],"split_conditions":[5E0,3E0,1.9E1,7E0,2E0,7E0,2.2E1,4E0,2E0,4E0,7E0,1.8E1,1E1,7E0,4E0,-3.7332055E-1,-3.3881715E-1,-2.1582781E-1,-2.4659704E-1,-6.972082E-2,2.963114E-1,-1.2705114E-1,-3.427187E-1,1.9159095E-1,3.4090046E-2,-2.6267415E-1,1.126793E-1,-4.0480565E-2,-1.9558372E-1,-3.4143397E-1,-1.8431757E-1],"split_indices":[1,1,1,0,0,0,1,0,1,1,0,1,1,0,0,0,0,0,0,0,0,0,0,0,0,0,0,0,0,0,0],"split_type":[0,0,0,0,0,0,0,0,0,0,0,0,0,0,0,0,0,0,0,0,0,0,0,0,0,0,0,0,0,0,0],"sum_hessian":[1.2358E4,1.795E3,1.0563E4,1.144E3,6.51E2,6.805E3,3.758E3,8.91E2,2.53E2,6.7E1,5.84E2,5.416E3,1.389E3,2.332E3,1.426E3,4.78E2,4.13E2,1.62E2,9.1E1,2.1E1,4.6E1,4.54E2,1.3E2,4.849E3,5.67E2,3.04E2,1.085E3,1.884E3,4.48E2,6.28E2,7.98E2],"tree_param":{"num_deleted":"0","num_feature":"2","num_nodes":"31","size_leaf_vector":"1"}},{"base_weights":[-2.0568513E-3,-2.3423393E0,3.9581797E-1,-2.9640121E0,-1.2470057E0,1.310252E0,-1.2599504E0,-3.2203248E0,-2.052221E0,-4.9865165E-1,-2.6087303E0,1.5760452E0,2.7348047E-1,-2.1321058E-1,-1.8888843E0,-3.0013832E-1,-3.3329254E-1,-1.9437742E-1,-2.2220539E-1,1.6435531E-1,-9.075848E-2,-1.9624625E-1,-3.087084E-1,1.7243576E-1,3.0687025E-2,-2.3649283E-1,1.01421826E-1,8.663177E-3,-1.4097075E-1,-2.684248E-1,-8.435018E-2],"categories":[],"categories_nodes":[],"categories_segments":[],"categories_sizes":[],"default_left":[0,0,0,0,0,0,0,0,0,0,0,0,0,0,0,0,0,0,0,0,0,0,0,0,0,0,0,0,0,0,0],"id":12,"left_children":[1,3,5,7,9,11,13,15,17,19,21,23,25,27,29,-1,-1,-1,-1,-1,-1,-1,-1,-1,-1,-1,-1,-1,-1,-1,-1],"loss_changes":[1.1508879E4,1.2192695E3,1.5996507E4,2.6098242E2,6.6312115E2,1.8750762E3,2.4742603E3,1.1986328E1,3.590088E-1,3.7117148E2,6.5354126E1,1.0191367E3,2.7189714E3,5.066919E2,1.950002E3,0E0,0E0,0E0,0E0,0E0,0E0,0E0,0E0,0E0,0E0,0E0,0E0,0E0,0E0,0E0,0E0],"parents":[2147483647,0,0,1,1,2,2,3,3,4,4,5,5,6,6,7,7,8,8,9,9,10,10,11,11,12,12,13,13,14,14],"right_children":[2,4,6,8,10,12,14,16,18,20,22,24,26,28,30,-1,-1,-1,-1,-1,-1,-1,-1,-1,-1,-1,-1,-1,-1,-1,-1],"split_conditions":[5E0,3E0,1.9E1,7E0,6E0,7E0,2.1E1,1E0,2E0,2E0,7E0,1.8E1,1E1,7E0,5E0,-3.0013832E-1,-3.3329254E-1,-1.9437742E-1,-2.2220539E-1,1.6435531E-1,-9.075848E-2,-1.9624625E-1,-3.087084E-1,1.7243576E-1,3.0687025E-2,-2.3649283E-1,1.01421826E-1,8.663177E-3,-1.4097075E-1,-2.684248E-1,-8.435018E-2],"split_indices":[1,1,1,0,0,0,1,1,1,0,0,1,1,0,0,0,0,0,0,0,0,0,0,0,0,0,0,0,0,0,0],"split_type":[0,0,0,0,0,0,0,0,0,0,0,0,0,0,0,0,0,0,0,0,0,0,0,0,0,0,0,0,0,0,0],"sum_hessian":[1.2358E4,1.795E3,1.0563E4,1.144E3,6.51E2,6.805E3,3.758E3,8.91E2,2.53E2,4.21E2,2.3E2,5.416E3,1.389E3,1.411E3,2.347E3,3.12E2,5.79E2,1.62E2,9.1E1,6.7E1,3.54E2,1E2,1.3E2,4.849E3,5.67E2,3.04E2,1.085E3,1.129E3,2.82E2,1.332E3,1.015E3],"tree_param":{"num_deleted":"0","num_feature":"2","num_nodes":"31","size_leaf_vector":"1"}},{"base_weights":[-2.0046753E-3,-2.1089303E0,3.561968E-1,-2.6685278E0,-1.1229668E0,1.1792368E0,-1.1340842E0,-2.8990023E0,-1.8486389E0,-4.4861215E-1,-2.3500435E0,4.1908965E-1,1.4785086E0,-5.4645705E-1,-2.094E0,-2.9972506E-1,-2.66767E-1,-1.750589E-1,-2.0022641E-1,1.4816147E-1,-8.170821E-2,-1.7681594E-1,-2.7807325E-1,8.986035E-2,-2.1292105E-1,1.8061614E-1,6.69373E-2,-1.2424473E-1,-5.2851676E-3,-1.7721896E-1,-4.082551E-1],"categories":[],"categories_nodes":[],"categories_segments":[],"categories_sizes":[],"default_left":[0,0,0,0,0,0,0,0,0,0,0,0,0,0,0,0,0,0,0,0,0,0,0,0,0,0,0,0,0,0,0],"id":13,"left_children":[1,3,5,7,9,11,13,15,17,19,21,23,25,27,29,-1,-1,-1,-1,-1,-1,-1,-1,-1,-1,-1,-1,-1,-1,-1,-1],"loss_changes":[9.328136E3,9.879341E2,1.2958727E4,2.1100342E2,5.3846594E2,1.5476807E3,2.119205E3,1.2277832E1,3.2080078E-1,3.0134985E2,5.2974365E1,2.352936E3,1.2933506E3,8.014237E2,9.059546E2,0E0,0E0,0E0,0E0,0E0,0E0,0E0,0E0,0E0,0E0,0E0,0E0,0E0,0E0,0E0,0E0],"parents":[2147483647,0,0,1,1,2,2,3,3,4,4,5,5,6,6,7,7,8,8,9,9,10,10,11,11,12,12,13,13,14,14],"right_children":[2,4,6,8,10,12,14,16,18,20,22,24,26,28,30,-1,-1,-1,-1,-1,-1,-1,-1,-1,-1,-1,-1,-1,-1,-1,-1],"split_conditions":[5E0,3E0,1.9E1,7E0,6E0,1E1,2.2E1,5E0,2E0,2E0,7E0,7E0,1.7E1,4E0,7E0,-2.9972506E-1,-2.66767E-1,-1.750589E-1,-2.0022641E-1,1.4816147E-1,-8.170821E-2,-1.7681594E-1,-2.7807325E-1,8.986035E-2,-2.1292105E-1,1.8061614E-1,6.69373E-2,-1.2424473E-1,-5.2851676E-3,-1.7721896E-1,-4.082551E-1],"split_indices":[1,1,1,0,0,1,1,0,1,0,0,0,1,0,0,0,0,0,0,0,0,0,0,0,0,0,0,0,0,0,0],"split_type":[0,0,0,0,0,0,0,0,0,0,0,0,0,0,0,0,0,0,0,0,0,0,0,0,0,0,0,0,0,0,0],"sum_hessian":[1.2358E4,1.795E3,1.0563E4,1.144E3,6.51E2,6.805E3,3.758E3,8.91E2,2.53E2,4.21E2,2.3E2,1.923E3,4.882E3,2.332E3,1.426E3,6.17E2,2.74E2,1.62E2,9.1E1,6.7E1,3.54E2,1E2,1.3E2,1.619E3,3.04E2,3.474E3,1.408E3,9.67E2,1.365E3,1.229E3,1.97E2],"tree_param":{"num_deleted":"0","num_feature":"2","num_nodes":"31","size_leaf_vector":"1"}},{"base_weights":[-1.9597139E-3,-1.898778E0,3.2052112E-1,-2.4024975E0,-1.0112661E0,8.5496235E-1,-1.549932E0,-2.6097372E0,-1.6652523E0,-4.035938E-1,-2.1170082E0,1.1513305E0,1.5387569E-3,-2.4690332E0,-8.109221E-1,-2.736859E-1,-2.4563532E-1,-1.5766038E-1,-1.804214E-1,1.3356318E-1,-7.356044E-2,-1.5930942E-1,-2.5047818E-1,3.771163E-2,1.507757E-1,-1.0327269E-1,1.5634125E-2,-2.2173107E-1,-3.163269E-1,5.107469E-3,-3.03473E-1],"categories":[],"categories_nodes":[],"categories_segments":[],"categories_sizes":[],"default_left":[0,0,0,0,0,0,0,0,0,0,0,0,0,0,0,0,0,0,0,0,0,0,0,0,0,0,0,0,0,0,0],"id":14,"left_children":[1,3,5,7,9,11,13,15,17,19,21,23,25,27,29,-1,-1,-1,-1,-1,-1,-1,-1,-1,-1,-1,-1,-1,-1,-1,-1],"loss_changes":[7.5604546E3,8.0048535E2,1.05616E4,1.7059473E2,4.3724335E2,2.0783037E3,1.5928174E3,1.0669922E1,2.8442383E-1,2.4466269E2,4.2939575E1,1.6824526E3,3.3942798E2,1.757793E2,2.497896E3,0E0,0E0,0E0,0E0,0E0,0E0,0E0,0E0,0E0,0E0,0E0,0E0,0E0,0E0,0E0,0E0],"parents":[2147483647,0,0,1,1,2,2,3,3,4,4,5,5,6,6,7,7,8,8,9,9,10,10,11,11,12,12,13,13,14,14],"right_children":[2,4,6,8,10,12,14,16,18,20,22,24,26,28,30,-1,-1,-1,-1,-1,-1,-1,-1,-1,-1,-1,-1,-1,-1,-1,-1],"split_conditions":[5E0,3E0,2.1E1,7E0,6E0,1.8E1,4E0,4E0,2E0,2E0,7E0,1E1,2E0,2.3E1,7E0,-2.736859E-1,-2.4563532E-1,-1.5766038E-1,-1.804214E-1,1.3356318E-1,-7.356044E-2,-1.5930942E-1,-2.5047818E-1,3.771163E-2,1.507757E-1,-1.0327269E-1,1.5634125E-2,-2.2173107E-1,-3.163269E-1,5.107469E-3,-3.03473E-1],"split_indices":[1,1,1,0,0,1,0,0,1,0,0,1,0,1,0,0,0,0,0,0,0,0,0,0,0,0,0,0,0,0,0],"split_type":[0,0,0,0,0,0,0,0,0,0,0,0,0,0,0,0,0,0,0,0,0,0,0,0,0,0,0,0,0,0,0],"sum_hessian":[1.2358E4,1.795E3,1.0563E4,1.144E3,6.51E2,8.216E3,2.347E3,8.91E2,2.53E2,4.21E2,2.3E2,6.098E3,2.118E3,1.045E3,1.302E3,4.78E2,4.13E2,1.62E2,9.1E1,6.7E1,3.54E2,1E2,1.3E2,1.923E3,4.175E3,2.75E2,1.843E3,7.7E2,2.75E2,9.39E2,3.63E2],"tree_param":{"num_deleted":"0","num_feature":"2","num_nodes":"31","size_leaf_vector":"1"}},{"base_weights":[-1.9211456E-3,-1.7095722E0,2.883991E-1,-2.1629965E0,-9.1067576E-1,9.5778435E-1,-9.236585E-1,-2.3493457E0,-1.5000582E0,-3.6309195E-1,-1.9070814E0,1.319956E0,3.761138E-1,-4.303891E-1,-1.7294565E0,-2.1619526E-1,-2.4464226E-1,-1.4199106E-1,-1.6257538E-1,1.2040329E-1,-6.622508E-2,-1.435362E-1,-2.2562157E-1,1.4565654E-1,8.1044994E-2,-3.3956936E-1,7.485386E-2,-1.6744817E-2,-1.533314E-1,-1.4632517E-1,-3.374419E-1],"categories":[],"categories_nodes":[],"categories_segments":[],"categories_sizes":[],"default_left":[0,0,0,0,0,0,0,0,0,0,0,0,0,0,0,0,0,0,0,0,0,0,0,0,0,0,0,0,0,0,0],"id":15,"left_children":[1,3,5,7,9,11,13,15,17,19,21,23,25,27,29,-1,-1,-1,-1,-1,-1,-1,-1,-1,-1,-1,-1,-1,-1,-1,-1],"loss_changes":[6.1276616E3,6.486118E2,8.5718125E3,1.3792676E2,3.5504895E2,1.4332861E3,1.4933662E3,1.0937988E1,2.503662E-1,1.9863911E2,3.4805664E1,2.9073584E2,3.673061E3,6.763229E2,6.199414E2,0E0,0E0,0E0,0E0,0E0,0E0,0E0,0E0,0E0,0E0,0E0,0E0,0E0,0E0,0E0,0E0],"parents":[2147483647,0,0,1,1,2,2,3,3,4,4,5,5,6,6,7,7,8,8,9,9,10,10,11,11,12,12,13,13,14,14],"right_children":[2,4,6,8,10,12,14,16,18,20,22,24,26,28,30,-1,-1,-1,-1,-1,-1,-1,-1,-1,-1,-1,-1,-1,-1,-1,-1],"split_conditions":[5E0,3E0,1.9E1,7E0,6E0,6E0,2.2E1,1E0,2E0,2E0,7E0,1.7E1,7E0,7E0,7E0,-2.1619526E-1,-2.4464226E-1,-1.4199106E-1,-1.6257538E-1,1.2040329E-1,-6.622508E-2,-1.435362E-1,-2.2562157E-1,1.4565654E-1,8.1044994E-2,-3.3956936E-1,7.485386E-2,-1.6744817E-2,-1.533314E-1,-1.4632517E-1,-3.374419E-1],"split_indices":[1,1,1,0,0,0,1,1,1,0,0,1,1,0,0,0,0,0,0,0,0,0,0,0,0,0,0,0,0,0,0],"split_type":[0,0,0,0,0,0,0,0,0,0,0,0,0,0,0,0,0,0,0,0,0,0,0,0,0,0,0,0,0,0,0],"sum_hessian":[1.2358E4,1.795E3,1.0563E4,1.144E3,6.51E2,6.805E3,3.758E3,8.91E2,2.53E2,4.21E2,2.3E2,4.193E3,2.612E3,2.332E3,1.426E3,3.12E2,5.79E2,1.62E2,9.1E1,6.7E1,3.54E2,1E2,1.3E2,3.305E3,8.88E2,2.34E2,2.378E3,1.884E3,4.48E2,1.229E3,1.97E2],"tree_param":{"num_deleted":"0","num_feature":"2","num_nodes":"31","size_leaf_vector":"1"}},{"base_weights":[-1.8724814E-3,-1.5392165E0,2.5949365E-1,-1.9473654E0,-8.2009125E-1,6.977046E-1,-1.2741686E0,-2.1149278E0,-1.3512514E0,-3.266544E-1,-1.7179712E0,9.199638E-1,-1.7287317E-1,-1.9797573E0,-3.471767E-1,-2.1952538E-1,-1.9267224E-1,-1.2787907E-1,-1.4649457E-1,1.0854002E-1,-5.9621233E-2,-1.2932467E-1,-2.0323162E-1,1.1884003E-1,1.5223421E-2,-3.5773602E-1,7.8531755E-3,-2.275527E-1,-1.5918434E-1,8.419914E-2,-2.4795382E-1],"categories":[],"categories_nodes":[],"categories_segments":[],"categories_sizes":[],"default_left":[0,0,0,0,0,0,0,0,0,0,0,0,0,0,0,0,0,0,0,0,0,0,0,0,0,0,0,0,0,0,0],"id":16,"left_children":[1,3,5,7,9,11,13,15,17,19,21,23,25,27,29,-1,-1,-1,-1,-1,-1,-1,-1,-1,-1,-1,-1,-1,-1,-1,-1],"loss_changes":[4.9663647E3,5.2554736E2,7.1006113E3,1.1151221E2,2.8830545E2,1.5900979E3,1.5350803E3,9.255371E0,2.1920776E-1,1.612732E2,2.8212524E1,1.3488628E3,1.4313536E3,1.493169E2,2.5783958E3,0E0,0E0,0E0,0E0,0E0,0E0,0E0,0E0,0E0,0E0,0E0,0E0,0E0,0E0,0E0,0E0],"parents":[2147483647,0,0,1,1,2,2,3,3,4,4,5,5,6,6,7,7,8,8,9,9,10,10,11,11,12,12,13,13,14,14],"right_children":[2,4,6,8,10,12,14,16,18,20,22,24,26,28,30,-1,-1,-1,-1,-1,-1,-1,-1,-1,-1,-1,-1,-1,-1,-1,-1],"split_conditions":[5E0,3E0,2.1E1,7E0,6E0,7E0,5E0,5E0,2E0,2E0,7E0,1.8E1,7E0,3E0,7E0,-2.1952538E-1,-1.9267224E-1,-1.2787907E-1,-1.4649457E-1,1.0854002E-1,-5.9621233E-2,-1.2932467E-1,-2.0323162E-1,1.1884003E-1,1.5223421E-2,-3.5773602E-1,7.8531755E-3,-2.275527E-1,-1.5918434E-1,8.419914E-2,-2.4795382E-1],"split_indices":[1,1,1,0,0,0,0,0,1,0,0,1,1,0,0,0,0,0,0,0,0,0,0,0,0,0,0,0,0,0,0],"split_type":[0,0,0,0,0,0,0,0,0,0,0,0,0,0,0,0,0,0,0,0,0,0,0,0,0,0,0,0,0,0,0],"sum_hessian":[1.2358E4,1.795E3,1.0563E4,1.144E3,6.51E2,8.216E3,2.347E3,8.91E2,2.53E2,4.21E2,2.3E2,6.545E3,1.671E3,1.332E3,1.015E3,6.17E2,2.74E2,1.62E2,9.1E1,6.7E1,3.54E2,1E2,1.3E2,4.849E3,1.696E3,1.14E2,1.557E3,7.53E2,5.79E2,6.52E2,3.63E2],"tree_param":{"num_deleted":"0","num_feature":"2","num_nodes":"31","size_leaf_vector":"1"}},{"base_weights":[-1.8254359E-3,-1.3858352E0,2.3347211E-1,-1.7532284E0,-7.3851734E-1,6.2790835E-1,-1.1469861E0,-1.903897E0,-1.2172065E0,-2.9387346E-1,-1.5476135E0,8.279884E-1,-1.5579489E-1,-1.7820716E0,-3.1262013E-1,-1.7386913E-1,-1.9897686E-1,-1.15169585E-1,-1.3200437E-1,9.7845614E-2,-5.367595E-2,-1.16520226E-1,-1.8306358E-1,1.06958546E-1,1.370197E-2,-3.2227352E-1,7.068388E-3,-2.2515324E-1,-1.5769431E-1,7.579214E-2,-2.2322658E-1],"categories":[],"categories_nodes":[],"categories_segments":[],"categories_sizes":[],"default_left":[0,0,0,0,0,0,0,0,0,0,0,0,0,0,0,0,0,0,0,0,0,0,0,0,0,0,0,0,0,0,0],"id":17,"left_children":[1,3,5,7,9,11,13,15,17,19,21,23,25,27,29,-1,-1,-1,-1,-1,-1,-1,-1,-1,-1,-1,-1,-1,-1,-1,-1],"loss_changes":[4.0250823E3,4.2583057E2,5.7528477E3,9.015454E1,2.3410846E2,1.2885825E3,1.2436328E3,9.19458E0,1.9088745E-1,1.3093631E2,2.2868225E1,1.0926167E3,1.1615938E3,1.2481738E2,2.089633E3,0E0,0E0,0E0,0E0,0E0,0E0,0E0,0E0,0E0,0E0,0E0,0E0,0E0,0E0,0E0,0E0],"parents":[2147483647,0,0,1,1,2,2,3,3,4,4,5,5,6,6,7,7,8,8,9,9,10,10,11,11,12,12,13,13,14,14],"right_children":[2,4,6,8,10,12,14,16,18,20,22,24,26,28,30,-1,-1,-1,-1,-1,-1,-1,-1,-1,-1,-1,-1,-1,-1,-1,-1],"split_conditions":[5E0,3E0,2.1E1,7E0,6E0,7E0,5E0,1E0,2E0,2E0,7E0,1.8E1,7E0,2E0,7E0,-1.7386913E-1,-1.9897686E-1,-1.15169585E-1,-1.3200437E-1,9.7845614E-2,-5.367595E-2,-1.16520226E-1,-1.8306358E-1,1.06958546E-1,1.370197E-2,-3.2227352E-1,7.068388E-3,-2.2515324E-1,-1.5769431E-1,7.579214E-2,-2.2322658E-1],"split_indices":[1,1,1,0,0,0,0,1,1,0,0,1,1,0,0,0,0,0,0,0,0,0,0,0,0,0,0,0,0,0,0],"split_type":[0,0,0,0,0,0,0,0,0,0,0,0,0,0,0,0,0,0,0,0,0,0,0,0,0,0,0,0,0,0,0],"sum_hessian":[1.2358E4,1.795E3,1.0563E4,1.144E3,6.51E2,8.216E3,2.347E3,8.91E2,2.53E2,4.21E2,2.3E2,6.545E3,1.671E3,1.332E3,1.015E3,3.12E2,5.79E2,1.62E2,9.1E1,6.7E1,3.54E2,1E2,1.3E2,4.849E3,1.696E3,1.14E2,1.557E3,4.02E2,9.3E2,6.52E2,3.63E2],"tree_param":{"num_deleted":"0","num_feature":"2","num_nodes":"31","size_leaf_vector":"1"}},{"base_weights":[-1.7724294E-3,-1.2477392E0,2.1005623E-1,-1.543947E0,-5.962859E-1,7.073136E-1,-6.903278E-1,-1.731958E0,-1.2227257E0,1.9166821E-1,-8.235842E-1,1.1620735E-1,9.400765E-1,-4.4577974E-1,-1.9065276E0,-1.8289953E-1,-1.4143181E-1,-9.308606E-2,-1.4094047E-1,-4.3394726E-2,-1.5031406E-1,4.447865E-2,-1.6294138E-1,1.18211545E-1,3.4247156E-2,-9.3044356E-2,1.2842174E-2,-2.988056E-1,-1.5280788E-1],"categories":[],"categories_nodes":[],"categories_segments":[],"categories_sizes":[],"default_left":[0,0,0,0,0,0,0,0,0,0,0,0,0,0,0,0,0,0,0,0,0,0,0,0,0,0,0,0,0],"id":18,"left_children":[1,3,5,7,9,11,13,15,17,-1,19,21,23,25,27,-1,-1,-1,-1,-1,-1,-1,-1,-1,-1,-1,-1,-1,-1],"loss_changes":[3.262191E3,3.456455E2,4.7302295E3,7.240723E1,3.231604E2,9.3631177E2,1.1171492E3,2.1331787E1,2.3696716E1,0E0,1.3623907E2,1.1042826E3,7.0589014E2,8.7146014E2,2.5288599E2,0E0,0E0,0E0,0E0,0E0,0E0,0E0,0E0,0E0,0E0,0E0,0E0,0E0,0E0],"parents":[2147483647,0,0,1,1,2,2,3,3,4,4,5,5,6,6,7,7,8,8,10,10,11,11,12,12,13,13,14,14],"right_children":[2,4,6,8,10,12,14,16,18,-1,20,22,24,26,28,-1,-1,-1,-1,-1,-1,-1,-1,-1,-1,-1,-1,-1,-1],"split_conditions":[5E0,4E0,1.9E1,6E0,2E0,1E1,2.3E1,2E0,1E0,1.9166821E-1,6E0,7E0,1.7E1,5E0,3E0,-1.8289953E-1,-1.4143181E-1,-9.308606E-2,-1.4094047E-1,-4.3394726E-2,-1.5031406E-1,4.447865E-2,-1.6294138E-1,1.18211545E-1,3.4247156E-2,-9.3044356E-2,1.2842174E-2,-2.988056E-1,-1.5280788E-1],"split_indices":[1,1,1,0,0,1,1,1,1,0,0,0,1,0,0,0,0,0,0,0,0,0,0,0,0,0,0,0,0],"split_type":[0,0,0,0,0,0,0,0,0,0,0,0,0,0,0,0,0,0,0,0,0,0,0,0,0,0,0,0,0],"sum_hessian":[1.2358E4,1.795E3,1.0563E4,1.233E3,5.62E2,6.805E3,3.758E3,7.75E2,4.58E2,4.6E1,5.16E2,1.923E3,4.882E3,3.13E3,6.28E2,5.9E2,1.85E2,1.81E2,2.77E2,3.29E2,1.87E2,1.619E3,3.04E2,3.474E3,1.408E3,1.697E3,1.433E3,1.61E2,4.67E2],"tree_param":{"num_deleted":"0","num_feature":"2","num_nodes":"29","size_leaf_vector":"1"}},{"base_weights":[-1.6809322E-3,-1.1232772E0,1.8900332E-1,-1.423514E0,-5.9429777E-1,5.1321137E-1,-9.456672E-1,-1.5487467E0,-9.781164E-2,1.4190571E-1,-9.443988E-1,6.8905693E-1,-1.7554358E-1,-1.4789277E0,-2.4509434E-1,-1.401427E-1,-1.6255783E-1,-1.10520504E-1,4.962833E-2,-7.075123E-2,-1.5013775E-1,8.787697E-2,1.46454675E-2,-2.7417403E-1,1.398669E-3,-1.7179681E-1,-1.1656256E-1,7.287828E-2,-1.9915138E-1],"categories":[],"categories_nodes":[],"categories_segments":[],"categories_sizes":[],"default_left":[0,0,0,0,0,0,0,0,0,0,0,0,0,0,0,0,0,0,0,0,0,0,0,0,0,0,0,0,0],"id":19,"left_children":[1,3,5,7,9,11,13,15,-1,17,19,21,23,25,27,-1,-1,-1,-1,-1,-1,-1,-1,-1,-1,-1,-1,-1,-1],"loss_changes":[2.6434407E3,2.8439307E2,3.8866565E3,6.235132E1,1.6818414E2,9.953186E2,8.76822E2,7.818115E0,0E0,9.3799545E1,5.7255554E1,6.737073E2,8.1325226E2,9.782861E1,1.729462E3,0E0,0E0,0E0,0E0,0E0,0E0,0E0,0E0,0E0,0E0,0E0,0E0,0E0,0E0],"parents":[2147483647,0,0,1,1,2,2,3,3,4,4,5,5,6,6,7,7,9,9,10,10,11,11,12,12,13,13,14,14],"right_children":[2,4,6,8,10,12,14,16,-1,18,20,22,24,26,28,-1,-1,-1,-1,-1,-1,-1,-1,-1,-1,-1,-1,-1,-1],"split_conditions":[5E0,3E0,2.1E1,7E0,3E0,7E0,5E0,1E0,-9.781164E-2,4E0,7E0,1.8E1,7E0,3E0,7E0,-1.401427E-1,-1.6255783E-1,-1.10520504E-1,4.962833E-2,-7.075123E-2,-1.5013775E-1,8.787697E-2,1.46454675E-2,-2.7417403E-1,1.398669E-3,-1.7179681E-1,-1.1656256E-1,7.287828E-2,-1.9915138E-1],"split_indices":[1,1,1,0,0,0,0,1,0,1,0,1,1,0,0,0,0,0,0,0,0,0,0,0,0,0,0,0,0],"split_type":[0,0,0,0,0,0,0,0,0,0,0,0,0,0,0,0,0,0,0,0,0,0,0,0,0,0,0,0,0],"sum_hessian":[1.2358E4,1.795E3,1.0563E4,1.144E3,6.51E2,8.216E3,2.347E3,8.91E2,2.53E2,2.1E2,4.41E2,6.545E3,1.671E3,1.332E3,1.015E3,3.12E2,5.79E2,4.6E1,1.64E2,3.11E2,1.3E2,4.849E3,1.696E3,1.14E2,1.557E3,7.53E2,5.79E2,6.52E2,3.63E2],"tree_param":{"num_deleted":"0","num_feature":"2","num_nodes":"29","size_leaf_vector":"1"}},{"base_weights":[-1.6154649E-3,-1.0113293E0,1.7004752E-1,-1.2815124E0,-5.3530025E-1,5.242769E-1,-6.795197E-1,-1.3942113E0,-8.8068986E-1,1.2742633E-1,-8.504586E-1,7.690503E-1,1.3750431E-1,-4.3286973E-1,-1.9268305E0,-1.4831202E-1,-1.2879758E-1,-8.3429486E-2,-9.533169E-2,-9.970362E-2,4.4695552E-2,-6.369878E-2,-1.3523856E-1,4.6775125E-2,1.01305805E-1,-2.698533E-1,3.882876E-2,-1.0956135E-1,8.116302E-2,-1.6696042E-1,-2.327622E-1],"categories":[],"categories_nodes":[],"categories_segments":[],"categories_sizes":[],"default_left":[0,0,0,0,0,0,0,0,0,0,0,0,0,0,0,0,0,0,0,0,0,0,0,0,0,0,0,0,0,0,0],"id":20,"left_children":[1,3,5,7,9,11,13,15,17,19,21,23,25,27,29,-1,-1,-1,-1,-1,-1,-1,-1,-1,-1,-1,-1,-1,-1,-1,-1],"loss_changes":[2.1423635E3,2.3030664E2,3.1795044E3,5.0494263E1,1.362876E2,7.0576587E2,9.556472E2,6.5150146E0,6.0516357E-2,7.625762E1,4.6497437E1,3.3521533E2,2.057216E3,2.1428547E3,4.90011E1,0E0,0E0,0E0,0E0,0E0,0E0,0E0,0E0,0E0,0E0,0E0,0E0,0E0,0E0,0E0,0E0],"parents":[2147483647,0,0,1,1,2,2,3,3,4,4,5,5,6,6,7,7,8,8,9,9,10,10,11,11,12,12,13,13,14,14],"right_children":[2,4,6,8,10,12,14,16,18,20,22,24,26,28,30,-1,-1,-1,-1,-1,-1,-1,-1,-1,-1,-1,-1,-1,-1,-1,-1],"split_conditions":[5E0,3E0,2E1,7E0,3E0,6E0,7E0,4E0,2E0,4E0,7E0,3E0,7E0,5E0,2.2E1,-1.4831202E-1,-1.2879758E-1,-8.3429486E-2,-9.533169E-2,-9.970362E-2,4.4695552E-2,-6.369878E-2,-1.3523856E-1,4.6775125E-2,1.01305805E-1,-2.698533E-1,3.882876E-2,-1.0956135E-1,8.116302E-2,-1.6696042E-1,-2.327622E-1],"split_indices":[1,1,1,0,0,0,0,0,1,1,0,0,1,0,1,0,0,0,0,0,0,0,0,0,0,0,0,0,0,0,0],"split_type":[0,0,0,0,0,0,0,0,0,0,0,0,0,0,0,0,0,0,0,0,0,0,0,0,0,0,0,0,0,0,0],"sum_hessian":[1.2358E4,1.795E3,1.0563E4,1.144E3,6.51E2,7.455E3,3.108E3,8.91E2,2.53E2,2.1E2,4.41E2,4.565E3,2.89E3,2.596E3,5.12E2,4.78E2,4.13E2,1.62E2,9.1E1,4.6E1,1.64E2,3.11E2,1.3E2,2.044E3,2.521E3,2.34E2,2.656E3,1.694E3,9.02E2,3.15E2,1.97E2],"tree_param":{"num_deleted":"0","num_feature":"2","num_nodes":"31","size_leaf_vector":"1"}},{"base_weights":[-1.5525643E-3,1.3537873E-1,-1.0506544E0,-9.1059166E-1,3.4094092E-1,-6.201258E-1,-1.5958717E0,-1.1537594E0,-4.8215976E-1,5.785134E-1,-1.35801E-1,-3.369622E-1,-2.0747371E-1,-2.4114732E-1,-1.3101381E0,-1.2551008E-1,-7.933247E-2,7.971843E-2,-6.300457E-2,2.0202223E-2,1.02555804E-1,-8.450298E-2,1.5261153E-2,-1.09872155E-1,1.7586945E-1,-1.1696136E-1,-2.1057852E-1],"categories":[],"categories_nodes":[],"categories_segments":[],"categories_sizes":[],"default_left":[0,0,0,0,0,0,0,0,0,0,0,0,0,0,0,0,0,0,0,0,0,0,0,0,0,0,0],"id":21,"left_children":[1,3,5,7,9,11,13,15,17,19,21,23,-1,-1,25,-1,-1,-1,-1,-1,-1,-1,-1,-1,-1,-1,-1],"loss_changes":[1.7755726E3,2.3510364E3,3.339724E2,1.8655249E2,1.0350554E3,3.2840332E2,1.434259E2,4.0827637E1,1.2385866E2,1.0263054E3,6.219624E2,1.071511E3,0E0,0E0,4.986316E1,0E0,0E0,0E0,0E0,0E0,0E0,0E0,0E0,0E0,0E0,0E0,0E0],"parents":[2147483647,0,0,1,1,2,2,3,3,4,4,5,5,6,6,7,7,8,8,9,9,10,10,11,11,14,14],"right_children":[2,4,6,8,10,12,14,16,18,20,22,24,-1,-1,26,-1,-1,-1,-1,-1,-1,-1,-1,-1,-1,-1,-1],"split_conditions":[2.2E1,5E0,2.3E1,3E0,1.8E1,7E0,3E0,7E0,2E0,1.3E1,3E0,5E0,-2.0747371E-1,-2.4114732E-1,7E0,-1.2551008E-1,-7.933247E-2,7.971843E-2,-6.300457E-2,2.0202223E-2,1.02555804E-1,-8.450298E-2,1.5261153E-2,-1.09872155E-1,1.7586945E-1,-1.1696136E-1,-2.1057852E-1],"split_indices":[1,1,1,1,1,0,0,0,0,1,0,0,0,0,0,0,0,0,0,0,0,0,0,0,0,0,0],"split_type":[0,0,0,0,0,0,0,0,0,0,0,0,0,0,0,0,0,0,0,0,0,0,0,0,0,0,0],"sum_hessian":[1.2358E4,1.0932E4,1.426E3,1.795E3,9.137E3,7.98E2,6.28E2,1.144E3,6.51E2,6.098E3,3.039E3,6.69E2,1.29E2,1.61E2,4.67E2,8.91E2,2.53E2,6.7E1,5.84E2,3.311E3,2.787E3,8.78E2,2.161E3,4.91E2,1.78E2,3.99E2,6.8E1],"tree_param":{"num_deleted":"0","num_feature":"2","num_nodes":"27","size_leaf_vector":"1"}},{"base_weights":[-1.465764E-3,1.6444366E-1,-7.0891196E-1,-8.196373E-1,3.7951544E-1,-1.1191958E0,-1.6991858E-1,-1.0385624E0,-4.3391815E-1,5.298467E-1,-2.0926936E-1,-1.4746125E0,-9.641451E-1,5.6334144E-1,-1.4848881E0,-1.1297315E-1,-7.1430475E-2,-1.4234679E-2,-9.6469395E-2,7.154096E-2,1.7690284E-2,-2.406872E-3,-2.0882781E-1,-1.258188E-1,-2.1536139E-1,-1.0711787E-1,-7.214586E-2,1.5623797E-1,-1.22031964E-1,-9.974115E-2,-1.8885432E-1],"categories":[],"categories_nodes":[],"categories_segments":[],"categories_sizes":[],"default_left":[0,0,0,0,0,0,0,0,0,0,0,0,0,0,0,0,0,0,0,0,0,0,0,0,0,0,0,0,0,0,0],"id":22,"left_children":[1,3,5,7,9,11,13,15,17,19,21,23,25,27,29,-1,-1,-1,-1,-1,-1,-1,-1,-1,-1,-1,-1,-1,-1,-1,-1],"loss_changes":[1.4507169E3,2.1193313E3,5.190471E2,1.5121008E2,7.2742053E2,7.203674E1,9.8047845E2,3.3041992E1,1.0076557E2,4.2859204E2,5.81795E2,5.6512268E1,2.3410461E1,1.1655171E3,6.9741516E1,0E0,0E0,0E0,0E0,0E0,0E0,0E0,0E0,0E0,0E0,0E0,0E0,0E0,0E0,0E0,0E0],"parents":[2147483647,0,0,1,1,2,2,3,3,4,4,5,5,6,6,7,7,8,8,9,9,10,10,11,11,12,12,13,13,14,14],"right_children":[2,4,6,8,10,12,14,16,18,20,22,24,26,28,30,-1,-1,-1,-1,-1,-1,-1,-1,-1,-1,-1,-1,-1,-1,-1,-1],"split_conditions":[2.1E1,5E0,5E0,3E0,7E0,2E0,7E0,7E0,6E0,1.7E1,2E1,2.3E1,4E0,2.3E1,2.2E1,-1.1297315E-1,-7.1430475E-2,-1.4234679E-2,-9.6469395E-2,7.154096E-2,1.7690284E-2,-2.406872E-3,-2.0882781E-1,-1.258188E-1,-2.1536139E-1,-1.0711787E-1,-7.214586E-2,1.5623797E-1,-1.22031964E-1,-9.974115E-2,-1.8885432E-1],"split_indices":[1,1,0,1,0,0,0,0,0,1,1,1,0,1,1,0,0,0,0,0,0,0,0,0,0,0,0,0,0,0,0],"split_type":[0,0,0,0,0,0,0,0,0,0,0,0,0,0,0,0,0,0,0,0,0,0,0,0,0,0,0,0,0,0,0],"sum_hessian":[1.2358E4,1.0011E4,2.347E3,1.795E3,8.216E3,1.332E3,1.015E3,1.144E3,6.51E2,6.545E3,1.671E3,4.02E2,9.3E2,6.52E2,3.63E2,8.91E2,2.53E2,4.21E2,2.3E2,4.289E3,2.256E3,1.522E3,1.49E2,3.07E2,9.5E1,6.43E2,2.87E2,4.18E2,2.34E2,1.66E2,1.97E2],"tree_param":{"num_deleted":"0","num_feature":"2","num_nodes":"31","size_leaf_vector":"1"}},{"base_weights":[-1.415626E-3,1.4795764E-1,-6.383507E-1,-7.3783785E-1,3.4154907E-1,-1.0076667E0,-1.53177E-1,-9.153807E-1,-3.473836E-1,4.7687566E-1,-1.8846856E-1,-1.3279977E0,-8.679234E-1,5.0705993E-1,-1.3371922E0,-1.0433974E-1,-6.969573E-2,1.5726857E-1,-5.2126344E-2,6.438854E-2,1.5922E-2,-2.2200845E-1,-3.8388786E-3,-1.13277756E-1,-1.9404958E-1,-9.642274E-2,-6.495633E-2,1.406515E-1,-1.0988068E-1,-8.982678E-2,-1.7006427E-1],"categories":[],"categories_nodes":[],"categories_segments":[],"categories_sizes":[],"default_left":[0,0,0,0,0,0,0,0,0,0,0,0,0,0,0,0,0,0,0,0,0,0,0,0,0,0,0,0,0,0,0],"id":23,"left_children":[1,3,5,7,9,11,13,15,17,19,21,23,25,27,29,-1,-1,-1,-1,-1,-1,-1,-1,-1,-1,-1,-1,-1,-1,-1,-1],"loss_changes":[1.175943E3,1.717134E3,4.2056598E2,1.24184814E2,5.894582E2,5.8518066E1,7.9491626E2,3.3777832E1,1.8878372E2,3.471731E2,5.09715E2,4.598932E1,1.89516E1,9.447417E2,5.6540283E1,0E0,0E0,0E0,0E0,0E0,0E0,0E0,0E0,0E0,0E0,0E0,0E0,0E0,0E0,0E0,0E0],"parents":[2147483647,0,0,1,1,2,2,3,3,4,4,5,5,6,6,7,7,8,8,9,9,10,10,11,11,12,12,13,13,14,14],"right_children":[2,4,6,8,10,12,14,16,18,20,22,24,26,28,30,-1,-1,-1,-1,-1,-1,-1,-1,-1,-1,-1,-1,-1,-1,-1,-1],"split_conditions":[2.1E1,5E0,5E0,4E0,7E0,2E0,7E0,6E0,2E0,1.7E1,7E0,2.3E1,4E0,2.3E1,2.2E1,-1.0433974E-1,-6.969573E-2,1.5726857E-1,-5.2126344E-2,6.438854E-2,1.5922E-2,-2.2200845E-1,-3.8388786E-3,-1.13277756E-1,-1.9404958E-1,-9.642274E-2,-6.495633E-2,1.406515E-1,-1.0988068E-1,-8.982678E-2,-1.7006427E-1],"split_indices":[1,1,0,1,0,0,0,0,0,1,1,1,0,1,1,0,0,0,0,0,0,0,0,0,0,0,0,0,0,0,0],"split_type":[0,0,0,0,0,0,0,0,0,0,0,0,0,0,0,0,0,0,0,0,0,0,0,0,0,0,0,0,0,0,0],"sum_hessian":[1.2358E4,1.0011E4,2.347E3,1.795E3,8.216E3,1.332E3,1.015E3,1.233E3,5.62E2,6.545E3,1.671E3,4.02E2,9.3E2,6.52E2,3.63E2,7.75E2,4.58E2,4.6E1,5.16E2,4.289E3,2.256E3,1.14E2,1.557E3,3.07E2,9.5E1,6.43E2,2.87E2,4.18E2,2.34E2,1.66E2,1.97E2],"tree_param":{"num_deleted":"0","num_feature":"2","num_nodes":"31","size_leaf_vector":"1"}},{"base_weights":[-1.3477366E-3,9.9042475E-2,-7.704892E-1,-3.7293977E-1,3.4231386E-1,-4.464256E-1,-1.1809126E0,-8.2398355E-1,-1.4890076E-1,7.6202E-1,-4.764102E-2,-2.3886995E-1,-1.5127014E-1,-1.8488039E-1,-9.471962E-1,-9.391921E-2,-6.2741324E-2,3.4727033E-2,-6.9657795E-2,4.177725E-2,1.1689297E-1,-8.826586E-2,1.0397968E-2,-7.94102E-2,1.2885773E-1,-1.1647309E-1,-5.2515965E-2],"categories":[],"categories_nodes":[],"categories_segments":[],"categories_sizes":[],"default_left":[0,0,0,0,0,0,0,0,0,0,0,0,0,0,0,0,0,0,0,0,0,0,0,0,0,0,0],"id":24,"left_children":[1,3,5,7,9,11,13,15,17,19,21,23,-1,-1,25,-1,-1,-1,-1,-1,-1,-1,-1,-1,-1,-1,-1],"loss_changes":[9.5436755E2,1.2554521E3,1.8926855E2,3.756875E2,1.1808898E3,1.764666E2,9.64339E1,2.7356628E1,6.757914E2,4.862815E2,4.7372464E2,5.69242E2,0E0,0E0,4.235428E1,0E0,0E0,0E0,0E0,0E0,0E0,0E0,0E0,0E0,0E0,0E0,0E0],"parents":[2147483647,0,0,1,1,2,2,3,3,4,4,5,5,6,6,7,7,8,8,9,9,10,10,11,11,14,14],"right_children":[2,4,6,8,10,12,14,16,18,20,22,24,-1,-1,26,-1,-1,-1,-1,-1,-1,-1,-1,-1,-1,-1,-1],"split_conditions":[2.2E1,1E1,2.3E1,4E0,1.7E1,7E0,3E0,6E0,5E0,1.4E1,2E0,5E0,-1.5127014E-1,-1.8488039E-1,6E0,-9.391921E-2,-6.2741324E-2,3.4727033E-2,-6.9657795E-2,4.177725E-2,1.1689297E-1,-8.826586E-2,1.0397968E-2,-7.94102E-2,1.2885773E-1,-1.1647309E-1,-5.2515965E-2],"split_indices":[1,1,1,1,1,0,0,0,0,1,0,0,0,0,0,0,0,0,0,0,0,0,0,0,0,0,0],"split_type":[0,0,0,0,0,0,0,0,0,0,0,0,0,0,0,0,0,0,0,0,0,0,0,0,0,0,0],"sum_hessian":[1.2358E4,1.0932E4,1.426E3,3.718E3,7.214E3,7.98E2,6.28E2,1.233E3,2.485E3,3.474E3,3.74E3,6.69E2,1.29E2,1.61E2,4.67E2,7.75E2,4.58E2,1.304E3,1.181E3,1.883E3,1.591E3,5.74E2,3.166E3,4.91E2,1.78E2,3.07E2,1.6E2],"tree_param":{"num_deleted":"0","num_feature":"2","num_nodes":"27","size_leaf_vector":"1"}},{"base_weights":[-1.2588451E-3,1.2167425E-1,-5.254517E-1,-3.3569732E-1,3.919067E-1,-8.332811E-1,-1.2105995E-1,-7.4171215E-1,-1.3402478E-1,6.858636E-1,2.9533628E-2,-9.8231363E-1,-6.381021E-1,4.5018116E-1,-1.1455088E0,-8.453938E-2,-5.6480862E-2,1.9497229E-2,-8.063517E-2,3.7601802E-2,1.0521094E-1,-6.96181E-2,1.5398987E-2,-7.941383E-2,-1.6650645E-1,-7.424819E-2,-5.2969456E-2,1.2055017E-1,-8.984549E-2,-8.193147E-2,-1.4148466E-1],"categories":[],"categories_nodes":[],"categories_segments":[],"categories_sizes":[],"default_left":[0,0,0,0,0,0,0,0,0,0,0,0,0,0,0,0,0,0,0,0,0,0,0,0,0,0,0,0,0,0,0],"id":25,"left_children":[1,3,5,7,9,11,13,15,17,19,21,23,25,27,29,-1,-1,-1,-1,-1,-1,-1,-1,-1,-1,-1,-1,-1,-1,-1,-1],"loss_changes":[7.964859E2,1.2375813E3,2.9218677E2,3.0441992E2,6.704296E2,3.8147583E1,5.950863E2,2.2156128E1,5.500444E2,3.9394617E2,2.5480879E2,9.554932E1,6.169739E0,6.662632E2,3.0820526E1,0E0,0E0,0E0,0E0,0E0,0E0,0E0,0E0,0E0,0E0,0E0,0E0,0E0,0E0,0E0,0E0],"parents":[2147483647,0,0,1,1,2,2,3,3,4,4,5,5,6,6,7,7,8,8,9,9,10,10,11,11,12,12,13,13,14,14],"right_children":[2,4,6,8,10,12,14,16,18,20,22,24,26,28,30,-1,-1,-1,-1,-1,-1,-1,-1,-1,-1,-1,-1,-1,-1,-1,-1],"split_conditions":[2.1E1,1E1,5E0,4E0,1.7E1,3E0,7E0,6E0,6E0,1.4E1,2E0,2.3E1,4E0,2.3E1,2.2E1,-8.453938E-2,-5.6480862E-2,1.9497229E-2,-8.063517E-2,3.7601802E-2,1.0521094E-1,-6.96181E-2,1.5398987E-2,-7.941383E-2,-1.6650645E-1,-7.424819E-2,-5.2969456E-2,1.2055017E-1,-8.984549E-2,-8.193147E-2,-1.4148466E-1],"split_indices":[1,1,0,1,1,0,0,0,0,1,0,1,0,1,1,0,0,0,0,0,0,0,0,0,0,0,0,0,0,0,0],"split_type":[0,0,0,0,0,0,0,0,0,0,0,0,0,0,0,0,0,0,0,0,0,0,0,0,0,0,0,0,0,0,0],"sum_hessian":[1.2358E4,1.0011E4,2.347E3,3.718E3,6.293E3,1.332E3,1.015E3,1.233E3,2.485E3,3.474E3,2.819E3,7.53E2,5.79E2,6.52E2,3.63E2,7.75E2,4.58E2,1.669E3,8.16E2,1.883E3,1.591E3,4.12E2,2.407E3,5.92E2,1.61E2,2.92E2,2.87E2,4.18E2,2.34E2,1.66E2,1.97E2],"tree_param":{"num_deleted":"0","num_feature":"2","num_nodes":"31","size_leaf_vector":"1"}},{"base_weights":[-1.1879291E-3,1.0949549E-1,-4.7314757E-1,-3.0218184E-1,3.5273007E-1,-7.50233E-1,-1.09143615E-1,-6.6765517E-1,-1.20646715E-1,6.173184E-1,2.656089E-2,-9.8857796E-1,-6.4625525E-1,4.0521014E-1,-1.0315719E0,-7.609634E-2,-5.0845083E-2,2.930879E-2,-5.7733286E-2,3.3843648E-2,9.4696425E-2,2.4135696E-2,-3.1920385E-2,-8.569019E-2,-1.4007407E-1,-7.209843E-2,-4.7690913E-2,1.0852393E-1,-8.089916E-2,-7.378742E-2,-1.2740766E-1],"categories":[],"categories_nodes":[],"categories_segments":[],"categories_sizes":[],"default_left":[0,0,0,0,0,0,0,0,0,0,0,0,0,0,0,0,0,0,0,0,0,0,0,0,0,0,0,0,0,0,0],"id":26,"left_children":[1,3,5,7,9,11,13,15,17,19,21,23,25,27,29,-1,-1,-1,-1,-1,-1,-1,-1,-1,-1,-1,-1,-1,-1,-1,-1],"loss_changes":[6.456626E2,1.0026498E3,2.367378E2,2.4666116E2,5.431593E2,3.239624E1,4.8246368E2,1.7944214E1,4.6989108E2,3.1914404E2,2.0951537E2,2.0671326E1,1.1438019E1,5.400552E2,2.4985107E1,0E0,0E0,0E0,0E0,0E0,0E0,0E0,0E0,0E0,0E0,0E0,0E0,0E0,0E0,0E0,0E0],"parents":[2147483647,0,0,1,1,2,2,3,3,4,4,5,5,6,6,7,7,8,8,9,9,10,10,11,11,12,12,13,13,14,14],"right_children":[2,4,6,8,10,12,14,16,18,20,22,24,26,28,30,-1,-1,-1,-1,-1,-1,-1,-1,-1,-1,-1,-1,-1,-1,-1,-1],"split_conditions":[2.1E1,1E1,5E0,4E0,1.7E1,2E0,7E0,6E0,5E0,1.4E1,6E0,2.3E1,4E0,2.3E1,2.2E1,-7.609634E-2,-5.0845083E-2,2.930879E-2,-5.7733286E-2,3.3843648E-2,9.4696425E-2,2.4135696E-2,-3.1920385E-2,-8.569019E-2,-1.4007407E-1,-7.209843E-2,-4.7690913E-2,1.0852393E-1,-8.089916E-2,-7.378742E-2,-1.2740766E-1],"split_indices":[1,1,0,1,1,0,0,0,0,1,0,1,0,1,1,0,0,0,0,0,0,0,0,0,0,0,0,0,0,0,0],"split_type":[0,0,0,0,0,0,0,0,0,0,0,0,0,0,0,0,0,0,0,0,0,0,0,0,0,0,0,0,0,0,0],"sum_hessian":[1.2358E4,1.0011E4,2.347E3,3.718E3,6.293E3,1.332E3,1.015E3,1.233E3,2.485E3,3.474E3,2.819E3,4.02E2,9.3E2,6.52E2,3.63E2,7.75E2,4.58E2,1.304E3,1.181E3,1.883E3,1.591E3,1.739E3,1.08E3,3.07E2,9.5E1,6.43E2,2.87E2,4.18E2,2.34E2,1.66E2,1.97E2],"tree_param":{"num_deleted":"0","num_feature":"2","num_nodes":"31","size_leaf_vector":"1"}},{"base_weights":[-1.113885E-3,9.8542556E-2,-4.260539E-1,-2.720052E-1,3.1747624E-1,-6.7546886E-1,-9.840022E-2,-6.009925E-1,-1.0859315E-1,5.5562353E-1,2.3902029E-2,-8.902803E-1,-5.817584E-1,3.647312E-1,-9.289673E-1,-7.027115E-2,-4.8165385E-2,1.652204E-2,-6.681525E-2,8.7478764E-2,2.9637698E-2,-6.508085E-2,1.3961281E-2,-7.714899E-2,-1.2621258E-1,-6.4899765E-2,-4.2938374E-2,9.769739E-2,-7.284366E-2,-6.645284E-2,-1.14731245E-1],"categories":[],"categories_nodes":[],"categories_segments":[],"categories_sizes":[],"default_left":[0,0,0,0,0,0,0,0,0,0,0,0,0,0,0,0,0,0,0,0,0,0,0,0,0,0,0,0,0,0,0],"id":27,"left_children":[1,3,5,7,9,11,13,15,17,19,21,23,25,27,29,-1,-1,-1,-1,-1,-1,-1,-1,-1,-1,-1,-1,-1,-1,-1,-1],"loss_changes":[5.234211E2,8.123137E2,1.9181613E2,1.9986996E2,4.4002484E2,2.6315552E1,3.9115512E2,1.4641083E1,3.8100275E2,2.8726978E2,2.2025186E2,1.6827454E1,9.259918E0,4.3775412E2,2.0254547E1,0E0,0E0,0E0,0E0,0E0,0E0,0E0,0E0,0E0,0E0,0E0,0E0,0E0,0E0,0E0,0E0],"parents":[2147483647,0,0,1,1,2,2,3,3,4,4,5,5,6,6,7,7,8,8,9,9,10,10,11,11,12,12,13,13,14,14],"right_children":[2,4,6,8,10,12,14,16,18,20,22,24,26,28,30,-1,-1,-1,-1,-1,-1,-1,-1,-1,-1,-1,-1,-1,-1,-1,-1],"split_conditions":[2.1E1,1E1,5E0,4E0,1.7E1,2E0,7E0,5E0,6E0,5E0,2E0,2.3E1,4E0,2.3E1,2.2E1,-7.027115E-2,-4.8165385E-2,1.652204E-2,-6.681525E-2,8.7478764E-2,2.9637698E-2,-6.508085E-2,1.3961281E-2,-7.714899E-2,-1.2621258E-1,-6.4899765E-2,-4.2938374E-2,9.769739E-2,-7.284366E-2,-6.645284E-2,-1.14731245E-1],"split_indices":[1,1,0,1,1,0,0,0,0,0,0,1,0,1,1,0,0,0,0,0,0,0,0,0,0,0,0,0,0,0,0],"split_type":[0,0,0,0,0,0,0,0,0,0,0,0,0,0,0,0,0,0,0,0,0,0,0,0,0,0,0,0,0,0,0],"sum_hessian":[1.2358E4,1.0011E4,2.347E3,3.718E3,6.293E3,1.332E3,1.015E3,1.233E3,2.485E3,3.474E3,2.819E3,4.02E2,9.3E2,6.52E2,3.63E2,6.63E2,5.7E2,1.669E3,8.16E2,1.556E3,1.918E3,4.12E2,2.407E3,3.07E2,9.5E1,6.43E2,2.87E2,4.18E2,2.34E2,1.66E2,1.97E2],"tree_param":{"num_deleted":"0","num_feature":"2","num_nodes":"31","size_leaf_vector":"1"}},{"base_weights":[-1.0486294E-3,-4.5201418E-1,7.562074E-2,-5.5942905E-1,-2.6268592E-1,2.6705506E-1,-2.7100807E-1,-6.1662644E-1,-3.5636023E-1,6.911295E-1,-3.7310773E-1,5.254552E-1,2.340137E-2,-1.3899468E-1,-9.069504E-1,-4.9419206E-2,-6.816357E-2,-3.1537708E-2,-4.2509828E-2,-6.855724E-2,1.3208382E-1,-2.660771E-2,-7.420072E-2,2.473899E-1,4.1697126E-2,-3.4694085E-1,1.4081716E-2,-4.2757448E-2,3.9649982E-2,1.0022605E-3,-1.1447036E-1],"categories":[],"categories_nodes":[],"categories_segments":[],"categories_sizes":[],"default_left":[0,0,0,0,0,0,0,0,0,0,0,0,0,0,0,0,0,0,0,0,0,0,0,0,0,0,0,0,0,0,0],"id":28,"left_children":[1,3,5,7,9,11,13,15,17,19,21,23,25,27,29,-1,-1,-1,-1,-1,-1,-1,-1,-1,-1,-1,-1,-1,-1,-1,-1],"loss_changes":[4.2734964E2,3.6377686E1,7.01064E2,1.3079468E1,6.8927826E1,4.2849448E2,3.1545294E2,6.7628784E0,5.814743E-1,5.9856174E1,2.2900436E1,6.9713947E2,1.4375177E3,4.8138492E2,1.4084808E2,0E0,0E0,0E0,0E0,0E0,0E0,0E0,0E0,0E0,0E0,0E0,0E0,0E0,0E0,0E0,0E0],"parents":[2147483647,0,0,1,1,2,2,3,3,4,4,5,5,6,6,7,7,8,8,9,9,10,10,11,11,12,12,13,13,14,14],"right_children":[2,4,6,8,10,12,14,16,18,20,22,24,26,28,30,-1,-1,-1,-1,-1,-1,-1,-1,-1,-1,-1,-1,-1,-1,-1,-1],"split_conditions":[5E0,3E0,1.9E1,7E0,2E0,5E0,7E0,1E0,2E0,4E0,7E0,6E0,6E0,5E0,2E1,-4.9419206E-2,-6.816357E-2,-3.1537708E-2,-4.2509828E-2,-6.855724E-2,1.3208382E-1,-2.660771E-2,-7.420072E-2,2.473899E-1,4.1697126E-2,-3.4694085E-1,1.4081716E-2,-4.2757448E-2,3.9649982E-2,1.0022605E-3,-1.1447036E-1],"split_indices":[1,1,1,0,0,0,0,1,1,1,0,1,1,0,1,0,0,0,0,0,0,0,0,0,0,0,0,0,0,0,0],"split_type":[0,0,0,0,0,0,0,0,0,0,0,0,0,0,0,0,0,0,0,0,0,0,0,0,0,0,0,0,0,0,0],"sum_hessian":[1.2358E4,1.795E3,1.0563E4,1.144E3,6.51E2,6.805E3,3.758E3,8.91E2,2.53E2,6.7E1,5.84E2,3.302E3,3.503E3,3.113E3,6.45E2,3.12E2,5.79E2,1.62E2,9.1E1,2.1E1,4.6E1,4.54E2,1.3E2,1.73E2,3.129E3,1.13E2,3.39E3,2.023E3,1.09E3,1.33E2,5.12E2],"tree_param":{"num_deleted":"0","num_feature":"2","num_nodes":"31","size_leaf_vector":"1"}},{"base_weights":[-9.752582E-4,3.9956696E-2,-7.643644E-1,-4.0694028E-1,1.2073236E-1,-9.7498894E-1,-1.4605846E-1,-5.0365347E-1,-2.3647466E-1,2.2315684E-1,-2.9433823E-1,-7.591377E-1,-1.4617607E-1,4.9049977E-2,-1.0019114E-1,-5.5509556E-2,-3.210157E-2,6.229505E-2,-3.3596944E-2,-5.3656483E-3,3.7441023E-2,-7.844458E-3,-1.03256665E-1,-1.24512255E-1,-2.8029028E-2],"categories":[],"categories_nodes":[],"categories_segments":[],"categories_sizes":[],"default_left":[0,0,0,0,0,0,0,0,0,0,0,0,0,0,0,0,0,0,0,0,0,0,0,0,0],"id":29,"left_children":[1,3,5,7,9,11,13,15,17,19,21,23,-1,-1,-1,-1,-1,-1,-1,-1,-1,-1,-1,-1,-1],"loss_changes":[3.8621234E2,4.2351947E2,8.177249E1,2.9490234E1,4.224787E2,4.8168274E1,8.820428E1,1.0579407E1,5.596071E1,3.3371558E2,3.1341718E2,7.574802E1,0E0,0E0,0E0,0E0,0E0,0E0,0E0,0E0,0E0,0E0,0E0,0E0,0E0],"parents":[2147483647,0,0,1,1,2,2,3,3,4,4,5,5,6,6,7,7,8,8,9,9,10,10,11,11],"right_children":[2,4,6,8,10,12,14,16,18,20,22,24,-1,-1,-1,-1,-1,-1,-1,-1,-1,-1,-1,-1,-1],"split_conditions":[2.3E1,5E0,6E0,3E0,7E0,5E0,7E0,7E0,2E0,3E0,2E1,3E0,-1.4617607E-1,4.9049977E-2,-1.0019114E-1,-5.5509556E-2,-3.210157E-2,6.229505E-2,-3.3596944E-2,-5.3656483E-3,3.7441023E-2,-7.844458E-3,-1.03256665E-1,-1.24512255E-1,-2.8029028E-2],"split_indices":[1,1,0,1,0,0,0,0,0,0,1,0,0,0,0,0,0,0,0,0,0,0,0,0,0],"split_type":[0,0,0,0,0,0,0,0,0,0,0,0,0,0,0,0,0,0,0,0,0,0,0,0,0],"sum_hessian":[1.2358E4,1.173E4,6.28E2,1.795E3,9.935E3,4.68E2,1.6E2,1.144E3,6.51E2,7.969E3,1.966E3,3.26E2,1.42E2,9.2E1,6.8E1,8.91E2,2.53E2,6.7E1,5.84E2,2.816E3,5.153E3,1.522E3,4.44E2,1.61E2,1.65E2],"tree_param":{"num_deleted":"0","num_feature":"2","num_nodes":"25","size_leaf_vector":"1"}},{"base_weights":[-9.173145E-4,5.704334E-2,-4.449838E-1,-2.2595493E-1,2.02908E-1,-6.1317927E-1,2.5091553E-2,-1.34957E-1,-6.266523E-1,4.5731747E-1,-3.3466175E-2,-3.9898786E-1,-8.7812686E-1,9.518973E-1,-8.175859E-1,-4.9964823E-2,1.7046513E-3,-2.8904056E-2,-8.223459E-2,1.10569E-2,6.878763E-2,-6.2943794E-2,7.474893E-3,-4.8415314E-2,6.079813E-3,-6.8369046E-2,-1.3166066E-1,1.4799736E-1,4.4197682E-2,-7.6587014E-2,-9.031724E-2],"categories":[],"categories_nodes":[],"categories_segments":[],"categories_sizes":[],"default_left":[0,0,0,0,0,0,0,0,0,0,0,0,0,0,0,0,0,0,0,0,0,0,0,0,0,0,0,0,0,0,0],"id":30,"left_children":[1,3,5,7,9,11,13,15,17,19,21,23,25,27,29,-1,-1,-1,-1,-1,-1,-1,-1,-1,-1,-1,-1,-1,-1,-1,-1],"loss_changes":[3.1812607E2,4.5135403E2,1.12840515E2,1.3551999E2,4.338953E2,5.9293335E1,2.952146E2,1.6808546E2,4.5217407E1,2.7773602E2,2.4131589E2,2.2858444E1,3.9085144E1,4.781572E1,1.8466187E-1,0E0,0E0,0E0,0E0,0E0,0E0,0E0,0E0,0E0,0E0,0E0,0E0,0E0,0E0,0E0,0E0],"parents":[2147483647,0,0,1,1,2,2,3,3,4,4,5,5,6,6,7,7,8,8,9,9,10,10,11,11,12,12,13,13,14,14],"right_children":[2,4,6,8,10,12,14,16,18,20,22,24,26,28,30,-1,-1,-1,-1,-1,-1,-1,-1,-1,-1,-1,-1,-1,-1,-1,-1],"split_conditions":[2.2E1,1E1,6E0,7E0,1.7E1,2.3E1,7E0,3E0,3E0,1.3E1,2E0,5E0,5E0,2.3E1,2.3E1,-4.9964823E-2,1.7046513E-3,-2.8904056E-2,-8.223459E-2,1.10569E-2,6.878763E-2,-6.2943794E-2,7.474893E-3,-4.8415314E-2,6.079813E-3,-6.8369046E-2,-1.3166066E-1,1.4799736E-1,4.4197682E-2,-7.6587014E-2,-9.031724E-2],"split_indices":[1,1,0,0,1,1,0,1,1,1,0,0,0,1,1,0,0,0,0,0,0,0,0,0,0,0,0,0,0,0,0],"split_type":[0,0,0,0,0,0,0,0,0,0,0,0,0,0,0,0,0,0,0,0,0,0,0,0,0,0,0,0,0,0,0],"sum_hessian":[1.2358E4,1.0932E4,1.426E3,3.718E3,7.214E3,1.05E3,3.76E2,3.031E3,6.87E2,3.474E3,3.74E3,5.82E2,4.68E2,1.79E2,1.97E2,8.91E2,2.14E3,2.53E2,4.34E2,1.388E3,2.086E3,5.74E2,3.166E3,4.91E2,9.1E1,3.26E2,1.42E2,8.7E1,9.2E1,1.29E2,6.8E1],"tree_param":{"num_deleted":"0","num_feature":"2","num_nodes":"31","size_leaf_vector":"1"}},{"base_weights":[-8.542733E-4,7.192825E-2,-3.001111E-1,-4.4973934E-1,1.23332016E-1,-1.3817945E-1,-9.0116674E-1,-2.8798872E-1,-4.9697793E-1,2.285984E-1,-2.5149968E-1,-4.9692333E-1,2.0344797E-1,-1.6759643E-1,-5.794064E-1,-6.48204E-2,-2.363589E-2,-3.1193832E-2,-6.2909625E-2,1.5342397E-3,3.212212E-2,-4.3831985E-2,7.040691E-2,-2.602504E-2,-5.849854E-2,5.5710442E-2,7.103777E-3,-3.8948048E-2,-7.366701E-2],"categories":[],"categories_nodes":[],"categories_segments":[],"categories_sizes":[],"default_left":[0,0,0,0,0,0,0,0,0,0,0,0,0,0,0,0,0,0,0,0,0,0,0,0,0,0,0,0,0],"id":31,"left_children":[1,3,5,7,9,11,13,15,17,19,21,23,25,-1,27,-1,-1,-1,-1,-1,-1,-1,-1,-1,-1,-1,-1,-1,-1],"loss_changes":[2.692088E2,2.6665698E2,2.3521922E2,6.672516E0,3.5718442E2,2.3369424E2,1.269194E2,3.6407528E0,1.6647842E1,1.3958505E2,3.5466983E2,1.9230743E1,4.5711098E1,0E0,1.0585205E1,0E0,0E0,0E0,0E0,0E0,0E0,0E0,0E0,0E0,0E0,0E0,0E0,0E0,0E0],"parents":[2147483647,0,0,1,1,2,2,3,3,4,4,5,5,6,6,7,7,8,8,9,9,10,10,11,11,12,12,14,14],"right_children":[2,4,6,8,10,12,14,16,18,20,22,24,26,-1,28,-1,-1,-1,-1,-1,-1,-1,-1,-1,-1,-1,-1,-1,-1],"split_conditions":[7E0,3E0,2E1,2E0,2.1E1,1.2E1,2.1E1,1E0,1E0,1E1,6E0,3E0,1.5E1,-1.6759643E-1,2.2E1,-6.48204E-2,-2.363589E-2,-3.1193832E-2,-6.2909625E-2,1.5342397E-3,3.212212E-2,-4.3831985E-2,7.040691E-2,-2.602504E-2,-5.849854E-2,5.5710442E-2,7.103777E-3,-3.8948048E-2,-7.366701E-2],"split_indices":[0,1,1,0,1,1,1,1,1,1,0,1,1,0,1,0,0,0,0,0,0,0,0,0,0,0,0,0,0],"split_type":[0,0,0,0,0,0,0,0,0,0,0,0,0,0,0,0,0,0,0,0,0,0,0,0,0,0,0,0,0],"sum_hessian":[1.2358E4,9.941E3,2.417E3,8.91E2,9.05E3,1.905E3,5.12E2,2.03E2,6.88E2,7.066E3,1.984E3,9.29E2,9.76E2,1.49E2,3.63E2,2.4E1,1.79E2,2.88E2,4E2,2.14E3,4.926E3,1.66E3,3.24E2,2.53E2,6.76E2,2.65E2,7.11E2,1.66E2,1.97E2],"tree_param":{"num_deleted":"0","num_feature":"2","num_nodes":"29","size_leaf_vector":"1"}},{"base_weights":[-8.028983E-4,3.077562E-2,-5.897485E-1,-1.8495005E-1,1.3089456E-1,-7.4700224E-1,-1.2799859E-1,-2.8515909E-2,-3.6056504E-1,3.4860432E-1,-1.06022306E-1,-5.718325E-1,-1.1423415E-1,3.2860417E-2,-7.415646E-2,-4.3378044E-2,1.7770952E-2,-6.0442444E-2,2.687308E-2,5.9991714E-2,1.3279873E-2,-4.5677494E-2,4.309343E-3,-1.0098703E-1,-1.40905E-2],"categories":[],"categories_nodes":[],"categories_segments":[],"categories_sizes":[],"default_left":[0,0,0,0,0,0,0,0,0,0,0,0,0,0,0,0,0,0,0,0,0,0,0,0,0],"id":32,"left_children":[1,3,5,7,9,11,13,15,17,19,21,23,-1,-1,-1,-1,-1,-1,-1,-1,-1,-1,-1,-1,-1],"loss_changes":[2.298712E2,2.5339299E2,4.557724E1,1.0215876E2,4.1334045E2,3.1825745E1,4.534879E1,1.6455434E2,2.690238E2,2.2640439E2,2.0075758E2,6.1583054E1,0E0,0E0,0E0,0E0,0E0,0E0,0E0,0E0,0E0,0E0,0E0,0E0,0E0],"parents":[2147483647,0,0,1,1,2,2,3,3,4,4,5,5,6,6,7,7,8,8,9,9,10,10,11,11],"right_children":[2,4,6,8,10,12,14,16,18,20,22,24,-1,-1,-1,-1,-1,-1,-1,-1,-1,-1,-1,-1,-1],"split_conditions":[2.3E1,1E1,6E0,5E0,1.8E1,5E0,7E0,4E0,8E0,5E0,3E0,3E0,-1.1423415E-1,3.2860417E-2,-7.415646E-2,-4.3378044E-2,1.7770952E-2,-6.0442444E-2,2.687308E-2,5.9991714E-2,1.3279873E-2,-4.5677494E-2,4.309343E-3,-1.0098703E-1,-1.40905E-2],"split_indices":[1,1,0,0,1,0,0,1,1,0,0,0,0,0,0,0,0,0,0,0,0,0,0,0,0],"split_type":[0,0,0,0,0,0,0,0,0,0,0,0,0,0,0,0,0,0,0,0,0,0,0,0,0],"sum_hessian":[1.2358E4,1.173E4,6.28E2,3.718E3,8.012E3,4.68E2,1.6E2,1.967E3,1.751E3,4.175E3,3.837E3,3.26E2,1.42E2,9.2E1,6.8E1,6.63E2,1.304E3,1.262E3,4.89E2,1.928E3,2.247E3,1.144E3,2.693E3,1.61E2,1.65E2],"tree_param":{"num_deleted":"0","num_feature":"2","num_nodes":"25","size_leaf_vector":"1"}},{"base_weights":[-7.466224E-4,6.315798E-2,-2.6350048E-1,9.762509E-2,-5.133725E-1,-1.1748402E-1,-8.0549634E-1,-2.5937104E-1,1.6090463E-1,-6.72791E-1,2.960968E-2,-4.1328135E-1,1.8757382E-1,-1.5137656E-1,-5.114143E-1,-3.5639893E-2,-9.307175E-3,-6.446441E-3,2.840524E-2,-5.150011E-2,-1.0289063E-1,-1.7412351E-2,-4.976629E-2,6.0349174E-2,5.412318E-3,-3.550495E-2,-6.4071484E-2],"categories":[],"categories_nodes":[],"categories_segments":[],"categories_sizes":[],"default_left":[0,0,0,0,0,0,0,0,0,0,0,0,0,0,0,0,0,0,0,0,0,0,0,0,0,0,0],"id":33,"left_children":[1,3,5,7,9,11,13,15,17,19,-1,21,23,-1,25,-1,-1,-1,-1,-1,-1,-1,-1,-1,-1,-1,-1],"loss_changes":[2.0753885E2,1.9761098E2,1.9126665E2,2.1198628E2,7.2593124E1,1.72066E2,1.0607825E2,2.2766518E1,2.2121529E2,2.5823868E1,0E0,1.944806E1,5.208607E1,0E0,7.131897E0,0E0,0E0,0E0,0E0,0E0,0E0,0E0,0E0,0E0,0E0,0E0,0E0],"parents":[2147483647,0,0,1,1,2,2,3,3,4,4,5,5,6,6,7,7,8,8,9,9,11,11,12,12,14,14],"right_children":[2,4,6,8,10,12,14,16,18,20,-1,22,24,-1,26,-1,-1,-1,-1,-1,-1,-1,-1,-1,-1,-1,-1],"split_conditions":[7E0,2.3E1,2E1,5E0,6E0,1.3E1,2.1E1,3E0,3E0,5E0,2.960968E-2,3E0,1.5E1,-1.5137656E-1,2.2E1,-3.5639893E-2,-9.307175E-3,-6.446441E-3,2.840524E-2,-5.150011E-2,-1.0289063E-1,-1.7412351E-2,-4.976629E-2,6.0349174E-2,5.412318E-3,-3.550495E-2,-6.4071484E-2],"split_indices":[0,1,1,1,0,1,1,1,0,0,0,1,1,0,1,0,0,0,0,0,0,0,0,0,0,0,0],"split_type":[0,0,0,0,0,0,0,0,0,0,0,0,0,0,0,0,0,0,0,0,0,0,0,0,0,0,0],"sum_hessian":[1.2358E4,9.941E3,2.417E3,9.381E3,5.6E2,1.905E3,5.12E2,1.412E3,7.969E3,4.68E2,9.2E1,9.67E2,9.38E2,1.49E2,3.63E2,8.91E2,5.21E2,2.816E3,5.153E3,3.26E2,1.42E2,2.53E2,7.14E2,2.27E2,7.11E2,1.66E2,1.97E2],"tree_param":{"num_deleted":"0","num_feature":"2","num_nodes":"27","size_leaf_vector":"1"}},{"base_weights":[-7.044719E-4,5.6827147E-2,-2.3725478E-1,8.785994E-2,-4.622576E-1,-1.057364E-1,-7.254357E-1,-2.3346575E-1,1.448167E-1,-6.05841E-1,2.668055E-2,-3.720226E-1,1.6888636E-1,-1.363398E-1,-4.6054617E-1,6.510732E-4,-2.9015882E-2,-5.8019934E-3,2.5565216E-2,-4.636585E-2,-9.267349E-2,-1.5677987E-2,-4.4796612E-2,5.4340787E-2,4.8718126E-3,-3.1975683E-2,-5.7696678E-2],"categories":[],"categories_nodes":[],"categories_segments":[],"categories_sizes":[],"default_left":[0,0,0,0,0,0,0,0,0,0,0,0,0,0,0,0,0,0,0,0,0,0,0,0,0,0,0],"id":34,"left_children":[1,3,5,7,9,11,13,15,17,19,-1,21,23,-1,25,-1,-1,-1,-1,-1,-1,-1,-1,-1,-1,-1,-1],"loss_changes":[1.6820863E2,1.6019283E2,1.5517041E2,1.7174008E2,5.888788E1,1.3944528E2,8.606372E1,1.9225754E1,1.7919234E2,2.0968674E1,0E0,1.5752975E1,4.2233784E1,0E0,5.7817535E0,0E0,0E0,0E0,0E0,0E0,0E0,0E0,0E0,0E0,0E0,0E0,0E0],"parents":[2147483647,0,0,1,1,2,2,3,3,4,4,5,5,6,6,7,7,8,8,9,9,11,11,12,12,14,14],"right_children":[2,4,6,8,10,12,14,16,18,20,-1,22,24,-1,26,-1,-1,-1,-1,-1,-1,-1,-1,-1,-1,-1,-1],"split_conditions":[7E0,2.3E1,2E1,5E0,6E0,1.3E1,2.1E1,2E0,3E0,5E0,2.668055E-2,3E0,1.5E1,-1.363398E-1,2.2E1,6.510732E-4,-2.9015882E-2,-5.8019934E-3,2.5565216E-2,-4.636585E-2,-9.267349E-2,-1.5677987E-2,-4.4796612E-2,5.4340787E-2,4.8718126E-3,-3.1975683E-2,-5.7696678E-2],"split_indices":[0,1,1,1,0,1,1,0,0,0,0,1,1,0,1,0,0,0,0,0,0,0,0,0,0,0,0],"split_type":[0,0,0,0,0,0,0,0,0,0,0,0,0,0,0,0,0,0,0,0,0,0,0,0,0,0,0],"sum_hessian":[1.2358E4,9.941E3,2.417E3,9.381E3,5.6E2,1.905E3,5.12E2,1.412E3,7.969E3,4.68E2,9.2E1,9.67E2,9.38E2,1.49E2,3.63E2,2.7E2,1.142E3,2.816E3,5.153E3,3.26E2,1.42E2,2.53E2,7.14E2,2.27E2,7.11E2,1.66E2,1.97E2],"tree_param":{"num_deleted":"0","num_feature":"2","num_nodes":"27","size_leaf_vector":"1"}},{"base_weights":[-6.623698E-4,8.298582E-2,-1.4851685E-1,-9.681795E-2,4.1231683E-1,-4.5047745E-1,-2.3711704E-2,-3.0199212E-1,-1.1491425E-2,9.050994E-1,1.4260194E-1,-1.1161948E0,-3.5655865E-1,8.915309E-2,-3.648606E-1,2.8991893E-2,-1.1220946E-1,-3.6812674E-2,3.720161E-2,-5.1053356E-2,1.1881582E-1,6.5377675E-2,2.7212927E-3,-4.9310006E-2,-1.5900798E-1,1.0415751E-2,-4.6124384E-2,2.0844031E-2,-1.4477871E-2,1.7656622E-2,-6.5333255E-2],"categories":[],"categories_nodes":[],"categories_segments":[],"categories_sizes":[],"default_left":[0,0,0,0,0,0,0,0,0,0,0,0,0,0,0,0,0,0,0,0,0,0,0,0,0,0,0,0,0,0,0],"id":35,"left_children":[1,3,5,7,9,11,13,15,17,19,21,23,25,27,29,-1,-1,-1,-1,-1,-1,-1,-1,-1,-1,-1,-1,-1,-1,-1,-1],"loss_changes":[1.5286546E2,4.6748276E2,1.6829607E2,8.940375E1,3.7042624E2,8.125754E1,1.21742714E2,7.2846686E2,4.936115E2,3.9570398E2,1.0633026E2,4.675525E1,5.5319824E1,6.633263E1,1.2287789E2,0E0,0E0,0E0,0E0,0E0,0E0,0E0,0E0,0E0,0E0,0E0,0E0,0E0,0E0,0E0,0E0],"parents":[2147483647,0,0,1,1,2,2,3,3,4,4,5,5,6,6,7,7,8,8,9,9,10,10,11,11,12,12,13,13,14,14],"right_children":[2,4,6,8,10,12,14,16,18,20,22,24,26,28,30,-1,-1,-1,-1,-1,-1,-1,-1,-1,-1,-1,-1,-1,-1,-1,-1],"split_conditions":[1.8E1,1.3E1,3E0,3E0,4E0,1.9E1,7E0,8E0,8E0,1.4E1,1.4E1,2E0,2E1,2.2E1,2E1,2.8991893E-2,-1.1220946E-1,-3.6812674E-2,3.720161E-2,-5.1053356E-2,1.1881582E-1,6.5377675E-2,2.7212927E-3,-4.9310006E-2,-1.5900798E-1,1.0415751E-2,-4.6124384E-2,2.0844031E-2,-1.4477871E-2,1.7656622E-2,-6.5333255E-2],"split_indices":[1,1,0,0,0,1,0,1,1,1,1,0,1,1,1,0,0,0,0,0,0,0,0,0,0,0,0,0,0,0,0],"split_type":[0,0,0,0,0,0,0,0,0,0,0,0,0,0,0,0,0,0,0,0,0,0,0,0,0,0,0,0,0,0,0],"sum_hessian":[1.2358E4,7.893E3,4.465E3,5.106E3,2.787E3,1.305E3,3.16E3,1.499E3,3.607E3,9.85E2,1.802E3,1.6E2,1.145E3,2.375E3,7.85E2,8.71E2,6.28E2,1.869E3,1.738E3,1.64E2,8.21E2,3.31E2,1.471E3,7E1,9E1,2.12E2,9.33E2,1.573E3,8.02E2,2.73E2,5.12E2],"tree_param":{"num_deleted":"0","num_feature":"2","num_nodes":"31","size_leaf_vector":"1"}},{"base_weights":[-6.1500556E-4,4.909861E-2,-2.0502037E-1,1.0403804E-1,-1.71182E-1,-1.0179977E-1,-5.881265E-1,-7.810919E-2,2.1610752E-1,-3.9930835E-1,2.9476532E-1,-3.3236268E-1,1.3599223E-1,-1.163069E-1,-3.495839E-1,-2.8709948E-2,8.998443E-4,3.7314665E-2,3.0167052E-3,-4.860912E-2,-3.6131393E-2,6.8281434E-2,-3.9837204E-2,-1.0449586E-2,-4.1284632E-2,3.596818E-2,-2.287128E-3,-2.2303041E-2,-4.5455787E-2],"categories":[],"categories_nodes":[],"categories_segments":[],"categories_sizes":[],"default_left":[0,0,0,0,0,0,0,0,0,0,0,0,0,0,0,0,0,0,0,0,0,0,0,0,0,0,0,0,0],"id":36,"left_children":[1,3,5,7,9,11,13,15,17,19,21,23,25,-1,27,-1,-1,-1,-1,-1,-1,-1,-1,-1,-1,-1,-1,-1,-1],"loss_changes":[1.25598885E2,1.2033679E2,9.555858E1,1.6246466E2,2.1111299E2,1.04543594E2,6.995047E1,5.5199078E1,1.4385681E2,4.219635E0,1.7591022E2,1.7709541E1,3.3376637E1,0E0,4.734291E0,0E0,0E0,0E0,0E0,0E0,0E0,0E0,0E0,0E0,0E0,0E0,0E0,0E0,0E0],"parents":[2147483647,0,0,1,1,2,2,3,3,4,4,5,5,6,6,7,7,8,8,9,9,10,10,11,11,12,12,14,14],"right_children":[2,4,6,8,10,12,14,16,18,20,22,24,26,-1,28,-1,-1,-1,-1,-1,-1,-1,-1,-1,-1,-1,-1,-1,-1],"split_conditions":[7E0,2.1E1,2E1,1E1,5E0,1.3E1,2.1E1,3E0,1.7E1,2E0,2.3E1,3E0,1.6E1,-1.163069E-1,2.2E1,-2.8709948E-2,8.998443E-4,3.7314665E-2,3.0167052E-3,-4.860912E-2,-3.6131393E-2,6.8281434E-2,-3.9837204E-2,-1.0449586E-2,-4.1284632E-2,3.596818E-2,-2.287128E-3,-2.2303041E-2,-4.5455787E-2],"split_indices":[0,1,1,1,0,1,1,1,1,0,1,1,1,0,1,0,0,0,0,0,0,0,0,0,0,0,0,0,0],"split_type":[0,0,0,0,0,0,0,0,0,0,0,0,0,0,0,0,0,0,0,0,0,0,0,0,0,0,0,0,0],"sum_hessian":[1.2358E4,9.941E3,2.417E3,7.957E3,1.984E3,1.905E3,5.12E2,3.031E3,4.926E3,1.332E3,6.52E2,9.67E2,9.38E2,1.49E2,3.63E2,8.91E2,2.14E3,2.67E3,2.256E3,4.02E2,9.3E2,4.18E2,2.34E2,2.53E2,7.14E2,3.89E2,5.49E2,1.66E2,1.97E2],"tree_param":{"num_deleted":"0","num_feature":"2","num_nodes":"29","size_leaf_vector":"1"}},{"base_weights":[-5.736434E-4,4.418409E-2,-1.846021E-1,9.363545E-2,-1.5409204E-1,-9.16295E-2,-5.296726E-1,-3.4070212E-2,2.3205069E-1,-2.8750947E-1,5.282478E-1,-2.9917997E-1,1.2242852E-1,-1.04753725E-1,-3.1481174E-1,-2.7498389E-2,1.0277363E-2,5.2778006E-2,2.7151692E-3,-3.59441E-2,4.8072272E-4,2.9342493E-2,7.157805E-2,-9.4087515E-3,-3.7161957E-2,3.2380532E-2,-2.058853E-3,-2.0086126E-2,-4.093315E-2],"categories":[],"categories_nodes":[],"categories_segments":[],"categories_sizes":[],"default_left":[0,0,0,0,0,0,0,0,0,0,0,0,0,0,0,0,0,0,0,0,0,0,0,0,0,0,0,0,0],"id":37,"left_children":[1,3,5,7,9,11,13,15,17,19,21,23,25,-1,27,-1,-1,-1,-1,-1,-1,-1,-1,-1,-1,-1,-1,-1,-1],"loss_changes":[1.0180549E2,9.749599E1,7.752598E1,1.4067679E2,1.8085838E2,8.471609E1,5.675113E1,1.365139E2,2.3139662E2,3.49272E1,1.4101982E1,1.4346428E1,2.7050163E1,0E0,3.838272E0,0E0,0E0,0E0,0E0,0E0,0E0,0E0,0E0,0E0,0E0,0E0,0E0,0E0,0E0],"parents":[2147483647,0,0,1,1,2,2,3,3,4,4,5,5,6,6,7,7,8,8,9,9,10,10,11,11,12,12,14,14],"right_children":[2,4,6,8,10,12,14,16,18,20,22,24,26,-1,28,-1,-1,-1,-1,-1,-1,-1,-1,-1,-1,-1,-1,-1,-1],"split_conditions":[7E0,2.1E1,2E1,1.3E1,6E0,1.3E1,2.1E1,3E0,1.7E1,5E0,2.2E1,3E0,1.6E1,-1.04753725E-1,2.2E1,-2.7498389E-2,1.0277363E-2,5.2778006E-2,2.7151692E-3,-3.59441E-2,4.8072272E-4,2.9342493E-2,7.157805E-2,-9.4087515E-3,-3.7161957E-2,3.2380532E-2,-2.058853E-3,-2.0086126E-2,-4.093315E-2],"split_indices":[0,1,1,1,0,1,1,0,1,0,1,1,1,0,1,0,0,0,0,0,0,0,0,0,0,0,0,0,0],"split_type":[0,0,0,0,0,0,0,0,0,0,0,0,0,0,0,0,0,0,0,0,0,0,0,0,0,0,0,0,0],"sum_hessian":[1.2358E4,9.941E3,2.417E3,7.957E3,1.984E3,1.905E3,5.12E2,4.139E3,3.818E3,1.66E3,3.24E2,9.67E2,9.38E2,1.49E2,3.63E2,1.499E3,2.64E3,1.562E3,2.256E3,1.332E3,3.28E2,1.45E2,1.79E2,2.53E2,7.14E2,3.89E2,5.49E2,1.66E2,1.97E2],"tree_param":{"num_deleted":"0","num_feature":"2","num_nodes":"29","size_leaf_vector":"1"}},{"base_weights":[-5.2264915E-4,3.977609E-2,-1.6621725E-1,6.2716596E-2,-3.4394515E-1,-8.247517E-2,-4.7702852E-1,-2.5416166E-1,9.5998034E-2,-4.5569992E-1,2.2333361E-2,-2.77596E-1,1.033435E-1,-9.434819E-2,-2.834982E-1,-3.2751467E-2,-1.6867796E-2,1.6875727E-2,-2.9245745E-3,-3.1193962E-2,-7.812517E-2,-2.1443753E-2,-5.9200495E-2,2.5972009E-2,-1.8533807E-3,-1.8089531E-2,-3.686052E-2],"categories":[],"categories_nodes":[],"categories_segments":[],"categories_sizes":[],"default_left":[0,0,0,0,0,0,0,0,0,0,0,0,0,0,0,0,0,0,0,0,0,0,0,0,0,0,0],"id":38,"left_children":[1,3,5,7,9,11,13,15,17,19,-1,21,23,-1,25,-1,-1,-1,-1,-1,-1,-1,-1,-1,-1,-1,-1],"loss_changes":[8.253114E1,8.753861E1,6.2896317E1,9.8968506E1,3.5666992E1,6.913471E1,4.604251E1,5.5380287E0,7.738036E1,2.1706146E1,0E0,1.8340607E1,1.8625221E1,0E0,3.1118507E0,0E0,0E0,0E0,0E0,0E0,0E0,0E0,0E0,0E0,0E0,0E0,0E0],"parents":[2147483647,0,0,1,1,2,2,3,3,4,4,5,5,6,6,7,7,8,8,9,9,11,11,12,12,14,14],"right_children":[2,4,6,8,10,12,14,16,18,20,-1,22,24,-1,26,-1,-1,-1,-1,-1,-1,-1,-1,-1,-1,-1,-1],"split_conditions":[7E0,2.3E1,2E1,3E0,6E0,1.2E1,2.1E1,4E0,1.8E1,5E0,2.2333361E-2,1.1E1,1.6E1,-9.434819E-2,2.2E1,-3.2751467E-2,-1.6867796E-2,1.6875727E-2,-2.9245745E-3,-3.1193962E-2,-7.812517E-2,-2.1443753E-2,-5.9200495E-2,2.5972009E-2,-1.8533807E-3,-1.8089531E-2,-3.686052E-2],"split_indices":[0,1,1,1,0,1,1,0,1,0,0,1,1,0,1,0,0,0,0,0,0,0,0,0,0,0,0],"split_type":[0,0,0,0,0,0,0,0,0,0,0,0,0,0,0,0,0,0,0,0,0,0,0,0,0,0,0],"sum_hessian":[1.2358E4,9.941E3,2.417E3,9.381E3,5.6E2,1.905E3,5.12E2,8.91E2,8.49E3,4.68E2,9.2E1,9.29E2,9.76E2,1.49E2,3.63E2,4.78E2,4.13E2,5.37E3,3.12E3,3.26E2,1.42E2,7.75E2,1.54E2,4.27E2,5.49E2,1.66E2,1.97E2],"tree_param":{"num_deleted":"0","num_feature":"2","num_nodes":"27","size_leaf_vector":"1"}},{"base_weights":[-4.9708015E-4,-1.15203634E-1,4.887153E-2,1.4354278E-2,-2.6066867E-1,2.3996514E-1,-7.9655506E-2,1.6429721E-1,-4.3825787E-1,-4.460613E-1,2.1772227E-1,4.8521563E-1,4.0853642E-2,-4.7957113E-1,-4.762122E-3,-1.8715259E-2,7.8659534E-2,-1.327101E-1,5.4783564E-2,-1.19901225E-2,-1.1170448E-1,-5.1170897E-2,5.6316495E-2,-2.5561498E-3,1.19798556E-1,-3.0445928E-2,1.48382215E-2,-5.636982E-2,-3.921666E-2,5.5345492E-3,-2.2696711E-2],"categories":[],"categories_nodes":[],"categories_segments":[],"categories_sizes":[],"default_left":[0,0,0,0,0,0,0,0,0,0,0,0,0,0,0,0,0,0,0,0,0,0,0,0,0,0,0,0,0,0,0],"id":39,"left_children":[1,3,5,7,9,11,13,15,17,19,21,23,25,27,29,-1,-1,-1,-1,-1,-1,-1,-1,-1,-1,-1,-1,-1,-1,-1,-1],"loss_changes":[6.999345E1,7.009256E1,2.1224808E2,1.3363228E2,1.5548227E2,1.6967206E2,1.547547E2,3.2361423E2,4.302034E2,2.7627112E2,1.23756744E2,5.668822E2,7.129957E1,5.771698E0,5.8152153E1,0E0,0E0,0E0,0E0,0E0,0E0,0E0,0E0,0E0,0E0,0E0,0E0,0E0,0E0,0E0,0E0],"parents":[2147483647,0,0,1,1,2,2,3,3,4,4,5,5,6,6,7,7,8,8,9,9,10,10,11,11,12,12,13,13,14,14],"right_children":[2,4,6,8,10,12,14,16,18,20,22,24,26,28,30,-1,-1,-1,-1,-1,-1,-1,-1,-1,-1,-1,-1,-1,-1,-1,-1],"split_conditions":[1E1,5E0,1.7E1,8E0,8E0,5E0,2E0,5E0,3E0,5E0,6E0,1.4E1,6E0,2.1E1,7E0,-1.8715259E-2,7.8659534E-2,-1.327101E-1,5.4783564E-2,-1.19901225E-2,-1.1170448E-1,-5.1170897E-2,5.6316495E-2,-2.5561498E-3,1.19798556E-1,-3.0445928E-2,1.48382215E-2,-5.636982E-2,-3.921666E-2,5.5345492E-3,-2.2696711E-2],"split_indices":[1,0,1,1,1,0,0,1,0,1,0,1,0,1,0,0,0,0,0,0,0,0,0,0,0,0,0,0,0,0,0],"split_type":[0,0,0,0,0,0,0,0,0,0,0,0,0,0,0,0,0,0,0,0,0,0,0,0,0,0,0,0,0,0,0],"sum_hessian":[1.2358E4,3.718E3,8.64E3,1.967E3,1.751E3,3.474E3,5.166E3,1.478E3,4.89E2,1.262E3,4.89E2,1.556E3,1.918E3,8.14E2,4.352E3,9.45E2,5.33E2,2.57E2,2.32E2,8.5E2,4.12E2,1.57E2,3.32E2,9.07E2,6.49E2,4.55E2,1.463E3,4.12E2,4.02E2,3.426E3,9.26E2],"tree_param":{"num_deleted":"0","num_feature":"2","num_nodes":"31","size_leaf_vector":"1"}},{"base_weights":[-4.5944485E-4,1.6229875E-2,-3.1171852E-1,-1.0371998E-1,7.189907E-2,-6.357136E-1,-1.9890033E-1,1.2909757E-2,-2.3466952E-1,2.1599726E-1,-3.843649E-2,-4.6489324E-2,-8.7098286E-2,8.1913516E-2,-3.520891E-1,1.4790808E-2,-3.9459113E-2,-3.3595186E-2,4.9870834E-2,4.3676917E-2,3.6759216E-3,-4.267101E-2,3.4756032E-3,5.479264E-3,1.4031711E-2,-7.09169E-2,-3.274433E-3],"categories":[],"categories_nodes":[],"categories_segments":[],"categories_sizes":[],"default_left":[0,0,0,0,0,0,0,0,0,0,0,0,0,0,0,0,0,0,0,0,0,0,0,0,0,0,0],"id":40,"left_children":[1,3,5,7,9,11,13,15,17,19,21,-1,-1,23,25,-1,-1,-1,-1,-1,-1,-1,-1,-1,-1,-1,-1],"loss_changes":[6.420639E1,7.834135E1,2.2865105E1,5.6801865E1,1.2740823E2,6.1056747E0,2.0161043E1,1.0832185E2,1.3030301E2,1.374922E2,1.2900743E2,0E0,0E0,2.552483E-1,3.4528343E1,0E0,0E0,0E0,0E0,0E0,0E0,0E0,0E0,0E0,0E0,0E0,0E0],"parents":[2147483647,0,0,1,1,2,2,3,3,4,4,5,5,6,6,7,7,8,8,9,9,10,10,13,13,14,14],"right_children":[2,4,6,8,10,12,14,16,18,20,22,-1,-1,24,26,-1,-1,-1,-1,-1,-1,-1,-1,-1,-1,-1,-1],"split_conditions":[2.3E1,1E1,3E0,5E0,1.7E1,2E0,5E0,8E0,9E0,5E0,2E0,-4.6489324E-2,-8.7098286E-2,4E0,6E0,1.4790808E-2,-3.9459113E-2,-3.3595186E-2,4.9870834E-2,4.3676917E-2,3.6759216E-3,-4.267101E-2,3.4756032E-3,5.479264E-3,1.4031711E-2,-7.09169E-2,-3.274433E-3],"split_indices":[1,1,0,0,1,0,0,1,1,0,0,0,0,0,0,0,0,0,0,0,0,0,0,0,0,0,0],"split_type":[0,0,0,0,0,0,0,0,0,0,0,0,0,0,0,0,0,0,0,0,0,0,0,0,0,0,0],"sum_hessian":[1.2358E4,1.173E4,6.28E2,3.718E3,8.012E3,1.61E2,4.67E2,1.967E3,1.751E3,3.474E3,4.538E3,9.5E1,6.6E1,1.65E2,3.02E2,1.478E3,4.89E2,1.539E3,2.12E2,1.556E3,1.918E3,7.19E2,3.819E3,1.14E2,5.1E1,1.42E2,1.6E2],"tree_param":{"num_deleted":"0","num_feature":"2","num_nodes":"27","size_leaf_vector":"1"}},{"base_weights":[-4.2851095E-4,3.2801956E-2,-1.370608E-1,-7.433163E-2,9.179383E-2,-6.365152E-2,-4.0953848E-1,-3.190998E-1,1.3215047E-1,-2.72544E-1,1.8901402E-1,-2.2105832E-1,9.868442E-2,-8.306699E-2,-2.348702E-1,2.7024865E-2,-1.0084861E-1,1.0762759E-1,-3.0965108E-2,-2.6557331E-3,-8.1028715E-2,6.758367E-2,6.3116783E-3,-6.668055E-3,-3.2201562E-2,3.3715487E-2,2.218169E-3,-1.438081E-2,-3.1048888E-2],"categories":[],"categories_nodes":[],"categories_segments":[],"categories_sizes":[],"default_left":[0,0,0,0,0,0,0,0,0,0,0,0,0,0,0,0,0,0,0,0,0,0,0,0,0,0,0,0,0],"id":41,"left_children":[1,3,5,7,9,11,13,15,17,19,21,23,25,-1,27,-1,-1,-1,-1,-1,-1,-1,-1,-1,-1,-1,-1,-1,-1],"loss_changes":[5.611874E1,6.2840366E1,4.8339718E1,1.7849979E2,2.271709E2,4.8725414E1,3.7540306E1,6.56835E2,7.995277E2,1.7868556E2,3.1020544E2,1.5065353E1,1.7123299E1,0E0,2.4618511E0,0E0,0E0,0E0,0E0,0E0,0E0,0E0,0E0,0E0,0E0,0E0,0E0,0E0,0E0],"parents":[2147483647,0,0,1,1,2,2,3,3,4,4,5,5,6,6,7,7,8,8,9,9,10,10,11,11,12,12,14,14],"right_children":[2,4,6,8,10,12,14,16,18,20,22,24,26,-1,28,-1,-1,-1,-1,-1,-1,-1,-1,-1,-1,-1,-1,-1,-1],"split_conditions":[7E0,3E0,2E1,1.4E1,8E0,1.3E1,2.1E1,8E0,1.8E1,6E0,1.2E1,5E0,1.5E1,-8.306699E-2,2.2E1,2.7024865E-2,-1.0084861E-1,1.0762759E-1,-3.0965108E-2,-2.6557331E-3,-8.1028715E-2,6.758367E-2,6.3116783E-3,-6.668055E-3,-3.2201562E-2,3.3715487E-2,2.218169E-3,-1.438081E-2,-3.1048888E-2],"split_indices":[0,0,1,1,1,1,1,1,1,0,1,1,1,0,1,0,0,0,0,0,0,0,0,0,0,0,0,0,0],"split_type":[0,0,0,0,0,0,0,0,0,0,0,0,0,0,0,0,0,0,0,0,0,0,0,0,0,0,0,0,0],"sum_hessian":[1.2358E4,9.941E3,2.417E3,3.53E3,6.411E3,1.905E3,5.12E2,1.615E3,1.915E3,1.35E3,5.061E3,9.67E2,9.38E2,1.49E2,3.63E2,8.71E2,7.44E2,6.1E2,1.305E3,9.27E2,4.23E2,1.039E3,4.022E3,3.83E2,5.84E2,2.27E2,7.11E2,1.66E2,1.97E2],"tree_param":{"num_deleted":"0","num_feature":"2","num_nodes":"29","size_leaf_vector":"1"}},{"base_weights":[-3.967804E-4,1.42502785E-2,-2.735673E-1,-8.9562684E-2,6.243026E-2,-5.4219294E-1,-1.7999695E-1,5.6671225E-3,-1.9648203E-1,1.8528019E-1,-3.163582E-2,-3.8824573E-2,-7.546815E-2,6.756595E-2,-3.1503144E-1,-2.8593017E-2,1.5403106E-2,-2.8119806E-2,4.1694116E-2,3.8947564E-2,1.9507612E-3,-3.7954737E-2,3.3947409E-3,4.310427E-3,1.2036456E-2,-6.4501554E-2,-1.9983228E-3],"categories":[],"categories_nodes":[],"categories_segments":[],"categories_sizes":[],"default_left":[0,0,0,0,0,0,0,0,0,0,0,0,0,0,0,0,0,0,0,0,0,0,0,0,0,0,0],"id":42,"left_children":[1,3,5,7,9,11,13,15,17,19,21,-1,-1,23,25,-1,-1,-1,-1,-1,-1,-1,-1,-1,-1,-1,-1],"loss_changes":[4.945405E1,5.8680607E1,1.571257E1,3.786763E1,9.260419E1,5.006344E0,1.5666303E1,8.518467E1,9.116301E1,1.17621155E2,1.0357999E2,0E0,0E0,2.0920789E-1,2.9487562E1,0E0,0E0,0E0,0E0,0E0,0E0,0E0,0E0,0E0,0E0,0E0,0E0],"parents":[2147483647,0,0,1,1,2,2,3,3,4,4,5,5,6,6,7,7,8,8,9,9,10,10,13,13,14,14],"right_children":[2,4,6,8,10,12,14,16,18,20,22,-1,-1,24,26,-1,-1,-1,-1,-1,-1,-1,-1,-1,-1,-1,-1],"split_conditions":[2.3E1,1E1,3E0,5E0,1.7E1,2E0,5E0,4E0,9E0,5E0,2E0,-3.8824573E-2,-7.546815E-2,4E0,6E0,-2.8593017E-2,1.5403106E-2,-2.8119806E-2,4.1694116E-2,3.8947564E-2,1.9507612E-3,-3.7954737E-2,3.3947409E-3,4.310427E-3,1.2036456E-2,-6.4501554E-2,-1.9983228E-3],"split_indices":[1,1,0,0,1,0,0,1,1,0,0,0,0,0,0,0,0,0,0,0,0,0,0,0,0,0,0],"split_type":[0,0,0,0,0,0,0,0,0,0,0,0,0,0,0,0,0,0,0,0,0,0,0,0,0,0,0],"sum_hessian":[1.2358E4,1.173E4,6.28E2,3.718E3,8.012E3,1.61E2,4.67E2,1.967E3,1.751E3,3.474E3,4.538E3,9.5E1,6.6E1,1.65E2,3.02E2,6.63E2,1.304E3,1.539E3,2.12E2,1.556E3,1.918E3,7.19E2,3.819E3,1.14E2,5.1E1,1.42E2,1.6E2],"tree_param":{"num_deleted":"0","num_feature":"2","num_nodes":"27","size_leaf_vector":"1"}},{"base_weights":[-3.701153E-4,2.8574979E-2,-1.1938242E-1,-6.693052E-2,8.116408E-2,-5.1459998E-2,-3.7150863E-1,-2.9913402E-1,1.2895039E-1,-2.2788434E-1,1.6363014E-1,-2.320764E-1,5.052158E-2,-7.5152904E-2,-2.1388617E-1,2.4749564E-2,-9.38546E-2,9.528857E-2,-2.5661884E-2,-1.1293048E-3,-7.013958E-2,5.97619E-2,5.139747E-3,-3.1982993E-3,-4.832364E-2,7.245521E-2,-2.563512E-4,-1.3288848E-2,-2.8112218E-2],"categories":[],"categories_nodes":[],"categories_segments":[],"categories_sizes":[],"default_left":[0,0,0,0,0,0,0,0,0,0,0,0,0,0,0,0,0,0,0,0,0,0,0,0,0,0,0,0,0],"id":43,"left_children":[1,3,5,7,9,11,13,15,17,19,21,23,25,-1,27,-1,-1,-1,-1,-1,-1,-1,-1,-1,-1,-1,-1,-1,-1],"loss_changes":[4.257797E1,4.9939606E1,4.1389187E1,1.606434E2,1.6345357E2,3.5119377E1,3.0567833E1,5.6505914E2,6.0892725E2,1.3854854E2,2.4652785E2,3.4560303E1,4.3618862E1,0E0,1.944973E0,0E0,0E0,0E0,0E0,0E0,0E0,0E0,0E0,0E0,0E0,0E0,0E0,0E0,0E0],"parents":[2147483647,0,0,1,1,2,2,3,3,4,4,5,5,6,6,7,7,8,8,9,9,10,10,11,11,12,12,14,14],"right_children":[2,4,6,8,10,12,14,16,18,20,22,24,26,-1,28,-1,-1,-1,-1,-1,-1,-1,-1,-1,-1,-1,-1,-1,-1],"split_conditions":[7E0,3E0,2E1,1.4E1,8E0,1E1,2.1E1,8E0,1.8E1,6E0,1.2E1,5E0,1.1E1,-7.5152904E-2,2.2E1,2.4749564E-2,-9.38546E-2,9.528857E-2,-2.5661884E-2,-1.1293048E-3,-7.013958E-2,5.97619E-2,5.139747E-3,-3.1982993E-3,-4.832364E-2,7.245521E-2,-2.563512E-4,-1.3288848E-2,-2.8112218E-2],"split_indices":[0,0,1,1,1,1,1,1,1,0,1,1,1,0,1,0,0,0,0,0,0,0,0,0,0,0,0,0,0],"split_type":[0,0,0,0,0,0,0,0,0,0,0,0,0,0,0,0,0,0,0,0,0,0,0,0,0,0,0,0,0],"sum_hessian":[1.2358E4,9.941E3,2.417E3,3.53E3,6.411E3,1.905E3,5.12E2,1.615E3,1.915E3,1.35E3,5.061E3,6.87E2,1.218E3,1.49E2,3.63E2,8.71E2,7.44E2,6.1E2,1.305E3,9.27E2,4.23E2,1.039E3,4.022E3,3.83E2,3.04E2,8.8E1,1.13E3,1.66E2,1.97E2],"tree_param":{"num_deleted":"0","num_feature":"2","num_nodes":"29","size_leaf_vector":"1"}},{"base_weights":[-3.4136666E-4,1.2515512E-2,-2.4012469E-1,-5.9275698E-2,6.7855164E-2,-3.1893316E-1,-9.0607535E-3,-2.1041216E-1,3.5746314E-3,2.714602E-1,-2.5775945E-2,-2.0113708E-1,-5.860687E-2,1.8965354E-2,-2.7676174E-2,2.2277435E-2,-8.106161E-2,-1.6778225E-2,2.8527519E-2,7.1834885E-2,6.5182345E-3,-3.390337E-2,3.327415E-3,-4.6317566E-2,5.579899E-3],"categories":[],"categories_nodes":[],"categories_segments":[],"categories_sizes":[],"default_left":[0,0,0,0,0,0,0,0,0,0,0,0,0,0,0,0,0,0,0,0,0,0,0,0,0],"id":44,"left_children":[1,3,5,7,9,11,13,15,17,19,21,23,-1,-1,-1,-1,-1,-1,-1,-1,-1,-1,-1,-1,-1],"loss_changes":[3.8104134E1,4.661012E1,1.1451069E1,4.8512028E1,1.26304436E2,1.4640385E1,8.617045E0,3.9018094E2,1.7421083E2,1.9233961E2,8.397324E1,2.2041828E1,0E0,0E0,0E0,0E0,0E0,0E0,0E0,0E0,0E0,0E0,0E0,0E0,0E0],"parents":[2147483647,0,0,1,1,2,2,3,3,4,4,5,5,6,6,7,7,8,8,9,9,10,10,11,11],"right_children":[2,4,6,8,10,12,14,16,18,20,22,24,-1,-1,-1,-1,-1,-1,-1,-1,-1,-1,-1,-1,-1],"split_conditions":[2.3E1,1.3E1,6E0,3E0,1.7E1,5E0,7E0,8E0,9E0,4E0,2E0,3E0,-5.860687E-2,1.8965354E-2,-2.7676174E-2,2.2277435E-2,-8.106161E-2,-1.6778225E-2,2.8527519E-2,7.1834885E-2,6.5182345E-3,-3.390337E-2,3.327415E-3,-4.6317566E-2,5.579899E-3],"split_indices":[1,1,0,0,1,0,0,1,1,0,0,0,0,0,0,0,0,0,0,0,0,0,0,0,0],"split_type":[0,0,0,0,0,0,0,0,0,0,0,0,0,0,0,0,0,0,0,0,0,0,0,0,0],"sum_hessian":[1.2358E4,1.173E4,6.28E2,5.106E3,6.624E3,4.68E2,1.6E2,1.499E3,3.607E3,2.086E3,4.538E3,3.26E2,1.42E2,9.2E1,6.8E1,8.71E2,6.28E2,2.243E3,1.364E3,6.58E2,1.428E3,7.19E2,3.819E3,1.61E2,1.65E2],"tree_param":{"num_deleted":"0","num_feature":"2","num_nodes":"25","size_leaf_vector":"1"}},{"base_weights":[-3.158714E-4,2.6175829E-2,-1.0924067E-1,-1.7274332E-1,4.5776945E-2,-4.874423E-2,-3.3379617E-1,-3.0961296E-1,-1.3967215E-2,6.2790625E-2,-2.1181473E-1,-1.7495826E-1,8.141969E-2,-6.80182E-2,-1.9013776E-1,-1.6329722E-2,-4.1663762E-2,1.6417813E-2,-1.7802719E-2,-7.744684E-4,1.0184783E-2,-2.872516E-2,1.7089179E-2,-1.03126345E-2,-4.6286818E-2,2.9540956E-2,1.2780498E-3,-1.2298702E-2,-2.4581471E-2],"categories":[],"categories_nodes":[],"categories_segments":[],"categories_sizes":[],"default_left":[0,0,0,0,0,0,0,0,0,0,0,0,0,0,0,0,0,0,0,0,0,0,0,0,0,0,0,0,0],"id":45,"left_children":[1,3,5,7,9,11,13,15,17,19,21,23,25,-1,27,-1,-1,-1,-1,-1,-1,-1,-1,-1,-1,-1,-1,-1,-1],"loss_changes":[3.566603E1,3.8772137E1,3.28318E1,1.9380287E1,3.9680054E1,3.1326992E1,2.5398182E1,7.4328156E0,1.2129006E1,2.3392738E1,1.624526E1,1.9971592E1,1.3788343E1,0E0,1.3306723E0,0E0,0E0,0E0,0E0,0E0,0E0,0E0,0E0,0E0,0E0,0E0,0E0,0E0,0E0],"parents":[2147483647,0,0,1,1,2,2,3,3,4,4,5,5,6,6,7,7,8,8,9,9,10,10,11,11,12,12,14,14],"right_children":[2,4,6,8,10,12,14,16,18,20,22,24,26,-1,28,-1,-1,-1,-1,-1,-1,-1,-1,-1,-1,-1,-1,-1,-1],"split_conditions":[7E0,3E0,2E1,4E0,2.3E1,1.3E1,2.1E1,2E0,1E0,3E0,6E0,1.1E1,1.5E1,-6.80182E-2,2.2E1,-1.6329722E-2,-4.1663762E-2,1.6417813E-2,-1.7802719E-2,-7.744684E-4,1.0184783E-2,-2.872516E-2,1.7089179E-2,-1.03126345E-2,-4.6286818E-2,2.9540956E-2,1.2780498E-3,-1.2298702E-2,-2.4581471E-2],"split_indices":[0,1,1,0,1,1,1,0,1,0,0,1,1,0,1,0,0,0,0,0,0,0,0,0,0,0,0,0,0],"split_type":[0,0,0,0,0,0,0,0,0,0,0,0,0,0,0,0,0,0,0,0,0,0,0,0,0,0,0,0,0],"sum_hessian":[1.2358E4,9.941E3,2.417E3,8.91E2,9.05E3,1.905E3,5.12E2,4.78E2,4.13E2,8.49E3,5.6E2,9.67E2,9.38E2,1.49E2,3.63E2,2.03E2,2.75E2,1.98E2,2.15E2,3.026E3,5.464E3,4.68E2,9.2E1,7.75E2,1.92E2,2.27E2,7.11E2,1.66E2,1.97E2],"tree_param":{"num_deleted":"0","num_feature":"2","num_nodes":"29","size_leaf_vector":"1"}},{"base_weights":[-3.0003526E-4,2.3551786E-2,-9.837055E-2,-1.5553556E-1,4.1198716E-2,-4.388318E-2,-3.0062115E-1,-2.7877277E-1,-1.2573832E-2,9.725158E-2,-2.2397496E-2,-1.5752068E-1,7.331063E-2,-6.126175E-2,-1.7122537E-1,-1.4704752E-2,-3.751249E-2,1.4784283E-2,-1.603069E-2,2.328396E-2,-1.0970464E-2,-2.983894E-2,4.32447E-3,-9.28269E-3,-4.1682046E-2,2.659981E-2,1.1504369E-3,-1.1076209E-2,-2.213574E-2],"categories":[],"categories_nodes":[],"categories_segments":[],"categories_sizes":[],"default_left":[0,0,0,0,0,0,0,0,0,0,0,0,0,0,0,0,0,0,0,0,0,0,0,0,0,0,0,0,0],"id":46,"left_children":[1,3,5,7,9,11,13,15,17,19,21,23,25,-1,27,-1,-1,-1,-1,-1,-1,-1,-1,-1,-1,-1,-1,-1,-1],"loss_changes":[2.8912E1,3.1426529E1,2.6633419E1,1.5711933E1,3.2266727E1,2.5394915E1,2.060543E1,6.0243073E0,9.835022E0,1.3502596E2,7.684589E1,1.6199589E1,1.1179766E1,0E0,1.0788202E0,0E0,0E0,0E0,0E0,0E0,0E0,0E0,0E0,0E0,0E0,0E0,0E0,0E0,0E0],"parents":[2147483647,0,0,1,1,2,2,3,3,4,4,5,5,6,6,7,7,8,8,9,9,10,10,11,11,12,12,14,14],"right_children":[2,4,6,8,10,12,14,16,18,20,22,24,26,-1,28,-1,-1,-1,-1,-1,-1,-1,-1,-1,-1,-1,-1,-1,-1],"split_conditions":[7E0,3E0,2E1,4E0,1.7E1,1.3E1,2.1E1,2E0,1E0,5E0,2E0,1.1E1,1.5E1,-6.126175E-2,2.2E1,-1.4704752E-2,-3.751249E-2,1.4784283E-2,-1.603069E-2,2.328396E-2,-1.0970464E-2,-2.983894E-2,4.32447E-3,-9.28269E-3,-4.1682046E-2,2.659981E-2,1.1504369E-3,-1.1076209E-2,-2.213574E-2],"split_indices":[0,1,1,0,1,1,1,0,1,0,0,1,1,0,1,0,0,0,0,0,0,0,0,0,0,0,0,0,0],"split_type":[0,0,0,0,0,0,0,0,0,0,0,0,0,0,0,0,0,0,0,0,0,0,0,0,0,0,0,0,0],"sum_hessian":[1.2358E4,9.941E3,2.417E3,8.91E2,9.05E3,1.905E3,5.12E2,4.78E2,4.13E2,4.81E3,4.24E3,9.67E2,9.38E2,1.49E2,3.63E2,2.03E2,2.75E2,1.98E2,2.15E2,2.906E3,1.904E3,8.14E2,3.426E3,7.75E2,1.92E2,2.27E2,7.11E2,1.66E2,1.97E2],"tree_param":{"num_deleted":"0","num_feature":"2","num_nodes":"29","size_leaf_vector":"1"}},{"base_weights":[-2.8514178E-4,9.9434685E-3,-1.9105071E-1,-5.210813E-2,5.7775553E-2,-2.5598282E-1,-7.1398815E-4,-1.951682E-1,7.3825005E-3,2.2695105E-1,-2.0022864E-2,-1.4689672E-1,-5.0364133E-2,1.4970824E-2,-2.0344665E-2,2.0682877E-2,-7.5215735E-2,-1.4660048E-2,2.6051834E-2,6.213696E-2,4.490151E-3,-2.7460692E-2,2.7966804E-3,-3.728598E-2,7.450636E-3],"categories":[],"categories_nodes":[],"categories_segments":[],"categories_sizes":[],"default_left":[0,0,0,0,0,0,0,0,0,0,0,0,0,0,0,0,0,0,0,0,0,0,0,0,0],"id":47,"left_children":[1,3,5,7,9,11,13,15,17,19,21,23,-1,-1,-1,-1,-1,-1,-1,-1,-1,-1,-1,-1,-1],"loss_changes":[2.4117601E1,3.4821293E1,7.7736073E0,4.3465755E1,8.720004E1,1.2596565E1,4.940233E0,3.3601752E2,1.4067302E2,1.4982645E2,5.5462475E1,1.6387238E1,0E0,0E0,0E0,0E0,0E0,0E0,0E0,0E0,0E0,0E0,0E0,0E0,0E0],"parents":[2147483647,0,0,1,1,2,2,3,3,4,4,5,5,6,6,7,7,8,8,9,9,10,10,11,11],"right_children":[2,4,6,8,10,12,14,16,18,20,22,24,-1,-1,-1,-1,-1,-1,-1,-1,-1,-1,-1,-1,-1],"split_conditions":[2.3E1,1.3E1,6E0,3E0,1.7E1,5E0,7E0,8E0,9E0,4E0,2E0,3E0,-5.0364133E-2,1.4970824E-2,-2.0344665E-2,2.0682877E-2,-7.5215735E-2,-1.4660048E-2,2.6051834E-2,6.213696E-2,4.490151E-3,-2.7460692E-2,2.7966804E-3,-3.728598E-2,7.450636E-3],"split_indices":[1,1,0,0,1,0,0,1,1,0,0,0,0,0,0,0,0,0,0,0,0,0,0,0,0],"split_type":[0,0,0,0,0,0,0,0,0,0,0,0,0,0,0,0,0,0,0,0,0,0,0,0,0],"sum_hessian":[1.2358E4,1.173E4,6.28E2,5.106E3,6.624E3,4.68E2,1.6E2,1.499E3,3.607E3,2.086E3,4.538E3,3.26E2,1.42E2,9.2E1,6.8E1,8.71E2,6.28E2,2.243E3,1.364E3,6.58E2,1.428E3,7.19E2,3.819E3,1.61E2,1.65E2],"tree_param":{"num_deleted":"0","num_feature":"2","num_nodes":"25","size_leaf_vector":"1"}},{"base_weights":[-2.6380483E-4,2.1582872E-2,-9.008986E-2,-1.0343104E-1,4.2288978E-2,-4.1494016E-2,-2.7046722E-1,-2.3328473E-1,3.8083877E-2,4.67544E-1,2.9868418E-2,-1.4210722E-1,6.2270712E-2,-5.545423E-2,-1.5266028E-1,-5.755426E-4,-3.648204E-2,1.4771915E-2,-7.543473E-4,1.9974098E-1,-3.3971542E-1,-9.492184E-3,9.636539E-3,2.210695E-3,-2.4965618E-2,1.8023252E-2,-2.148816E-3,-1.0253285E-2,-1.9416846E-2],"categories":[],"categories_nodes":[],"categories_segments":[],"categories_sizes":[],"default_left":[0,0,0,0,0,0,0,0,0,0,0,0,0,0,0,0,0,0,0,0,0,0,0,0,0,0,0,0,0],"id":48,"left_children":[1,3,5,7,9,11,13,15,17,19,21,23,25,-1,27,-1,-1,-1,-1,-1,-1,-1,-1,-1,-1,-1,-1,-1,-1],"loss_changes":[2.4255255E1,2.5739748E1,2.1183973E1,2.5974499E1,4.5040684E1,1.9907684E1,1.7083408E1,2.2054996E1,3.3877168E0,1.4376031E3,6.879272E1,1.7101425E1,9.281521E0,0E0,7.3746586E-1,0E0,0E0,0E0,0E0,0E0,0E0,0E0,0E0,0E0,0E0,0E0,0E0,0E0,0E0],"parents":[2147483647,0,0,1,1,2,2,3,3,4,4,5,5,6,6,7,7,8,8,9,9,10,10,11,11,12,12,14,14],"right_children":[2,4,6,8,10,12,14,16,18,20,22,24,26,-1,28,-1,-1,-1,-1,-1,-1,-1,-1,-1,-1,-1,-1,-1,-1],"split_conditions":[7E0,5E0,2E1,4E0,6E0,1.3E1,2.1E1,2E0,1E0,5E0,3E0,5E0,1.6E1,-5.545423E-2,2.2E1,-5.755426E-4,-3.648204E-2,1.4771915E-2,-7.543473E-4,1.9974098E-1,-3.3971542E-1,-9.492184E-3,9.636539E-3,2.210695E-3,-2.4965618E-2,1.8023252E-2,-2.148816E-3,-1.0253285E-2,-1.9416846E-2],"split_indices":[0,1,1,0,1,1,1,0,1,0,0,1,1,0,1,0,0,0,0,0,0,0,0,0,0,0,0,0,0],"split_type":[0,0,0,0,0,0,0,0,0,0,0,0,0,0,0,0,0,0,0,0,0,0,0,0,0,0,0,0,0],"sum_hessian":[1.2358E4,9.941E3,2.417E3,1.412E3,8.529E3,1.905E3,5.12E2,7.36E2,6.76E2,2.41E2,8.288E3,9.67E2,9.38E2,1.49E2,3.63E2,2.7E2,4.66E2,1.98E2,4.78E2,1.73E2,6.8E1,2.881E3,5.407E3,3.83E2,5.84E2,3.89E2,5.49E2,1.66E2,1.97E2],"tree_param":{"num_deleted":"0","num_feature":"2","num_nodes":"29","size_leaf_vector":"1"}},{"base_weights":[-2.5785962E-4,9.040055E-3,-1.7366576E-1,-4.5109436E-2,5.0780796E-2,-2.336049E-1,2.0181763E-3,-1.7610523E-1,9.363624E-3,1.9835605E-1,-1.7084444E-2,-1.3248718E-1,-4.6319854E-2,1.2536514E-2,-1.6426135E-2,1.786144E-2,-6.675829E-2,-1.615872E-2,1.931869E-2,5.639572E-2,2.9615986E-3,-2.3770532E-2,2.4503018E-3,-3.263703E-2,5.752219E-3],"categories":[],"categories_nodes":[],"categories_segments":[],"categories_sizes":[],"default_left":[0,0,0,0,0,0,0,0,0,0,0,0,0,0,0,0,0,0,0,0,0,0,0,0,0],"id":49,"left_children":[1,3,5,7,9,11,13,15,17,19,21,23,-1,-1,-1,-1,-1,-1,-1,-1,-1,-1,-1,-1,-1],"loss_changes":[1.992838E1,2.6517166E1,6.624056E0,3.6443882E1,6.635429E1,1.0826931E1,3.3227143E0,2.616244E2,1.1341168E2,1.2873361E2,4.1651424E1,1.2065327E1,0E0,0E0,0E0,0E0,0E0,0E0,0E0,0E0,0E0,0E0,0E0,0E0,0E0],"parents":[2147483647,0,0,1,1,2,2,3,3,4,4,5,5,6,6,7,7,8,8,9,9,10,10,11,11],"right_children":[2,4,6,8,10,12,14,16,18,20,22,24,-1,-1,-1,-1,-1,-1,-1,-1,-1,-1,-1,-1,-1],"split_conditions":[2.3E1,1.3E1,6E0,3E0,1.7E1,5E0,7E0,8E0,8E0,4E0,2E0,3E0,-4.6319854E-2,1.2536514E-2,-1.6426135E-2,1.786144E-2,-6.675829E-2,-1.615872E-2,1.931869E-2,5.639572E-2,2.9615986E-3,-2.3770532E-2,2.4503018E-3,-3.263703E-2,5.752219E-3],"split_indices":[1,1,0,0,1,0,0,1,1,0,0,0,0,0,0,0,0,0,0,0,0,0,0,0,0],"split_type":[0,0,0,0,0,0,0,0,0,0,0,0,0,0,0,0,0,0,0,0,0,0,0,0,0],"sum_hessian":[1.2358E4,1.173E4,6.28E2,5.106E3,6.624E3,4.68E2,1.6E2,1.499E3,3.607E3,2.086E3,4.538E3,3.26E2,1.42E2,9.2E1,6.8E1,8.71E2,6.28E2,1.869E3,1.738E3,6.58E2,1.428E3,7.19E2,3.819E3,1.61E2,1.65E2],"tree_param":{"num_deleted":"0","num_feature":"2","num_nodes":"25","size_leaf_vector":"1"}}]},"name":"gbtree"},"learner_model_param":{"base_score":"[1.3487782E1]","boost_from_average":"1","num_class":"0","num_feature":"2","num_target":"1"},"objective":{"name":"reg:squarederror","reg_loss_param":{"scale_pos_weight":"1"}}},"version":[3,2,0]}