{"learner":{"attributes":{},"feature_names":["day_of_week","hour_of_day"],"feature_types":[],"gradient_booster":{"model":{"cats":{"enc":[],"feature_segments":[],"sorted_idx":[]},"gbtree_model_param":{"num_parallel_tree":"1","num_trees":"50"},"iteration_indptr":[0,1,2,3,4,5,6,7,8,9,10,11,12,13,14,15,16,17,18,19,20,21,22,23,24,25,26,27,28,29,30,31,32,33,34,35,36,37,38,39,40,41,42,43,44,45,46,47,48,49,50],"tree_info":[0,0,0,0,0,0,0,0,0,0,0,0,0,0,0,0,0,0,0,0,0,0,0,0,0,0,0,0,0,0,0,0,0,0,0,0,0,0,0,0,0,0,0,0,0,0,0,0,0,0],"trees":[{"base_weights":[-2.497562E-7,-1.0474392E1,1.1745248E0,-1.1381983E1,-8.725071E0,4.0245447E0,-4.380543E0,-1.1739626E0,-4.997932E-1,-7.354881E0,-9.441148E-1,-1.9718697E0,4.4497347E0,-2.1208904E0,-7.795738E0,-7.941011E-1,-6.9182426E-1,1.3209307E-1,-7.0909995E-1,5.0829405E-1,1.8811463E-1,-3.1483734E-1,-1.0055804E-1,-9.8745346E-1,-5.391153E-1],"categories":[],"categories_nodes":[],"categories_segments":[],"categories_sizes":[],"default_left":[0,0,0,0,0,0,0,0,0,0,0,0,0,0,0,0,0,0,0,0,0,0,0,0,0],"id":0,"left_children":[1,3,5,7,9,11,13,-1,-1,15,-1,17,19,21,23,-1,-1,-1,-1,-1,-1,-1,-1,-1,-1],"loss_changes":[2.3207312E5,2.9204375E3,2.6856094E5,2.7930469E3,5.722422E2,2.85925E4,4.437253E4,0E0,0E0,3.6689453E0,0E0,1.2533576E4,1.7017703E4,3.9653008E3,1.1393672E4,0E0,0E0,0E0,0E0,0E0,0E0,0E0,0E0,0E0,0E0],"parents":[2147483647,0,0,1,1,2,2,3,3,4,4,5,5,6,6,9,9,11,11,12,12,13,13,14,14],"right_children":[2,4,6,8,10,12,14,-1,-1,16,-1,18,20,22,24,-1,-1,-1,-1,-1,-1,-1,-1,-1,-1],"split_conditions":[4E0,6E0,1.9E1,3E0,1E0,5E0,2.2E1,-1.1739626E0,-4.997932E-1,7E0,-9.441148E-1,6E0,7E0,5E0,5E0,-7.941011E-1,-6.9182426E-1,1.3209307E-1,-7.0909995E-1,5.0829405E-1,1.8811463E-1,-3.1483734E-1,-1.0055804E-1,-9.8745346E-1,-5.391153E-1],"split_indices":[1,0,1,1,1,1,1,0,0,0,0,0,0,0,0,0,0,0,0,0,0,0,0,0,0],"split_type":[0,0,0,0,0,0,0,0,0,0,0,0,0,0,0,0,0,0,0,0,0,0,0,0,0],"sum_hessian":[1.8862E4,1.901E3,1.6961E4,1.248E3,6.53E2,1.121E4,5.751E3,1.181E3,6.7E1,2.28E2,4.25E2,7.42E2,1.0468E4,3.462E3,2.289E3,9E1,1.38E2,4.52E2,2.9E2,8.397E3,2.071E3,1.801E3,1.661E3,1.226E3,1.063E3],"tree_param":{"num_deleted":"0","num_feature":"2","num_nodes":"25","size_leaf_vector":"1"}},{"base_weights":[-3.1427722E-4,-9.429111E0,1.056965E0,-1.0245125E1,-7.85628E0,3.313718E0,-4.6750884E0,-1.0566657E0,-4.5054886E-1,-6.6258817E0,-8.4992486E-1,-1.7754596E0,3.644276E0,-2.5307555E0,-7.016831E0,-7.1556365E-1,-6.2313956E-1,1.1891289E-1,-6.3843364E-1,4.2632937E-1,8.3187394E-2,-3.9496386E-1,-1.4511044E-1,-9.447016E-1,-5.293089E-1],"categories":[],"categories_nodes":[],"categories_segments":[],"categories_sizes":[],"default_left":[0,0,0,0,0,0,0,0,0,0,0,0,0,0,0,0,0,0,0,0,0,0,0,0,0],"id":1,"left_children":[1,3,5,7,9,11,13,-1,-1,15,-1,17,19,21,23,-1,-1,-1,-1,-1,-1,-1,-1,-1,-1],"loss_changes":[1.8805277E5,2.3606406E3,2.1943305E5,2.2573906E3,4.610664E2,2.0481344E4,2.4045156E4,0E0,0E0,3.2666016E0,0E0,1.0159516E4,1.9893516E4,3.8286084E3,9.542828E3,0E0,0E0,0E0,0E0,0E0,0E0,0E0,0E0,0E0,0E0],"parents":[2147483647,0,0,1,1,2,2,3,3,4,4,5,5,6,6,9,9,11,11,12,12,13,13,14,14],"right_children":[2,4,6,8,10,12,14,-1,-1,16,-1,18,20,22,24,-1,-1,-1,-1,-1,-1,-1,-1,-1,-1],"split_conditions":[4E0,6E0,2E1,3E0,1E0,5E0,2.2E1,-1.0566657E0,-4.5054886E-1,7E0,-8.4992486E-1,6E0,1.8E1,4E0,4E0,-7.1556365E-1,-6.2313956E-1,1.1891289E-1,-6.3843364E-1,4.2632937E-1,8.3187394E-2,-3.9496386E-1,-1.4511044E-1,-9.447016E-1,-5.293089E-1],"split_indices":[1,0,1,1,1,1,1,0,0,0,0,0,1,0,0,0,0,0,0,0,0,0,0,0,0],"split_type":[0,0,0,0,0,0,0,0,0,0,0,0,0,0,0,0,0,0,0,0,0,0,0,0,0],"sum_hessian":[1.8862E4,1.901E3,1.6961E4,1.248E3,6.53E2,1.217E4,4.791E3,1.181E3,6.7E1,2.28E2,4.25E2,7.42E2,1.1428E4,2.502E3,2.289E3,9E1,1.38E2,4.52E2,2.9E2,9.366E3,2.062E3,1.08E3,1.422E3,9.48E2,1.341E3],"tree_param":{"num_deleted":"0","num_feature":"2","num_nodes":"25","size_leaf_vector":"1"}},{"base_weights":[-5.862607E-4,-8.488143E0,9.511489E-1,-9.221819E0,-7.0739985E0,2.9823453E0,-4.2079997E0,-9.510884E-1,-4.0615654E-1,-5.9691396E0,-7.651319E-1,8.650687E-3,3.483051E0,-2.2778957E0,-6.3157916E0,-6.447936E-1,-5.6127393E-1,3.0561832E-1,-5.8481026E-1,4.157788E-1,7.487271E-2,-3.3462515E-1,-1.0772338E-1,-8.038069E-1,-4.323733E-1],"categories":[],"categories_nodes":[],"categories_segments":[],"categories_sizes":[],"default_left":[0,0,0,0,0,0,0,0,0,0,0,0,0,0,0,0,0,0,0,0,0,0,0,0,0],"id":2,"left_children":[1,3,5,7,9,11,13,-1,-1,15,-1,17,19,21,23,-1,-1,-1,-1,-1,-1,-1,-1,-1,-1],"loss_changes":[1.5238161E5,1.9081406E3,1.777615E5,1.8244375E3,3.7148828E2,1.812193E4,1.9480703E4,0E0,0E0,2.8867188E0,0E0,3.1342244E4,1.9215727E4,3.2070781E3,7.821953E3,0E0,0E0,0E0,0E0,0E0,0E0,0E0,0E0,0E0,0E0],"parents":[2147483647,0,0,1,1,2,2,3,3,4,4,5,5,6,6,9,9,11,11,12,12,13,13,14,14],"right_children":[2,4,6,8,10,12,14,-1,-1,16,-1,18,20,22,24,-1,-1,-1,-1,-1,-1,-1,-1,-1,-1],"split_conditions":[4E0,6E0,2E1,3E0,1E0,7E0,2.2E1,-9.510884E-1,-4.0615654E-1,7E0,-7.651319E-1,6E0,1.8E1,5E0,5E0,-6.447936E-1,-5.6127393E-1,3.0561832E-1,-5.8481026E-1,4.157788E-1,7.487271E-2,-3.3462515E-1,-1.0772338E-1,-8.038069E-1,-4.323733E-1],"split_indices":[1,0,1,1,1,1,1,0,0,0,0,0,1,0,0,0,0,0,0,0,0,0,0,0,0],"split_type":[0,0,0,0,0,0,0,0,0,0,0,0,0,0,0,0,0,0,0,0,0,0,0,0,0],"sum_hessian":[1.8862E4,1.901E3,1.6961E4,1.248E3,6.53E2,1.217E4,4.791E3,1.181E3,6.7E1,2.28E2,4.25E2,1.754E3,1.0416E4,2.502E3,2.289E3,9E1,1.38E2,1.154E3,6E2,8.354E3,2.062E3,1.323E3,1.179E3,1.226E3,1.063E3],"tree_param":{"num_deleted":"0","num_feature":"2","num_nodes":"25","size_leaf_vector":"1"}},{"base_weights":[-7.820194E-4,-7.641078E0,8.559474E-1,-8.300723E0,-6.3696127E0,2.9521337E0,-3.229797E0,-8.5606E0,-3.661382E-1,-5.3774924E0,-6.8879833E0,7.626554E-3,3.4982538E0,-1.6054603E0,-5.684752E0,-8.677713E-1,-7.9566085E-1,-5.810228E-1,-5.055504E-1,-7.061857E-1,-6.2664443E-1,2.7508295E-1,-5.264265E-1,3.976681E-1,1.6291119E-1,-9.09348E-2,-2.7715796E-1,-7.7003497E-1,-4.2551795E-1],"categories":[],"categories_nodes":[],"categories_segments":[],"categories_sizes":[],"default_left":[0,0,0,0,0,0,0,0,0,0,0,0,0,0,0,0,0,0,0,0,0,0,0,0,0,0,0,0,0],"id":3,"left_children":[1,3,5,7,9,11,13,15,-1,17,19,21,23,25,27,-1,-1,-1,-1,-1,-1,-1,-1,-1,-1,-1,-1,-1,-1],"loss_changes":[1.23477445E5,1.5423672E3,1.4528027E5,1.4745156E3,2.9930273E2,1.8027875E4,2.2927969E4,1.45625E1,0E0,2.534668E0,1.7851562E0,2.5395062E4,8.450422E3,2.8085693E3,6.5657344E3,0E0,0E0,0E0,0E0,0E0,0E0,0E0,0E0,0E0,0E0,0E0,0E0,0E0,0E0],"parents":[2147483647,0,0,1,1,2,2,3,3,4,4,5,5,6,6,7,7,9,9,10,10,11,11,12,12,13,13,14,14],"right_children":[2,4,6,8,10,12,14,16,-1,18,20,22,24,26,28,-1,-1,-1,-1,-1,-1,-1,-1,-1,-1,-1,-1,-1,-1],"split_conditions":[4E0,6E0,1.9E1,3E0,1E0,7E0,2.2E1,5E0,-3.661382E-1,7E0,3E0,6E0,7E0,2.1E1,4E0,-8.677713E-1,-7.9566085E-1,-5.810228E-1,-5.055504E-1,-7.061857E-1,-6.2664443E-1,2.7508295E-1,-5.264265E-1,3.976681E-1,1.6291119E-1,-9.09348E-2,-2.7715796E-1,-7.7003497E-1,-4.2551795E-1],"split_indices":[1,0,1,1,1,1,1,0,0,0,1,0,0,1,0,0,0,0,0,0,0,0,0,0,0,0,0,0,0],"split_type":[0,0,0,0,0,0,0,0,0,0,0,0,0,0,0,0,0,0,0,0,0,0,0,0,0,0,0,0,0],"sum_hessian":[1.8862E4,1.901E3,1.6961E4,1.248E3,6.53E2,1.121E4,5.751E3,1.181E3,6.7E1,2.28E2,4.25E2,1.754E3,9.456E3,3.462E3,2.289E3,9.78E2,2.03E2,9E1,1.38E2,3.24E2,1.01E2,1.154E3,6E2,7.528E3,1.928E3,2.169E3,1.293E3,9.48E2,1.341E3],"tree_param":{"num_deleted":"0","num_feature":"2","num_nodes":"29","size_leaf_vector":"1"}},{"base_weights":[-1.0060528E-3,-6.8793097E0,7.702788E-1,-7.472276E0,-5.736351E0,2.656948E0,-2.907089E0,-7.705948E0,-3.3006275E-1,-4.8444877E0,-6.202314E0,6.7209504E-3,3.1484878E0,-1.4450206E0,-5.116799E0,-7.810829E-1,-7.164847E-1,-5.2355903E-1,-4.5535904E-1,-6.3578445E-1,-5.645944E-1,2.4759851E-1,-4.7387147E-1,3.5790658E-1,1.4662851E-1,-8.1845514E-2,-2.4946359E-1,-6.5435666E-1,-3.466648E-1],"categories":[],"categories_nodes":[],"categories_segments":[],"categories_sizes":[],"default_left":[0,0,0,0,0,0,0,0,0,0,0,0,0,0,0,0,0,0,0,0,0,0,0,0,0,0,0,0,0],"id":4,"left_children":[1,3,5,7,9,11,13,15,-1,17,19,21,23,25,27,-1,-1,-1,-1,-1,-1,-1,-1,-1,-1,-1,-1,-1,-1],"loss_changes":[1.0007599E5,1.2461953E3,1.1768969E5,1.1920859E3,2.4174023E2,1.4604461E4,1.857586E4,1.11171875E1,0E0,2.2124023E0,9.667969E-1,2.0576357E4,6.8446406E3,2.2754087E3,5.3688516E3,0E0,0E0,0E0,0E0,0E0,0E0,0E0,0E0,0E0,0E0,0E0,0E0,0E0,0E0],"parents":[2147483647,0,0,1,1,2,2,3,3,4,4,5,5,6,6,7,7,9,9,10,10,11,11,12,12,13,13,14,14],"right_children":[2,4,6,8,10,12,14,16,-1,18,20,22,24,26,28,-1,-1,-1,-1,-1,-1,-1,-1,-1,-1,-1,-1,-1,-1],"split_conditions":[4E0,6E0,1.9E1,3E0,1E0,7E0,2.2E1,5E0,-3.3006275E-1,7E0,3E0,6E0,7E0,2.1E1,5E0,-7.810829E-1,-7.164847E-1,-5.2355903E-1,-4.5535904E-1,-6.3578445E-1,-5.645944E-1,2.4759851E-1,-4.7387147E-1,3.5790658E-1,1.4662851E-1,-8.1845514E-2,-2.4946359E-1,-6.5435666E-1,-3.466648E-1],"split_indices":[1,0,1,1,1,1,1,0,0,0,1,0,0,1,0,0,0,0,0,0,0,0,0,0,0,0,0,0,0],"split_type":[0,0,0,0,0,0,0,0,0,0,0,0,0,0,0,0,0,0,0,0,0,0,0,0,0,0,0,0,0],"sum_hessian":[1.8862E4,1.901E3,1.6961E4,1.248E3,6.53E2,1.121E4,5.751E3,1.181E3,6.7E1,2.28E2,4.25E2,1.754E3,9.456E3,3.462E3,2.289E3,9.78E2,2.03E2,9E1,1.38E2,3.24E2,1.01E2,1.154E3,6E2,7.528E3,1.928E3,2.169E3,1.293E3,1.226E3,1.063E3],"tree_param":{"num_deleted":"0","num_feature":"2","num_nodes":"29","size_leaf_vector":"1"}},{"base_weights":[-1.1736657E-3,-6.1934853E0,6.931889E-1,-6.7265115E0,-5.166048E0,2.1811385E0,-3.086137E0,-6.9366198E0,-2.9754186E-1,-4.3643136E0,-5.5849004E0,2.6554759E0,2.4788356E-1,-1.6947843E0,-4.605556E0,-7.0305437E-1,-6.451875E-1,-4.7177845E-1,-4.1015068E-1,-5.724017E-1,-5.086885E-1,3.1068832E-1,4.8376366E-2,-4.945582E-1,1.5258975E-1,-2.863818E-1,-8.055218E-2,-6.2774587E-1,-3.419833E-1],"categories":[],"categories_nodes":[],"categories_segments":[],"categories_sizes":[],"default_left":[0,0,0,0,0,0,0,0,0,0,0,0,0,0,0,0,0,0,0,0,0,0,0,0,0,0,0,0,0],"id":5,"left_children":[1,3,5,7,9,11,13,15,-1,17,19,21,23,25,27,-1,-1,-1,-1,-1,-1,-1,-1,-1,-1,-1,-1,-1,-1],"loss_changes":[8.110971E4,1.006875E3,9.539165E4,9.637461E2,1.9524414E2,1.1160324E4,1.0122711E4,8.453125E0,0E0,1.9228516E0,3.9746094E-1,9.579227E3,1.5930481E4,2.5997563E3,4.5182617E3,0E0,0E0,0E0,0E0,0E0,0E0,0E0,0E0,0E0,0E0,0E0,0E0,0E0,0E0],"parents":[2147483647,0,0,1,1,2,2,3,3,4,4,5,5,6,6,7,7,9,9,10,10,11,11,12,12,13,13,14,14],"right_children":[2,4,6,8,10,12,14,16,-1,18,20,22,24,26,28,-1,-1,-1,-1,-1,-1,-1,-1,-1,-1,-1,-1,-1,-1],"split_conditions":[4E0,6E0,2E1,3E0,1E0,7E0,2.2E1,5E0,-2.9754186E-1,7E0,3E0,1.8E1,9E0,4E0,4E0,-7.0305437E-1,-6.451875E-1,-4.7177845E-1,-4.1015068E-1,-5.724017E-1,-5.086885E-1,3.1068832E-1,4.8376366E-2,-4.945582E-1,1.5258975E-1,-2.863818E-1,-8.055218E-2,-6.2774587E-1,-3.419833E-1],"split_indices":[1,0,1,1,1,0,1,0,0,0,1,1,1,0,0,0,0,0,0,0,0,0,0,0,0,0,0,0,0],"split_type":[0,0,0,0,0,0,0,0,0,0,0,0,0,0,0,0,0,0,0,0,0,0,0,0,0,0,0,0,0],"sum_hessian":[1.8862E4,1.901E3,1.6961E4,1.248E3,6.53E2,1.217E4,4.791E3,1.181E3,6.7E1,2.28E2,4.25E2,9.772E3,2.398E3,2.502E3,2.289E3,9.78E2,2.03E2,9E1,1.38E2,3.24E2,1.01E2,8.09E3,1.682E3,4.73E2,1.925E3,1.08E3,1.422E3,9.48E2,1.341E3],"tree_param":{"num_deleted":"0","num_feature":"2","num_nodes":"29","size_leaf_vector":"1"}},{"base_weights":[-1.3178432E-3,-5.5760336E0,6.237919E-1,-6.055178E0,-4.652445E0,2.160304E0,-2.3710728E0,-6.2440987E0,-2.6822525E-1,-3.9317336E0,-5.028948E0,1.0081262E-1,2.656869E0,-1.1970514E0,-4.1454244E0,-6.328208E-1,-5.80985E-1,-4.25119E-1,-3.6943072E-1,-4.7190276E-1,-5.251693E-1,2.0144723E-1,-3.533239E-1,3.0317527E-1,1.394383E-1,-2.3416014E-1,-7.1622506E-2,-5.327254E-1,-2.7786478E-1],"categories":[],"categories_nodes":[],"categories_segments":[],"categories_sizes":[],"default_left":[0,0,0,0,0,0,0,0,0,0,0,0,0,0,0,0,0,0,0,0,0,0,0,0,0,0,0,0,0],"id":6,"left_children":[1,3,5,7,9,11,13,15,-1,17,19,21,23,25,27,-1,-1,-1,-1,-1,-1,-1,-1,-1,-1,-1,-1,-1,-1],"loss_changes":[6.573743E4,8.1352734E2,7.805825E4,7.791328E2,1.5769043E2,1.1464895E4,1.1977182E4,6.4023438E0,0E0,1.6640625E0,4.6259766E0,1.5160618E4,4.270965E3,1.9041152E3,3.6842227E3,0E0,0E0,0E0,0E0,0E0,0E0,0E0,0E0,0E0,0E0,0E0,0E0,0E0,0E0],"parents":[2147483647,0,0,1,1,2,2,3,3,4,4,5,5,6,6,7,7,9,9,10,10,11,11,12,12,13,13,14,14],"right_children":[2,4,6,8,10,12,14,16,-1,18,20,22,24,26,28,-1,-1,-1,-1,-1,-1,-1,-1,-1,-1,-1,-1,-1,-1],"split_conditions":[4E0,6E0,1.9E1,3E0,1E0,8E0,2.2E1,5E0,-2.6822525E-1,7E0,7E0,6E0,1.7E1,3E0,5E0,-6.328208E-1,-5.80985E-1,-4.25119E-1,-3.6943072E-1,-4.7190276E-1,-5.251693E-1,2.0144723E-1,-3.533239E-1,3.0317527E-1,1.394383E-1,-2.3416014E-1,-7.1622506E-2,-5.327254E-1,-2.7786478E-1],"split_indices":[1,0,1,1,1,1,1,0,0,0,0,0,1,0,0,0,0,0,0,0,0,0,0,0,0,0,0,0,0],"split_type":[0,0,0,0,0,0,0,0,0,0,0,0,0,0,0,0,0,0,0,0,0,0,0,0,0,0,0,0,0],"sum_hessian":[1.8862E4,1.901E3,1.6961E4,1.248E3,6.53E2,1.121E4,5.751E3,1.181E3,6.7E1,2.28E2,4.25E2,2.178E3,9.032E3,3.462E3,2.289E3,9.78E2,2.03E2,9E1,1.38E2,1.87E2,2.38E2,1.427E3,7.51E2,6.963E3,2.069E3,1.023E3,2.439E3,1.226E3,1.063E3],"tree_param":{"num_deleted":"0","num_feature":"2","num_nodes":"29","size_leaf_vector":"1"}},{"base_weights":[-1.4032873E-3,-5.0201516E0,5.613641E-1,-5.450847E0,-4.1899395E0,1.7734209E0,-2.5172052E0,-5.6207156E0,-2.4179713E-1,-3.5420299E0,-4.5283937E0,-1.61942E0,1.9938345E0,-1.4054801E0,-3.731236E0,-5.696033E-1,-5.231713E-1,-3.8307425E-1,-3.3275342E-1,-4.6563736E-1,-4.0762177E-1,-2.6699746E-2,-3.719173E-1,2.3859186E-1,3.9501466E-2,-2.2364616E-1,-4.7189962E-2,-5.1182103E-1,-2.747652E-1],"categories":[],"categories_nodes":[],"categories_segments":[],"categories_sizes":[],"default_left":[0,0,0,0,0,0,0,0,0,0,0,0,0,0,0,0,0,0,0,0,0,0,0,0,0,0,0,0,0],"id":7,"left_children":[1,3,5,7,9,11,13,15,-1,17,19,21,23,25,27,-1,-1,-1,-1,-1,-1,-1,-1,-1,-1,-1,-1,-1,-1],"loss_changes":[5.327925E4,6.572539E2,6.329649E4,6.298789E2,1.2737402E2,9.105051E3,6.462367E3,4.8359375E0,0E0,1.4345703E0,5.671875E0,2.1089436E3,7.163578E3,1.9407427E3,3.1099688E3,0E0,0E0,0E0,0E0,0E0,0E0,0E0,0E0,0E0,0E0,0E0,0E0,0E0,0E0],"parents":[2147483647,0,0,1,1,2,2,3,3,4,4,5,5,6,6,7,7,9,9,10,10,11,11,12,12,13,13,14,14],"right_children":[2,4,6,8,10,12,14,16,-1,18,20,22,24,26,28,-1,-1,-1,-1,-1,-1,-1,-1,-1,-1,-1,-1,-1,-1],"split_conditions":[4E0,6E0,2E1,3E0,1E0,5E0,2.2E1,5E0,-2.4179713E-1,7E0,3E0,6E0,7E0,5E0,4E0,-5.696033E-1,-5.231713E-1,-3.8307425E-1,-3.3275342E-1,-4.6563736E-1,-4.0762177E-1,-2.6699746E-2,-3.719173E-1,2.3859186E-1,3.9501466E-2,-2.2364616E-1,-4.7189962E-2,-5.1182103E-1,-2.747652E-1],"split_indices":[1,0,1,1,1,1,1,0,0,0,1,0,0,0,0,0,0,0,0,0,0,0,0,0,0,0,0,0,0],"split_type":[0,0,0,0,0,0,0,0,0,0,0,0,0,0,0,0,0,0,0,0,0,0,0,0,0,0,0,0,0],"sum_hessian":[1.8862E4,1.901E3,1.6961E4,1.248E3,6.53E2,1.217E4,4.791E3,1.181E3,6.7E1,2.28E2,4.25E2,7.42E2,1.1428E4,2.502E3,2.289E3,9.78E2,2.03E2,9E1,1.38E2,3.24E2,1.01E2,4.52E2,2.9E2,9.177E3,2.251E3,1.323E3,1.179E3,9.48E2,1.341E3],"tree_param":{"num_deleted":"0","num_feature":"2","num_nodes":"29","size_leaf_vector":"1"}},{"base_weights":[-1.4805143E-3,-4.519674E0,5.051581E-1,-4.906831E0,-3.7733757E0,1.768995E0,-1.9582251E0,-5.0595684E0,-2.1797298E-1,-3.190953E0,-4.0776043E0,4.8603162E-1,2.3912928E0,-1.03172E0,-3.3584561E0,-5.127012E-1,-4.7111058E-1,-3.451878E-1,-2.9971752E-1,-3.7941894E-1,-4.2834806E-1,1.2337303E-1,-3.4905007E-1,2.8947133E-1,1.057411E-1,-7.0540026E-2,-2.4617611E-1,-4.3372685E-1,-2.2265379E-1],"categories":[],"categories_nodes":[],"categories_segments":[],"categories_sizes":[],"default_left":[0,0,0,0,0,0,0,0,0,0,0,0,0,0,0,0,0,0,0,0,0,0,0,0,0,0,0,0,0],"id":8,"left_children":[1,3,5,7,9,11,13,15,-1,17,19,21,23,25,27,-1,-1,-1,-1,-1,-1,-1,-1,-1,-1,-1,-1,-1,-1],"loss_changes":[4.318141E4,5.3103906E2,5.2811508E4,5.0922266E2,1.0287109E2,8.949531E3,7.4587285E3,3.6230469E0,0E0,1.232666E0,8.604492E0,1.08953125E4,5.066117E3,1.6142751E3,2.5275137E3,0E0,0E0,0E0,0E0,0E0,0E0,0E0,0E0,0E0,0E0,0E0,0E0,0E0,0E0],"parents":[2147483647,0,0,1,1,2,2,3,3,4,4,5,5,6,6,7,7,9,9,10,10,11,11,12,12,13,13,14,14],"right_children":[2,4,6,8,10,12,14,16,-1,18,20,22,24,26,28,-1,-1,-1,-1,-1,-1,-1,-1,-1,-1,-1,-1,-1,-1],"split_conditions":[4E0,6E0,1.9E1,3E0,1E0,1E1,2.2E1,5E0,-2.1797298E-1,7E0,7E0,7E0,1.7E1,7E0,5E0,-5.127012E-1,-4.7111058E-1,-3.451878E-1,-2.9971752E-1,-3.7941894E-1,-4.2834806E-1,1.2337303E-1,-3.4905007E-1,2.8947133E-1,1.057411E-1,-7.0540026E-2,-2.4617611E-1,-4.3372685E-1,-2.2265379E-1],"split_indices":[1,0,1,1,1,1,1,0,0,0,0,0,1,0,0,0,0,0,0,0,0,0,0,0,0,0,0,0,0],"split_type":[0,0,0,0,0,0,0,0,0,0,0,0,0,0,0,0,0,0,0,0,0,0,0,0,0,0,0,0,0],"sum_hessian":[1.8862E4,1.901E3,1.6961E4,1.248E3,6.53E2,1.121E4,5.751E3,1.181E3,6.7E1,2.28E2,4.25E2,3.662E3,7.548E3,3.462E3,2.289E3,9.78E2,2.03E2,9E1,1.38E2,1.87E2,2.38E2,3.083E3,5.79E2,5.479E3,2.069E3,2.82E3,6.42E2,1.226E3,1.063E3],"tree_param":{"num_deleted":"0","num_feature":"2","num_nodes":"29","size_leaf_vector":"1"}},{"base_weights":[-1.515666E-3,-4.069102E0,4.545951E-1,-4.41711E0,-3.3982592E0,1.5921108E0,-1.7625717E0,-4.554444E0,-1.9649625E-1,-2.8746734E0,-3.67174E0,-1.4877537E0,1.8105412E0,-9.286392E-1,-3.0228972E0,-4.6148345E-1,-4.242305E-1,-3.1104833E-1,-2.6996133E-1,-3.7895283E-1,-3.260437E-1,-3.6345694E-2,-3.2328352E-1,2.3963046E-1,8.889939E-2,-1.9392608E-1,-5.0412882E-2,-2.5584763E-1,-5.555555E-1],"categories":[],"categories_nodes":[],"categories_segments":[],"categories_sizes":[],"default_left":[0,0,0,0,0,0,0,0,0,0,0,0,0,0,0,0,0,0,0,0,0,0,0,0,0,0,0,0,0],"id":9,"left_children":[1,3,5,7,9,11,13,15,-1,17,19,21,23,25,27,-1,-1,-1,-1,-1,-1,-1,-1,-1,-1,-1,-1,-1,-1],"loss_changes":[3.4997805E4,4.290293E2,4.278202E4,4.1166797E2,8.309082E1,7.54474E3,6.042699E3,2.703125E0,0E0,1.0562744E0,8.282715E0,1.4565834E3,5.649125E3,1.4847166E3,2.67933E3,0E0,0E0,0E0,0E0,0E0,0E0,0E0,0E0,0E0,0E0,0E0,0E0,0E0,0E0],"parents":[2147483647,0,0,1,1,2,2,3,3,4,4,5,5,6,6,7,7,9,9,10,10,11,11,12,12,13,13,14,14],"right_children":[2,4,6,8,10,12,14,16,-1,18,20,22,24,26,28,-1,-1,-1,-1,-1,-1,-1,-1,-1,-1,-1,-1,-1,-1],"split_conditions":[4E0,6E0,1.9E1,3E0,1E0,5E0,2.2E1,5E0,-1.9649625E-1,7E0,3E0,6E0,6E0,3E0,7E0,-4.6148345E-1,-4.242305E-1,-3.1104833E-1,-2.6996133E-1,-3.7895283E-1,-3.260437E-1,-3.6345694E-2,-3.2328352E-1,2.3963046E-1,8.889939E-2,-1.9392608E-1,-5.0412882E-2,-2.5584763E-1,-5.555555E-1],"split_indices":[1,0,1,1,1,1,1,0,0,0,1,0,0,0,0,0,0,0,0,0,0,0,0,0,0,0,0,0,0],"split_type":[0,0,0,0,0,0,0,0,0,0,0,0,0,0,0,0,0,0,0,0,0,0,0,0,0,0,0,0,0],"sum_hessian":[1.8862E4,1.901E3,1.6961E4,1.248E3,6.53E2,1.121E4,5.751E3,1.181E3,6.7E1,2.28E2,4.25E2,7.42E2,1.0468E4,3.462E3,2.289E3,9.78E2,2.03E2,9E1,1.38E2,3.24E2,1.01E2,4.52E2,2.9E2,6.399E3,4.069E3,1.023E3,2.439E3,1.936E3,3.53E2],"tree_param":{"num_deleted":"0","num_feature":"2","num_nodes":"29","size_leaf_vector":"1"}},{"base_weights":[-1.5470737E-3,-3.663437E0,4.090717E-1,-3.9762654E0,-3.0603995E0,1.4328972E0,-1.586498E0,-4.099749E0,-1.7713562E-1,-2.5897431E0,-3.306221E0,3.159673E-1,1.9746752E0,-3.818019E-1,-2.3156645E0,-3.8428867E-1,-4.176333E-1,-2.802853E-1,-2.4315941E-1,-3.0468872E-1,-3.4963822E-1,9.632491E-2,-3.1263313E-1,2.4291368E-1,7.706051E-2,-1.3359058E-2,-1.5395567E-1,-3.2814804E-1,-1.17069475E-1],"categories":[],"categories_nodes":[],"categories_segments":[],"categories_sizes":[],"default_left":[0,0,0,0,0,0,0,0,0,0,0,0,0,0,0,0,0,0,0,0,0,0,0,0,0,0,0,0,0],"id":10,"left_children":[1,3,5,7,9,11,13,15,-1,17,19,21,23,25,27,-1,-1,-1,-1,-1,-1,-1,-1,-1,-1,-1,-1,-1,-1],"loss_changes":[2.8364674E4,3.4663867E2,3.4657594E4,3.3280273E2,6.7104004E1,6.783467E3,5.0518115E3,7.203125E0,0E0,9.025879E-1,1.0355469E1,8.164678E3,4.1289688E3,6.2338257E2,3.9583457E3,0E0,0E0,0E0,0E0,0E0,0E0,0E0,0E0,0E0,0E0,0E0,0E0,0E0,0E0],"parents":[2147483647,0,0,1,1,2,2,3,3,4,4,5,5,6,6,7,7,9,9,10,10,11,11,12,12,13,13,14,14],"right_children":[2,4,6,8,10,12,14,16,-1,18,20,22,24,26,28,-1,-1,-1,-1,-1,-1,-1,-1,-1,-1,-1,-1,-1,-1],"split_conditions":[4E0,6E0,1.9E1,3E0,1E0,1E1,2.1E1,2E0,-1.7713562E-1,7E0,7E0,7E0,1.7E1,7E0,5E0,-3.8428867E-1,-4.176333E-1,-2.802853E-1,-2.4315941E-1,-3.0468872E-1,-3.4963822E-1,9.632491E-2,-3.1263313E-1,2.4291368E-1,7.706051E-2,-1.3359058E-2,-1.5395567E-1,-3.2814804E-1,-1.17069475E-1],"split_indices":[1,0,1,1,1,1,1,0,0,0,0,0,1,0,0,0,0,0,0,0,0,0,0,0,0,0,0,0,0],"split_type":[0,0,0,0,0,0,0,0,0,0,0,0,0,0,0,0,0,0,0,0,0,0,0,0,0,0,0,0,0],"sum_hessian":[1.8862E4,1.901E3,1.6961E4,1.248E3,6.53E2,1.121E4,5.751E3,1.181E3,6.7E1,2.28E2,4.25E2,3.662E3,7.548E3,2.169E3,3.582E3,2.83E2,8.98E2,9E1,1.38E2,1.87E2,2.38E2,3.083E3,5.79E2,5.479E3,2.069E3,1.787E3,3.82E2,1.942E3,1.64E3],"tree_param":{"num_deleted":"0","num_feature":"2","num_nodes":"29","size_leaf_vector":"1"}},{"base_weights":[-1.5338454E-3,-2.75333E0,4.4703278E-1,-3.4020758E0,-1.5154835E0,1.4771676E0,-1.4279548E0,-3.6904523E0,-2.779538E0,-8.977804E-1,-3.405949E-1,1.7998196E0,1.6871777E-1,-7.246166E-1,-2.4909384E0,-3.746254E-1,-3.404568E-1,-2.3330548E-1,-3.0855843E-1,6.858381E-2,-1.2036166E-1,1.9912168E-1,2.089967E-2,-3.4714362E-1,8.503682E-2,-4.2754132E-2,-2.0268324E-1,-2.0521522E-1,-4.884831E-1],"categories":[],"categories_nodes":[],"categories_segments":[],"categories_sizes":[],"default_left":[0,0,0,0,0,0,0,0,0,0,0,0,0,0,0,0,0,0,0,0,0,0,0,0,0,0,0,0,0],"id":11,"left_children":[1,3,5,7,9,11,13,15,17,19,-1,21,23,25,27,-1,-1,-1,-1,-1,-1,-1,-1,-1,-1,-1,-1,-1,-1],"loss_changes":[2.3285037E4,2.1181035E3,3.1330877E4,3.010371E2,1.0607593E3,4.4194355E3,4.2986025E3,6.102539E0,6.836572E1,3.340431E2,0E0,2.5565977E3,5.1442314E3,1.3388164E3,2.3954082E3,0E0,0E0,0E0,0E0,0E0,0E0,0E0,0E0,0E0,0E0,0E0,0E0,0E0,0E0],"parents":[2147483647,0,0,1,1,2,2,3,3,4,4,5,5,6,6,7,7,8,8,9,9,11,11,12,12,13,13,14,14],"right_children":[2,4,6,8,10,12,14,16,18,20,-1,22,24,26,28,-1,-1,-1,-1,-1,-1,-1,-1,-1,-1,-1,-1,-1,-1],"split_conditions":[5E0,3E0,1.9E1,6E0,7E0,7E0,2.2E1,5E0,1E0,2E0,-3.405949E-1,1.8E1,9E0,7E0,7E0,-3.746254E-1,-3.404568E-1,-2.3330548E-1,-3.0855843E-1,6.858381E-2,-1.2036166E-1,1.9912168E-1,2.089967E-2,-3.4714362E-1,8.503682E-2,-4.2754132E-2,-2.0268324E-1,-2.0521522E-1,-4.884831E-1],"split_indices":[1,1,1,0,0,0,1,0,1,0,0,1,1,0,0,0,0,0,0,0,0,0,0,0,0,0,0,0,0],"split_type":[0,0,0,0,0,0,0,0,0,0,0,0,0,0,0,0,0,0,0,0,0,0,0,0,0,0,0,0,0],"sum_hessian":[1.8862E4,2.643E3,1.6219E4,1.733E3,9.1E2,1.0468E4,5.751E3,1.181E3,5.52E2,6.87E2,2.23E2,8.397E3,2.071E3,3.462E3,2.289E3,9.78E2,2.03E2,2.28E2,3.24E2,1.11E2,5.76E2,7.495E3,9.02E2,3.26E2,1.745E3,2.82E3,6.42E2,1.936E3,3.53E2],"tree_param":{"num_deleted":"0","num_feature":"2","num_nodes":"29","size_leaf_vector":"1"}},{"base_weights":[-1.5198094E-3,-2.478621E0,4.0226915E-1,-3.062593E0,-1.364366E0,1.3294469E0,-1.2853224E0,-3.3220122E0,-2.502564E0,-4.9778104E-1,-2.510437E0,1.8124441E0,5.696163E-1,-2.7281088E-1,-1.8981789E0,-3.0866453E-1,-3.392671E-1,-2.100768E-1,-2.7779755E-1,6.178669E-2,-8.020715E-2,-1.7580557E-1,-3.0668744E-1,2.0460807E-1,8.652287E-2,-3.9260307E-1,9.4131224E-2,-1.50589E-1,-7.571502E-3,-2.8082588E-1,-8.194565E-2],"categories":[],"categories_nodes":[],"categories_segments":[],"categories_sizes":[],"default_left":[0,0,0,0,0,0,0,0,0,0,0,0,0,0,0,0,0,0,0,0,0,0,0,0,0,0,0,0,0,0,0],"id":12,"left_children":[1,3,5,7,9,11,13,15,17,19,21,23,25,27,29,-1,-1,-1,-1,-1,-1,-1,-1,-1,-1,-1,-1,-1,-1,-1,-1],"loss_changes":[1.8868264E4,1.7162559E3,2.5381102E4,2.4360547E2,9.0352625E2,3.8410488E3,3.5687383E3,9.185547E0,5.5358887E1,1.7702568E2,1.5872021E2,1.4145742E3,6.8047207E3,5.272715E2,3.5152148E3,0E0,0E0,0E0,0E0,0E0,0E0,0E0,0E0,0E0,0E0,0E0,0E0,0E0,0E0,0E0,0E0],"parents":[2147483647,0,0,1,1,2,2,3,3,4,4,5,5,6,6,7,7,8,8,9,9,10,10,11,11,12,12,13,13,14,14],"right_children":[2,4,6,8,10,12,14,16,18,20,22,24,26,28,30,-1,-1,-1,-1,-1,-1,-1,-1,-1,-1,-1,-1,-1,-1,-1,-1],"split_conditions":[5E0,3E0,1.9E1,6E0,6E0,6E0,2.1E1,2E0,1E0,2E0,7E0,1.7E1,7E0,2E0,5E0,-3.0866453E-1,-3.392671E-1,-2.100768E-1,-2.7779755E-1,6.178669E-2,-8.020715E-2,-1.7580557E-1,-3.0668744E-1,2.0460807E-1,8.652287E-2,-3.9260307E-1,9.4131224E-2,-1.50589E-1,-7.571502E-3,-2.8082588E-1,-8.194565E-2],"split_indices":[1,1,1,0,0,0,1,0,1,0,0,1,1,0,0,0,0,0,0,0,0,0,0,0,0,0,0,0,0,0,0],"split_type":[0,0,0,0,0,0,0,0,0,0,0,0,0,0,0,0,0,0,0,0,0,0,0,0,0,0,0,0,0,0,0],"sum_hessian":[1.8862E4,2.643E3,1.6219E4,1.733E3,9.1E2,1.0468E4,5.751E3,1.181E3,5.52E2,5.19E2,3.91E2,6.399E3,4.069E3,2.169E3,3.582E3,2.83E2,8.98E2,2.28E2,3.24E2,1.11E2,4.08E2,1.68E2,2.23E2,5.132E3,1.267E3,3.1E2,3.759E3,2.98E2,1.871E3,1.942E3,1.64E3],"tree_param":{"num_deleted":"0","num_feature":"2","num_nodes":"31","size_leaf_vector":"1"}},{"base_weights":[-1.4829503E-3,-2.2313778E0,3.6200926E-1,-2.7569888E0,-1.2284795E0,1.3285162E0,-9.589176E-1,-2.990359E0,-2.2531898E0,-4.4803867E-1,-2.2606244E0,1.6337675E0,1.05496995E-1,-1.3783637E-1,-1.7084624E0,-3.0419374E-1,-2.7281758E-1,-1.8916087E-1,-2.5010324E-1,5.5663187E-2,-7.220608E-2,-1.5832908E-1,-2.7615562E-1,9.214599E-2,1.9874616E-1,-3.006345E-1,7.6362565E-2,-1.538479E-1,5.444705E-3,-2.7576497E-1,-9.420147E-2],"categories":[],"categories_nodes":[],"categories_segments":[],"categories_sizes":[],"default_left":[0,0,0,0,0,0,0,0,0,0,0,0,0,0,0,0,0,0,0,0,0,0,0,0,0,0,0,0,0,0,0],"id":13,"left_children":[1,3,5,7,9,11,13,15,17,19,21,23,25,27,29,-1,-1,-1,-1,-1,-1,-1,-1,-1,-1,-1,-1,-1,-1,-1,-1],"loss_changes":[1.5290204E4,1.3903545E3,2.0709105E4,1.9713281E2,7.3282324E2,3.496791E3,4.2179707E3,7.6845703E0,4.4826416E1,1.4355896E2,1.2863245E2,1.8867051E3,3.836137E3,8.812999E2,2.878663E3,0E0,0E0,0E0,0E0,0E0,0E0,0E0,0E0,0E0,0E0,0E0,0E0,0E0,0E0,0E0,0E0],"parents":[2147483647,0,0,1,1,2,2,3,3,4,4,5,5,6,6,7,7,8,8,9,9,10,10,11,11,12,12,13,13,14,14],"right_children":[2,4,6,8,10,12,14,16,18,20,22,24,26,28,30,-1,-1,-1,-1,-1,-1,-1,-1,-1,-1,-1,-1,-1,-1,-1,-1],"split_conditions":[5E0,3E0,1.8E1,6E0,6E0,7E0,2.1E1,5E0,1E0,2E0,7E0,1E1,9E0,2E0,4E0,-3.0419374E-1,-2.7281758E-1,-1.8916087E-1,-2.5010324E-1,5.5663187E-2,-7.220608E-2,-1.5832908E-1,-2.7615562E-1,9.214599E-2,1.9874616E-1,-3.006345E-1,7.6362565E-2,-1.538479E-1,5.444705E-3,-2.7576497E-1,-9.420147E-2],"split_indices":[1,1,1,0,0,0,1,0,1,0,0,1,1,0,0,0,0,0,0,0,0,0,0,0,0,0,0,0,0,0,0],"split_type":[0,0,0,0,0,0,0,0,0,0,0,0,0,0,0,0,0,0,0,0,0,0,0,0,0,0,0,0,0,0,0],"sum_hessian":[1.8862E4,2.643E3,1.6219E4,1.733E3,9.1E2,9.366E3,6.853E3,1.181E3,5.52E2,5.19E2,3.91E2,7.495E3,1.871E3,3.271E3,3.582E3,9.78E2,2.03E2,2.28E2,3.24E2,1.11E2,4.08E2,1.68E2,2.23E2,2.488E3,5.007E3,3.26E2,1.545E3,3.94E2,2.877E3,1.511E3,2.071E3],"tree_param":{"num_deleted":"0","num_feature":"2","num_nodes":"31","size_leaf_vector":"1"}},{"base_weights":[-1.4362931E-3,-2.008795E0,3.2578057E-1,-2.417439E0,-9.6000636E-1,1.1956719E0,-8.631016E-1,-2.635882E0,-1.9965636E0,-2.1899046E-1,-2.1102476E0,1.4704299E0,9.482742E-2,-5.514786E-1,-2.5697322E0,-2.691811E-1,-1.6249381E-1,-1.7032735E-1,-2.1495374E-1,1.8905018E-1,-5.9004355E-2,-1.5821359E-1,-2.6098278E-1,8.2935095E-2,1.7887555E-1,-3.7417817E-1,5.380718E-2,-2.6166359E-2,-1.838937E-1,-2.2077112E-1,-5.09264E-1],"categories":[],"categories_nodes":[],"categories_segments":[],"categories_sizes":[],"default_left":[0,0,0,0,0,0,0,0,0,0,0,0,0,0,0,0,0,0,0,0,0,0,0,0,0,0,0,0,0,0,0],"id":14,"left_children":[1,3,5,7,9,11,13,15,17,19,21,23,25,27,29,-1,-1,-1,-1,-1,-1,-1,-1,-1,-1,-1,-1,-1,-1,-1,-1],"loss_changes":[1.2390658E4,1.1308486E3,1.6775729E4,1.6960156E2,6.328317E2,2.8330576E3,3.6437134E3,6.624609E1,2.5680908E1,3.5569385E2,7.264661E1,1.5282383E3,3.1854531E3,2.162523E3,9.5507715E2,0E0,0E0,0E0,0E0,0E0,0E0,0E0,0E0,0E0,0E0,0E0,0E0,0E0,0E0,0E0,0E0],"parents":[2147483647,0,0,1,1,2,2,3,3,4,4,5,5,6,6,7,7,8,8,9,9,10,10,11,11,12,12,13,13,14,14],"right_children":[2,4,6,8,10,12,14,16,18,20,22,24,26,28,30,-1,-1,-1,-1,-1,-1,-1,-1,-1,-1,-1,-1,-1,-1,-1,-1],"split_conditions":[5E0,4E0,1.8E1,6E0,6E0,7E0,2.3E1,3E0,1E0,2E0,7E0,1E1,8E0,7E0,7E0,-2.691811E-1,-1.6249381E-1,-1.7032735E-1,-2.1495374E-1,1.8905018E-1,-5.9004355E-2,-1.5821359E-1,-2.6098278E-1,8.2935095E-2,1.7887555E-1,-3.7417817E-1,5.380718E-2,-2.6166359E-2,-1.838937E-1,-2.2077112E-1,-5.09264E-1],"split_indices":[1,1,1,0,0,0,1,1,1,0,0,1,1,0,0,0,0,0,0,0,0,0,0,0,0,0,0,0,0,0,0],"split_type":[0,0,0,0,0,0,0,0,0,0,0,0,0,0,0,0,0,0,0,0,0,0,0,0,0,0,0,0,0,0,0],"sum_hessian":[1.8862E4,2.643E3,1.6219E4,1.901E3,7.42E2,9.366E3,6.853E3,1.248E3,6.53E2,4.52E2,2.9E2,7.495E3,1.871E3,5.796E3,1.057E3,1.181E3,6.7E1,2.28E2,4.25E2,6.7E1,3.85E2,1.43E2,1.47E2,2.488E3,5.007E3,1.93E2,1.678E3,4.732E3,1.064E3,9.26E2,1.31E2],"tree_param":{"num_deleted":"0","num_feature":"2","num_nodes":"31","size_leaf_vector":"1"}},{"base_weights":[-1.4040617E-3,-1.8083336E0,2.9314116E-1,-2.2359803E0,-9.923647E-1,8.9524585E-1,-1.1429498E0,-2.4228578E0,-1.8324994E0,-3.6300159E-1,-1.8247026E0,1.2542568E0,3.288023E-1,-7.7988726E-1,-2.9110346E0,-2.2077112E-1,-2.4881287E-1,-1.5336901E-1,-2.0374064E-1,-1.4648339E-1,-1.968038E-2,-1.2602277E-1,-2.2424327E-1,1.5412633E-1,4.628141E-2,-3.3184215E-1,6.0370114E-2,-1.846286E-1,1.12494245E-1,-2.1346147E-1,-3.9182985E-1],"categories":[],"categories_nodes":[],"categories_segments":[],"categories_sizes":[],"default_left":[0,0,0,0,0,0,0,0,0,0,0,0,0,0,0,0,0,0,0,0,0,0,0,0,0,0,0,0,0,0,0],"id":15,"left_children":[1,3,5,7,9,11,13,15,17,19,21,23,25,27,29,-1,-1,-1,-1,-1,-1,-1,-1,-1,-1,-1,-1,-1,-1,-1,-1],"loss_changes":[1.0039842E4,9.203955E2,1.4026088E4,1.26305664E2,4.7655835E2,2.3237832E3,3.0738364E3,1.1105957E1,3.0734375E1,9.4935196E1,8.960693E1,1.5881943E3,4.4486123E3,8.080589E3,6.297964E2,0E0,0E0,0E0,0E0,0E0,0E0,0E0,0E0,0E0,0E0,0E0,0E0,0E0,0E0,0E0,0E0],"parents":[2147483647,0,0,1,1,2,2,3,3,4,4,5,5,6,6,7,7,8,8,9,9,10,10,11,11,12,12,13,13,14,14],"right_children":[2,4,6,8,10,12,14,16,18,20,22,24,26,28,30,-1,-1,-1,-1,-1,-1,-1,-1,-1,-1,-1,-1,-1,-1,-1,-1],"split_conditions":[5E0,3E0,2E1,6E0,6E0,6E0,7E0,2E0,1E0,4E0,7E0,1.7E1,7E0,5E0,2.2E1,-2.2077112E-1,-2.4881287E-1,-1.5336901E-1,-2.0374064E-1,-1.4648339E-1,-1.968038E-2,-1.2602277E-1,-2.2424327E-1,1.5412633E-1,4.628141E-2,-3.3184215E-1,6.0370114E-2,-1.846286E-1,1.12494245E-1,-2.1346147E-1,-3.9182985E-1],"split_indices":[1,1,1,0,0,0,0,0,1,1,0,1,1,0,1,0,0,0,0,0,0,0,0,0,0,0,0,0,0,0,0],"split_type":[0,0,0,0,0,0,0,0,0,0,0,0,0,0,0,0,0,0,0,0,0,0,0,0,0,0,0,0,0,0,0],"sum_hessian":[1.8862E4,2.643E3,1.6219E4,1.733E3,9.1E2,1.1428E4,4.791E3,1.181E3,5.52E2,5.19E2,3.91E2,6.994E3,4.434E3,3.976E3,8.15E2,2.83E2,8.98E2,2.28E2,3.24E2,6.7E1,4.52E2,1.68E2,2.23E2,5.132E3,1.862E3,3.1E2,4.124E3,2.549E3,1.427E3,4.62E2,3.53E2],"tree_param":{"num_deleted":"0","num_feature":"2","num_nodes":"31","size_leaf_vector":"1"}},{"base_weights":[-1.374767E-3,-1.6280084E0,2.6378065E-1,-2.012859E0,-8.9369535E-1,8.843032E-1,-8.656552E-1,-2.1809692E0,-1.6498953E0,-3.2702127E-1,-1.643126E0,1.2300041E0,3.404777E-1,-5.6308466E-1,-2.2075293E0,-2.2286952E-1,-1.9412409E-1,-1.3809909E-1,-1.8342929E-1,5.215303E-2,-5.585879E-2,-1.13495104E-1,-2.0191906E-1,8.959053E-2,1.563823E-1,-2.987646E-1,6.1566543E-2,-2.6844133E-2,-1.8673801E-1,-3.3978617E-1,-1.7231011E-1],"categories":[],"categories_nodes":[],"categories_segments":[],"categories_sizes":[],"default_left":[0,0,0,0,0,0,0,0,0,0,0,0,0,0,0,0,0,0,0,0,0,0,0,0,0,0,0,0,0,0,0],"id":16,"left_children":[1,3,5,7,9,11,13,15,17,19,21,23,25,27,29,-1,-1,-1,-1,-1,-1,-1,-1,-1,-1,-1,-1,-1,-1,-1,-1],"loss_changes":[8.136243E3,7.4539844E2,1.1368397E4,1.0220654E2,3.8634888E2,1.9677642E3,2.3341357E3,9.197266E0,2.4887573E1,1.02469345E2,7.262207E1,7.1238184E2,3.7293853E3,1.8037965E3,6.042202E2,0E0,0E0,0E0,0E0,0E0,0E0,0E0,0E0,0E0,0E0,0E0,0E0,0E0,0E0,0E0,0E0],"parents":[2147483647,0,0,1,1,2,2,3,3,4,4,5,5,6,6,7,7,8,8,9,9,10,10,11,11,12,12,13,13,14,14],"right_children":[2,4,6,8,10,12,14,16,18,20,22,24,26,28,30,-1,-1,-1,-1,-1,-1,-1,-1,-1,-1,-1,-1,-1,-1,-1,-1],"split_conditions":[5E0,3E0,1.9E1,6E0,6E0,6E0,2.3E1,5E0,1E0,2E0,7E0,1.3E1,7E0,7E0,3E0,-2.2286952E-1,-1.9412409E-1,-1.3809909E-1,-1.8342929E-1,5.215303E-2,-5.585879E-2,-1.13495104E-1,-2.0191906E-1,8.959053E-2,1.563823E-1,-2.987646E-1,6.1566543E-2,-2.6844133E-2,-1.8673801E-1,-3.3978617E-1,-1.7231011E-1],"split_indices":[1,1,1,0,0,0,1,0,1,0,0,1,1,0,0,0,0,0,0,0,0,0,0,0,0,0,0,0,0,0,0],"split_type":[0,0,0,0,0,0,0,0,0,0,0,0,0,0,0,0,0,0,0,0,0,0,0,0,0,0,0,0,0,0,0],"sum_hessian":[1.8862E4,2.643E3,1.6219E4,1.733E3,9.1E2,1.0468E4,5.751E3,1.181E3,5.52E2,5.19E2,3.91E2,6.399E3,4.069E3,4.694E3,1.057E3,9.78E2,2.03E2,2.28E2,3.24E2,1.11E2,4.08E2,1.68E2,2.23E2,3.2E3,3.199E3,3.1E2,3.759E3,3.83E3,8.64E2,3.04E2,7.53E2],"tree_param":{"num_deleted":"0","num_feature":"2","num_nodes":"31","size_leaf_vector":"1"}},{"base_weights":[-1.3313325E-3,-1.4656076E0,2.3735842E-1,-1.7647871E0,-6.97768E-1,8.9385176E-1,-6.59871E-1,-1.9306136E0,-1.4453952E0,1.6722374E-1,-9.351387E-1,2.2892193E-1,1.1949788E0,-2.4801764E-1,-1.4805918E0,-1.9632253E-1,-1.3353573E-1,-1.24349475E-1,-1.5505357E-1,-4.5584857E-2,-1.5676846E-1,1.1029998E-1,-7.2540715E-2,1.3762288E-1,5.638017E-2,-1.6597985E-1,-3.6419153E-3,-1.1387825E-1,-3.3467045E-1],"categories":[],"categories_nodes":[],"categories_segments":[],"categories_sizes":[],"default_left":[0,0,0,0,0,0,0,0,0,0,0,0,0,0,0,0,0,0,0,0,0,0,0,0,0,0,0,0,0],"id":17,"left_children":[1,3,5,7,9,11,13,15,17,-1,19,21,23,25,27,-1,-1,-1,-1,-1,-1,-1,-1,-1,-1,-1,-1,-1,-1],"loss_changes":[6.593113E3,6.0615283E2,9.554577E3,9.794629E1,4.1955313E2,1.8752656E3,2.3163984E3,2.1624512E1,1.1954956E1,0E0,2.0423035E2,2.4373752E3,7.367666E2,1.363645E3,1.456876E3,0E0,0E0,0E0,0E0,0E0,0E0,0E0,0E0,0E0,0E0,0E0,0E0,0E0,0E0],"parents":[2147483647,0,0,1,1,2,2,3,3,4,4,5,5,6,6,7,7,8,8,10,10,11,11,12,12,13,13,14,14],"right_children":[2,4,6,8,10,12,14,16,18,-1,20,22,24,26,28,-1,-1,-1,-1,-1,-1,-1,-1,-1,-1,-1,-1,-1,-1],"split_conditions":[5E0,4E0,1.8E1,6E0,2E0,1E1,2.2E1,3E0,1E0,1.6722374E-1,6E0,5E0,7E0,2E0,7E0,-1.9632253E-1,-1.3353573E-1,-1.24349475E-1,-1.5505357E-1,-4.5584857E-2,-1.5676846E-1,1.1029998E-1,-7.2540715E-2,1.3762288E-1,5.638017E-2,-1.6597985E-1,-3.6419153E-3,-1.1387825E-1,-3.3467045E-1],"split_indices":[1,1,1,0,0,1,1,1,1,0,0,0,0,0,0,0,0,0,0,0,0,0,0,0,0,0,0,0,0],"split_type":[0,0,0,0,0,0,0,0,0,0,0,0,0,0,0,0,0,0,0,0,0,0,0,0,0,0,0,0,0],"sum_hessian":[1.8862E4,2.643E3,1.6219E4,1.901E3,7.42E2,9.366E3,6.853E3,1.248E3,6.53E2,6.7E1,6.75E2,2.92E3,6.446E3,4.564E3,2.289E3,1.181E3,6.7E1,2.28E2,4.25E2,3.85E2,2.9E2,1.524E3,1.396E3,5.007E3,1.439E3,5.94E2,3.97E3,1.936E3,3.53E2],"tree_param":{"num_deleted":"0","num_feature":"2","num_nodes":"29","size_leaf_vector":"1"}},{"base_weights":[-1.2528263E-3,-1.3192906E0,2.1359879E-1,-1.6329646E0,-7.2079444E-1,5.8319896E-1,-1.090119E0,-1.8099315E0,-1.4016372E0,-4.1308433E-1,-1.6626862E0,8.519391E-1,5.052618E-2,-1.841464E0,-1.9983643E-1,-1.5700015E-1,-1.9052336E-1,-1.2532231E-1,-1.5053774E-1,4.2226844E-2,-5.745166E-2,-1.4317212E-1,-1.7716162E-1,4.93333E-2,1.6512714E-1,-7.979281E-2,1.8631147E-2,-2.2919178E-1,-1.3136308E-1,1.2254572E-1,-2.585833E-1],"categories":[],"categories_nodes":[],"categories_segments":[],"categories_sizes":[],"default_left":[0,0,0,0,0,0,0,0,0,0,0,0,0,0,0,0,0,0,0,0,0,0,0,0,0,0,0,0,0,0,0],"id":18,"left_children":[1,3,5,7,9,11,13,15,17,19,21,23,25,27,29,-1,-1,-1,-1,-1,-1,-1,-1,-1,-1,-1,-1,-1,-1,-1,-1],"loss_changes":[5.341954E3,4.95188E2,7.8163135E3,6.844873E1,2.6334805E2,1.8090933E3,2.3963345E3,1.9394287E1,9.753174E0,9.30214E1,3.099121E0,2.4070073E3,4.885137E2,4.5896533E2,5.5837925E3,0E0,0E0,0E0,0E0,0E0,0E0,0E0,0E0,0E0,0E0,0E0,0E0,0E0,0E0,0E0,0E0],"parents":[2147483647,0,0,1,1,2,2,3,3,4,4,5,5,6,6,7,7,8,8,9,9,10,10,11,11,12,12,13,13,14,14],"right_children":[2,4,6,8,10,12,14,16,18,20,22,24,26,28,30,-1,-1,-1,-1,-1,-1,-1,-1,-1,-1,-1,-1,-1,-1,-1,-1],"split_conditions":[5E0,3E0,2.1E1,5E0,7E0,1.7E1,5E0,2E0,1E0,2E0,4E0,1.4E1,2E0,3E0,7E0,-1.5700015E-1,-1.9052336E-1,-1.2532231E-1,-1.5053774E-1,4.2226844E-2,-5.745166E-2,-1.4317212E-1,-1.7716162E-1,4.93333E-2,1.6512714E-1,-7.979281E-2,1.8631147E-2,-2.2919178E-1,-1.3136308E-1,1.2254572E-1,-2.585833E-1],"split_indices":[1,1,1,0,0,1,0,0,1,0,1,1,0,0,0,0,0,0,0,0,0,0,0,0,0,0,0,0,0,0,0],"split_type":[0,0,0,0,0,0,0,0,0,0,0,0,0,0,0,0,0,0,0,0,0,0,0,0,0,0,0,0,0,0,0],"sum_hessian":[1.8862E4,2.643E3,1.6219E4,1.733E3,9.1E2,1.2637E4,3.582E3,9.78E2,7.55E2,6.87E2,2.23E2,8.399E3,4.238E3,1.942E3,1.64E3,2.83E2,6.95E2,3.16E2,4.39E2,1.11E2,5.76E2,7.6E1,1.47E2,5.799E3,2.6E3,5.84E2,3.654E3,1.046E3,8.96E2,1.027E3,6.13E2],"tree_param":{"num_deleted":"0","num_feature":"2","num_nodes":"31","size_leaf_vector":"1"}},{"base_weights":[-1.1966134E-3,-1.4338897E0,1.5945564E-1,-1.5739667E0,-1.1641802E0,4.6490958E-1,-9.8124576E-1,-1.3979315E0,-1.6348839E0,-9.949131E-1,-1.2524384E0,6.403634E-1,-2.62448E-1,-1.6575032E0,-1.7993578E-1,-1.816698E-1,-1.3618872E-1,-1.6953418E-1,-1.4137857E-1,-1.1964065E-1,-8.5584246E-2,-1.3467768E-1,-9.3957186E-2,8.411596E-2,3.6169135E-3,-2.0690648E-1,1.4008902E-2,-2.0629449E-1,-1.1824142E-1,1.1030306E-1,-2.327671E-1],"categories":[],"categories_nodes":[],"categories_segments":[],"categories_sizes":[],"default_left":[0,0,0,0,0,0,0,0,0,0,0,0,0,0,0,0,0,0,0,0,0,0,0,0,0,0,0,0,0,0,0],"id":19,"left_children":[1,3,5,7,9,11,13,15,17,19,21,23,25,27,29,-1,-1,-1,-1,-1,-1,-1,-1,-1,-1,-1,-1,-1,-1,-1,-1],"loss_changes":[4.3418384E3,7.002515E1,5.910555E3,1.1108398E1,8.52417E0,1.7076924E3,1.9413003E3,2.4767456E0,9.927734E0,5.3930664E0,1.1308105E1,1.3077988E3,1.8918156E3,3.7182324E2,4.524297E3,0E0,0E0,0E0,0E0,0E0,0E0,0E0,0E0,0E0,0E0,0E0,0E0,0E0,0E0,0E0,0E0],"parents":[2147483647,0,0,1,1,2,2,3,3,4,4,5,5,6,6,7,7,8,8,9,9,10,10,11,11,12,12,13,13,14,14],"right_children":[2,4,6,8,10,12,14,16,18,20,22,24,26,28,30,-1,-1,-1,-1,-1,-1,-1,-1,-1,-1,-1,-1,-1,-1,-1,-1],"split_conditions":[4E0,6E0,2.1E1,2E0,1E0,7E0,5E0,1E0,5E0,7E0,3E0,1.8E1,9E0,3E0,7E0,-1.816698E-1,-1.3618872E-1,-1.6953418E-1,-1.4137857E-1,-1.1964065E-1,-8.5584246E-2,-1.3467768E-1,-9.3957186E-2,8.411596E-2,3.6169135E-3,-2.0690648E-1,1.4008902E-2,-2.0629449E-1,-1.1824142E-1,1.1030306E-1,-2.327671E-1],"split_indices":[1,0,1,0,1,0,0,1,0,0,1,1,1,0,0,0,0,0,0,0,0,0,0,0,0,0,0,0,0,0,0],"split_type":[0,0,0,0,0,0,0,0,0,0,0,0,0,0,0,0,0,0,0,0,0,0,0,0,0,0,0,0,0,0,0],"sum_hessian":[1.8862E4,1.901E3,1.6961E4,1.248E3,6.53E2,1.3379E4,3.582E3,3.27E2,9.21E2,2.28E2,4.25E2,1.0779E4,2.6E3,1.942E3,1.64E3,2.2E1,3.05E2,7.18E2,2.03E2,9E1,1.38E2,3.24E2,1.01E2,8.09E3,2.689E3,4.73E2,2.127E3,1.046E3,8.96E2,1.027E3,6.13E2],"tree_param":{"num_deleted":"0","num_feature":"2","num_nodes":"31","size_leaf_vector":"1"}},{"base_weights":[-1.1626189E-3,-1.092403E0,1.7671905E-1,-1.3245362E0,-6.493608E-1,6.657732E-1,-4.9167123E-1,-1.4685495E0,-1.136291E0,-1.759442E-1,-1.0398852E0,1.07662395E-1,9.185382E-1,-2.7422884E-1,-1.6826183E0,-1.274322E-1,-1.5456933E-1,-1.0178242E-1,-1.2190584E-1,-1.0662124E-1,-4.6967634E-5,-8.005103E-2,-1.3301872E-1,8.5941E-2,-7.1304105E-2,1.0664642E-1,4.034466E-2,-1.4344393E-1,-1.0126957E-2,-1.4636528E-1,-3.2076052E-1],"categories":[],"categories_nodes":[],"categories_segments":[],"categories_sizes":[],"default_left":[0,0,0,0,0,0,0,0,0,0,0,0,0,0,0,0,0,0,0,0,0,0,0,0,0,0,0,0,0,0,0],"id":20,"left_children":[1,3,5,7,9,11,13,15,17,19,21,23,25,27,29,-1,-1,-1,-1,-1,-1,-1,-1,-1,-1,-1,-1,-1,-1,-1,-1],"loss_changes":[3.6617214E3,2.7106152E2,5.3023057E3,4.5339844E1,1.6824338E2,1.321312E3,1.7744668E3,1.2698975E1,6.171936E0,6.451811E1,3.3611206E1,1.8027583E3,4.9080176E2,1.1631338E3,3.4859155E2,0E0,0E0,0E0,0E0,0E0,0E0,0E0,0E0,0E0,0E0,0E0,0E0,0E0,0E0,0E0,0E0],"parents":[2147483647,0,0,1,1,2,2,3,3,4,4,5,5,6,6,7,7,8,8,9,9,10,10,11,11,12,12,13,13,14,14],"right_children":[2,4,6,8,10,12,14,16,18,20,22,24,26,28,30,-1,-1,-1,-1,-1,-1,-1,-1,-1,-1,-1,-1,-1,-1,-1,-1],"split_conditions":[5E0,3E0,1.8E1,5E0,5E0,1E1,2.3E1,2E0,1E0,4E0,7E0,5E0,7E0,2E0,7E0,-1.274322E-1,-1.5456933E-1,-1.0178242E-1,-1.2190584E-1,-1.0662124E-1,-4.6967634E-5,-8.005103E-2,-1.3301872E-1,8.5941E-2,-7.1304105E-2,1.0664642E-1,4.034466E-2,-1.4344393E-1,-1.0126957E-2,-1.4636528E-1,-3.2076052E-1],"split_indices":[1,1,1,0,0,1,1,0,1,1,0,0,0,0,0,0,0,0,0,0,0,0,0,0,0,0,0,0,0,0,0],"split_type":[0,0,0,0,0,0,0,0,0,0,0,0,0,0,0,0,0,0,0,0,0,0,0,0,0,0,0,0,0,0,0],"sum_hessian":[1.8862E4,2.643E3,1.6219E4,1.733E3,9.1E2,9.366E3,6.853E3,9.78E2,7.55E2,4.12E2,4.98E2,2.92E3,6.446E3,5.796E3,1.057E3,2.83E2,6.95E2,3.16E2,4.39E2,6.7E1,3.45E2,2.75E2,2.23E2,1.524E3,1.396E3,5.007E3,1.439E3,7.51E2,5.045E3,9.26E2,1.31E2],"tree_param":{"num_deleted":"0","num_feature":"2","num_nodes":"31","size_leaf_vector":"1"}},{"base_weights":[-1.1142264E-3,-9.834749E-1,1.5901911E-1,-1.1923742E0,-5.847756E-1,4.9578544E-1,-6.4420736E-1,-1.2952261E0,-9.7037923E-1,-1.586081E-1,-9.363236E-1,7.413742E-1,1.08324565E-1,-1.1767979E0,-3.8433887E-2,-1.1473385E-1,-1.3405041E-1,-8.6811215E-2,-1.21398546E-1,-9.611596E-2,-4.2280022E-5,-7.207489E-2,-1.1977625E-1,9.0875365E-2,2.7980665E-2,-2.5456667E-1,3.0839315E-2,-4.0280733E-2,-1.4183879E-1,1.00741446E-1,-1.8686214E-1],"categories":[],"categories_nodes":[],"categories_segments":[],"categories_sizes":[],"default_left":[0,0,0,0,0,0,0,0,0,0,0,0,0,0,0,0,0,0,0,0,0,0,0,0,0,0,0,0,0,0,0],"id":21,"left_children":[1,3,5,7,9,11,13,15,17,19,21,23,25,27,29,-1,-1,-1,-1,-1,-1,-1,-1,-1,-1,-1,-1,-1,-1,-1,-1],"loss_changes":[2.9674702E3,2.1951611E2,4.3878237E3,3.8335205E1,1.36336E2,1.0874578E3,1.5459939E3,6.376587E0,1.2722961E1,5.24307E1,2.7260132E1,5.4015796E2,2.3556826E3,4.7624927E2,4.295205E3,0E0,0E0,0E0,0E0,0E0,0E0,0E0,0E0,0E0,0E0,0E0,0E0,0E0,0E0,0E0,0E0],"parents":[2147483647,0,0,1,1,2,2,3,3,4,4,5,5,6,6,7,7,8,8,9,9,10,10,11,11,12,12,13,13,14,14],"right_children":[2,4,6,8,10,12,14,16,18,20,22,24,26,28,30,-1,-1,-1,-1,-1,-1,-1,-1,-1,-1,-1,-1,-1,-1,-1,-1],"split_conditions":[5E0,3E0,2E1,6E0,5E0,6E0,5E0,2E0,2E0,4E0,7E0,1.7E1,7E0,2.1E1,7E0,-1.1473385E-1,-1.3405041E-1,-8.6811215E-2,-1.21398546E-1,-9.611596E-2,-4.2280022E-5,-7.207489E-2,-1.1977625E-1,9.0875365E-2,2.7980665E-2,-2.5456667E-1,3.0839315E-2,-4.0280733E-2,-1.4183879E-1,1.00741446E-1,-1.8686214E-1],"split_indices":[1,1,1,0,0,0,0,0,1,1,0,1,1,1,0,0,0,0,0,0,0,0,0,0,0,0,0,0,0,0,0],"split_type":[0,0,0,0,0,0,0,0,0,0,0,0,0,0,0,0,0,0,0,0,0,0,0,0,0,0,0,0,0,0,0],"sum_hessian":[1.8862E4,2.643E3,1.6219E4,1.733E3,9.1E2,1.1428E4,4.791E3,1.181E3,5.52E2,4.12E2,4.98E2,6.994E3,4.434E3,2.549E3,2.242E3,2.83E2,8.98E2,3.92E2,1.6E2,6.7E1,3.45E2,2.75E2,2.23E2,5.132E3,1.862E3,3.1E2,4.124E3,6.07E2,1.942E3,1.427E3,8.15E2],"tree_param":{"num_deleted":"0","num_feature":"2","num_nodes":"31","size_leaf_vector":"1"}},{"base_weights":[-1.0622725E-3,1.3439779E-1,-9.814614E-1,-8.8540924E-1,3.2793993E-1,-1.9325832E0,-6.4492726E-1,-1.0734005E0,-5.266143E-1,5.842726E-1,-6.134476E-2,-1.6233085E-1,-2.2243674E0,-2.3055525E-1,-2.211632E0,-1.1936529E-1,-9.162568E-2,4.633022E-2,-6.645444E-2,2.8096426E-2,1.2603989E-1,-8.7188944E-2,7.2677755E-3,-2.0684767E-1,-2.3799716E-1,-7.725801E-2,1.2031969E-1,-1.9103698E-1,-2.7038282E-1],"categories":[],"categories_nodes":[],"categories_segments":[],"categories_sizes":[],"default_left":[0,0,0,0,0,0,0,0,0,0,0,0,0,0,0,0,0,0,0,0,0,0,0,0,0,0,0,0,0],"id":22,"left_children":[1,3,5,7,9,11,13,15,17,19,21,-1,23,25,27,-1,-1,-1,-1,-1,-1,-1,-1,-1,-1,-1,-1,-1,-1],"loss_changes":[2.5052312E3,3.271594E3,7.317483E2,1.7777344E2,1.39016E3,5.0353516E1,1.0985833E3,3.1673462E1,1.2469513E2,1.7222744E3,6.0101135E2,0E0,2.475586E0,1.042283E3,4.7325928E1,0E0,0E0,0E0,0E0,0E0,0E0,0E0,0E0,0E0,0E0,0E0,0E0,0E0,0E0],"parents":[2147483647,0,0,1,1,2,2,3,3,4,4,5,5,6,6,7,7,8,8,9,9,10,10,12,12,13,13,14,14],"right_children":[2,4,6,8,10,12,14,16,18,20,22,-1,24,26,28,-1,-1,-1,-1,-1,-1,-1,-1,-1,-1,-1,-1,-1,-1],"split_conditions":[2.2E1,5E0,3E0,3E0,1.7E1,2.3E1,7E0,5E0,2E0,1.4E1,2E0,-1.6233085E-1,2E0,6E0,2.3E1,-1.1936529E-1,-9.162568E-2,4.633022E-2,-6.645444E-2,2.8096426E-2,1.2603989E-1,-8.7188944E-2,7.2677755E-3,-2.0684767E-1,-2.3799716E-1,-7.725801E-2,1.2031969E-1,-1.9103698E-1,-2.7038282E-1],"split_indices":[1,1,0,1,1,1,0,0,0,1,0,0,0,0,1,0,0,0,0,0,0,0,0,0,0,0,0,0,0],"split_type":[0,0,0,0,0,0,0,0,0,0,0,0,0,0,0,0,0,0,0,0,0,0,0,0,0,0,0,0,0],"sum_hessian":[1.8862E4,1.6573E4,2.289E3,2.643E3,1.393E4,5.97E2,1.692E3,1.733E3,9.1E2,8.399E3,5.531E3,2.93E2,3.04E2,1.339E3,3.53E2,9.78E2,7.55E2,1.11E2,7.99E2,5.799E3,2.6E3,7.84E2,4.747E3,1.59E2,1.45E2,9.72E2,3.67E2,2.22E2,1.31E2],"tree_param":{"num_deleted":"0","num_feature":"2","num_nodes":"29","size_leaf_vector":"1"}},{"base_weights":[-1.018827E-3,1.2094842E-1,-8.83763E-1,-7.9695565E-1,2.9515108E-1,-1.5032492E0,-4.450327E-1,-9.661821E-1,-4.7397473E-1,4.4431823E-1,-3.2152244E-1,-1.7403404E0,-1.09619275E-1,1.0905308E-1,-1.9917722E0,-1.0514138E-1,-7.82258E-2,-1.8321177E-2,-8.584716E-2,6.884428E-2,7.4942666E-3,-2.4845229E-1,-1.5494428E-2,-1.4615302E-1,-2.0033894E-1,-4.6746906E-2,1.0832045E-1,-1.7201893E-1,-2.4354935E-1],"categories":[],"categories_nodes":[],"categories_segments":[],"categories_sizes":[],"default_left":[0,0,0,0,0,0,0,0,0,0,0,0,0,0,0,0,0,0,0,0,0,0,0,0,0,0,0,0,0],"id":23,"left_children":[1,3,5,7,9,11,13,15,17,19,21,23,-1,25,27,-1,-1,-1,-1,-1,-1,-1,-1,-1,-1,-1,-1,-1,-1],"loss_changes":[2.0310084E3,2.6504402E3,6.21724E2,1.4405505E2,1.2816195E3,8.967969E1,1.1503466E3,2.6359741E1,1.01690186E2,1.01151636E3,9.7749255E2,4.092981E1,0E0,5.559483E2,3.8470093E1,0E0,0E0,0E0,0E0,0E0,0E0,0E0,0E0,0E0,0E0,0E0,0E0,0E0,0E0],"parents":[2147483647,0,0,1,1,2,2,3,3,4,4,5,5,6,6,7,7,8,8,9,9,10,10,11,11,13,13,14,14],"right_children":[2,4,6,8,10,12,14,16,18,20,22,24,-1,26,28,-1,-1,-1,-1,-1,-1,-1,-1,-1,-1,-1,-1,-1,-1],"split_conditions":[2.2E1,5E0,4E0,3E0,7E0,3E0,7E0,6E0,6E0,1.7E1,8E0,2.3E1,-1.09619275E-1,6E0,2.3E1,-1.0514138E-1,-7.82258E-2,-1.8321177E-2,-8.584716E-2,6.884428E-2,7.4942666E-3,-2.4845229E-1,-1.5494428E-2,-1.4615302E-1,-2.0033894E-1,-4.6746906E-2,1.0832045E-1,-1.7201893E-1,-2.4354935E-1],"split_indices":[1,1,0,1,0,0,0,0,0,1,1,1,0,0,1,0,0,0,0,0,0,0,0,0,0,0,0,0,0],"split_type":[0,0,0,0,0,0,0,0,0,0,0,0,0,0,0,0,0,0,0,0,0,0,0,0,0,0,0,0,0],"sum_hessian":[1.8862E4,1.6573E4,2.289E3,2.643E3,1.393E4,9.48E2,1.341E3,1.733E3,9.1E2,1.1217E4,2.713E3,5.97E2,3.51E2,9.88E2,3.53E2,1.181E3,5.52E2,5.19E2,3.91E2,6.753E3,4.464E3,1.93E2,2.52E3,2.93E2,3.04E2,6.21E2,3.67E2,2.22E2,1.31E2],"tree_param":{"num_deleted":"0","num_feature":"2","num_nodes":"29","size_leaf_vector":"1"}},{"base_weights":[-9.847891E-4,7.305776E-2,-1.2471102E0,-7.173689E-1,2.1088108E-1,-1.4807684E0,-6.9625366E-1,-8.486633E-1,-3.8030386E-1,4.5155343E-1,-1.7804231E-1,-1.8037072E0,-1.2525102E0,3.7025683E-2,-2.1937893E-1,-9.421944E-2,-6.6874124E-2,1.3554816E-1,-5.5434693E-2,1.50573E-2,8.046643E-2,-6.287489E-2,1.2438506E-2,-1.663835E-1,-1.9446377E-1,-8.62909E-2,-1.7708363E-1],"categories":[],"categories_nodes":[],"categories_segments":[],"categories_sizes":[],"default_left":[0,0,0,0,0,0,0,0,0,0,0,0,0,0,0,0,0,0,0,0,0,0,0,0,0,0,0],"id":24,"left_children":[1,3,5,7,9,11,13,15,17,19,21,23,25,-1,-1,-1,-1,-1,-1,-1,-1,-1,-1,-1,-1,-1,-1],"loss_changes":[1.7405105E3,1.9399231E3,1.3514648E2,1.1668677E2,1.4193843E3,5.2436157E1,5.0710483E2,3.1377441E1,2.2521274E2,9.953983E2,7.9024414E2,2.7766724E0,8.6921936E1,0E0,0E0,0E0,0E0,0E0,0E0,0E0,0E0,0E0,0E0,0E0,0E0,0E0,0E0],"parents":[2147483647,0,0,1,1,2,2,3,3,4,4,5,5,6,6,7,7,8,8,9,9,10,10,11,11,12,12],"right_children":[2,4,6,8,10,12,14,16,18,20,22,24,26,-1,-1,-1,-1,-1,-1,-1,-1,-1,-1,-1,-1,-1,-1],"split_conditions":[2.3E1,5E0,6E0,4E0,1.8E1,3E0,7E0,6E0,2E0,1.3E1,4E0,2E0,5E0,3.7025683E-2,-2.1937893E-1,-9.421944E-2,-6.6874124E-2,1.3554816E-1,-5.5434693E-2,1.50573E-2,8.046643E-2,-6.287489E-2,1.2438506E-2,-1.663835E-1,-1.9446377E-1,-8.62909E-2,-1.7708363E-1],"split_indices":[1,1,0,1,1,0,0,0,0,1,0,0,0,0,0,0,0,0,0,0,0,0,0,0,0,0,0],"split_type":[0,0,0,0,0,0,0,0,0,0,0,0,0,0,0,0,0,0,0,0,0,0,0,0,0,0,0],"sum_hessian":[1.8862E4,1.7805E4,1.057E3,2.643E3,1.5162E4,7.41E2,3.16E2,1.901E3,7.42E2,9.366E3,5.796E3,3.04E2,4.37E2,1.85E2,1.31E2,1.248E3,6.53E2,6.7E1,6.75E2,5.057E3,4.309E3,2.327E3,3.469E3,1.59E2,1.45E2,2.51E2,1.86E2],"tree_param":{"num_deleted":"0","num_feature":"2","num_nodes":"27","size_leaf_vector":"1"}},{"base_weights":[-9.310229E-4,6.574991E-2,-1.1231614E0,-6.456627E-1,1.897959E-1,-1.3335328E0,-6.272034E-1,-7.842097E-1,-3.8124323E-1,3.3636758E-1,-4.207179E-1,-1.6245197E0,-1.1278603E0,3.3343043E-2,-1.9760723E-1,-8.752524E-2,-6.6527456E-2,-5.811277E-3,-6.4791985E-2,5.7930674E-2,3.6614698E-3,-1.312263E-2,-1.3718338E-1,-1.4984915E-1,-1.7515062E-1,-7.769606E-2,-1.5946993E-1],"categories":[],"categories_nodes":[],"categories_segments":[],"categories_sizes":[],"default_left":[0,0,0,0,0,0,0,0,0,0,0,0,0,0,0,0,0,0,0,0,0,0,0,0,0,0,0],"id":25,"left_children":[1,3,5,7,9,11,13,15,17,19,21,23,25,-1,-1,-1,-1,-1,-1,-1,-1,-1,-1,-1,-1,-1,-1],"loss_changes":[1.411618E3,1.5714645E3,1.09550415E2,9.656262E1,1.356988E3,4.257495E1,4.1141772E2,1.8193726E1,7.846443E1,8.9044275E2,8.082183E2,2.2565308E0,7.051141E1,0E0,0E0,0E0,0E0,0E0,0E0,0E0,0E0,0E0,0E0,0E0,0E0,0E0,0E0],"parents":[2147483647,0,0,1,1,2,2,3,3,4,4,5,5,6,6,7,7,8,8,9,9,10,10,11,11,12,12],"right_children":[2,4,6,8,10,12,14,16,18,20,22,24,26,-1,-1,-1,-1,-1,-1,-1,-1,-1,-1,-1,-1,-1,-1],"split_conditions":[2.3E1,5E0,6E0,3E0,7E0,3E0,7E0,5E0,5E0,1.7E1,2E1,2E0,5E0,3.3343043E-2,-1.9760723E-1,-8.752524E-2,-6.6527456E-2,-5.811277E-3,-6.4791985E-2,5.7930674E-2,3.6614698E-3,-1.312263E-2,-1.3718338E-1,-1.4984915E-1,-1.7515062E-1,-7.769606E-2,-1.5946993E-1],"split_indices":[1,1,0,1,0,0,0,0,0,1,1,0,0,0,0,0,0,0,0,0,0,0,0,0,0,0,0],"split_type":[0,0,0,0,0,0,0,0,0,0,0,0,0,0,0,0,0,0,0,0,0,0,0,0,0,0,0],"sum_hessian":[1.8862E4,1.7805E4,1.057E3,2.643E3,1.5162E4,7.41E2,3.16E2,1.733E3,9.1E2,1.2227E4,2.935E3,3.04E2,4.37E2,1.85E2,1.31E2,9.78E2,7.55E2,4.12E2,4.98E2,6.753E3,5.474E3,2.251E3,6.84E2,1.59E2,1.45E2,2.51E2,1.86E2],"tree_param":{"num_deleted":"0","num_feature":"2","num_nodes":"27","size_leaf_vector":"1"}},{"base_weights":[-8.928453E-4,1.1935974E-1,-5.1375324E-1,-3.1575862E-1,3.6847264E-1,-1.0044346E0,6.754326E-2,-3.676533E-3,-6.5892977E-1,6.438665E-1,1.2368218E-2,-1.2582529E0,-7.07052E-1,9.4463074E-1,-1.4010454E0,-7.86589E-2,4.3425404E-2,-8.0749415E-2,3.5967506E-2,3.5717655E-2,9.6106105E-2,-6.0857035E-2,1.1174898E-2,-1.1724564E-1,-1.4631334E-1,-4.45949E-2,-8.1700206E-2,1.8017934E-1,-5.7176847E-2,-1.29459E-1,-1.7799623E-1],"categories":[],"categories_nodes":[],"categories_segments":[],"categories_sizes":[],"default_left":[0,0,0,0,0,0,0,0,0,0,0,0,0,0,0,0,0,0,0,0,0,0,0,0,0,0,0,0,0,0,0],"id":26,"left_children":[1,3,5,7,9,11,13,15,17,19,21,23,25,27,29,-1,-1,-1,-1,-1,-1,-1,-1,-1,-1,-1,-1,-1,-1,-1,-1],"loss_changes":[1.1633951E3,1.6564788E3,1.0220518E3,5.958885E2,9.5302637E2,1.4577026E2,2.1150642E3,9.9978217E2,4.013108E2,4.9798853E2,2.6165393E2,1.668872E1,2.5386993E1,1.3372253E3,2.2463135E1,0E0,0E0,0E0,0E0,0E0,0E0,0E0,0E0,0E0,0E0,0E0,0E0,0E0,0E0,0E0,0E0],"parents":[2147483647,0,0,1,1,2,2,3,3,4,4,5,5,6,6,7,7,8,8,9,9,10,10,11,11,12,12,13,13,14,14],"right_children":[2,4,6,8,10,12,14,16,18,20,22,24,26,28,30,-1,-1,-1,-1,-1,-1,-1,-1,-1,-1,-1,-1,-1,-1,-1,-1],"split_conditions":[2.1E1,1E1,5E0,5E0,1.7E1,3E0,7E0,4E0,9E0,1.4E1,2E0,2.3E1,2.2E1,2.3E1,2.3E1,-7.86589E-2,4.3425404E-2,-8.0749415E-2,3.5967506E-2,3.5717655E-2,9.6106105E-2,-6.0857035E-2,1.1174898E-2,-1.1724564E-1,-1.4631334E-1,-4.45949E-2,-8.1700206E-2,1.8017934E-1,-5.7176847E-2,-1.29459E-1,-1.7799623E-1],"split_indices":[1,1,0,0,1,0,0,1,1,1,0,1,1,1,1,0,0,0,0,0,0,0,0,0,0,0,0,0,0,0,0],"split_type":[0,0,0,0,0,0,0,0,0,0,0,0,0,0,0,0,0,0,0,0,0,0,0,0,0,0,0,0,0,0,0],"sum_hessian":[1.8862E4,1.528E4,3.582E3,5.563E3,9.717E3,1.942E3,1.64E3,2.914E3,2.649E3,5.479E3,4.238E3,1.046E3,8.96E2,1.027E3,6.13E2,1.045E3,1.869E3,2.312E3,3.37E2,2.879E3,2.6E3,5.84E2,3.654E3,7.42E2,3.04E2,2.67E2,6.29E2,6.56E2,3.71E2,4.82E2,1.31E2],"tree_param":{"num_deleted":"0","num_feature":"2","num_nodes":"31","size_leaf_vector":"1"}},{"base_weights":[-8.3367986E-4,8.246395E-2,-6.0370445E-1,-5.174916E-1,1.9632512E-1,-9.782092E-1,-1.7125991E-1,-6.263539E-1,-3.0971467E-1,3.1730503E-1,-3.0380344E-1,-1.2323427E0,-7.3543143E-1,4.4781676E-1,-1.4141759E0,-7.092382E-2,-5.1819246E-2,4.0215645E-2,-4.089895E-2,-1.5196025E-2,4.0311884E-2,-1.7020735E-1,-1.1220458E-2,-1.1400155E-1,-1.3172995E-1,-8.114411E-2,-6.181969E-2,1.4996561E-1,-5.1474553E-2,-1.2958778E-1,-1.6033146E-1],"categories":[],"categories_nodes":[],"categories_segments":[],"categories_sizes":[],"default_left":[0,0,0,0,0,0,0,0,0,0,0,0,0,0,0,0,0,0,0,0,0,0,0,0,0,0,0,0,0,0,0],"id":27,"left_children":[1,3,5,7,9,11,13,15,17,19,21,23,25,27,29,-1,-1,-1,-1,-1,-1,-1,-1,-1,-1,-1,-1,-1,-1,-1,-1],"loss_changes":[9.4730646E2,1.1322988E3,3.7070374E2,5.961084E1,8.429987E2,7.479712E1,8.1933905E2,1.5177551E1,6.4545654E1,4.518037E2,7.2690845E2,3.1889038E0,5.1122437E0,7.206317E2,5.8430176E0,0E0,0E0,0E0,0E0,0E0,0E0,0E0,0E0,0E0,0E0,0E0,0E0,0E0,0E0,0E0,0E0],"parents":[2147483647,0,0,1,1,2,2,3,3,4,4,5,5,6,6,7,7,8,8,9,9,10,10,11,11,12,12,13,13,14,14],"right_children":[2,4,6,8,10,12,14,16,18,20,22,24,26,28,30,-1,-1,-1,-1,-1,-1,-1,-1,-1,-1,-1,-1,-1,-1,-1,-1],"split_conditions":[2.2E1,5E0,5E0,3E0,7E0,3E0,7E0,5E0,2E0,2E0,9E0,2.3E1,2.3E1,2.3E1,2.3E1,-7.092382E-2,-5.1819246E-2,4.0215645E-2,-4.089895E-2,-1.5196025E-2,4.0311884E-2,-1.7020735E-1,-1.1220458E-2,-1.1400155E-1,-1.3172995E-1,-8.114411E-2,-6.181969E-2,1.4996561E-1,-5.1474553E-2,-1.2958778E-1,-1.6033146E-1],"split_indices":[1,1,0,1,0,0,0,0,0,0,1,1,1,1,1,0,0,0,0,0,0,0,0,0,0,0,0,0,0,0,0],"split_type":[0,0,0,0,0,0,0,0,0,0,0,0,0,0,0,0,0,0,0,0,0,0,0,0,0,0,0,0,0,0,0],"sum_hessian":[1.8862E4,1.6573E4,2.289E3,2.643E3,1.393E4,1.226E3,1.063E3,1.733E3,9.1E2,1.1217E4,2.713E3,5.97E2,6.29E2,7.1E2,3.53E2,9.78E2,7.55E2,1.11E2,7.99E2,1.734E3,9.483E3,3.26E2,2.387E3,2.93E2,3.04E2,3.78E2,2.51E2,3.39E2,3.71E2,2.22E2,1.31E2],"tree_param":{"num_deleted":"0","num_feature":"2","num_nodes":"31","size_leaf_vector":"1"}},{"base_weights":[-7.9582474E-4,1.0026946E-1,-4.3182507E-1,-2.6348692E-1,3.0852634E-1,-8.5175943E-1,6.565468E-2,-5.6627624E-2,-6.607791E-1,5.5619735E-1,-1.1725091E-2,-1.0692123E0,-5.969937E-1,8.069797E-1,-1.1756284E0,-6.261619E-2,2.3831641E-2,-8.1711136E-2,3.8704235E-2,2.986667E-2,8.411386E-2,-5.3264737E-2,7.1654185E-3,-1.01983145E-1,-1.1860017E-1,-4.4168204E-2,-6.6211514E-2,1.5250586E-1,-4.6340935E-2,-1.09979644E-1,-1.4441979E-1],"categories":[],"categories_nodes":[],"categories_segments":[],"categories_sizes":[],"default_left":[0,0,0,0,0,0,0,0,0,0,0,0,0,0,0,0,0,0,0,0,0,0,0,0,0,0,0,0,0,0,0],"id":28,"left_children":[1,3,5,7,9,11,13,15,17,19,21,23,25,27,29,-1,-1,-1,-1,-1,-1,-1,-1,-1,-1,-1,-1,-1,-1,-1,-1],"loss_changes":[8.217551E2,1.1576898E3,7.485763E2,4.57232E2,7.708092E2,1.0700305E2,1.5109874E3,6.149588E2,3.1237115E2,4.0187732E2,1.8415541E2,4.8286133E0,8.779907E0,9.384889E2,1.0916443E1,0E0,0E0,0E0,0E0,0E0,0E0,0E0,0E0,0E0,0E0,0E0,0E0,0E0,0E0,0E0,0E0],"parents":[2147483647,0,0,1,1,2,2,3,3,4,4,5,5,6,6,7,7,8,8,9,9,10,10,11,11,12,12,13,13,14,14],"right_children":[2,4,6,8,10,12,14,16,18,20,22,24,26,28,30,-1,-1,-1,-1,-1,-1,-1,-1,-1,-1,-1,-1,-1,-1,-1,-1],"split_conditions":[2.1E1,1E1,5E0,6E0,1.7E1,3E0,7E0,4E0,9E0,1.4E1,2E0,2.3E1,2.2E1,2.3E1,2.3E1,-6.261619E-2,2.3831641E-2,-8.1711136E-2,3.8704235E-2,2.986667E-2,8.411386E-2,-5.3264737E-2,7.1654185E-3,-1.01983145E-1,-1.1860017E-1,-4.4168204E-2,-6.6211514E-2,1.5250586E-1,-4.6340935E-2,-1.09979644E-1,-1.4441979E-1],"split_indices":[1,1,0,0,1,0,0,1,1,1,0,1,1,1,1,0,0,0,0,0,0,0,0,0,0,0,0,0,0,0,0],"split_type":[0,0,0,0,0,0,0,0,0,0,0,0,0,0,0,0,0,0,0,0,0,0,0,0,0,0,0,0,0,0,0],"sum_hessian":[1.8862E4,1.528E4,3.582E3,5.563E3,9.717E3,1.942E3,1.64E3,3.659E3,1.904E3,5.479E3,4.238E3,1.046E3,8.96E2,1.027E3,6.13E2,1.248E3,2.411E3,1.657E3,2.47E2,2.879E3,2.6E3,5.84E2,3.654E3,7.42E2,3.04E2,2.67E2,6.29E2,6.56E2,3.71E2,4.82E2,1.31E2],"tree_param":{"num_deleted":"0","num_feature":"2","num_nodes":"31","size_leaf_vector":"1"}},{"base_weights":[-7.425539E-4,9.087485E-2,-3.905374E-1,-5.1343614E-1,1.5794066E-1,-1.9102651E-1,-1.0685426E0,-5.6359595E-1,-2.8623086E-1,3.5156277E-1,-1.1892003E-1,-8.295346E-1,9.086493E-2,-1.0222125E0,-1.3008724E-1,-4.661491E-2,-5.9765127E-2,-4.0091917E-2,8.407832E-2,6.2549575E-3,5.2947115E-2,-4.3809544E-2,4.4969413E-2,-4.401748E-2,-1.450926E-1,2.9666206E-2,-2.0040806E-2,-1.0937146E-1,-9.9004455E-2],"categories":[],"categories_nodes":[],"categories_segments":[],"categories_sizes":[],"default_left":[0,0,0,0,0,0,0,0,0,0,0,0,0,0,0,0,0,0,0,0,0,0,0,0,0,0,0,0,0],"id":29,"left_children":[1,3,5,7,9,11,13,15,17,19,21,23,25,27,-1,-1,-1,-1,-1,-1,-1,-1,-1,-1,-1,-1,-1,-1,-1],"loss_changes":[6.7367084E2,6.1911487E2,4.8541302E2,1.7229858E1,7.370756E2,4.9954755E2,7.4535522E0,3.8663025E0,3.627006E1,4.1598895E2,1.0272357E3,2.0501447E2,1.1550996E2,4.9273682E-1,0E0,0E0,0E0,0E0,0E0,0E0,0E0,0E0,0E0,0E0,0E0,0E0,0E0,0E0,0E0],"parents":[2147483647,0,0,1,1,2,2,3,3,4,4,5,5,6,6,7,7,8,8,9,9,10,10,11,11,12,12,13,13],"right_children":[2,4,6,8,10,12,14,16,18,20,22,24,26,28,-1,-1,-1,-1,-1,-1,-1,-1,-1,-1,-1,-1,-1,-1,-1],"split_conditions":[7E0,4E0,2E1,6E0,1.8E1,9E0,2.3E1,2E0,3E0,1E1,5E0,5E0,1.6E1,2.1E1,-1.3008724E-1,-4.661491E-2,-5.9765127E-2,-4.0091917E-2,8.407832E-2,6.2549575E-3,5.2947115E-2,-4.3809544E-2,4.4969413E-2,-4.401748E-2,-1.450926E-1,2.9666206E-2,-2.0040806E-2,-1.0937146E-1,-9.9004455E-2],"split_indices":[0,1,1,0,1,1,1,0,1,1,0,1,1,1,0,0,0,0,0,0,0,0,0,0,0,0,0,0,0],"split_type":[0,0,0,0,0,0,0,0,0,0,0,0,0,0,0,0,0,0,0,0,0,0,0,0,0,0,0,0,0],"sum_hessian":[1.8862E4,1.5273E4,3.589E3,1.525E3,1.3748E4,2.774E3,8.15E2,1.248E3,2.77E2,8.09E3,5.658E3,8.49E2,1.925E3,6.84E2,1.31E2,3.27E2,9.21E2,2.52E2,2.5E1,3.083E3,5.007E3,3.624E3,2.034E3,5.23E2,3.26E2,1.128E3,7.97E2,2.02E2,4.82E2],"tree_param":{"num_deleted":"0","num_feature":"2","num_nodes":"29","size_leaf_vector":"1"}},{"base_weights":[-6.9603673E-4,8.351547E-2,-3.598463E-1,-2.1447484E-1,2.5412E-1,-7.229667E-1,7.031992E-2,3.279574E-2,-4.8639154E-1,4.5455882E-1,-5.058828E-3,-9.1873395E-1,-4.9365643E-1,6.814592E-1,-9.5300496E-1,-5.2433144E-2,3.444119E-2,-5.9402086E-2,2.5157554E-2,2.2111852E-2,7.128647E-2,-4.6716448E-2,6.8904744E-3,-8.7423496E-2,-1.02412425E-1,-3.5403196E-2,-5.5226862E-2,1.3278836E-1,-4.6204172E-2,-8.912449E-2,-1.1717706E-1],"categories":[],"categories_nodes":[],"categories_segments":[],"categories_sizes":[],"default_left":[0,0,0,0,0,0,0,0,0,0,0,0,0,0,0,0,0,0,0,0,0,0,0,0,0,0,0,0,0,0,0],"id":30,"left_children":[1,3,5,7,9,11,13,15,17,19,21,23,25,27,29,-1,-1,-1,-1,-1,-1,-1,-1,-1,-1,-1,-1,-1,-1,-1,-1],"loss_changes":[5.705336E2,7.769175E2,5.59723E2,3.7412262E2,5.0484753E2,8.677051E1,1.0269209E3,5.062533E2,2.1063062E2,3.3028088E2,1.449169E2,4.0149536E0,7.1452637E0,7.604978E2,7.251343E0,0E0,0E0,0E0,0E0,0E0,0E0,0E0,0E0,0E0,0E0,0E0,0E0,0E0,0E0,0E0,0E0],"parents":[2147483647,0,0,1,1,2,2,3,3,4,4,5,5,6,6,7,7,8,8,9,9,10,10,11,11,12,12,13,13,14,14],"right_children":[2,4,6,8,10,12,14,16,18,20,22,24,26,28,30,-1,-1,-1,-1,-1,-1,-1,-1,-1,-1,-1,-1,-1,-1,-1,-1],"split_conditions":[2.1E1,1E1,5E0,5E0,1.7E1,3E0,7E0,4E0,9E0,1.4E1,2E0,2.3E1,2.2E1,2.3E1,2.3E1,-5.2433144E-2,3.444119E-2,-5.9402086E-2,2.5157554E-2,2.2111852E-2,7.128647E-2,-4.6716448E-2,6.8904744E-3,-8.7423496E-2,-1.02412425E-1,-3.5403196E-2,-5.5226862E-2,1.3278836E-1,-4.6204172E-2,-8.912449E-2,-1.1717706E-1],"split_indices":[1,1,0,0,1,0,0,1,1,1,0,1,1,1,1,0,0,0,0,0,0,0,0,0,0,0,0,0,0,0,0],"split_type":[0,0,0,0,0,0,0,0,0,0,0,0,0,0,0,0,0,0,0,0,0,0,0,0,0,0,0,0,0,0,0],"sum_hessian":[1.8862E4,1.528E4,3.582E3,5.563E3,9.717E3,1.942E3,1.64E3,2.914E3,2.649E3,5.479E3,4.238E3,1.046E3,8.96E2,1.027E3,6.13E2,1.045E3,1.869E3,2.312E3,3.37E2,2.879E3,2.6E3,5.84E2,3.654E3,7.42E2,3.04E2,2.67E2,6.29E2,6.56E2,3.71E2,4.82E2,1.31E2],"tree_param":{"num_deleted":"0","num_feature":"2","num_nodes":"31","size_leaf_vector":"1"}},{"base_weights":[-6.4768223E-4,7.884586E-2,-3.3886042E-1,1.21204734E-1,-5.7686496E-1,-1.7598172E-1,-8.923525E-1,-3.2797152E-1,1.9910641E-1,-8.349129E-1,4.5565363E-2,-5.2243143E-1,1.948843E-1,-8.596148E-1,-1.0554812E-1,-4.234513E-2,-1.2848618E-2,-1.931024E-2,2.7087385E-2,-6.8348244E-2,-1.2806909E-1,-6.8747126E-2,-2.8214762E-2,1.10855184E-1,-8.554431E-3,-9.9173844E-2,-8.023048E-2],"categories":[],"categories_nodes":[],"categories_segments":[],"categories_sizes":[],"default_left":[0,0,0,0,0,0,0,0,0,0,0,0,0,0,0,0,0,0,0,0,0,0,0,0,0,0,0],"id":31,"left_children":[1,3,5,7,9,11,13,15,17,19,-1,21,23,25,-1,-1,-1,-1,-1,-1,-1,-1,-1,-1,-1,-1,-1],"loss_changes":[5.071722E2,4.2430786E2,3.2348898E2,5.0212448E2,2.4736972E2,3.5665164E2,3.4505005E0,4.0343872E1,3.4424387E2,4.921289E1,0E0,5.6712982E1,3.436839E2,4.3911133E0,0E0,0E0,0E0,0E0,0E0,0E0,0E0,0E0,0E0,0E0,0E0,0E0,0E0],"parents":[2147483647,0,0,1,1,2,2,3,3,4,4,5,5,6,6,7,7,8,8,9,9,11,11,12,12,13,13],"right_children":[2,4,6,8,10,12,14,16,18,20,-1,22,24,26,-1,-1,-1,-1,-1,-1,-1,-1,-1,-1,-1,-1,-1],"split_conditions":[7E0,2.3E1,2E1,5E0,6E0,1.3E1,2.3E1,3E0,2E0,5E0,4.5565363E-2,9E0,1.5E1,2.1E1,-1.0554812E-1,-4.234513E-2,-1.2848618E-2,-1.931024E-2,2.7087385E-2,-6.8348244E-2,-1.2806909E-1,-6.8747126E-2,-2.8214762E-2,1.10855184E-1,-8.554431E-3,-9.9173844E-2,-8.023048E-2],"split_indices":[0,1,1,1,0,1,1,1,0,0,0,1,1,1,0,0,0,0,0,0,0,0,0,0,0,0,0],"split_type":[0,0,0,0,0,0,0,0,0,0,0,0,0,0,0,0,0,0,0,0,0,0,0,0,0,0,0],"sum_hessian":[1.8862E4,1.5273E4,3.589E3,1.4347E4,9.26E2,2.774E3,8.15E2,2.12E3,1.2227E4,7.41E2,1.85E2,1.434E3,1.34E3,6.84E2,1.31E2,1.433E3,6.87E2,1.891E3,1.0336E4,5.55E2,1.86E2,8.49E2,5.85E2,3.14E2,1.026E3,2.02E2,4.82E2],"tree_param":{"num_deleted":"0","num_feature":"2","num_nodes":"27","size_leaf_vector":"1"}},{"base_weights":[-6.085048E-4,7.094795E-2,-3.0505216E-1,1.0908059E-1,-5.1934123E-1,-1.5838148E-1,-8.0346644E-1,-2.952004E-1,1.7919597E-1,-7.5168633E-1,4.103331E-2,-4.702556E-1,1.754722E-1,-7.739151E-1,-9.50733E-2,-3.8113575E-2,-1.1565616E-2,3.0451452E-2,-1.9318097E-3,-6.152571E-2,-1.15330674E-1,1.0109991E-2,-5.3112544E-2,9.980487E-2,-7.6998174E-3,-8.930534E-2,-7.222402E-2],"categories":[],"categories_nodes":[],"categories_segments":[],"categories_sizes":[],"default_left":[0,0,0,0,0,0,0,0,0,0,0,0,0,0,0,0,0,0,0,0,0,0,0,0,0,0,0],"id":32,"left_children":[1,3,5,7,9,11,13,15,17,19,-1,21,23,25,-1,-1,-1,-1,-1,-1,-1,-1,-1,-1,-1,-1,-1],"loss_changes":[4.1095035E2,3.4386353E2,2.6231168E2,4.0676593E2,2.0054533E2,2.8901645E2,2.8153687E0,3.2681244E1,3.0420782E2,3.9946655E1,0E0,4.996054E1,2.7857068E2,3.5722046E0,0E0,0E0,0E0,0E0,0E0,0E0,0E0,0E0,0E0,0E0,0E0,0E0,0E0],"parents":[2147483647,0,0,1,1,2,2,3,3,4,4,5,5,6,6,7,7,8,8,9,9,11,11,12,12,13,13],"right_children":[2,4,6,8,10,12,14,16,18,20,-1,22,24,26,-1,-1,-1,-1,-1,-1,-1,-1,-1,-1,-1,-1,-1],"split_conditions":[7E0,2.3E1,2E1,5E0,6E0,1.3E1,2.3E1,3E0,1.8E1,5E0,4.103331E-2,1E0,1.5E1,2.1E1,-9.50733E-2,-3.8113575E-2,-1.1565616E-2,3.0451452E-2,-1.9318097E-3,-6.152571E-2,-1.15330674E-1,1.0109991E-2,-5.3112544E-2,9.980487E-2,-7.6998174E-3,-8.930534E-2,-7.222402E-2],"split_indices":[0,1,1,1,0,1,1,1,1,0,0,1,1,1,0,0,0,0,0,0,0,0,0,0,0,0,0],"split_type":[0,0,0,0,0,0,0,0,0,0,0,0,0,0,0,0,0,0,0,0,0,0,0,0,0,0,0],"sum_hessian":[1.8862E4,1.5273E4,3.589E3,1.4347E4,9.26E2,2.774E3,8.15E2,2.12E3,1.2227E4,7.41E2,1.85E2,1.434E3,1.34E3,6.84E2,1.31E2,1.433E3,6.87E2,7.495E3,4.732E3,5.55E2,1.86E2,1.38E2,1.296E3,3.14E2,1.026E3,2.02E2,4.82E2],"tree_param":{"num_deleted":"0","num_feature":"2","num_nodes":"27","size_leaf_vector":"1"}},{"base_weights":[-5.66671E-4,6.43832E-2,-2.7756876E-1,-1.7312637E-1,2.0036168E-1,-6.2314916E-1,1.3177942E-1,3.6223933E-2,-4.0334636E-1,3.6529002E-1,-1.2897947E-2,-7.9133965E-2,-4.2613852E-1,6.257999E-1,-6.955575E-1,-3.9515644E-2,2.7750075E-2,-4.931913E-2,2.126732E-2,1.605361E-2,5.9186667E-2,-4.0983934E-2,5.063792E-3,-4.892461E-2,-2.6267169E-2,1.1701804E-1,-3.373284E-2,-5.894364E-2,-7.718344E-2],"categories":[],"categories_nodes":[],"categories_segments":[],"categories_sizes":[],"default_left":[0,0,0,0,0,0,0,0,0,0,0,0,0,0,0,0,0,0,0,0,0,0,0,0,0,0,0,0,0],"id":33,"left_children":[1,3,5,7,9,11,13,15,17,19,21,-1,23,25,27,-1,-1,-1,-1,-1,-1,-1,-1,-1,-1,-1,-1,-1,-1],"loss_changes":[3.393868E2,4.9355276E2,5.06943E2,2.681806E2,3.4181158E2,6.404474E1,6.71147E2,3.0350894E2,1.467724E2,2.5413568E2,1.06928406E2,0E0,9.124939E0,5.3938354E2,4.515106E0,0E0,0E0,0E0,0E0,0E0,0E0,0E0,0E0,0E0,0E0,0E0,0E0,0E0,0E0],"parents":[2147483647,0,0,1,1,2,2,3,3,4,4,5,5,6,6,7,7,8,8,9,9,10,10,12,12,13,13,14,14],"right_children":[2,4,6,8,10,12,14,16,18,20,22,-1,24,26,28,-1,-1,-1,-1,-1,-1,-1,-1,-1,-1,-1,-1,-1,-1],"split_conditions":[2.1E1,1E1,5E0,5E0,1.7E1,3E0,7E0,4E0,9E0,1.4E1,2E0,-7.9133965E-2,2.3E1,2.3E1,2.2E1,-3.9515644E-2,2.7750075E-2,-4.931913E-2,2.126732E-2,1.605361E-2,5.9186667E-2,-4.0983934E-2,5.063792E-3,-4.892461E-2,-2.6267169E-2,1.1701804E-1,-3.373284E-2,-5.894364E-2,-7.718344E-2],"split_indices":[1,1,0,0,1,0,0,1,1,1,0,0,1,1,1,0,0,0,0,0,0,0,0,0,0,0,0,0,0],"split_type":[0,0,0,0,0,0,0,0,0,0,0,0,0,0,0,0,0,0,0,0,0,0,0,0,0,0,0,0,0],"sum_hessian":[1.8862E4,1.528E4,3.582E3,5.563E3,9.717E3,1.942E3,1.64E3,2.914E3,2.649E3,5.479E3,4.238E3,1.046E3,8.96E2,1.027E3,6.13E2,1.045E3,1.869E3,2.312E3,3.37E2,2.879E3,2.6E3,5.84E2,3.654E3,6.45E2,2.51E2,6.56E2,3.71E2,2.6E2,3.53E2],"tree_param":{"num_deleted":"0","num_feature":"2","num_nodes":"29","size_leaf_vector":"1"}},{"base_weights":[-5.2117975E-4,6.1660375E-2,-2.6507843E-1,1.0863057E-1,-2.618038E-1,-1.4517376E-1,-6.7251766E-1,-2.3377405E-1,1.7335972E-1,-4.6056244E-1,5.868724E-1,-4.0101078E-1,1.287049E-1,-8.092275E-2,-6.2622344E-1,-2.6361812E-3,-2.810781E-2,-1.295532E-2,2.2875624E-2,-6.2899284E-2,-2.0284371E-2,7.7048E-2,4.03071E-2,-9.947637E-3,-5.0797727E-2,8.627037E-2,-9.65515E-3,-5.3071853E-2,-6.948691E-2],"categories":[],"categories_nodes":[],"categories_segments":[],"categories_sizes":[],"default_left":[0,0,0,0,0,0,0,0,0,0,0,0,0,0,0,0,0,0,0,0,0,0,0,0,0,0,0,0,0],"id":34,"left_children":[1,3,5,7,9,11,13,15,17,19,21,23,25,-1,27,-1,-1,-1,-1,-1,-1,-1,-1,-1,-1,-1,-1,-1,-1],"loss_changes":[3.1032367E2,2.3208899E2,1.7528772E2,2.9565808E2,3.2700677E2,1.9449113E2,4.657593E0,2.080265E1,1.882713E2,6.802246E1,1.2108459E1,4.623404E1,2.2180145E2,0E0,3.6566162E0,0E0,0E0,0E0,0E0,0E0,0E0,0E0,0E0,0E0,0E0,0E0,0E0,0E0,0E0],"parents":[2147483647,0,0,1,1,2,2,3,3,4,4,5,5,6,6,7,7,8,8,9,9,10,10,11,11,12,12,14,14],"right_children":[2,4,6,8,10,12,14,16,18,20,22,24,26,-1,28,-1,-1,-1,-1,-1,-1,-1,-1,-1,-1,-1,-1,-1,-1],"split_conditions":[7E0,2.2E1,2E1,5E0,6E0,1.3E1,2.1E1,2E0,2E0,4E0,2.3E1,4E0,1.5E1,-8.092275E-2,2.2E1,-2.6361812E-3,-2.810781E-2,-1.295532E-2,2.2875624E-2,-6.2899284E-2,-2.0284371E-2,7.7048E-2,4.03071E-2,-9.947637E-3,-5.0797727E-2,8.627037E-2,-9.65515E-3,-5.3071853E-2,-6.948691E-2],"split_indices":[0,1,1,1,0,1,1,0,0,0,1,1,1,0,1,0,0,0,0,0,0,0,0,0,0,0,0,0,0],"split_type":[0,0,0,0,0,0,0,0,0,0,0,0,0,0,0,0,0,0,0,0,0,0,0,0,0,0,0,0,0],"sum_hessian":[1.8862E4,1.5273E4,3.589E3,1.3337E4,1.936E3,2.774E3,8.15E2,2.12E3,1.1217E4,1.569E3,3.67E2,1.434E3,1.34E3,2.02E2,6.13E2,3.94E2,1.726E3,1.734E3,9.483E3,9.48E2,6.21E2,1.82E2,1.85E2,3.76E2,1.058E3,3.14E2,1.026E3,2.6E2,3.53E2],"tree_param":{"num_deleted":"0","num_feature":"2","num_nodes":"29","size_leaf_vector":"1"}},{"base_weights":[-4.7805448E-4,5.5495508E-2,-2.3862283E-1,8.437948E-2,-3.916271E-1,-1.306507E-1,-6.05515E-1,-2.1041116E-1,1.355053E-1,-5.8025974E-1,3.629806E-2,-4.940901E-1,2.981355E-2,-7.287031E-2,-5.638005E-1,-2.7738858E-2,-7.0504197E-3,-1.6282162E-2,1.9009551E-2,-4.43135E-2,-9.848646E-2,-1.6136225E-2,-1.0257578E-1,1.8866966E-2,-1.9497134E-2,-5.224538E-2,-7.108208E-2],"categories":[],"categories_nodes":[],"categories_segments":[],"categories_sizes":[],"default_left":[0,0,0,0,0,0,0,0,0,0,0,0,0,0,0,0,0,0,0,0,0,0,0,0,0,0,0],"id":35,"left_children":[1,3,5,7,9,11,13,15,17,19,-1,21,23,-1,25,-1,-1,-1,-1,-1,-1,-1,-1,-1,-1,-1,-1],"loss_changes":[2.5145348E2,1.9729178E2,1.4213562E2,2.1627318E2,1.3216316E2,1.6185004E2,3.7823486E0,1.9855492E1,1.9917282E2,4.0730743E1,0E0,1.5020004E2,6.8811264E1,0E0,3.3609924E0,0E0,0E0,0E0,0E0,0E0,0E0,0E0,0E0,0E0,0E0,0E0,0E0],"parents":[2147483647,0,0,1,1,2,2,3,3,4,4,5,5,6,6,7,7,8,8,9,9,11,11,12,12,14,14],"right_children":[2,4,6,8,10,12,14,16,18,20,-1,22,24,-1,26,-1,-1,-1,-1,-1,-1,-1,-1,-1,-1,-1,-1],"split_conditions":[7E0,2.3E1,2E1,5E0,6E0,9E0,2.1E1,3E0,2E0,5E0,3.629806E-2,5E0,1.6E1,-7.287031E-2,2.3E1,-2.7738858E-2,-7.0504197E-3,-1.6282162E-2,1.9009551E-2,-4.43135E-2,-9.848646E-2,-1.6136225E-2,-1.0257578E-1,1.8866966E-2,-1.9497134E-2,-5.224538E-2,-7.108208E-2],"split_indices":[0,1,1,1,0,1,1,1,0,0,0,1,1,0,1,0,0,0,0,0,0,0,0,0,0,0,0],"split_type":[0,0,0,0,0,0,0,0,0,0,0,0,0,0,0,0,0,0,0,0,0,0,0,0,0,0,0],"sum_hessian":[1.8862E4,1.5273E4,3.589E3,1.4347E4,9.26E2,2.774E3,8.15E2,2.12E3,1.2227E4,7.41E2,1.85E2,8.49E2,1.925E3,2.02E2,6.13E2,1.433E3,6.87E2,1.891E3,1.0336E4,5.55E2,1.86E2,5.23E2,3.26E2,1.128E3,7.97E2,4.82E2,1.31E2],"tree_param":{"num_deleted":"0","num_feature":"2","num_nodes":"27","size_leaf_vector":"1"}},{"base_weights":[-4.539795E-4,6.1952822E-2,-1.8371525E-1,-1.3940312E-1,1.9361137E-1,-4.7969845E-1,1.5286112E-1,4.069852E-2,-3.3746234E-1,4.429703E-1,6.154719E-2,-5.356953E-1,-2.611212E-1,5.5164844E-1,-5.45204E-1,1.50019005E-2,-7.608931E-2,-4.118899E-2,1.7285844E-2,-2.6294727E-2,6.1911214E-2,7.983216E-2,3.1066525E-3,-6.5379195E-2,-4.820465E-2,4.220636E-2,-4.044284E-2,8.446602E-2,-2.823974E-2,-6.561918E-2,-5.0762143E-2],"categories":[],"categories_nodes":[],"categories_segments":[],"categories_sizes":[],"default_left":[0,0,0,0,0,0,0,0,0,0,0,0,0,0,0,0,0,0,0,0,0,0,0,0,0,0,0,0,0,0,0],"id":36,"left_children":[1,3,5,7,9,11,13,15,17,19,21,23,25,27,29,-1,-1,-1,-1,-1,-1,-1,-1,-1,-1,-1,-1,-1,-1,-1,-1],"loss_changes":[2.1574281E2,3.7307895E2,4.774569E2,1.98486E2,2.8018582E2,3.1071228E1,6.24706E2,2.5555669E2,1.0072333E2,3.664732E2,1.2492804E2,1.2540039E1,5.127725E1,3.4922064E2,3.0706024E0,0E0,0E0,0E0,0E0,0E0,0E0,0E0,0E0,0E0,0E0,0E0,0E0,0E0,0E0,0E0,0E0],"parents":[2147483647,0,0,1,1,2,2,3,3,4,4,5,5,6,6,7,7,8,8,9,9,10,10,11,11,12,12,13,13,14,14],"right_children":[2,4,6,8,10,12,14,16,18,20,22,24,26,28,30,-1,-1,-1,-1,-1,-1,-1,-1,-1,-1,-1,-1,-1,-1,-1,-1],"split_conditions":[2E1,1E1,5E0,5E0,4E0,4E0,7E0,9E0,9E0,1.2E1,1.1E1,2E0,2.1E1,2.3E1,2.1E1,1.50019005E-2,-7.608931E-2,-4.118899E-2,1.7285844E-2,-2.6294727E-2,6.1911214E-2,7.983216E-2,3.1066525E-3,-6.5379195E-2,-4.820465E-2,4.220636E-2,-4.044284E-2,8.446602E-2,-2.823974E-2,-6.561918E-2,-5.0762143E-2],"split_indices":[1,1,0,0,0,0,0,1,1,1,1,0,1,1,1,0,0,0,0,0,0,0,0,0,0,0,0,0,0,0,0],"split_type":[0,0,0,0,0,0,0,0,0,0,0,0,0,0,0,0,0,0,0,0,0,0,0,0,0,0,0,0,0,0,0],"sum_hessian":[1.8862E4,1.4071E4,4.791E3,5.563E3,8.508E3,2.549E3,2.242E3,2.914E3,2.649E3,2.945E3,5.563E3,2.028E3,5.21E2,1.427E3,8.15E2,2.565E3,3.49E2,2.312E3,3.37E2,5.88E2,2.357E3,2.2E2,5.343E3,6.3E2,1.398E3,9E1,4.31E2,1.056E3,3.71E2,2.02E2,6.13E2],"tree_param":{"num_deleted":"0","num_feature":"2","num_nodes":"31","size_leaf_vector":"1"}},{"base_weights":[-4.1593923E-4,7.390416E-2,-1.3064411E-1,-8.042174E-2,2.9761913E-1,-3.5963356E-1,2.6459249E-2,-2.9463416E-1,3.6260218E-3,9.951737E-1,9.440878E-2,-3.241923E-2,-4.8218188E-1,1.7475313E-1,-3.2954258E-1,1.4963952E-2,-1.2999205E-1,-2.0607669E-2,4.5581955E-2,6.232081E-2,1.4302233E-1,1.9054685E-2,-3.43551E-2,-3.5074793E-2,7.519742E-2,-5.885164E-2,-4.3387648E-2,-9.17071E-3,3.008527E-2,1.674851E-3,-4.908261E-2],"categories":[],"categories_nodes":[],"categories_segments":[],"categories_sizes":[],"default_left":[0,0,0,0,0,0,0,0,0,0,0,0,0,0,0,0,0,0,0,0,0,0,0,0,0,0,0,0,0,0,0],"id":37,"left_children":[1,3,5,7,9,11,13,15,17,19,21,23,25,27,29,-1,-1,-1,-1,-1,-1,-1,-1,-1,-1,-1,-1,-1,-1,-1,-1],"loss_changes":[1.825765E2,4.1466937E2,2.4658228E2,1.2797403E2,6.949078E2,1.1182202E2,2.1471349E2,8.947788E2,4.8427655E2,1.7808545E2,1.5997874E2,1.902816E2,1.0166718E1,9.649467E1,6.680606E1,0E0,0E0,0E0,0E0,0E0,0E0,0E0,0E0,0E0,0E0,0E0,0E0,0E0,0E0,0E0,0E0],"parents":[2147483647,0,0,1,1,2,2,3,3,4,4,5,5,6,6,7,7,8,8,9,9,10,10,11,11,12,12,13,13,14,14],"right_children":[2,4,6,8,10,12,14,16,18,20,22,24,26,28,30,-1,-1,-1,-1,-1,-1,-1,-1,-1,-1,-1,-1,-1,-1,-1,-1],"split_conditions":[1.8E1,1.2E1,4E0,3E0,3E0,2E1,7E0,9E0,9E0,2E0,1.7E1,3E0,2E0,2E1,2E1,1.4963952E-2,-1.2999205E-1,-2.0607669E-2,4.5581955E-2,6.232081E-2,1.4302233E-1,1.9054685E-2,-3.43551E-2,-3.5074793E-2,7.519742E-2,-5.885164E-2,-4.3387648E-2,-9.17071E-3,3.008527E-2,1.674851E-3,-4.908261E-2],"split_indices":[1,1,0,0,0,1,0,1,1,0,1,0,0,1,1,0,0,0,0,0,0,0,0,0,0,0,0,0,0,0,0],"split_type":[0,0,0,0,0,0,0,0,0,0,0,0,0,0,0,0,0,0,0,0,0,0,0,0,0,0,0,0,0,0,0],"sum_hessian":[1.8862E4,1.2009E4,6.853E3,7.107E3,4.902E3,2.788E3,4.065E3,2.002E3,5.105E3,1.105E3,3.797E3,7.6E2,2.028E3,2.87E3,1.195E3,1.389E3,6.13E2,3.488E3,1.617E3,5.97E2,5.08E2,3.114E3,6.83E2,5.41E2,2.19E2,6.3E2,1.398E3,9.22E2,1.948E3,3.8E2,8.15E2],"tree_param":{"num_deleted":"0","num_feature":"2","num_nodes":"31","size_leaf_vector":"1"}},{"base_weights":[-3.7374516E-4,4.4110402E-2,-1.8963572E-1,1.16987936E-1,-7.973382E-2,-1.1541642E-1,-4.4180351E-1,2.1066906E-2,4.388004E-1,-3.236926E-1,1.572849E-1,-3.2746324E-1,1.11580305E-1,-5.420546E-2,-4.0793905E-1,-2.2933705E-2,8.600494E-3,7.419037E-2,-9.2106825E-4,-2.9124473E-3,-4.3401428E-2,2.3007793E-2,-2.1888949E-2,-1.1828885E-3,-4.3951865E-2,5.3073257E-2,-1.7429741E-2,-3.7067845E-2,-5.4118853E-2],"categories":[],"categories_nodes":[],"categories_segments":[],"categories_sizes":[],"default_left":[0,0,0,0,0,0,0,0,0,0,0,0,0,0,0,0,0,0,0,0,0,0,0,0,0,0,0,0,0],"id":38,"left_children":[1,3,5,7,9,11,13,15,17,19,21,23,25,-1,27,-1,-1,-1,-1,-1,-1,-1,-1,-1,-1,-1,-1,-1,-1],"loss_changes":[1.5881892E2,1.3786421E2,6.713844E1,2.9682303E2,3.2727014E2,1.3360822E2,2.5491333E0,1.2049553E2,2.998392E2,9.062216E1,7.8666565E1,5.0748657E1,1.6077954E2,0E0,2.8478775E0,0E0,0E0,0E0,0E0,0E0,0E0,0E0,0E0,0E0,0E0,0E0,0E0,0E0,0E0],"parents":[2147483647,0,0,1,1,2,2,3,3,4,4,5,5,6,6,7,7,8,8,9,9,10,10,11,11,12,12,14,14],"right_children":[2,4,6,8,10,12,14,16,18,20,22,24,26,-1,28,-1,-1,-1,-1,-1,-1,-1,-1,-1,-1,-1,-1,-1,-1],"split_conditions":[7E0,1.8E1,2E1,1.5E1,4E0,1.3E1,2.1E1,4E0,5E0,2E1,2.3E1,4E0,1.6E1,-5.420546E-2,2.3E1,-2.2933705E-2,8.600494E-3,7.419037E-2,-9.2106825E-4,-2.9124473E-3,-4.3401428E-2,2.3007793E-2,-2.1888949E-2,-1.1828885E-3,-4.3951865E-2,5.3073257E-2,-1.7429741E-2,-3.7067845E-2,-5.4118853E-2],"split_indices":[0,1,1,1,0,1,1,1,0,1,1,1,1,0,1,0,0,0,0,0,0,0,0,0,0,0,0,0,0],"split_type":[0,0,0,0,0,0,0,0,0,0,0,0,0,0,0,0,0,0,0,0,0,0,0,0,0,0,0,0,0],"sum_hessian":[1.8862E4,1.5273E4,3.589E3,9.615E3,5.658E3,2.774E3,8.15E2,7.408E3,2.207E3,2.788E3,2.87E3,1.434E3,1.34E3,2.02E2,6.13E2,1.525E3,5.883E3,1.316E3,8.91E2,7.6E2,2.028E3,2.405E3,4.65E2,3.76E2,1.058E3,5.43E2,7.97E2,4.82E2,1.31E2],"tree_param":{"num_deleted":"0","num_feature":"2","num_nodes":"29","size_leaf_vector":"1"}},{"base_weights":[-3.4376507E-4,3.9700437E-2,-1.7071557E-1,1.1247867E-1,-6.120158E-2,-1.03878535E-1,-3.9780143E-1,1.8958494E-2,5.850425E-1,-4.2485243E-1,1.4339032E-2,-2.9474857E-1,1.0044836E-1,-4.881158E-2,-3.672939E-1,-1.6334781E-2,9.2063565E-3,8.440726E-2,-1.8731557E-2,-1.4040383E-2,-4.840235E-2,-8.632349E-3,1.4342181E-2,2.284501E-2,-3.505927E-2,6.829022E-2,-7.829885E-3,-2.8941715E-2,-4.2367395E-2],"categories":[],"categories_nodes":[],"categories_segments":[],"categories_sizes":[],"default_left":[0,0,0,0,0,0,0,0,0,0,0,0,0,0,0,0,0,0,0,0,0,0,0,0,0,0,0,0,0],"id":39,"left_children":[1,3,5,7,9,11,13,15,17,19,21,23,25,-1,27,-1,-1,-1,-1,-1,-1,-1,-1,-1,-1,-1,-1,-1,-1],"loss_changes":[1.2869775E2,1.1217107E2,5.4446785E1,3.921687E2,1.7584416E2,1.0825428E2,2.0690155E0,9.875859E1,2.9345197E2,1.846312E1,6.88925E1,4.200733E1,1.3966763E2,0E0,2.5732803E0,0E0,0E0,0E0,0E0,0E0,0E0,0E0,0E0,0E0,0E0,0E0,0E0,0E0,0E0],"parents":[2147483647,0,0,1,1,2,2,3,3,4,4,5,5,6,6,7,7,8,8,9,9,10,10,11,11,12,12,14,14],"right_children":[2,4,6,8,10,12,14,16,18,20,22,24,26,-1,28,-1,-1,-1,-1,-1,-1,-1,-1,-1,-1,-1,-1,-1,-1],"split_conditions":[7E0,1.7E1,2E1,1.5E1,2E0,1.3E1,2.1E1,5E0,6E0,1.8E1,5E0,1E0,1.5E1,-4.881158E-2,2.2E1,-1.6334781E-2,9.2063565E-3,8.440726E-2,-1.8731557E-2,-1.4040383E-2,-4.840235E-2,-8.632349E-3,1.4342181E-2,2.284501E-2,-3.505927E-2,6.829022E-2,-7.829885E-3,-2.8941715E-2,-4.2367395E-2],"split_indices":[0,1,1,1,0,1,1,1,0,1,0,1,1,0,1,0,0,0,0,0,0,0,0,0,0,0,0,0,0],"split_type":[0,0,0,0,0,0,0,0,0,0,0,0,0,0,0,0,0,0,0,0,0,0,0,0,0,0,0,0,0],"sum_hessian":[1.8862E4,1.5273E4,3.589E3,8.873E3,6.4E3,2.774E3,8.15E2,7.408E3,1.465E3,1.1E3,5.3E3,1.434E3,1.34E3,2.02E2,6.13E2,2.12E3,5.288E3,1.097E3,3.68E2,1.9E2,9.1E2,2.978E3,2.322E3,1.38E2,1.296E3,3.14E2,1.026E3,2.6E2,3.53E2],"tree_param":{"num_deleted":"0","num_feature":"2","num_nodes":"29","size_leaf_vector":"1"}},{"base_weights":[-3.1320777E-4,3.57304E-2,-1.5366411E-1,9.500623E-2,-6.499979E-2,-9.3473464E-2,-3.581682E-1,-5.91877E-2,2.3689617E-1,-2.1808416E-1,2.0772545E-1,-2.6528227E-1,9.0448335E-2,-4.395443E-2,-3.3068043E-1,4.9400846E-3,-2.4589946E-2,4.547402E-2,6.812399E-3,9.395573E-3,-3.4966722E-2,-6.678807E-2,3.624814E-2,-5.065623E-3,-3.8830724E-2,6.1482824E-2,-7.04768E-3,-2.9863471E-2,-4.454335E-2],"categories":[],"categories_nodes":[],"categories_segments":[],"categories_sizes":[],"default_left":[0,0,0,0,0,0,0,0,0,0,0,0,0,0,0,0,0,0,0,0,0,0,0,0,0,0,0,0,0],"id":40,"left_children":[1,3,5,7,9,11,13,15,17,19,21,23,25,-1,27,-1,-1,-1,-1,-1,-1,-1,-1,-1,-1,-1,-1,-1,-1],"loss_changes":[1.0426731E2,9.120517E1,4.4156677E1,2.1039832E2,2.3630838E2,8.7712296E1,1.6799164E0,9.345851E1,1.840932E2,1.4887238E2,2.7599527E2,3.7870575E1,1.13204834E2,0E0,2.1248627E0,0E0,0E0,0E0,0E0,0E0,0E0,0E0,0E0,0E0,0E0,0E0,0E0,0E0,0E0],"parents":[2147483647,0,0,1,1,2,2,3,3,4,4,5,5,6,6,7,7,8,8,9,9,10,10,11,11,12,12,14,14],"right_children":[2,4,6,8,10,12,14,16,18,20,22,24,26,-1,28,-1,-1,-1,-1,-1,-1,-1,-1,-1,-1,-1,-1,-1,-1],"split_conditions":[7E0,1.8E1,2E1,1E1,5E0,1.3E1,2.1E1,5E0,4E0,2E1,1.9E1,5E0,1.5E1,-4.395443E-2,2.3E1,4.9400846E-3,-2.4589946E-2,4.547402E-2,6.812399E-3,9.395573E-3,-3.4966722E-2,-6.678807E-2,3.624814E-2,-5.065623E-3,-3.8830724E-2,6.1482824E-2,-7.04768E-3,-2.9863471E-2,-4.454335E-2],"split_indices":[0,1,1,1,0,1,1,0,0,1,1,1,1,0,1,0,0,0,0,0,0,0,0,0,0,0,0,0,0],"split_type":[0,0,0,0,0,0,0,0,0,0,0,0,0,0,0,0,0,0,0,0,0,0,0,0,0,0,0,0,0],"sum_hessian":[1.8862E4,1.5273E4,3.589E3,9.615E3,5.658E3,2.774E3,8.15E2,4.608E3,5.007E3,3.624E3,2.034E3,1.434E3,1.34E3,2.02E2,6.13E2,2.914E3,1.694E3,2.185E3,2.822E3,1.075E3,2.549E3,3.05E2,1.729E3,5.23E2,9.11E2,3.14E2,1.026E3,4.82E2,1.31E2],"tree_param":{"num_deleted":"0","num_feature":"2","num_nodes":"29","size_leaf_vector":"1"}},{"base_weights":[-2.8891562E-4,2.5403932E-2,-1.8624218E-1,-9.4698094E-2,8.609072E-2,-3.3037773E-1,-1.985066E-2,4.446251E-2,-2.4773902E-1,2.0458177E-1,-3.1302083E-2,-4.2344964E-1,-2.1729374E-1,2.637469E-1,-3.3667365E-1,1.40307415E-2,-6.583446E-2,-2.3078518E-3,-4.4922546E-2,4.2303935E-2,9.9371625E-3,-3.911814E-2,2.820436E-3,-4.0508635E-2,-4.696001E-2,-3.9110895E-2,-6.0598756E-4,6.406581E-2,-3.1209856E-2,-9.1728814E-2,6.8959844E-4],"categories":[],"categories_nodes":[],"categories_segments":[],"categories_sizes":[],"default_left":[0,0,0,0,0,0,0,0,0,0,0,0,0,0,0,0,0,0,0,0,0,0,0,0,0,0,0,0,0,0,0],"id":41,"left_children":[1,3,5,7,9,11,13,15,17,19,21,23,25,27,29,-1,-1,-1,-1,-1,-1,-1,-1,-1,-1,-1,-1,-1,-1,-1,-1],"loss_changes":[9.012589E1,1.2080952E2,5.4914368E1,1.1850902E2,1.5316937E2,1.28220825E1,9.568944E1,1.9644817E2,1.1994466E2,1.2591E2,1.1847958E2,3.7927246E-1,2.0411537E1,1.2217786E2,1.00345535E2,0E0,0E0,0E0,0E0,0E0,0E0,0E0,0E0,0E0,0E0,0E0,0E0,0E0,0E0,0E0,0E0],"parents":[2147483647,0,0,1,1,2,2,3,3,4,4,5,5,6,6,7,7,8,8,9,9,10,10,11,11,12,12,13,13,14,14],"right_children":[2,4,6,8,10,12,14,16,18,20,22,24,26,28,30,-1,-1,-1,-1,-1,-1,-1,-1,-1,-1,-1,-1,-1,-1,-1,-1],"split_conditions":[2.2E1,1E1,5E0,5E0,1.7E1,2.3E1,2.3E1,9E0,5E0,4E0,2E0,4E0,3E0,7E0,6E0,1.40307415E-2,-6.583446E-2,-2.3078518E-3,-4.4922546E-2,4.2303935E-2,9.9371625E-3,-3.911814E-2,2.820436E-3,-4.0508635E-2,-4.696001E-2,-3.9110895E-2,-6.0598756E-4,6.406581E-2,-3.1209856E-2,-9.1728814E-2,6.8959844E-4],"split_indices":[1,1,0,0,1,1,1,1,1,0,0,0,0,0,0,0,0,0,0,0,0,0,0,0,0,0,0,0,0,0,0],"split_type":[0,0,0,0,0,0,0,0,0,0,0,0,0,0,0,0,0,0,0,0,0,0,0,0,0,0,0,0,0,0,0],"sum_hessian":[1.8862E4,1.6573E4,2.289E3,5.563E3,1.101E4,1.226E3,1.063E3,2.914E3,2.649E3,5.479E3,5.531E3,6.71E2,5.55E2,5.61E2,5.02E2,2.565E3,3.49E2,1.253E3,1.396E3,1.78E3,3.699E3,7.84E2,4.747E3,4.87E2,1.84E2,3.04E2,2.51E2,3.39E2,2.22E2,1.86E2,3.16E2],"tree_param":{"num_deleted":"0","num_feature":"2","num_nodes":"31","size_leaf_vector":"1"}},{"base_weights":[-2.741838E-4,3.1363524E-2,-1.3487978E-1,-2.0439899E-1,5.578749E-2,-3.451266E-1,-8.2380876E-2,-2.9243624E-1,-1.4940977E-2,1.4149402E-1,-4.3852884E-2,-4.329699E-2,-1.1585988E0,1.09203026E-1,-2.3222372E-1,-1.780544E-2,-3.4344163E-2,1.0286087E-2,-3.5714343E-2,5.809724E-3,4.8135597E-2,-3.3337276E-2,1.6287694E-3,2.130898E-2,-1.3551064E-2,-1.3849606E-1,-4.96742E-2,-1.1566774E-2,6.414058E-2,-5.9775114E-2,-1.824144E-2],"categories":[],"categories_nodes":[],"categories_segments":[],"categories_sizes":[],"default_left":[0,0,0,0,0,0,0,0,0,0,0,0,0,0,0,0,0,0,0,0,0,0,0,0,0,0,0,0,0,0,0],"id":42,"left_children":[1,3,5,7,9,11,13,15,17,19,21,23,25,27,29,-1,-1,-1,-1,-1,-1,-1,-1,-1,-1,-1,-1,-1,-1,-1,-1],"loss_changes":[8.033444E1,8.796299E1,3.9597015E1,2.3913834E1,1.1820599E2,1.7599484E2,8.253064E1,5.650421E0,1.8419044E1,2.1087518E2,1.1145895E2,1.2417474E1,2.8376923E1,1.5110637E2,2.9258316E1,0E0,0E0,0E0,0E0,0E0,0E0,0E0,0E0,0E0,0E0,0E0,0E0,0E0,0E0,0E0,0E0],"parents":[2147483647,0,0,1,1,2,2,3,3,4,4,5,5,6,6,7,7,8,8,9,9,10,10,11,11,12,12,13,13,14,14],"right_children":[2,4,6,8,10,12,14,16,18,20,22,24,26,28,30,-1,-1,-1,-1,-1,-1,-1,-1,-1,-1,-1,-1,-1,-1,-1,-1],"split_conditions":[7E0,3E0,8E0,5E0,1.7E1,5E0,1.6E1,1E0,2E0,1.5E1,2E0,1E0,7E0,1.4E1,1.7E1,-1.780544E-2,-3.4344163E-2,1.0286087E-2,-3.5714343E-2,5.809724E-3,4.8135597E-2,-3.3337276E-2,1.6287694E-3,2.130898E-2,-1.3551064E-2,-1.3849606E-1,-4.96742E-2,-1.1566774E-2,6.414058E-2,-5.9775114E-2,-1.824144E-2],"split_indices":[0,1,1,0,1,1,1,1,1,1,0,1,1,1,1,0,0,0,0,0,0,0,0,0,0,0,0,0,0,0,0],"split_type":[0,0,0,0,0,0,0,0,0,0,0,0,0,0,0,0,0,0,0,0,0,0,0,0,0,0,0,0,0,0,0],"sum_hessian":[1.8862E4,1.5273E4,3.589E3,1.433E3,1.384E4,7.16E2,2.873E3,9.78E2,4.55E2,7.44E3,6.4E3,5.23E2,1.93E2,1.261E3,1.612E3,3.03E2,6.75E2,3.39E2,1.16E2,5.975E3,1.465E3,1.1E3,5.3E3,1.38E2,3.85E2,1.43E2,5E1,8.87E2,3.74E2,1.92E2,1.42E3],"tree_param":{"num_deleted":"0","num_feature":"2","num_nodes":"31","size_leaf_vector":"1"}},{"base_weights":[-2.60657E-4,2.2009082E-2,-1.61439E-1,-7.8395456E-2,7.274279E-2,-2.9006597E-1,-1.2955231E-2,4.5943584E-2,-2.1513881E-1,5.927827E-1,5.1143408E-2,-3.7469205E-1,-1.872624E-1,2.4365377E-1,-2.9963776E-1,-2.077787E-2,2.7734146E-2,-1.9708027E-3,-3.9041087E-2,-1.0466733E-1,1.06083505E-1,1.3030857E-2,-2.1018896E-3,-3.5503678E-2,-4.2451415E-2,-3.355215E-2,-7.0787064E-4,5.7515647E-2,-2.628689E-2,-8.2766965E-2,1.2796327E-3],"categories":[],"categories_nodes":[],"categories_segments":[],"categories_sizes":[],"default_left":[0,0,0,0,0,0,0,0,0,0,0,0,0,0,0,0,0,0,0,0,0,0,0,0,0,0,0,0,0,0,0],"id":43,"left_children":[1,3,5,7,9,11,13,15,17,19,21,23,25,27,29,-1,-1,-1,-1,-1,-1,-1,-1,-1,-1,-1,-1,-1,-1,-1,-1],"loss_changes":[6.77104E1,8.44319E1,4.3732994E1,9.4612E1,1.2365117E2,1.0604561E1,7.8346504E1,1.7119958E2,9.076422E1,3.379775E2,6.040354E1,5.0735474E-1,1.4850536E1,9.451865E1,8.29931E1,0E0,0E0,0E0,0E0,0E0,0E0,0E0,0E0,0E0,0E0,0E0,0E0,0E0,0E0,0E0,0E0],"parents":[2147483647,0,0,1,1,2,2,3,3,4,4,5,5,6,6,7,7,8,8,9,9,10,10,11,11,12,12,13,13,14,14],"right_children":[2,4,6,8,10,12,14,16,18,20,22,24,26,28,30,-1,-1,-1,-1,-1,-1,-1,-1,-1,-1,-1,-1,-1,-1,-1,-1],"split_conditions":[2.2E1,1E1,5E0,5E0,1.1E1,2.3E1,2.3E1,5E0,5E0,2E0,1.7E1,4E0,3E0,7E0,6E0,-2.077787E-2,2.7734146E-2,-1.9708027E-3,-3.9041087E-2,-1.0466733E-1,1.06083505E-1,1.3030857E-2,-2.1018896E-3,-3.5503678E-2,-4.2451415E-2,-3.355215E-2,-7.0787064E-4,5.7515647E-2,-2.628689E-2,-8.2766965E-2,1.2796327E-3],"split_indices":[1,1,0,0,1,1,1,1,1,0,1,0,0,0,0,0,0,0,0,0,0,0,0,0,0,0,0,0,0,0,0],"split_type":[0,0,0,0,0,0,0,0,0,0,0,0,0,0,0,0,0,0,0,0,0,0,0,0,0,0,0,0,0,0,0],"sum_hessian":[1.8862E4,1.6573E4,2.289E3,5.563E3,1.101E4,1.226E3,1.063E3,2.914E3,2.649E3,4.38E2,1.0572E4,6.71E2,5.55E2,5.61E2,5.02E2,1.39E3,1.524E3,1.253E3,1.396E3,9.7E1,3.41E2,5.041E3,5.531E3,4.87E2,1.84E2,3.04E2,2.51E2,3.39E2,2.22E2,1.86E2,3.16E2],"tree_param":{"num_deleted":"0","num_feature":"2","num_nodes":"31","size_leaf_vector":"1"}},{"base_weights":[-2.4440722E-4,2.8241508E-2,-1.214404E-1,-1.6921714E-1,4.8697215E-2,-7.202001E-2,-2.8935727E-1,-2.4248917E-1,-1.1536139E-2,1.1909163E-1,-3.3142112E-2,-1.9691281E-1,9.896982E-2,-3.7836857E-2,-2.5945717E-1,-1.2420409E-2,-2.9040653E-2,9.457011E-3,-3.197805E-2,4.519783E-3,4.2023096E-2,-2.886608E-2,1.993452E-3,1.9389085E-2,-2.3383288E-2,1.2563072E-1,-6.5655517E-3,-2.2458863E-2,-3.8507886E-2],"categories":[],"categories_nodes":[],"categories_segments":[],"categories_sizes":[],"default_left":[0,0,0,0,0,0,0,0,0,0,0,0,0,0,0,0,0,0,0,0,0,0,0,0,0,0,0,0,0],"id":44,"left_children":[1,3,5,7,9,11,13,15,17,19,21,23,25,-1,27,-1,-1,-1,-1,-1,-1,-1,-1,-1,-1,-1,-1,-1,-1],"loss_changes":[6.512565E1,6.1702316E1,2.9770847E1,1.6565071E1,7.9742386E1,5.928072E1,2.0735626E0,5.5128136E0,1.4944474E1,1.6556061E2,8.681658E1,2.3188637E1,2.2338019E2,0E0,2.6029892E0,0E0,0E0,0E0,0E0,0E0,0E0,0E0,0E0,0E0,0E0,0E0,0E0,0E0,0E0],"parents":[2147483647,0,0,1,1,2,2,3,3,4,4,5,5,6,6,7,7,8,8,9,9,10,10,11,11,12,12,14,14],"right_children":[2,4,6,8,10,12,14,16,18,20,22,24,26,-1,28,-1,-1,-1,-1,-1,-1,-1,-1,-1,-1,-1,-1,-1,-1],"split_conditions":[7E0,3E0,2E1,5E0,1.7E1,1.4E1,2.1E1,2E0,2E0,1.5E1,2E0,1E0,1.5E1,-3.7836857E-2,2.3E1,-1.2420409E-2,-2.9040653E-2,9.457011E-3,-3.197805E-2,4.519783E-3,4.2023096E-2,-2.886608E-2,1.993452E-3,1.9389085E-2,-2.3383288E-2,1.2563072E-1,-6.5655517E-3,-2.2458863E-2,-3.8507886E-2],"split_indices":[0,1,1,0,1,1,1,0,1,1,0,1,1,0,1,0,0,0,0,0,0,0,0,0,0,0,0,0,0],"split_type":[0,0,0,0,0,0,0,0,0,0,0,0,0,0,0,0,0,0,0,0,0,0,0,0,0,0,0,0,0],"sum_hessian":[1.8862E4,1.5273E4,3.589E3,1.433E3,1.384E4,2.774E3,8.15E2,9.78E2,4.55E2,7.44E3,6.4E3,1.603E3,1.171E3,2.02E2,6.13E2,2.83E2,6.95E2,3.39E2,1.16E2,5.975E3,1.465E3,1.1E3,5.3E3,1.38E2,1.465E3,1.45E2,1.026E3,4.82E2,1.31E2],"tree_param":{"num_deleted":"0","num_feature":"2","num_nodes":"29","size_leaf_vector":"1"}},{"base_weights":[-2.2153632E-4,2.5414357E-2,-1.09291844E-1,-1.5234005E-1,4.3828808E-2,-2.8380078E-1,-6.571767E-2,-2.182826E-1,-1.0431964E-2,1.07188396E-1,-2.9831951E-2,-2.4911266E-2,-9.816064E-1,9.046764E-2,-1.8787523E-1,-1.118557E-2,-2.6582032E-2,8.514082E-3,-2.8807566E-2,4.0678303E-3,3.7823692E-2,-2.5982115E-2,1.7941667E-3,1.7464122E-2,-9.67063E-3,-1.18543565E-1,-3.8684137E-2,-9.09705E-3,5.198719E-2,-5.4471888E-2,-1.3927656E-2],"categories":[],"categories_nodes":[],"categories_segments":[],"categories_sizes":[],"default_left":[0,0,0,0,0,0,0,0,0,0,0,0,0,0,0,0,0,0,0,0,0,0,0,0,0,0,0,0,0,0,0],"id":45,"left_children":[1,3,5,7,9,11,13,15,17,19,21,23,25,27,29,-1,-1,-1,-1,-1,-1,-1,-1,-1,-1,-1,-1,-1,-1,-1,-1],"loss_changes":[5.2745895E1,5.0002296E1,2.7280003E1,1.3416779E1,6.460074E1,1.2950487E2,5.485066E1,4.923313E0,1.212457E1,1.3412697E2,7.033511E1,7.524172E0,2.306015E1,9.83701E1,2.789698E1,0E0,0E0,0E0,0E0,0E0,0E0,0E0,0E0,0E0,0E0,0E0,0E0,0E0,0E0,0E0,0E0],"parents":[2147483647,0,0,1,1,2,2,3,3,4,4,5,5,6,6,7,7,8,8,9,9,10,10,11,11,12,12,13,13,14,14],"right_children":[2,4,6,8,10,12,14,16,18,20,22,24,26,28,30,-1,-1,-1,-1,-1,-1,-1,-1,-1,-1,-1,-1,-1,-1,-1,-1],"split_conditions":[7E0,3E0,8E0,5E0,1.7E1,5E0,1.6E1,1E0,2E0,1.5E1,2E0,1E0,7E0,1.4E1,1.7E1,-1.118557E-2,-2.6582032E-2,8.514082E-3,-2.8807566E-2,4.0678303E-3,3.7823692E-2,-2.5982115E-2,1.7941667E-3,1.7464122E-2,-9.67063E-3,-1.18543565E-1,-3.8684137E-2,-9.09705E-3,5.198719E-2,-5.4471888E-2,-1.3927656E-2],"split_indices":[0,1,1,0,1,1,1,1,1,1,0,1,1,1,1,0,0,0,0,0,0,0,0,0,0,0,0,0,0,0,0],"split_type":[0,0,0,0,0,0,0,0,0,0,0,0,0,0,0,0,0,0,0,0,0,0,0,0,0,0,0,0,0,0,0],"sum_hessian":[1.8862E4,1.5273E4,3.589E3,1.433E3,1.384E4,7.16E2,2.873E3,9.78E2,4.55E2,7.44E3,6.4E3,5.23E2,1.93E2,1.261E3,1.612E3,3.03E2,6.75E2,3.39E2,1.16E2,5.975E3,1.465E3,1.1E3,5.3E3,1.38E2,3.85E2,1.43E2,5E1,8.87E2,3.74E2,1.92E2,1.42E3],"tree_param":{"num_deleted":"0","num_feature":"2","num_nodes":"31","size_leaf_vector":"1"}},{"base_weights":[-2.1105199E-4,1.19511355E-2,-2.0489885E-1,3.6390997E-2,-8.942935E-2,-3.0539542E-1,3.0979266E-2,-1.0509809E-1,6.092992E-2,-2.5562906E-1,-4.595337E-2,-1.5561038E-1,-7.491125E-2,2.8914947E-2,-3.330407E-2,5.0580567E-3,-1.4064411E-2,-1.169319E-2,9.34784E-3,-2.2405179E-3,-8.842563E-2,8.145456E-3,-1.5441685E-2,-2.7528701E-2,-1.0146195E-3],"categories":[],"categories_nodes":[],"categories_segments":[],"categories_sizes":[],"default_left":[0,0,0,0,0,0,0,0,0,0,0,0,0,0,0,0,0,0,0,0,0,0,0,0,0],"id":46,"left_children":[1,3,5,7,9,11,13,15,17,19,21,23,-1,-1,-1,-1,-1,-1,-1,-1,-1,-1,-1,-1,-1],"loss_changes":[4.696097E1,4.4121628E1,2.5089287E1,4.9822517E1,2.4981932E1,4.9198364E1,2.9887672E1,1.1744213E1,7.080043E1,1.0510018E2,3.791839E1,9.676423E0,0E0,0E0,0E0,0E0,0E0,0E0,0E0,0E0,0E0,0E0,0E0,0E0,0E0],"parents":[2147483647,0,0,1,1,2,2,3,3,4,4,5,5,6,6,7,7,8,8,9,9,10,10,11,11],"right_children":[2,4,6,8,10,12,14,16,18,20,22,24,-1,-1,-1,-1,-1,-1,-1,-1,-1,-1,-1,-1,-1],"split_conditions":[2.3E1,7E0,6E0,5E0,8E0,5E0,7E0,2E0,2E0,5E0,1.6E1,3E0,-7.491125E-2,2.8914947E-2,-3.330407E-2,5.0580567E-3,-1.4064411E-2,-1.169319E-2,9.34784E-3,-2.2405179E-3,-8.842563E-2,8.145456E-3,-1.5441685E-2,-2.7528701E-2,-1.0146195E-3],"split_indices":[1,0,0,1,1,0,0,0,0,1,1,0,0,0,0,0,0,0,0,0,0,0,0,0,0],"split_type":[0,0,0,0,0,0,0,0,0,0,0,0,0,0,0,0,0,0,0,0,0,0,0,0,0],"sum_hessian":[1.8862E4,1.7805E4,1.057E3,1.4347E4,3.458E3,7.41E2,3.16E2,2.12E3,1.2227E4,7.16E2,2.742E3,5.55E2,1.86E2,1.85E2,1.31E2,3.94E2,1.726E3,1.891E3,1.0336E4,5.23E2,1.93E2,1.261E3,1.481E3,3.04E2,2.51E2],"tree_param":{"num_deleted":"0","num_feature":"2","num_nodes":"25","size_leaf_vector":"1"}},{"base_weights":[-2.0146724E-4,1.7140364E-2,-1.2571383E-1,-5.5962015E-2,5.4078378E-2,-2.4522607E-1,1.2225306E-2,5.320994E-2,-1.7603004E-1,5.305645E-1,3.4289155E-2,-3.3183998E-1,-1.4010061E-1,2.318939E-1,-2.3323388E-1,1.47521645E-2,-6.3838154E-2,-3.6426893E-4,-3.3064544E-2,-9.400003E-2,9.504031E-2,-1.7808905E-2,5.9119444E-3,-2.2891948E-2,-3.6277123E-2,-2.478485E-2,-9.135511E-4,5.0471324E-2,-1.8510373E-2,-6.74602E-2,2.7867286E-3],"categories":[],"categories_nodes":[],"categories_segments":[],"categories_sizes":[],"default_left":[0,0,0,0,0,0,0,0,0,0,0,0,0,0,0,0,0,0,0,0,0,0,0,0,0,0,0,0,0,0,0],"id":47,"left_children":[1,3,5,7,9,11,13,15,17,19,21,23,25,27,29,-1,-1,-1,-1,-1,-1,-1,-1,-1,-1,-1,-1,-1,-1,-1,-1],"loss_changes":[4.1059628E1,4.475708E1,3.77546E1,7.294262E1,1.0380774E2,1.112574E1,5.7424618E1,1.9022554E2,7.0631195E1,2.7193182E2,5.5766315E1,2.056244E0,7.843567E0,6.4029366E1,5.798539E1,0E0,0E0,0E0,0E0,0E0,0E0,0E0,0E0,0E0,0E0,0E0,0E0,0E0,0E0,0E0,0E0],"parents":[2147483647,0,0,1,1,2,2,3,3,4,4,5,5,6,6,7,7,8,8,9,9,10,10,11,11,12,12,13,13,14,14],"right_children":[2,4,6,8,10,12,14,16,18,20,22,24,26,28,30,-1,-1,-1,-1,-1,-1,-1,-1,-1,-1,-1,-1,-1,-1,-1,-1],"split_conditions":[2.2E1,1E1,5E0,5E0,1.1E1,2.3E1,2.3E1,9E0,5E0,2E0,1.2E1,2E0,3E0,7E0,6E0,1.47521645E-2,-6.3838154E-2,-3.6426893E-4,-3.3064544E-2,-9.400003E-2,9.504031E-2,-1.7808905E-2,5.9119444E-3,-2.2891948E-2,-3.6277123E-2,-2.478485E-2,-9.135511E-4,5.0471324E-2,-1.8510373E-2,-6.74602E-2,2.7867286E-3],"split_indices":[1,1,0,0,1,1,1,1,1,0,1,0,0,0,0,0,0,0,0,0,0,0,0,0,0,0,0,0,0,0,0],"split_type":[0,0,0,0,0,0,0,0,0,0,0,0,0,0,0,0,0,0,0,0,0,0,0,0,0,0,0,0,0,0,0],"sum_hessian":[1.8862E4,1.6573E4,2.289E3,5.563E3,1.101E4,1.226E3,1.063E3,2.914E3,2.649E3,4.38E2,1.0572E4,6.71E2,5.55E2,5.61E2,5.02E2,2.565E3,3.49E2,1.253E3,1.396E3,9.7E1,3.41E2,1.106E3,9.466E3,1.57E2,5.14E2,3.04E2,2.51E2,3.39E2,2.22E2,1.86E2,3.16E2],"tree_param":{"num_deleted":"0","num_feature":"2","num_nodes":"31","size_leaf_vector":"1"}},{"base_weights":[-1.9268075E-4,2.0497425E-2,-8.822067E-2,-1.3681127E-1,3.6793947E-2,-4.7350805E-2,-2.2710013E-1,-2.0270771E-1,4.9637565E-3,9.3640186E-2,-2.929411E-2,-1.4818518E-1,9.0691596E-2,-3.1737596E-2,-1.9688338E-1,-1.6772138E-2,-3.347993E-2,9.1038E-3,-2.4520895E-2,2.3672642E-2,-1.7861521E-3,-9.708078E-3,8.97464E-3,-7.7562244E-3,-2.8642133E-2,1.0659429E-1,-4.8040035E-3,-1.6754208E-2,-3.0275432E-2],"categories":[],"categories_nodes":[],"categories_segments":[],"categories_sizes":[],"default_left":[0,0,0,0,0,0,0,0,0,0,0,0,0,0,0,0,0,0,0,0,0,0,0,0,0,0,0,0,0],"id":48,"left_children":[1,3,5,7,9,11,13,15,17,19,21,23,25,-1,27,-1,-1,-1,-1,-1,-1,-1,-1,-1,-1,-1,-1,-1,-1],"loss_changes":[3.4357147E1,3.916123E1,2.0366034E1,1.3398106E1,5.200141E1,3.8639828E1,2.163433E0,4.468197E0,9.841567E0,1.1872061E2,5.166067E1,1.563707E1,1.5862071E2,0E0,1.8565998E0,0E0,0E0,0E0,0E0,0E0,0E0,0E0,0E0,0E0,0E0,0E0,0E0,0E0,0E0],"parents":[2147483647,0,0,1,1,2,2,3,3,4,4,5,5,6,6,7,7,8,8,9,9,10,10,11,11,12,12,14,14],"right_children":[2,4,6,8,10,12,14,16,18,20,22,24,26,-1,28,-1,-1,-1,-1,-1,-1,-1,-1,-1,-1,-1,-1,-1,-1],"split_conditions":[7E0,3E0,2E1,5E0,1.7E1,1.4E1,2.1E1,2E0,2E0,4E0,5E0,1.1E1,1.5E1,-3.1737596E-2,2.3E1,-1.6772138E-2,-3.347993E-2,9.1038E-3,-2.4520895E-2,2.3672642E-2,-1.7861521E-3,-9.708078E-3,8.97464E-3,-7.7562244E-3,-2.8642133E-2,1.0659429E-1,-4.8040035E-3,-1.6754208E-2,-3.0275432E-2],"split_indices":[0,1,1,0,1,1,1,1,1,0,0,1,1,0,1,0,0,0,0,0,0,0,0,0,0,0,0,0,0],"split_type":[0,0,0,0,0,0,0,0,0,0,0,0,0,0,0,0,0,0,0,0,0,0,0,0,0,0,0,0,0],"sum_hessian":[1.8862E4,1.5273E4,3.589E3,1.433E3,1.384E4,2.774E3,8.15E2,9.78E2,4.55E2,7.44E3,6.4E3,1.603E3,1.171E3,2.02E2,6.13E2,7.75E2,2.03E2,3.39E2,1.16E2,3.258E3,4.182E3,4.078E3,2.322E3,1.062E3,5.41E2,1.45E2,1.026E3,4.82E2,1.31E2],"tree_param":{"num_deleted":"0","num_feature":"2","num_nodes":"29","size_leaf_vector":"1"}},{"base_weights":[-1.7652112E-4,1.4641531E-2,-1.074229E-1,-5.1278643E-2,4.7950514E-2,-2.110724E-1,1.2206197E-2,4.294108E-2,-1.5490098E-1,4.6810573E-1,3.0500775E-2,-2.8905034E-1,-1.1644608E-1,2.0996569E-1,-2.08774E-1,1.2946047E-2,-5.9149235E-2,-2.16506E-2,2.6713235E-2,-8.7039016E-2,8.502826E-2,-1.6068911E-2,5.2853865E-3,-1.965257E-2,-3.1687528E-2,-2.1346858E-2,1.4440503E-4,4.4544164E-2,-1.4999746E-2,-6.164297E-2,3.236288E-3],"categories":[],"categories_nodes":[],"categories_segments":[],"categories_sizes":[],"default_left":[0,0,0,0,0,0,0,0,0,0,0,0,0,0,0,0,0,0,0,0,0,0,0,0,0,0,0,0,0,0,0],"id":49,"left_children":[1,3,5,7,9,11,13,15,17,19,21,23,25,27,29,-1,-1,-1,-1,-1,-1,-1,-1,-1,-1,-1,-1,-1,-1,-1,-1],"loss_changes":[2.9978321E1,3.6394554E1,2.8397425E1,5.432948E1,8.071396E1,9.020088E0,4.6541626E1,1.6008324E2,6.895613E1,2.253071E2,4.519416E1,1.6677818E0,6.359833E0,4.7703438E1,4.9465263E1,0E0,0E0,0E0,0E0,0E0,0E0,0E0,0E0,0E0,0E0,0E0,0E0,0E0,0E0,0E0,0E0],"parents":[2147483647,0,0,1,1,2,2,3,3,4,4,5,5,6,6,7,7,8,8,9,9,10,10,11,11,12,12,13,13,14,14],"right_children":[2,4,6,8,10,12,14,16,18,20,22,24,26,28,30,-1,-1,-1,-1,-1,-1,-1,-1,-1,-1,-1,-1,-1,-1,-1,-1],"split_conditions":[2.2E1,1E1,5E0,5E0,1.1E1,2.3E1,2.3E1,9E0,9E0,2E0,1.2E1,2E0,3E0,7E0,6E0,1.2946047E-2,-5.9149235E-2,-2.16506E-2,2.6713235E-2,-8.7039016E-2,8.502826E-2,-1.6068911E-2,5.2853865E-3,-1.965257E-2,-3.1687528E-2,-2.1346858E-2,1.4440503E-4,4.4544164E-2,-1.4999746E-2,-6.164297E-2,3.236288E-3],"split_indices":[1,1,0,0,1,1,1,1,1,0,1,0,0,0,0,0,0,0,0,0,0,0,0,0,0,0,0,0,0,0,0],"split_type":[0,0,0,0,0,0,0,0,0,0,0,0,0,0,0,0,0,0,0,0,0,0,0,0,0,0,0,0,0,0,0],"sum_hessian":[1.8862E4,1.6573E4,2.289E3,5.563E3,1.101E4,1.226E3,1.063E3,2.914E3,2.649E3,4.38E2,1.0572E4,6.71E2,5.55E2,5.61E2,5.02E2,2.565E3,3.49E2,2.312E3,3.37E2,9.7E1,3.41E2,1.106E3,9.466E3,1.57E2,5.14E2,3.04E2,2.51E2,3.39E2,2.22E2,1.86E2,3.16E2],"tree_param":{"num_deleted":"0","num_feature":"2","num_nodes":"31","size_leaf_vector":"1"}}]},"name":"gbtree"},"learner_model_param":{"base_score":"[1.3729244E1]","boost_from_average":"1","num_class":"0","num_feature":"2","num_target":"1"},"objective":{"name":"reg:squarederror","reg_loss_param":{"scale_pos_weight":"1"}}},"version":[3,2,0]}